tree
version=v3
num_class=1
num_tree_per_iteration=1
label_index=0
max_feature_idx=3
objective=binary sigmoid:1
feature_names=hospital_stay admission_pre_t0_count classe_meds_qtde equipe_multiprof
feature_infos=[0:241] [0:38] [1:17] [0:365]
tree_sizes=956 971 974 976 972 975 976 977 980 983 983 970 983 979 978 980 985 984 980 979 976 998 980 992 974 984 989 976 985 880 979 995 981 883 985 978 982 995 881 986 976 988 999 979 990 984 980 979 981 988 877 986 986 884 992 984 986 982 987 979 993 982 985

Tree=0
num_leaves=8
num_cat=0
split_feature=0 1 1 0 1 2 2
split_gain=316.877 119.524 30.6315 21.0073 22.5141 14.9535 10.6467
threshold=9.5000000000000018 5.5000000000000009 1.0000000180025095e-35 2.5000000000000004 1.5000000000000002 6.5000000000000009 6.5000000000000009
decision_type=2 2 2 2 2 10 10
left_child=3 2 -2 6 -5 -3 -1
right_child=1 5 -4 4 -6 -7 -8
leaf_value=-2.7847702695519843 -2.7453031250632529 -2.5023627338124079 -2.718712319605793 -2.7747429345233123 -2.7439399933646293 -2.6242989672059847 -2.7635634133672338
leaf_weight=244.14691150188446 89.720654636621475 1.4453141391277307 46.250052452087402 194.3391627073288 18.288782760500908 1.3897251337766645 17.899659723043442
leaf_count=4392 1614 26 832 3496 329 25 322
internal_value=-2.76798 -2.7327 -2.73626 -2.77829 -2.77209 -2.56214 -2.78332
internal_weight=0 138.806 135.971 474.675 212.628 2.83504 262.047
internal_count=11036 2497 2446 8539 3825 51 4714
is_linear=0
shrinkage=1


Tree=1
num_leaves=8
num_cat=0
split_feature=0 1 0 0 1 2 2
split_gain=293.434 88.1166 28.6295 20.4436 21.0826 10.3426 7.97886
threshold=9.5000000000000018 5.5000000000000009 59.500000000000007 2.5000000000000004 1.5000000000000002 6.5000000000000009 6.5000000000000009
decision_type=2 2 2 2 2 10 10
left_child=3 2 -2 5 -5 -1 -3
right_child=1 6 -4 4 -6 -7 -8
leaf_value=-0.016595160898112256 0.027005880791404421 0.20473987005530939 0.077997144989815956 -0.0066264489447098477 0.022902225656314171 0.0042794091333121353 0.12314687323652988
leaf_weight=240.55419337749481 131.5844148285687 1.8190463483333581 8.2425817809998971 193.18257454037666 18.679977539926767 17.969440765678883 1.5755584463477132
leaf_count=4392 2302 26 144 3496 329 322 25
internal_value=0 0.0332555 0.0300117 -0.0101352 -0.0040229 -0.0151442 0.16687
internal_weight=0 143.222 139.827 470.386 211.863 258.524 3.3946
internal_count=11036 2497 2446 8539 3825 4714 51
is_linear=0
shrinkage=0.0265416


Tree=2
num_leaves=8
num_cat=0
split_feature=0 1 2 1 0 1 2
split_gain=272.28 71.8994 24.6283 20.615 19.8879 19.7589 10.0452
threshold=9.5000000000000018 2.5000000000000004 13.500000000000002 5.5000000000000009 2.5000000000000004 1.5000000000000002 6.5000000000000009
decision_type=2 2 10 2 2 2 10
left_child=4 2 -2 -3 6 -6 -1
right_child=1 3 -4 -5 5 -7 -8
leaf_value=-0.01639686488656155 0.024599811101224632 0.068734585982925173 0.17325568034802263 0.14078476448605101 -0.0064889411075253244 0.02184459498421765 0.0041499364931461271
leaf_weight=237.04863283038139 132.92881662771106 9.8421167396008951 0.78976179286837478 3.9083784669637671 192.05558905005455 19.059326697140932 18.037324130535126
leaf_count=4392 2268 165 13 51 3496 329 322
internal_value=0 0.0314207 0.0254778 0.0892138 -0.00995686 -0.00393101 -0.014944
internal_weight=0 147.469 133.719 13.7505 466.201 211.115 255.086
internal_count=11036 2497 2281 216 8539 3825 4714
is_linear=0
shrinkage=0.0265416


Tree=3
num_leaves=8
num_cat=0
split_feature=0 1 0 0 1 1 2
split_gain=253.075 59.9137 20.3122 19.3401 18.5328 15.227 9.75441
threshold=9.5000000000000018 2.5000000000000004 59.500000000000007 2.5000000000000004 1.5000000000000002 5.5000000000000009 6.5000000000000009
decision_type=2 2 2 2 2 2 10
left_child=3 2 -2 6 -5 -3 -1
right_child=1 5 -4 4 -6 -7 -8
leaf_value=-0.016198535949952013 0.021649705883652275 0.062980986567737873 0.06455444340204694 -0.0063535336081768827 0.020856623344842593 0.12190504568838909 0.0040248534921749147
leaf_weight=233.62833192944527 128.45863736048341 10.447455234825609 8.2738610394299013 190.95747691392899 19.42723223567009 4.3866546824574462 18.103363797068596
leaf_count=4392 2150 165 131 3496 329 51 322
internal_value=0 0.0297424 0.0242459 -0.00978031 -0.00384091 0.0804057 -0.0147442
internal_weight=0 151.567 136.732 462.116 210.385 14.8341 251.732
internal_count=11036 2497 2281 8539 3825 216 4714
is_linear=0
shrinkage=0.0265416


Tree=4
num_leaves=8
num_cat=0
split_feature=0 1 0 2 2 0 2
split_gain=235.6 50.5861 18.8006 18.0237 17.809 13.2356 9.47013
threshold=9.5000000000000018 2.5000000000000004 2.5000000000000004 6.5000000000000009 13.500000000000002 11.500000000000002 6.5000000000000009
decision_type=2 2 2 8 10 2 10
left_child=2 4 6 -4 -2 -3 -1
right_child=1 5 3 -5 -6 -7 -8
leaf_value=-0.016000210584460561 0.02231280912469873 0.0026688060783342385 -0.010148859191502487 0.0057148221483942297 0.13702604773823032 0.081460327321660239 0.0039039822432926294
leaf_weight=230.2913763821125 138.6903222464025 1.67976514995098 125.1314520612359 84.540140651166439 0.95998147875070472 14.183683194220064 18.167611345648766
leaf_count=4392 2268 23 2289 1536 13 193 322
internal_value=0 0.0282033 -0.00960555 -0.00375258 0.0231014 0.0731172 -0.0145448
internal_weight=0 155.514 458.131 209.672 139.65 15.8634 248.459
internal_count=11036 2497 8539 3825 2281 216 4714
is_linear=0
shrinkage=0.0265416


Tree=5
num_leaves=8
num_cat=0
split_feature=0 1 0 1 0 1 2
split_gain=219.621 43.1043 18.27 17.3178 16.591 11.1629 9.19223
threshold=9.5000000000000018 2.5000000000000004 2.5000000000000004 1.5000000000000002 59.500000000000007 5.5000000000000009 6.5000000000000009
decision_type=2 2 2 2 2 2 10
left_child=2 4 6 -4 -2 -3 -1
right_child=1 5 3 -5 -6 -7 -8
leaf_value=-0.015801927002377574 0.019684478655437702 0.052651177602065842 -0.006135541950970074 0.019972028109140897 0.056934527717154661 0.099616461573116141 0.0037871571572179637
leaf_weight=227.03593370318413 133.48662135004997 11.736700899899008 189.21269238367677 19.768282879143953 8.9904089868068677 5.1205682456493369 18.230113558471203
leaf_count=4392 2150 165 3496 329 131 51 322
internal_value=0 0.0267835 -0.00943248 -0.00366593 0.022035 0.0669174 -0.0143459
internal_weight=0 159.334 454.247 208.981 142.477 16.8573 245.266
internal_count=11036 2497 8539 3825 2281 216 4714
is_linear=0
shrinkage=0.0265416


Tree=6
num_leaves=8
num_cat=0
split_feature=0 1 0 2 2 0 2
split_gain=205 37.1378 17.7475 17.1619 15.1306 10.4026 8.92058
threshold=9.5000000000000018 2.5000000000000004 2.5000000000000004 6.5000000000000009 5.5000000000000009 11.500000000000002 6.5000000000000009
decision_type=2 2 2 8 8 2 10
left_child=2 4 6 -4 -2 -3 -1
right_child=1 5 3 -5 -6 -7 -8
leaf_value=-0.015603719437412128 0.0059655084149138216 0.00074375691363447692 -0.0098921766156449334 0.0056153678035997584 0.025908643251999673 0.068426458542325957 0.003674217790155494
leaf_weight=223.86020413041115 35.456531077623367 1.7772184014320398 123.52992599084973 84.772487852722406 109.75893218815327 16.01549357175827 18.29092201590538
leaf_count=4392 562 23 2289 1536 1719 193 322
internal_value=0 0.0254737 -0.00926133 -0.0035811 0.0210392 0.061666 -0.0141476
internal_weight=0 163.008 450.454 208.302 145.215 17.7927 242.151
internal_count=11036 2497 8539 3825 2281 216 4714
is_linear=0
shrinkage=0.0265416


Tree=7
num_leaves=8
num_cat=0
split_feature=0 1 0 2 1 0 2
split_gain=191.552 32.2891 17.3274 20.8661 12.4702 11.7357 3.43811
threshold=9.5000000000000018 1.5000000000000002 1.5000000000000002 5.5000000000000009 5.5000000000000009 121.50000000000001 6.5000000000000009
decision_type=2 2 2 8 2 2 10
left_child=2 5 6 -4 -3 -2 -1
right_child=1 4 3 -5 -6 -7 -8
leaf_value=-0.019228848036808799 0.018110700722060728 0.040789158109221881 -0.012586948690556017 0.0006410935848314191 0.084131068239101048 0.11226964740332308 0.0031424639870383047
leaf_weight=105.55577874183655 135.44613046199083 24.403631329536442 171.12162445113063 165.00869708880782 5.7849256917834273 0.9389425590634336 5.0719171576201907
leaf_count=2100 2095 339 3277 3073 51 12 89
internal_value=0 0.0242567 -0.00909193 -0.00609321 0.0490946 0.0187589 -0.0182032
internal_weight=0 166.574 446.758 336.13 30.1886 136.385 110.628
internal_count=11036 2497 8539 6350 390 2107 2189
is_linear=0
shrinkage=0.0265416


Tree=8
num_leaves=8
num_cat=0
split_feature=0 1 0 1 2 2 2
split_gain=179.183 28.4796 17.0456 16.1471 13.3569 8.50035 8.47407
threshold=9.5000000000000018 2.5000000000000004 2.5000000000000004 1.5000000000000002 5.5000000000000009 3.5000000000000004 6.5000000000000009
decision_type=2 2 2 2 8 8 10
left_child=2 4 6 -4 -2 -3 -1
right_child=1 5 3 -5 -6 -7 -8
leaf_value=-0.015243782404353857 0.0051757270819472777 -0.029412951708738463 -0.0057848734539747313 0.019287356240753891 0.023669462975138115 0.05701371263429602 0.0035254763585512773
leaf_weight=218.28477996587753 36.235766917467117 0.83763969689607876 186.46268289163709 20.039939545094967 114.26180244237185 18.66853466629982 18.37158415094018
leaf_count=4392 562 10 3496 329 1719 206 322
internal_value=0 0.0231276 -0.00892425 -0.00335175 0.0192167 0.0533024 -0.0137867
internal_weight=0 170.004 443.159 206.503 150.498 19.5062 236.656
internal_count=11036 2497 8539 3825 2281 216 4714
is_linear=0
shrinkage=0.0265416


Tree=9
num_leaves=8
num_cat=0
split_feature=0 1 2 0 2 2 2
split_gain=167.759 25.9437 21.5885 16.7397 20.0649 13.308 3.2934
threshold=9.5000000000000018 1.0000000180025095e-35 4.5000000000000009 1.5000000000000002 5.5000000000000009 13.500000000000002 6.5000000000000009
decision_type=2 2 8 2 8 10 10
left_child=3 5 -3 6 -5 -2 -1
right_child=1 2 -4 4 -6 -7 -8
leaf_value=-0.018902500345761682 0.013274860115659646 -0.0095074891585573591 0.040290457813490353 -0.012263520295159619 0.00078344388464332863 0.13375149086481827 0.0029476548017861271
leaf_weight=102.34685651957989 106.52230755239725 6.8398403301835051 59.321331933140755 167.95753718540072 164.23317705467343 0.64983627945184608 5.1017070002853862
leaf_count=2100 1607 96 787 3277 3073 7 89
internal_value=0 0.0220733 0.0351423 -0.00875867 -0.00581318 0.0140054 -0.017865
internal_weight=0 173.333 66.1612 439.639 332.191 107.172 107.449
internal_count=11036 2497 883 8539 6350 1614 2189
is_linear=0
shrinkage=0.0265416


Tree=10
num_leaves=8
num_cat=0
split_feature=0 1 0 2 2 0 2
split_gain=157.177 23.6687 16.3501 15.2892 9.80549 8.96719 8.04156
threshold=9.5000000000000018 1.5000000000000002 2.5000000000000004 6.5000000000000009 3.5000000000000004 59.500000000000007 6.5000000000000009
decision_type=2 2 2 8 8 2 10
left_child=2 5 6 -4 -3 -2 -1
right_child=1 4 3 -5 -6 -7 -8
leaf_value=-0.01488513825661476 0.014631121991530055 -0.029022241455792821 -0.0092487121278846032 0.0054660190176931195 0.044154947426838759 0.041434746418342265 0.0033803140581121958
leaf_weight=212.96343167126179 133.77356690913439 1.3440538048744191 119.67722737416625 85.124702680855989 32.043339252471924 9.4113043025135976 18.450947407633066
leaf_count=4392 1987 18 2289 1536 372 120 322
internal_value=0 0.0210853 -0.00859479 -0.00313262 0.0412091 0.0163929 -0.0134288
internal_weight=0 176.572 436.216 204.802 33.3874 143.185 231.414
internal_count=11036 2497 8539 3825 390 2107 4714
is_linear=0
shrinkage=0.0265416


Tree=11
num_leaves=8
num_cat=0
split_feature=0 1 0 2 2 0 2
split_gain=147.396 21.5479 16.153 18.8529 14.4428 3.99343 3.15304
threshold=9.5000000000000018 5.5000000000000009 1.5000000000000002 5.5000000000000009 4.5000000000000009 18.500000000000004 6.5000000000000009
decision_type=2 2 2 8 8 2 10
left_child=2 4 6 -4 -2 -3 -1
right_child=1 5 3 -5 -6 -7 -8
leaf_value=-0.018574853002993386 7.668139614898e-05 0.088946729996301696 -0.011892086446243285 0.00082556865748815631 0.021566497556497546 0.047977443563398059 0.00276384202072216
leaf_weight=99.285204336047173 25.9146578758955 3.081441029906272 164.45838116109371 163.99873241782188 147.01955386251211 3.6748199462890625 5.1301156021654597
leaf_count=2100 389 23 3277 3073 2057 28 89
internal_value=0 0.0201629 -0.00843295 -0.00554216 0.0183462 0.066663 -0.0175264
internal_weight=0 179.69 432.872 328.457 172.934 6.75626 104.415
internal_count=11036 2497 8539 6350 2446 51 2189
is_linear=0
shrinkage=0.0265416


Tree=12
num_leaves=8
num_cat=0
split_feature=0 1 2 0 2 2 2
split_gain=138.33 20.5837 17.4681 15.7554 18.1374 10.4054 3.08018
threshold=9.5000000000000018 1.0000000180025095e-35 4.5000000000000009 1.5000000000000002 5.5000000000000009 13.500000000000002 6.5000000000000009
decision_type=2 2 8 2 8 10 10
left_child=3 5 -3 6 -5 -2 -1
right_child=1 2 -4 4 -6 -7 -8
leaf_value=-0.018391305418259691 0.011524007633778765 -0.0096994269211725069 0.03477942306293396 -0.011701922193032161 0.00080306047561128253 0.11042264745499217 0.0026838828968360814
leaf_weight=97.636742144823074 110.89488193392754 6.887791581451892 64.158155106008053 162.71852249279618 164.11875550076365 0.75453167408704658 5.1425659991800776
leaf_count=2100 1607 96 787 3277 3073 7 89
internal_value=0 0.019299 0.0304673 -0.00827293 -0.00542264 0.0121924 -0.0173368
internal_weight=0 182.695 71.0459 429.617 326.837 111.649 102.779
internal_count=11036 2497 883 8539 6350 1614 2189
is_linear=0
shrinkage=0.0265416


Tree=13
num_leaves=8
num_cat=0
split_feature=0 1 0 1 0 2 0
split_gain=129.892 18.655 15.472 14.9612 10.3713 7.45699 7.18497
threshold=9.5000000000000018 2.5000000000000004 2.5000000000000004 1.5000000000000002 59.500000000000007 6.5000000000000009 11.500000000000002
decision_type=2 2 2 2 2 10 2
left_child=2 4 5 -4 -2 -1 -3
right_child=1 6 3 -5 -6 -7 -8
leaf_value=-0.014369131543664879 0.01353933166554111 -0.005184420437746971 -0.0051964962529566861 0.018876984188327232 0.040138148516120929 0.0032017093500494574 0.045887224486366861
leaf_weight=205.68848679959774 151.89349313825369 2.1433440297842052 181.99782455712557 20.205210313200951 11.080015525221823 18.549470573663712 20.506828926503658
leaf_count=4392 2150 23 3496 329 131 322 193
internal_value=0 0.0184845 -0.00811487 -0.00279095 0.0153477 -0.0129156 0.0410544
internal_weight=0 185.624 426.441 202.203 162.974 224.238 22.6502
internal_count=11036 2497 8539 3825 2281 4714 216
is_linear=0
shrinkage=0.0265416


Tree=14
num_leaves=8
num_cat=0
split_feature=0 1 2 0 1 2 2
split_gain=122.355 21.4088 14.0289 11.9596 14.147 10.3078 2.94588
threshold=7.5000000000000009 1.5000000000000002 4.5000000000000009 1.5000000000000002 3.5000000000000004 5.5000000000000009 6.5000000000000009
decision_type=2 2 8 2 2 8 10
left_child=3 5 -3 6 -5 -2 -1
right_child=1 2 -4 4 -6 -7 -8
leaf_value=-0.018061436664156005 0.0016161410713189325 -0.011558601964289749 0.03791550889060747 -0.0071947893416210501 0.034167383785597596 0.015584613002145782 0.0025142630979731375
leaf_weight=94.788387045264244 52.070329330861568 4.5237824991345397 37.566848900169134 281.25941696017981 5.9484127387404433 130.44819130003452 5.16916400194168
leaf_count=2100 849 62 410 5565 104 1857 89
internal_value=0 0.0155346 0.0325982 -0.00909012 -0.00633813 0.0115996 -0.0169974
internal_weight=0 224.609 42.0906 387.165 287.208 182.519 99.9576
internal_count=11036 3178 472 7858 5669 2706 2189
is_linear=0
shrinkage=0.0265416


Tree=15
num_leaves=8
num_cat=0
split_feature=0 1 2 0 2 0 2
split_gain=115.353 20.0087 18.1143 11.6775 13.6381 3.23422 2.87615
threshold=7.5000000000000009 5.5000000000000009 6.5000000000000009 1.5000000000000002 5.5000000000000009 18.500000000000004 6.5000000000000009
decision_type=2 2 8 2 8 2 10
left_child=3 2 -2 6 -5 -3 -1
right_child=1 5 -4 4 -6 -7 -8
leaf_value=-0.017876108667923357 0.0035197502569950054 0.072569669961833491 0.019292425074268205 -0.012049782127985492 -0.0004492964033303457 0.039115944444981149 0.0024420713547870713
leaf_weight=93.249847367405891 81.799381863325834 4.0562770515680295 137.54291263222694 141.71696671843529 143.8701267875731 4.0870167016983032 5.1805617250502101
leaf_count=2100 1264 32 1854 2935 2734 28 89
internal_value=0 0.014927 0.0134103 -0.00892301 -0.00620581 0.0557797 -0.0168067
internal_weight=0 227.486 219.342 384.018 285.587 8.14329 98.4304
internal_count=11036 3178 3118 7858 5669 60 2189
is_linear=0
shrinkage=0.0265416


Tree=16
num_leaves=8
num_cat=0
split_feature=0 1 0 2 2 2 2
split_gain=109.004 15.7113 14.3173 16.611 13.8718 8.25455 2.80743
threshold=9.5000000000000018 1.0000000180025095e-35 1.5000000000000002 5.5000000000000009 4.5000000000000009 13.500000000000002 6.5000000000000009
decision_type=2 2 2 8 8 10 10
left_child=2 5 6 -4 -3 -2 -1
right_child=1 4 3 -5 -6 -7 -8
leaf_value=-0.017690187239388849 0.0096844775513117154 -0.0099690168450129527 -0.01112297598551385 0.00095649596740769716 0.029327587509748409 0.092119289273574725 0.0023721072959101857
leaf_weight=91.749062016606331 115.85798910260201 6.9600675255060187 157.60535464063287 163.2791397832334 69.696819007396698 0.86207541823387046 5.1916527636349192
leaf_count=2100 1607 96 3277 3073 787 7 89
internal_value=0 0.0164244 -0.00767691 -0.00497645 0.0257596 0.0102933 -0.0166158
internal_weight=0 193.377 417.825 320.884 76.6569 116.72 96.9407
internal_count=11036 2497 8539 6350 883 1614 2189
is_linear=0
shrinkage=0.0265416


Tree=17
num_leaves=8
num_cat=0
split_feature=0 1 2 0 1 2 2
split_gain=103.217 17.3939 15.4366 11.074 13.1153 7.56245 2.7397
threshold=7.5000000000000009 1.0000000180025095e-35 4.5000000000000009 1.5000000000000002 3.5000000000000004 13.500000000000002 6.5000000000000009
decision_type=2 2 8 2 2 10 10
left_child=3 5 -3 6 -5 -2 -1
right_child=1 2 -4 4 -6 -7 -8
leaf_value=-0.017503689045325472 0.007639412823085813 -0.0077866304757634617 0.026999187064311283 -0.0068195203706600208 0.032508977050135494 0.084004885932860859 0.0023042933055062147
leaf_weight=90.285193920135498 142.44499256461859 10.137296117842196 79.177434127777815 276.62478209286928 6.1051688753068438 0.91942577064037223 5.2024454064667216
leaf_count=2100 2097 157 917 5565 104 7 89
internal_value=0 0.013857 0.023051 -0.00860962 -0.00597027 0.00812916 -0.0164245
internal_weight=0 232.679 89.3147 378.218 282.73 143.364 95.4876
internal_count=11036 3178 1074 7858 5669 2104 2189
is_linear=0
shrinkage=0.0265416


Tree=18
num_leaves=8
num_cat=0
split_feature=0 1 2 0 2 0 2
split_gain=97.4187 16.8293 14.9979 10.8005 12.6467 2.73078 2.67297
threshold=7.5000000000000009 5.5000000000000009 6.5000000000000009 1.5000000000000002 5.5000000000000009 18.500000000000004 6.5000000000000009
decision_type=2 2 8 2 8 2 10
left_child=3 2 -2 6 -5 -3 -1
right_child=1 5 -4 4 -6 -7 -8
leaf_value=-0.017316647094513644 0.0029711373803079488 0.064379432056674069 0.017140620675886096 -0.01157821162661056 -0.00031931352216212262 0.034627905178237793 0.0022385509314464167
leaf_weight=88.857390359044075 83.08810668438673 4.3677557371556741 143.52031281217933 137.98893653973937 143.23375292494893 4.3256856799125671 5.2129476107656947
leaf_count=2100 1264 32 1854 2935 2734 28 89
internal_value=0 0.0133355 0.0119452 -0.00844792 -0.00584377 0.0495757 -0.016233
internal_weight=0 235.302 226.608 375.293 281.223 8.69344 94.0703
internal_count=11036 3178 3118 7858 5669 60 2189
is_linear=0
shrinkage=0.0265416


Tree=19
num_leaves=8
num_cat=0
split_feature=0 1 0 1 2 2 2
split_gain=91.9841 15.4983 10.5293 12.1951 10.2989 7.31698 2.60724
threshold=7.5000000000000009 1.5000000000000002 1.5000000000000002 3.5000000000000004 4.5000000000000009 5.5000000000000009 6.5000000000000009
decision_type=2 2 2 2 8 8 10
left_child=2 5 6 -4 -3 -2 -1
right_child=1 4 3 -5 -6 -7 -8
leaf_value=-0.017129091080381204 0.0011165148504148023 -0.011502420767653935 -0.0065582259847800726 0.030890952454637254 0.030782587136231443 0.012718540329880051 0.0021748160426179612
leaf_weight=87.464829906821251 52.875738844275475 4.496129758656024 273.48356343060732 6.2660147920250884 41.604553755372763 138.84549076855183 5.2231676653027526
leaf_count=2100 849 62 5565 104 410 1857 89
internal_value=0 0.0128412 -0.0082882 -0.00571941 0.0266586 0.00951876 -0.0160413
internal_weight=0 237.822 372.438 279.75 46.1007 191.721 92.688
internal_count=11036 3178 7858 5669 472 2706 2189
is_linear=0
shrinkage=0.0265416


Tree=20
num_leaves=8
num_cat=0
split_feature=0 0 1 1 3 2 2
split_gain=86.9682 13.0581 12.37 11.7917 9.61003 6.56292 3.09787
threshold=9.5000000000000018 2.5000000000000004 1.5000000000000002 5.5000000000000009 115.00000000000001 6.5000000000000009 6.5000000000000009
decision_type=2 2 2 2 10 10 8
left_child=1 5 -3 4 -2 -1 -5
right_child=3 2 -4 6 -6 -7 -8
leaf_value=-0.013207708887725289 0.012143812667312095 -0.0045208218833903812 0.017033281605754808 0.069174985189878413 0.064282393841211913 0.0033665704411082165 0.034231729296150468
leaf_weight=190.80759860575199 191.62282788008451 177.09491261839867 20.97891341149807 2.5684011131525013 2.5231396108865729 18.457967024296522 5.8766379058361062
leaf_count=4392 2422 3496 329 15 24 322 36
internal_value=0 -0.00712248 -0.00223793 0.0141569 0.0128214 -0.0117458 0.0448591
internal_weight=0 407.339 198.074 202.591 194.146 209.266 8.44504
internal_count=11036 8539 3825 2497 2446 4714 51
is_linear=0
shrinkage=0.0265416


Tree=21
num_leaves=8
num_cat=0
split_feature=0 1 2 2 0 1 3
split_gain=82.3284 13.8662 12.5709 10.3207 10.5853 6.82918 6.3579
threshold=7.5000000000000009 1.0000000180025095e-35 4.5000000000000009 5.5000000000000009 1.5000000000000002 1.5000000000000002 1.0000000180025095e-35
decision_type=2 2 8 8 2 2 10
left_child=3 6 -3 5 -5 -1 -2
right_child=1 2 -4 4 -6 -7 -8
leaf_value=-0.013940779379863827 -0.00061067743619519119 -0.0079524164961961123 0.023257660728157912 -0.014472802726996109 -3.8468144676957912e-05 0.0074356674374241975 0.010917727431553906
leaf_weight=166.10474015027285 51.893639102578163 10.190655216574667 84.280174192041159 47.865821871906519 141.86749068275094 11.240595750510691 96.121990770101547
leaf_count=3746 754 157 917 1141 2734 237 1350
internal_value=0 0.0119465 0.019891 -0.00798264 -0.00367995 -0.0125859 0.00687592
internal_weight=0 242.486 94.4708 367.079 189.733 177.345 148.016
internal_count=11036 3178 1074 7858 3875 3983 2104
is_linear=0
shrinkage=0.0265416


Tree=22
num_leaves=8
num_cat=0
split_feature=0 1 2 2 0 1 0
split_gain=77.7947 13.0233 12.2482 10.0007 10.2021 6.58597 2.24156
threshold=7.5000000000000009 5.5000000000000009 6.5000000000000009 5.5000000000000009 1.5000000000000002 1.5000000000000002 18.500000000000004
decision_type=2 2 8 8 2 2 2
left_child=3 2 -2 5 -5 -1 -3
right_child=1 6 -4 4 -6 -7 -8
leaf_value=-0.01374584791163466 0.0022300025597206592 0.054849368916635631 0.014838579058524211 -0.014278314376111047 -3.7448210726064932e-05 0.0071895505208883145 0.028979140458572968
leaf_weight=164.01723420992494 84.89509841054678 4.7821765616536123 150.47217883914709 47.238531600683928 141.86263848468661 11.315802894532679 4.6571293920278549
leaf_count=3746 1264 32 1854 1141 2734 237 28
internal_value=0 0.0115167 0.0102908 -0.00782857 -0.0035949 -0.0123947 0.0420856
internal_weight=0 244.807 235.367 364.434 189.101 175.333 9.43931
internal_count=11036 3178 3118 7858 3875 3983 60
is_linear=0
shrinkage=0.0265416


Tree=23
num_leaves=8
num_cat=0
split_feature=0 2 0 1 2 3 3
split_gain=73.5907 12.1721 11.8264 9.99872 10.1186 6.23212 5.40806
threshold=9.5000000000000018 5.5000000000000009 1.5000000000000002 1.0000000180025095e-35 3.5000000000000004 1.0000000180025095e-35 4.5000000000000009
decision_type=2 8 2 2 8 10 10
left_child=1 6 -3 5 -5 -2 -1
right_child=3 2 -4 4 -6 -7 -8
leaf_value=-0.012069034073494729 -0.00078674897144798053 -0.014084150756762641 0.0010790277631687981 -0.028859519535733787 0.021442673371876071 0.01198409667262431 0.028411754009458539
leaf_weight=188.48285204172134 39.577836632728577 46.626929257065058 162.57937821745872 2.917093224823474 82.183971576392651 84.156828008592129 2.3538972958922377
leaf_count=4276 520 1141 3073 42 841 1094 49
internal_value=0 -0.00672228 -0.00230047 0.0127156 0.0197184 0.00789921 -0.0115697
internal_weight=0 400.043 209.206 208.836 85.1011 123.735 190.837
internal_count=11036 8539 4214 2497 883 1614 4325
is_linear=0
shrinkage=0.0265416


Tree=24
num_leaves=8
num_cat=0
split_feature=0 1 2 0 1 2 0
split_gain=69.8682 11.5881 10.8952 9.58948 10.8462 2.59596 2.0053
threshold=7.5000000000000009 5.5000000000000009 6.5000000000000009 1.5000000000000002 3.5000000000000004 6.5000000000000009 18.500000000000004
decision_type=2 2 8 2 2 10 2
left_child=3 2 -2 5 -5 -1 -3
right_child=1 6 -4 4 -6 -7 -8
leaf_value=-0.016343959967312971 0.0019976208790019666 0.050903884851397872 0.01381813379185666 -0.0059155618356644098 0.028833213968496349 0.0032533356212447631 0.026842970721317399
leaf_weight=82.031430169939995 85.464214578270912 4.9715163707733137 153.75226756557822 265.98918963968754 6.4819936603307715 5.055107530206441 4.792192816734314
leaf_count=2100 1264 32 1854 5565 104 89 28
internal_value=0 0.0107519 0.00959505 -0.0075394 -0.0050889 -0.0152064 0.0390944
internal_weight=0 248.98 239.216 359.558 272.471 87.0865 9.76371
internal_count=11036 3178 3118 7858 5669 2189 60
is_linear=0
shrinkage=0.0265416


Tree=25
num_leaves=8
num_cat=0
split_feature=0 1 2 0 2 1 0
split_gain=66.0725 11.0674 9.37262 9.23111 7.91935 6.40837 5.86124
threshold=7.5000000000000009 1.5000000000000002 5.5000000000000009 1.5000000000000002 4.5000000000000009 1.5000000000000002 121.50000000000001
decision_type=2 2 8 2 8 2 2
left_child=2 6 5 -4 -3 -1 -2
right_child=1 4 3 -5 -6 -7 -8
leaf_value=-0.013263235616418526 0.0072109379191688467 -0.011869651874974234 -0.013694105399412685 5.7863855790161058e-05 0.024875524198548792 0.0074882465571521305 0.060925843023037489
leaf_weight=159.04017874598503 199.54116588830948 4.5441526770591727 45.433966614305973 141.40487922355533 45.536745488643646 11.223223496228455 1.4413828328251828
leaf_count=3746 2694 62 1141 2734 410 237 12
internal_value=0 0.0103779 -0.00739099 -0.00328623 0.0215414 -0.0118954 0.00759616
internal_weight=0 251.063 357.102 186.839 50.0809 170.263 200.983
internal_count=11036 3178 7858 3875 472 3983 2706
is_linear=0
shrinkage=0.0265416


Tree=26
num_leaves=8
num_cat=0
split_feature=0 0 1 1 2 2 3
split_gain=62.5093 11.4953 10.2903 8.39808 9.0786 6.09233 5.76743
threshold=9.5000000000000018 2.5000000000000004 1.5000000000000002 1.0000000180025095e-35 3.5000000000000004 6.5000000000000009 1.0000000180025095e-35
decision_type=2 2 2 2 8 10 10
left_child=1 5 -3 6 -5 -1 -2
right_child=3 2 -4 4 -6 -7 -8
leaf_value=-0.01230709422600104 -0.001226924290622032 -0.0039162526013051986 0.01548526039535237 -0.028814759754798844 0.019313083392260622 0.0037940997630493338 0.010953398306666837
leaf_weight=180.53239022195339 40.144264884293079 172.88326891511679 21.672006636857986 2.8534139990806571 85.330538131296635 18.226001597940922 86.164413161575794
leaf_count=4392 520 3496 329 42 841 322 1094
internal_value=0 -0.00634134 -0.00175507 0.0114704 0.0177558 -0.0108306 0.00708217
internal_weight=0 393.314 194.555 214.493 88.184 198.758 126.309
internal_count=11036 8539 3825 2497 883 4714 1614
is_linear=0
shrinkage=0.0265416


Tree=27
num_leaves=8
num_cat=0
split_feature=0 1 2 2 0 1 2
split_gain=59.2638 9.9724 9.5447 9.0413 8.77641 6.11213 1.79985
threshold=7.5000000000000009 5.5000000000000009 6.5000000000000009 5.5000000000000009 1.5000000000000002 1.5000000000000002 5.5000000000000009
decision_type=2 2 8 8 2 2 8
left_child=3 2 -2 5 -5 -1 -3
right_child=1 6 -4 4 -6 -7 -8
leaf_value=-0.012946541911641555 0.0015392658548829235 0.060585298460872669 0.012499659342922506 -0.013352720755509844 0.00017645592737595281 0.0072823482263499432 0.03047811173163107
leaf_weight=155.91835316643119 86.626360464841127 1.6739526763558359 158.16438308358192 44.434840817004442 140.83288839831948 11.283569950610397 8.5091749504208565
leaf_count=3746 1264 11 1854 1141 2734 237 49
internal_value=0 0.00969159 0.008621 -0.00710673 -0.0030684 -0.0115814 0.0354273
internal_weight=0 254.974 244.791 352.47 185.268 167.202 10.1831
internal_count=11036 3178 3118 7858 3875 3983 60
is_linear=0
shrinkage=0.0265416


Tree=28
num_leaves=8
num_cat=0
split_feature=0 1 2 0 1 2 2
split_gain=56.0759 9.39089 9.06475 8.87285 9.67702 5.59583 2.53576
threshold=7.5000000000000009 1.0000000180025095e-35 4.5000000000000009 1.5000000000000002 3.5000000000000004 13.500000000000002 6.5000000000000009
decision_type=2 2 8 2 2 10 10
left_child=3 5 -3 6 -5 -2 -1
right_child=1 2 -4 4 -6 -7 -8
leaf_value=-0.015711657698943633 0.0048100551057129893 -0.0081110626157258718 0.018231634905851411 -0.0054190048291958143 0.02688692460433751 0.06544188807787743 0.0038466299641007882
leaf_weight=78.076433785259724 153.46081272512674 10.223555341362951 92.106478966772556 260.44904372096062 6.699793890118598 1.0798463523387898 4.9668964408338061
leaf_count=2100 2097 157 917 5565 104 7 89
internal_value=0 0.00936327 0.0155998 -0.0069643 -0.00460881 0.00523372 -0.0145419
internal_weight=0 256.871 102.33 350.192 267.149 154.541 83.0433
internal_count=11036 3178 1074 7858 5669 2104 2189
is_linear=0
shrinkage=0.0265416


Tree=29
num_leaves=7
num_cat=0
split_feature=0 2 3 1 2 1
split_gain=53.1609 10.9324 10.8592 7.87225 7.66078 7.79015
threshold=9.5000000000000018 6.5000000000000009 8.5000000000000018 1.5000000000000002 14.500000000000002 2.5000000000000004
decision_type=2 8 8 2 10 2
left_child=1 3 -3 -1 5 -2
right_child=4 2 -4 -5 -6 -7
leaf_value=-0.011610460296745909 0.0080919774620883296 0.0045990383323369225 -0.0085970446532055815 0.0075737494795801615 0.088674623183879142 0.02281076428536739
leaf_weight=192.02520651742816 189.57574903219938 100.71690665557981 77.914523214101791 16.351431112736464 0.87668314576148887 29.237972900271416
leaf_count=4557 2276 2029 1631 322 6 215
internal_value=0 -0.00597479 -0.00115676 -0.0101051 0.0103724 0.0100587
internal_weight=0 387.008 178.631 208.377 219.69 218.814
internal_count=11036 8539 3660 4879 2497 2491
is_linear=0
shrinkage=0.0265416


Tree=30
num_leaves=8
num_cat=0
split_feature=0 0 2 1 2 2 0
split_gain=50.5674 8.68099 9.38377 8.60483 8.38614 2.41678 1.7282
threshold=7.5000000000000009 1.5000000000000002 5.5000000000000009 5.5000000000000009 8.5000000000000018 6.5000000000000009 18.500000000000004
decision_type=2 2 8 2 8 10 2
left_child=1 5 -3 4 -2 -1 -5
right_child=3 2 -4 6 -6 -7 -8
leaf_value=-0.015444243350398417 0.003537415033910835 -0.0096694677466737881 0.00034494095407516665 0.04274893385945374 0.013353379543885737 0.0035947906627326895 0.021274251260490148
leaf_weight=76.505543176084757 141.49161337316036 124.53007229045033 140.03657732903957 5.3976678624749166 108.19833467155695 5.003985706716775 5.1671327352523804
leaf_count=2100 1880 2935 2734 32 1238 89 28
internal_value=0 -0.00670204 -0.00436879 0.0087837 0.00779097 -0.0142754 0.0322459
internal_weight=0 346.076 264.567 260.255 249.69 81.5095 10.5648
internal_count=11036 7858 5669 3178 3118 2189 60
is_linear=0
shrinkage=0.0265416


Tree=31
num_leaves=8
num_cat=0
split_feature=0 0 2 1 2 3 2
split_gain=47.8679 8.42539 9.00586 8.106 8.11553 5.12634 2.34677
threshold=7.5000000000000009 1.5000000000000002 5.5000000000000009 1.0000000180025095e-35 4.5000000000000009 1.0000000180025095e-35 6.5000000000000009
decision_type=2 2 8 2 8 10 10
left_child=1 6 -3 5 -5 -2 -1
right_child=3 2 -4 4 -6 -7 -8
leaf_value=-0.015253558019120299 -0.0019335203440879428 -0.0094972343659708684 0.00033568178751356451 -0.0082281534533791226 0.016621367854269629 0.0081565898714009433 0.0034881739423969888
leaf_weight=75.420593038201332 54.189926240593195 123.43805021047592 140.07958332821727 10.259746745228766 94.8580725453794 102.68348066881299 5.0198441147804251
leaf_count=2100 754 2935 2734 157 917 1350 89
internal_value=0 -0.00656539 -0.00427029 0.00849273 0.014196 0.00467109 -0.014084
internal_weight=0 343.958 263.518 261.991 105.118 156.873 80.4404
internal_count=11036 7858 5669 3178 1074 2104 2189
is_linear=0
shrinkage=0.0265416


Tree=32
num_leaves=8
num_cat=0
split_feature=0 0 1 1 2 2 2
split_gain=45.315 8.17428 8.89973 7.80333 7.76822 2.27827 1.65487
threshold=7.5000000000000009 1.5000000000000002 3.5000000000000004 5.5000000000000009 5.5000000000000009 6.5000000000000009 5.5000000000000009
decision_type=2 2 2 2 8 10 8
left_child=1 5 -3 4 -2 -1 -5
right_child=3 2 -4 6 -6 -7 -8
leaf_value=-0.015062792053295438 -0.00095913062767374131 -0.0049729882949966194 0.025706466827731644 0.053674144370268295 0.0098987843972580258 0.0033850451610337355 0.025684937486424472
leaf_weight=74.362888861447573 61.254467774182558 255.65616125240922 6.8391296193003646 1.7820045351982088 191.63598321378231 5.035273164510726 9.0233397260308266
leaf_count=2100 928 5565 104 11 2190 89 49
internal_value=0 -0.00643076 -0.00417366 0.00821258 0.00726881 -0.0138929 0.0303009
internal_weight=0 341.893 262.495 263.696 252.89 79.3982 10.8053
internal_count=11036 7858 5669 3178 3118 2189 60
is_linear=0
shrinkage=0.0265416


Tree=33
num_leaves=7
num_cat=0
split_feature=0 2 3 1 2 1
split_gain=43.0171 9.89585 10.3421 7.54832 6.5651 6.34446
threshold=9.5000000000000018 6.5000000000000009 8.5000000000000018 1.5000000000000002 14.500000000000002 2.5000000000000004
decision_type=2 8 8 2 10 2
left_child=1 3 -3 -1 5 -2
right_child=4 2 -4 -5 -6 -7
leaf_value=-0.011042578312968549 0.0070583824624974052 0.0046676120008117255 -0.0082748242258692886 0.0078298416892047928 0.078827444281935471 0.020086099941188821
leaf_weight=185.93912858143449 194.45553458482027 100.47701533138752 76.69270034506917 16.233026303350925 0.94768846035003562 30.458470590412617
leaf_count=4557 2276 2029 1631 322 6 215
internal_value=0 -0.00551422 -0.000934871 -0.00952725 0.00911636 0.00882263
internal_weight=0 379.342 177.17 202.172 225.862 224.914
internal_count=11036 8539 3660 4879 2497 2491
is_linear=0
shrinkage=0.0265416


Tree=34
num_leaves=8
num_cat=0
split_feature=0 0 2 2 3 3 2
split_gain=40.9052 7.98303 8.37413 7.14874 17.5924 7.24124 2.16749
threshold=7.5000000000000009 1.5000000000000002 5.5000000000000009 8.5000000000000018 82.500000000000014 13.500000000000002 6.5000000000000009
decision_type=2 2 8 8 8 8 10
left_child=1 6 -3 4 -2 -5 -1
right_child=3 2 -4 5 -6 -7 -8
leaf_value=-0.014797196961026951 0.0030731927989495686 -0.009065913215422404 0.00048224842068209361 0.019220601623120542 0.10684932836903444 0.0060137762385895919 0.0031481891223843175
leaf_weight=72.933447543531656 148.52179099619389 120.77117690071464 139.39096861705184 58.647731196135283 1.1597411185502995 58.338069260120392 5.071046505123376
leaf_count=2100 1900 2935 2734 626 11 641 89
internal_value=0 -0.00618312 -0.00395015 0.00771909 0.00387726 0.0126347 -0.0136306
internal_weight=0 338.167 260.162 266.667 149.682 116.986 78.0045
internal_count=11036 7858 5669 3178 1911 1267 2189
is_linear=0
shrinkage=0.0265416


Tree=35
num_leaves=8
num_cat=0
split_feature=0 0 1 0 3 1 2
split_gain=38.7308 7.73712 8.20081 6.97504 15.6253 6.64063 2.10323
threshold=7.5000000000000009 1.5000000000000002 3.5000000000000004 59.500000000000007 5.5000000000000009 5.5000000000000009 6.5000000000000009
decision_type=2 2 2 2 8 2 10
left_child=1 6 -3 5 -5 -2 -1
right_child=3 2 -4 4 -6 -7 -8
leaf_value=-0.014606429131039813 0.0054588997359025868 -0.004645343345584395 0.024505512408365068 0.09595923112113007 0.014880092056033899 0.026624899192633809 0.0030560527751695354
leaf_weight=71.938350658863783 240.97157956659794 252.23913187533617 6.9867273010313502 1.8930955156683946 14.4954592064023 10.915022633969782 5.0850909985601893
leaf_count=2100 2974 5565 104 18 127 59 89
internal_value=0 -0.00605428 -0.00385966 0.00746772 0.0242458 0.00637609 -0.0134404
internal_weight=0 336.249 259.226 268.275 16.3886 251.887 77.0234
internal_count=11036 7858 5669 3178 145 3033 2189
is_linear=0
shrinkage=0.0265416


Tree=36
num_leaves=8
num_cat=0
split_feature=0 0 1 3 2 2 2
split_gain=36.7436 9.44752 7.91462 5.88875 11.5657 7.83546 4.92085
threshold=9.5000000000000018 2.5000000000000004 1.5000000000000002 115.00000000000001 11.500000000000002 13.500000000000002 6.5000000000000009
decision_type=2 2 2 10 10 10 10
left_child=1 6 -3 5 -5 -2 -1
right_child=3 2 -4 4 -6 -7 -8
leaf_value=-0.010897250011204904 0.0074294607643484705 -0.0030133454824813537 0.013759806534102506 0.08928369784210112 -0.013567352265373221 0.074559952286512785 0.0035909693788498697
leaf_weight=166.32394748181105 225.73080709576607 166.91515887156129 22.487724978476763 1.7664023563265794 1.3657029569149015 1.2315205484628666 18.334928013384342
leaf_count=4392 2465 3496 329 15 9 8 322
internal_value=0 -0.00518679 -0.00102188 0.00829252 0.0444372 0.00779372 -0.0094587
internal_weight=0 374.062 189.403 230.094 3.13211 226.962 184.659
internal_count=11036 8539 3825 2497 24 2473 4714
is_linear=0
shrinkage=0.0265416


Tree=37
num_leaves=8
num_cat=0
split_feature=0 0 2 1 2 3 2
split_gain=34.7929 7.37796 7.98473 6.63332 6.96794 4.60221 1.98696
threshold=7.5000000000000009 1.5000000000000002 5.5000000000000009 1.0000000180025095e-35 4.5000000000000009 1.0000000180025095e-35 6.5000000000000009
decision_type=2 2 8 2 8 8 10
left_child=1 6 -3 5 -5 -2 -1
right_child=3 2 -4 4 -6 -7 -8
leaf_value=-0.014271929741471357 -0.0054662260721249209 -0.0087184098422094149 0.0006617918226271436 -0.0086241048910693351 0.014207381464999523 0.0058004956081954126 0.0028623609664935904
leaf_weight=70.252543069422245 31.798394490033388 118.69492750242352 138.54859278351068 10.40360490977764 99.246387772262096 129.77367916703224 5.1148529909551135
leaf_count=2100 453 2935 2734 157 917 1651 89
internal_value=0 -0.005806 -0.00366633 0.00700254 0.0120411 0.00358313 -0.0131091
internal_weight=0 332.611 257.244 271.222 109.65 161.572 75.3674
internal_count=11036 7858 5669 3178 1074 2104 2189
is_linear=0
shrinkage=0.0265416


Tree=38
num_leaves=7
num_cat=0
split_feature=0 2 3 1 2 1
split_gain=32.9944 8.90709 9.78159 7.09631 5.38399 5.35675
threshold=9.5000000000000018 6.5000000000000009 8.5000000000000018 1.5000000000000002 14.500000000000002 2.5000000000000004
decision_type=2 8 8 2 10 2
left_child=1 3 -3 -1 5 -2
right_child=4 2 -4 -5 -6 -7
leaf_value=-0.010384316945201963 0.0059039576623727023 0.0048127470015490465 -0.007859093710352507 0.0079806886792163807 0.068157641756865783 0.017657217733521229
leaf_weight=179.31137351691723 200.16581153869629 100.00351661071181 75.167723599821329 16.157494626939297 1.0357088893651951 31.634673804044724
leaf_count=4557 2276 2029 1631 322 6 215
internal_value=0 -0.00497123 -0.000624866 -0.00886626 0.00777775 0.00750797
internal_weight=0 370.64 175.171 195.469 232.836 231.8
internal_count=11036 8539 3660 4879 2497 2491
is_linear=0
shrinkage=0.0265416


Tree=39
num_leaves=8
num_cat=0
split_feature=0 0 2 2 3 3 2
split_gain=31.4335 7.18953 7.40291 6.12964 14.1614 6.55069 1.88561
threshold=7.5000000000000009 1.5000000000000002 5.5000000000000009 8.5000000000000018 82.500000000000014 13.500000000000002 6.5000000000000009
decision_type=2 2 8 8 8 8 10
left_child=1 6 -3 4 -2 -5 -1
right_child=3 2 -4 5 -6 -7 -8
leaf_value=-0.014009621981675224 0.0023092756171008083 -0.0083850490472772345 0.00068887303741695712 0.017193030621247652 0.089756296110893669 0.0048367653464677796 0.0026401309461609986
leaf_weight=68.979299984872341 151.57098966091871 116.76924749463797 138.42079272866249 60.887527145445347 1.3159035742282856 60.018831685185432 5.1494022458791724
leaf_count=2100 1900 2935 2734 626 11 641 89
internal_value=0 -0.00557679 -0.00346315 0.00659354 0.00306194 0.0110593 -0.012853
internal_weight=0 329.319 255.19 273.793 152.887 120.906 74.1287
internal_count=11036 7858 5669 3178 1911 1267 2189
is_linear=0
shrinkage=0.0265416


Tree=40
num_leaves=8
num_cat=0
split_feature=0 0 1 1 2 2 2
split_gain=29.7761 6.95636 7.36006 6.03036 5.87581 1.82806 1.5452
threshold=7.5000000000000009 1.5000000000000002 3.5000000000000004 5.5000000000000009 8.5000000000000018 6.5000000000000009 5.5000000000000009
decision_type=2 2 2 2 8 10 8
left_child=1 5 -3 4 -2 -1 -5
right_child=3 2 -4 6 -6 -7 -8
leaf_value=-0.01381954462780911 0.0020472565643946767 -0.0041506645173227759 0.023145928128508481 0.04714354747514244 0.010026521108609979 0.002564035754366382 0.02089890749287374
leaf_weight=68.084124613553286 147.41771348938346 247.22114650905132 7.1600820794701567 1.8931837454438181 116.30273259431124 5.1613324396312228 9.5643324628472328
leaf_count=2100 1880 5565 104 11 1238 89 49
internal_value=0 -0.00545762 -0.00338235 0.00638514 0.00556617 -0.0126651 0.0252354
internal_weight=0 327.627 254.381 275.178 263.72 73.2455 11.4575
internal_count=11036 7858 5669 3178 3118 2189 60
is_linear=0
shrinkage=0.0265416


Tree=41
num_leaves=8
num_cat=0
split_feature=0 0 2 0 3 3 2
split_gain=28.2382 8.47044 6.95982 5.06849 13.1999 5.24621 4.30355
threshold=9.5000000000000018 2.5000000000000004 6.5000000000000009 59.500000000000007 5.5000000000000009 22.500000000000004 6.5000000000000009
decision_type=2 2 8 2 8 10 10
left_child=1 6 -3 5 -5 -2 -1
right_child=3 2 -4 4 -6 -7 -8
leaf_value=-0.010206324959464375 0.0072956579874744734 -0.0054718048610982511 0.0047875006609681076 0.083441312375866036 0.012331832634444626 -0.0070655656360530715 0.0033201061282787294
leaf_weight=160.09379765763879 199.47334902733564 100.74347406625748 86.644420690834522 2.091652654111388 15.221297487616537 19.687708638608456 18.482641514390707
leaf_count=4392 2146 2289 1536 18 127 206 322
internal_value=0 -0.00466997 -0.000728107 0.0070977 0.0209229 0.00600556 -0.00880634
internal_weight=0 365.964 187.388 236.474 17.313 219.161 178.576
internal_count=11036 8539 3825 2497 145 2352 4714
is_linear=0
shrinkage=0.0265416


Tree=42
num_leaves=8
num_cat=0
split_feature=0 0 2 1 2 3 2
split_gain=26.7806 6.61359 6.87945 5.69734 6.15832 4.35442 1.72359
threshold=7.5000000000000009 1.5000000000000002 5.5000000000000009 1.0000000180025095e-35 4.5000000000000009 1.0000000180025095e-35 6.5000000000000009
decision_type=2 2 8 2 8 10 10
left_child=1 6 -3 5 -5 -2 -1
right_child=3 2 -4 4 -6 -7 -8
leaf_value=-0.013488141789418763 -0.0031279431194573049 -0.0080131987460628842 0.00078335342658159869 -0.0088055326354616603 0.01257557496515402 0.0059647196016777392 0.0023950806115053073
leaf_weight=66.573927838355303 56.396016776561737 114.69042694196105 137.97565569728613 10.459041338413952 102.40050573647022 108.45188076794147 5.1880063675343981
leaf_count=2100 754 2935 2734 157 917 1350 89
internal_value=0 -0.00522916 -0.00320959 0.00599958 0.0105941 0.00285403 -0.0123399
internal_weight=0 324.428 252.666 277.707 112.86 164.848 71.7619
internal_count=11036 7858 5669 3178 1074 2104 2189
is_linear=0
shrinkage=0.0265416


Tree=43
num_leaves=8
num_cat=0
split_feature=0 0 1 1 2 2 0
split_gain=25.3769 6.39267 6.83995 5.51567 5.36589 1.66984 1.48481
threshold=7.5000000000000009 1.5000000000000002 3.5000000000000004 5.5000000000000009 5.5000000000000009 6.5000000000000009 18.500000000000004
decision_type=2 2 2 2 8 10 2
left_child=1 5 -3 4 -2 -1 -5
right_child=3 2 -4 6 -6 -7 -8
leaf_value=-0.0132990256936346 -0.0017498921542675938 -0.0038886404979768729 0.022211035321149993 0.032941099129962986 0.0071191160941910031 0.0023265616159801254 0.01399369984144728
leaf_weight=65.739772412925959 62.822367992252111 244.6378302834928 7.2841554284095755 5.9627896323800069 204.44668889418244 5.1988971494138232 5.6975556612014771
leaf_count=2100 928 5565 104 32 2190 89 28
internal_value=0 -0.00511583 -0.00313399 0.00581401 0.00503443 -0.0121539 0.0236829
internal_weight=0 322.861 251.922 278.929 267.269 70.9387 11.6603
internal_count=11036 7858 5669 3178 3118 2189 60
is_linear=0
shrinkage=0.0265416


Tree=44
num_leaves=8
num_cat=0
split_feature=0 2 1 3 2 1 2
split_gain=24.3554 11.8146 7.83328 7.7192 3.97556 2.80672 2.08828
threshold=2.5000000000000004 5.5000000000000009 5.5000000000000009 13.500000000000002 6.5000000000000009 3.5000000000000004 2.5000000000000004
decision_type=2 8 2 8 10 2 10
left_child=4 2 -2 -3 6 -6 -1
right_child=1 3 -4 -5 5 -7 -8
leaf_value=-0.0073691610039148753 -0.0040442021084720762 0.0096655014286057515 0.045917907341188828 0.00077187425445956776 0.0013423404040794915 0.059636266188795382 -0.013690103018861305
leaf_weight=97.027055986225605 130.56028237938881 183.93609424307942 2.2487056031823149 109.78241885080934 17.928330507129434 0.60136045515537162 59.336402419954538
leaf_count=2691 2603 2321 15 1383 313 9 1701
internal_value=0 0.00337098 -0.00319825 0.00634135 -0.00839027 0.0032342 -0.00976782
internal_weight=0 426.528 132.809 293.719 174.893 18.5297 156.363
internal_count=11036 6322 2618 3704 4714 322 4392
is_linear=0
shrinkage=0.0265416


Tree=45
num_leaves=8
num_cat=0
split_feature=0 2 3 1 3 2 2
split_gain=23.2084 7.43246 8.98481 6.75238 4.81489 9.46967 6.47188
threshold=9.5000000000000018 6.5000000000000009 8.5000000000000018 1.5000000000000002 115.00000000000001 11.500000000000002 13.500000000000002
decision_type=2 8 8 2 10 10 10
left_child=1 3 -3 -1 6 -6 -2
right_child=4 2 -4 -5 5 -7 -8
leaf_value=-0.0095150912558223753 0.0055522279498327791 0.0048331786508708013 -0.0073933395785418026 0.0085693150781330687 0.075054867838451014 -0.014716124816639465 0.063811344355097568
leaf_weight=171.20093619078398 235.91121592372656 99.861763115972281 73.506985347718 15.894986022263764 1.9875207617878907 1.4186291918158529 1.3509415835142125
leaf_count=4557 2465 2029 1631 322 15 9 8
internal_value=0 -0.00430998 -0.000350769 -0.00797871 0.00633376 0.0376661 0.00588395
internal_weight=0 360.465 173.369 187.096 240.668 3.40615 237.262
internal_count=11036 8539 3660 4879 2497 24 2473
is_linear=0
shrinkage=0.0265416


Tree=46
num_leaves=8
num_cat=0
split_feature=0 1 2 2 1 1 2
split_gain=22.6339 10.8949 8.61704 3.6923 3.34773 2.50437 2.00192
threshold=2.5000000000000004 1.5000000000000002 5.5000000000000009 6.5000000000000009 5.5000000000000009 3.5000000000000004 2.5000000000000004
decision_type=2 2 8 10 2 2 10
left_child=3 2 -2 6 -3 -5 -1
right_child=1 4 -4 5 -6 -7 -8
leaf_value=-0.007149817678840706 -0.0045419104382671298 0.0097905748873732996 0.0042310581081513414 0.0011716201001893039 0.02444836135246465 0.054792910788975469 -0.013389297284469845
leaf_weight=96.039416605606675 119.11071804910898 62.070231046527624 233.46304837241769 18.02576128393412 13.334739707410334 0.63521253317594428 58.16290395334363
leaf_count=2691 2452 641 3151 313 78 9 1701
internal_value=0 0.00322568 0.00126727 -0.00815384 0.0123827 0.00299687 -0.00950326
internal_weight=0 427.979 352.574 172.863 75.405 18.661 154.202
internal_count=11036 6322 5603 4714 719 322 4392
is_linear=0
shrinkage=0.0265416


Tree=47
num_leaves=8
num_cat=0
split_feature=0 1 2 2 0 1 2
split_gain=21.5557 10.2113 8.16036 3.54655 3.12312 2.25527 1.95173
threshold=2.5000000000000004 1.5000000000000002 5.5000000000000009 6.5000000000000009 61.500000000000007 3.5000000000000004 2.5000000000000004
decision_type=2 2 8 10 2 2 10
left_child=3 2 -2 6 -3 -5 -1
right_child=1 4 -4 5 -6 -7 -8
leaf_value=-0.0070067950931463931 -0.004439432402624237 0.010785868085368591 0.0041042985407631601 0.001139335667342893 0.03666823319130396 0.050903969976517235 -0.013199166360407777
leaf_weight=95.407279815524817 118.6323390007019 72.566368721425533 234.27449766919017 18.044296570122246 3.4399248957633963 0.66516838222741981 57.444441299885511
leaf_count=2691 2452 696 3151 313 23 9 1701
internal_value=0 0.0031328 0.00123226 -0.00799889 0.0119573 0.00290859 -0.009334
internal_weight=0 428.913 352.907 171.561 76.0063 18.7095 152.852
internal_count=11036 6322 5603 4714 719 322 4392
is_linear=0
shrinkage=0.0265416


Tree=48
num_leaves=8
num_cat=0
split_feature=0 1 2 2 1 2 2
split_gain=20.527 9.56668 7.72826 3.40586 3.13589 2.13884 1.90195
threshold=2.5000000000000004 1.5000000000000002 5.5000000000000009 6.5000000000000009 5.5000000000000009 8.5000000000000018 2.5000000000000004
decision_type=2 2 8 10 2 8 10
left_child=3 2 -2 6 -3 -5 -1
right_child=1 4 -4 5 -6 -7 -8
leaf_value=-0.0068657383411238814 -0.0043388775608439187 0.0090556449353455127 0.0039817676015945309 0.006549221893882449 0.023130918048726992 -0.018736635075698248 -0.013009566788060235
leaf_weight=94.791483433917165 118.16636554896832 63.08618988469243 235.06369533017278 15.992520347237589 13.54477124661207 2.7638007178902617 56.744184166193008
leaf_count=2691 2452 641 3151 275 78 47 1701
internal_value=0 0.00304249 0.00119825 -0.0078458 0.0115435 0.00282327 -0.00916636
internal_weight=0 429.861 353.23 170.292 76.631 18.7563 151.536
internal_count=11036 6322 5603 4714 719 322 4392
is_linear=0
shrinkage=0.0265416


Tree=49
num_leaves=8
num_cat=0
split_feature=0 2 3 1 2 1 0
split_gain=19.5468 8.98107 7.00568 6.50745 3.27017 2.04424 1.87951
threshold=2.5000000000000004 5.5000000000000009 13.500000000000002 5.5000000000000009 6.5000000000000009 3.5000000000000004 1.5000000000000002
decision_type=2 8 8 2 10 2 2
left_child=4 3 -3 -2 6 -6 -1
right_child=1 2 -4 -5 5 -7 -8
leaf_value=-0.012518253365302764 -0.0036480625576580622 0.0086082033418421171 0.00021306806933734708 0.040766316308336409 0.0010268875598807956 0.047434596818541827 -0.0064954613755044679
leaf_weight=62.491283467039466 128.53327141702175 188.38380289822817 111.45243807509542 2.3666914552450171 18.109048143029217 0.69429542124271293 87.762021869421005
leaf_count=2100 2603 2321 1383 15 313 9 2292
internal_value=0 0.00295535 0.00548764 -0.00284504 -0.0076945 0.00274045 -0.00900038
internal_weight=0 430.736 299.836 130.9 169.057 18.8033 150.253
internal_count=11036 6322 3704 2618 4714 322 4392
is_linear=0
shrinkage=0.0265416


Tree=50
num_leaves=7
num_cat=0
split_feature=0 0 1 2 3 2
split_gain=18.7259 6.23491 6.69008 4.43536 3.73996 1.3496
threshold=9.5000000000000018 1.5000000000000002 1.5000000000000002 14.500000000000002 115.00000000000001 6.5000000000000009
decision_type=2 2 2 10 10 10
left_child=1 5 -3 4 -2 -1
right_child=3 2 -4 -5 -6 -7
leaf_value=-0.012332034350869712 0.0049815713578590121 -0.0037447147871103592 0.0086543634872319457 0.058044836074202785 0.03390403102495692 0.0016055612004899718
leaf_weight=61.761117447167635 240.297582231462 252.93127275258303 34.883198883384466 1.1309268921613682 3.1913931295275679 5.3154155164957038
leaf_count=2100 2469 5781 569 6 22 89
internal_value=0 -0.00394028 -0.00224194 0.00560423 0.00536066 -0.0112276
internal_weight=0 354.891 287.814 244.62 243.489 67.0765
internal_count=11036 8539 6350 2497 2491 2189
is_linear=0
shrinkage=0.0265416


Tree=51
num_leaves=8
num_cat=0
split_feature=0 1 2 2 1 2 2
split_gain=17.9117 8.49592 6.73451 3.08633 2.82141 2.04571 1.89882
threshold=2.5000000000000004 1.5000000000000002 5.5000000000000009 6.5000000000000009 5.5000000000000009 8.5000000000000018 2.5000000000000004
decision_type=2 2 8 10 2 8 10
left_child=3 2 -2 6 -3 -5 -1
right_child=1 4 -4 5 -6 -7 -8
leaf_value=-0.006396321163879475 -0.0041409505440850244 0.0084030718428028117 0.0036348004297339026 0.0062900455092804505 0.021639511707668792 -0.01857711732002228 -0.012609285651343451
leaf_weight=92.782733086496592 117.23704328387976 64.012848064303398 237.25726867094636 16.104549974203113 13.787751801311968 2.7247834876179686 55.310513971373439
leaf_count=2691 2452 641 3151 275 78 47 1701
internal_value=0 0.00280636 0.00106323 -0.00742988 0.0107488 0.00269153 -0.00871677
internal_weight=0 432.295 354.494 166.923 77.8006 18.8293 148.093
internal_count=11036 6322 5603 4714 719 322 4392
is_linear=0
shrinkage=0.0265416


Tree=52
num_leaves=8
num_cat=0
split_feature=0 1 2 2 0 2 2
split_gain=17.0535 7.97666 6.37975 2.96139 2.81733 1.95562 1.84736
threshold=2.5000000000000004 1.5000000000000002 5.5000000000000009 6.5000000000000009 61.500000000000007 8.5000000000000018 2.5000000000000004
decision_type=2 2 8 10 2 8 10
left_child=3 2 -2 6 -3 -5 -1
right_child=1 4 -4 5 -6 -7 -8
leaf_value=-0.0062640508522197047 -0.0040460899090457563 0.0092899849796701656 0.0035276994986469072 0.0060890649802495716 0.033374218131952287 -0.018384735237322744 -0.012421666659178618
leaf_weight=92.234753455966711 116.80693429708481 74.738316964358091 237.96238541230559 16.193340975791219 3.5857301354408255 2.6808104030787936 54.664446653798223
leaf_count=2691 2452 696 3151 275 23 47 1701
internal_value=0 0.00272652 0.00103405 -0.00728386 0.0103926 0.0026129 -0.00855544
internal_weight=0 433.093 354.769 165.773 78.324 18.8742 146.899
internal_count=11036 6322 5603 4714 719 322 4392
is_linear=0
shrinkage=0.0265416


Tree=53
num_leaves=7
num_cat=0
split_feature=0 0 1 2 3 2
split_gain=16.3744 5.73892 5.92627 4.00784 3.55935 1.31249
threshold=9.5000000000000018 1.5000000000000002 1.5000000000000002 14.500000000000002 13.500000000000002 1.5000000000000002
decision_type=2 2 2 10 10 8
left_child=1 5 -3 4 -2 -1
right_child=3 2 -4 -5 -6 -7
leaf_value=-0.019552419131556767 0.0064937451353909237 -0.00353500485861989 0.0080670782931267972 0.054190631552415186 -0.0017005988345359098 -0.0091955263033019121
leaf_weight=10.212892686948178 199.78707791119814 250.82009272277355 35.390516873449087 1.1705659478902806 45.925767786800861 55.254801725968719
leaf_count=357 2051 5781 569 6 440 1832
internal_value=0 -0.00372197 -0.00210038 0.00519556 0.00496215 -0.0108112
internal_weight=0 351.678 286.211 246.883 245.713 65.4677
internal_count=11036 8539 6350 2497 2491 2189
is_linear=0
shrinkage=0.0265416


Tree=54
num_leaves=8
num_cat=0
split_feature=0 2 3 1 2 2 2
split_gain=15.6161 7.25943 6.45235 5.62125 2.83373 1.87794 1.82562
threshold=2.5000000000000004 5.5000000000000009 13.500000000000002 5.5000000000000009 6.5000000000000009 8.5000000000000018 2.5000000000000004
decision_type=2 8 8 2 10 10 10
left_child=4 3 -3 -2 6 -6 -1
right_child=1 2 -4 -5 5 -7 -8
leaf_value=-0.0059978051275271036 -0.0034312413437138228 0.0077897830378939248 -0.00021077915396316911 0.037118512920296352 0.0060258405941061976 -0.018154551421620445 -0.012163616602232648
leaf_weight=91.142306266352534 127.41491291671991 191.91892819851637 112.71904514729977 2.4546935483813277 16.221345063298944 2.6293595470488063 53.795417092740536
leaf_count=2691 2603 2321 1383 15 275 47 1701
internal_value=0 0.00258953 0.0048295 -0.0026648 -0.00702729 0.00265308 -0.00828632
internal_weight=0 434.508 304.638 129.87 163.788 18.8507 144.938
internal_count=11036 6322 3704 2618 4714 322 4392
is_linear=0
shrinkage=0.0265416


Tree=55
num_leaves=8
num_cat=0
split_feature=0 2 3 1 0 3 3
split_gain=14.93 5.47812 7.91491 5.55687 4.00217 10.6975 4.52196
threshold=9.5000000000000018 6.5000000000000009 8.5000000000000018 1.5000000000000002 59.500000000000007 5.5000000000000009 22.500000000000004
decision_type=2 8 8 2 2 8 10
left_child=1 3 -3 -1 6 -6 -2
right_child=4 2 -4 -5 5 -7 -8
leaf_value=-0.0083365551039316955 0.0051341030038819287 0.0046071215202763676 -0.006929942363115245 0.0080226421733053475 0.069571129849896995 0.0090957683434653488 -0.0079809049548047236
leaf_weight=161.23893996141851 209.55115677416325 100.39054829627275 71.885450834408402 16.08647334203124 2.36078713834286 16.201436467468739 20.315592020750046
leaf_count=4557 2146 2029 1631 322 18 127 206
internal_value=0 -0.00357771 -0.000206939 -0.00685249 0.00493231 0.0167872 0.003975
internal_weight=0 349.601 172.276 177.325 248.429 18.5622 229.867
internal_count=11036 8539 3660 4879 2497 145 2352
is_linear=0
shrinkage=0.0265416


Tree=56
num_leaves=8
num_cat=0
split_feature=0 1 2 3 2 1 2
split_gain=14.5017 6.88857 5.32951 2.63056 2.61523 1.82244 1.74438
threshold=2.5000000000000004 1.5000000000000002 5.5000000000000009 82.500000000000014 6.5000000000000009 3.5000000000000004 2.5000000000000004
decision_type=2 2 8 10 10 2 10
left_child=4 2 -2 -3 6 -6 -1
right_child=1 3 -4 -5 5 -7 -8
leaf_value=-0.0058034215049386616 -0.003782372896091811 0.0089110519046650544 0.0031534950772885975 0.046776717222499285 0.00079812248495980242 0.043575837253100241 -0.011873814375825558
leaf_weight=90.363565307110548 115.57017886638641 78.346185207366943 240.35435161367059 1.3141183927655209 18.241163935512308 0.7296319305896749 52.851384237408638
leaf_count=2691 2452 711 3151 8 313 9 1701
internal_value=0 0.00248044 0.00090139 0.0095357 -0.00681695 0.00244339 -0.00804361
internal_weight=0 435.585 355.925 79.6603 162.186 18.9708 143.215
internal_count=11036 6322 5603 719 4714 322 4392
is_linear=0
shrinkage=0.0265416


Tree=57
num_leaves=8
num_cat=0
split_feature=0 1 2 1 2 2 0
split_gain=13.8027 6.47063 5.04996 2.56575 2.50693 1.78852 1.75654
threshold=2.5000000000000004 1.5000000000000002 5.5000000000000009 5.5000000000000009 6.5000000000000009 8.5000000000000018 1.5000000000000002
decision_type=2 2 8 2 10 8 2
left_child=4 2 -2 -3 6 -6 -1
right_child=1 3 -4 -5 5 -7 -8
leaf_value=-0.0114224762483814 -0.0036945460278950074 0.0070257911653038218 0.0030618284799449592 0.01948455034501749 0.0056176669973529219 -0.018052687782948725 -0.0054256555481010937
leaf_weight=58.411495951935649 115.18246163800359 66.030014678835869 240.97141629457474 14.137616045773028 16.403986800462011 2.6059694662690154 83.734756797552109
leaf_count=2100 2452 641 3151 78 275 47 2292
internal_value=0 0.00241025 0.000876773 0.0092229 -0.00667931 0.00237283 -0.0078899
internal_weight=0 436.322 356.154 80.1676 161.156 19.01 142.146
internal_count=11036 6322 5603 719 4714 322 4392
is_linear=0
shrinkage=0.0265416


Tree=58
num_leaves=8
num_cat=0
split_feature=0 1 2 1 2 2 2
split_gain=13.1371 6.08478 4.78517 2.40431 2.40274 1.71441 1.71056
threshold=2.5000000000000004 1.5000000000000002 5.5000000000000009 5.5000000000000009 6.5000000000000009 2.5000000000000004 8.5000000000000018
decision_type=2 2 8 2 10 10 8
left_child=4 2 -2 -3 5 -1 -6
right_child=1 3 -4 -5 6 -7 -8
leaf_value=-0.0055064423001676558 -0.0036084772910795139 0.0068038470565655786 0.0029730556524003816 0.018820908909324505 0.005441494705822586 -0.011573384285328732 -0.017859152379352497
leaf_weight=89.197207689285278 114.80484814569354 66.369576811790466 241.57168208062649 14.246160745620726 16.48449277877808 51.905198756605387 2.5648464262485495
leaf_count=2691 2452 641 3151 78 275 1701 47
internal_value=0 0.00234244 0.000852849 0.00892746 -0.00654369 -0.0077382 0.00230424
internal_weight=0 436.992 356.377 80.6157 160.152 141.102 19.0493
internal_count=11036 6322 5603 719 4714 4392 322
is_linear=0
shrinkage=0.0265416


Tree=59
num_leaves=8
num_cat=0
split_feature=0 0 1 3 2 2 2
split_gain=12.5684 4.95874 4.92829 3.76212 8.14926 5.32395 1.32382
threshold=9.5000000000000018 1.5000000000000002 3.5000000000000004 115.00000000000001 11.500000000000002 13.500000000000002 1.5000000000000002
decision_type=2 2 2 10 10 10 8
left_child=1 6 -3 5 -5 -2 -1
right_child=3 2 -4 4 -6 -7 -8
leaf_value=-0.019089834353177172 0.0037831299547837183 -0.0025122794418792945 0.015997229510597996 0.063516495557557062 -0.016609035659287796 0.05450437912482254 -0.0084225577285125704
leaf_weight=9.6917636319994909 245.74534807354212 272.59612102434039 10.524767450988291 2.2044500634074207 1.5044336840510366 1.4665338844060887 53.084241386502981
leaf_count=357 2465 6220 130 15 9 8 1832
internal_value=0 -0.00332061 -0.0018242 0.0044821 0.0310152 0.00408402 -0.0100694
internal_weight=0 345.897 283.121 250.921 3.70888 247.212 62.776
internal_count=11036 8539 6350 2497 24 2473 2189
is_linear=0
shrinkage=0.0265416


Tree=60
num_leaves=8
num_cat=0
split_feature=0 1 0 3 2 2 2
split_gain=12.0107 5.68407 7.76175 3.50171 2.29513 1.69085 1.64543
threshold=2.5000000000000004 1.0000000180025095e-35 121.50000000000001 2.5000000000000004 6.5000000000000009 2.5000000000000004 8.5000000000000018
decision_type=2 2 2 10 10 10 8
left_child=4 3 -3 -2 5 -1 -6
right_child=1 2 -4 -5 6 -7 -8
leaf_value=-0.0052578147252156605 -0.0017735000497728758 0.0058018863219325249 0.084403087542665969 0.0050632301373808013 0.0053934293569531649 -0.011323315082151847 -0.017638139390615641
leaf_weight=88.238612178713083 209.24202739819884 157.44118807837367 0.89002791047096153 70.577603001147509 16.506258282810453 51.140467887744308 2.5186021588742724
leaf_count=2691 3711 1745 5 861 275 1701 47
internal_value=0 0.00222489 0.00624373 -4.91034e-05 -0.006303 -0.00748335 0.0023444
internal_weight=0 438.151 158.331 279.82 158.404 139.379 19.0249
internal_count=11036 6322 1750 4572 4714 4392 322
is_linear=0
shrinkage=0.0265416


Tree=61
num_leaves=8
num_cat=0
split_feature=0 3 3 2 2 0 0
split_gain=11.4371 4.59797 9.3836 3.99397 3.70766 3.64803 0.000710028
threshold=7.5000000000000009 4.5000000000000009 6.5000000000000009 1.5000000000000002 5.5000000000000009 59.500000000000007 9.5000000000000018
decision_type=2 10 10 8 8 2 2
left_child=1 4 -3 6 -1 -5 -2
right_child=3 2 -4 5 -6 -7 -8
leaf_value=-0.0073891151631111799 -0.027900985150268613 0.055686335229438257 -0.028058569171361004 0.0032116547718000648 -0.001433220806297951 0.015230519035147138 -0.028911042117882819
leaf_weight=130.48988544009626 0.6481387391686434 2.5311817005276671 1.5017861165106294 271.09472610428929 168.98077892512083 19.039885297417641 2.0128785595297813
leaf_count=3952 14 49 31 2993 3826 144 27
internal_value=0 -0.0036493 0.0245016 0.00370351 -0.00402841 0.00400038 -0.028665
internal_weight=0 303.504 4.03297 292.796 299.471 290.135 2.66102
internal_count=11036 7858 80 3178 7778 3137 41
is_linear=0
shrinkage=0.0265416


Tree=62
num_leaves=8
num_cat=0
split_feature=0 1 2 2 2 0 1
split_gain=11.0746 5.33022 4.1891 2.30249 2.17502 1.67215 1.645
threshold=2.5000000000000004 1.5000000000000002 6.5000000000000009 8.5000000000000018 6.5000000000000009 1.5000000000000002 3.5000000000000004
decision_type=2 2 8 8 10 2 2
left_child=4 2 -2 -3 5 -1 -6
right_child=1 3 -4 -5 6 -7 -8
leaf_value=-0.010774524716235903 -0.0026917484190902671 0.003834820941415463 0.0031414369063022221 0.012746674099957131 0.00072774395513735776 -0.004826412530354862 0.040598350080585745
leaf_weight=56.228827569633722 148.01873402297497 41.313673965632915 209.45468978583813 40.387993343174458 18.280454467982057 81.628299752250314 0.75925696641206641
leaf_count=2100 2923 386 2680 333 313 2292 9
internal_value=0 0.00212399 0.000726095 0.00824026 -0.00609115 -0.00725251 0.00231769
internal_weight=0 439.175 357.473 81.7017 156.897 137.857 19.0397
internal_count=11036 6322 5603 719 4714 4392 322
is_linear=0
shrinkage=0.0265416


end of trees

feature_importances:
classe_meds_qtde=167
hospital_stay=135
admission_pre_t0_count=100
equipe_multiprof=34

parameters:
[boosting: gbdt]
[objective: binary]
[metric: binary_logloss]
[tree_learner: serial]
[device_type: cpu]
[data: ]
[valid: ]
[num_iterations: 63]
[learning_rate: 0.0265416]
[num_leaves: 8]
[num_threads: 0]
[deterministic: 1]
[force_col_wise: 0]
[force_row_wise: 0]
[histogram_pool_size: -1]
[max_depth: 3]
[min_data_in_leaf: 9]
[min_sum_hessian_in_leaf: 0.001]
[bagging_fraction: 1]
[pos_bagging_fraction: 1]
[neg_bagging_fraction: 1]
[bagging_freq: 0]
[bagging_seed: 19182]
[feature_fraction: 1]
[feature_fraction_bynode: 1]
[feature_fraction_seed: 13338]
[extra_trees: 0]
[extra_seed: 11917]
[early_stopping_round: 0]
[first_metric_only: 0]
[max_delta_step: 0]
[lambda_l1: 0]
[lambda_l2: 0]
[linear_lambda: 0]
[min_gain_to_split: 0]
[drop_rate: 0.1]
[max_drop: 50]
[skip_drop: 0.5]
[xgboost_dart_mode: 0]
[uniform_drop: 0]
[drop_seed: 6375]
[top_rate: 0.2]
[other_rate: 0.1]
[min_data_per_group: 100]
[max_cat_threshold: 32]
[cat_l2: 10]
[cat_smooth: 10]
[max_cat_to_onehot: 4]
[top_k: 20]
[monotone_constraints: ]
[monotone_constraints_method: basic]
[monotone_penalty: 0]
[feature_contri: ]
[forcedsplits_filename: ]
[refit_decay_rate: 0.9]
[cegb_tradeoff: 1]
[cegb_penalty_split: 0]
[cegb_penalty_feature_lazy: ]
[cegb_penalty_feature_coupled: ]
[path_smooth: 0]
[interaction_constraints: ]
[verbosity: -1]
[saved_feature_importance_type: 0]
[linear_tree: 0]
[max_bin: 255]
[max_bin_by_feature: ]
[min_data_in_bin: 3]
[bin_construct_sample_cnt: 200000]
[data_random_seed: 27107]
[is_enable_sparse: 1]
[enable_bundle: 1]
[use_missing: 1]
[zero_as_missing: 0]
[feature_pre_filter: 0]
[pre_partition: 0]
[two_round: 0]
[header: 0]
[label_column: ]
[weight_column: ]
[group_column: ]
[ignore_column: ]
[categorical_feature: ]
[forcedbins_filename: ]
[precise_float_parser: 0]
[objective_seed: 2519]
[num_class: 1]
[is_unbalance: 0]
[scale_pos_weight: 1]
[sigmoid: 1]
[boost_from_average: 1]
[reg_sqrt: 0]
[alpha: 0.9]
[fair_c: 1]
[poisson_max_delta_step: 0.7]
[tweedie_variance_power: 1.5]
[lambdarank_truncation_level: 30]
[lambdarank_norm: 1]
[label_gain: ]
[eval_at: ]
[multi_error_top_k: 1]
[auc_mu_weights: ]
[num_machines: 1]
[local_listen_port: 12400]
[time_out: 120]
[machine_list_filename: ]
[machines: ]
[gpu_platform_id: -1]
[gpu_device_id: -1]
[gpu_use_dp: 0]
[num_gpu: 1]

end of parameters
