tree
version=v3
num_class=1
num_tree_per_iteration=1
label_index=0
max_feature_idx=8
objective=binary sigmoid:1
feature_names=hospital_stay admission_pre_t0_count antiarritmico digoxina bic icu_t0 procedure_type_new_X2 procedure_type_new_X3 procedure_type_new_.merged
feature_infos=[0:241] [0:38] [0:844] [0:50] [0:1527] [0:191.94999999999999] [0:1] [0:1] [0:1]
tree_sizes=551 564 569 556 556 565 562 559 559 565 564 562 561 561 559 562 562 571 562 565 564 571 567 562 564 555 566 563 569 555 561 571 569 564 568 548 566 562 566 562 565 565 563 567 555 561 468 565 468 466 569 565 468 464 461 564 464 570 463 567 565 566 565 566 467 564 468 564 574 461 469 569 564 463 567 561 565 565 566 569 462 564 469 574 461 563 573 463 568 466 576 460 566 468 574 565

Tree=0
num_leaves=4
num_cat=0
split_feature=0 1 5
split_gain=165.415 71.3134 18.7709
threshold=9.5000000000000018 5.5000000000000009 3.1350000000000002
decision_type=2 2 2
left_child=2 -2 -1
right_child=1 -3 -4
leaf_value=-3.2692502091969606 -3.1885507228187908 -2.8771150031350836 -3.1958291045140776
leaf_weight=297.58186592161655 86.417975589632988 2.3414624482393256 11.202997252345083
leaf_count=8261 2399 65 311
internal_value=-3.24733 -3.18034 -3.26659
internal_weight=0 88.7594 308.785
internal_count=11036 2464 8572
is_linear=0
shrinkage=1


Tree=1
num_leaves=4
num_cat=0
split_feature=0 1 3
split_gain=142.118 48.6049 14.3119
threshold=7.5000000000000009 5.5000000000000009 1.0000000180025095e-35
decision_type=2 2 10
left_child=2 -2 -1
right_child=1 -3 -4
leaf_value=-0.024028603474366309 0.044761275836680513 0.25347308716442479 0.047334659544780534
leaf_weight=270.36099603399634 114.93500311300159 3.5669852495193473 9.0036468356847745
leaf_count=7644 3064 73 255
internal_value=0 0.0510436 -0.0217286
internal_weight=0 118.502 279.365
internal_count=11036 3137 7899
is_linear=0
shrinkage=0.0556828


Tree=2
num_leaves=4
num_cat=0
split_feature=0 1 3
split_gain=123.11 31.2988 12.7401
threshold=7.5000000000000009 1.0000000180025095e-35 1.0000000180025095e-35
decision_type=2 2 10
left_child=2 -2 -1
right_child=1 -3 -4
leaf_value=-0.023217068415683509 0.025197904803775036 0.083648886037307177 0.042727958411834341
leaf_weight=264.40287164598703 80.267984356731176 43.960907846689224 9.4066246859729272
leaf_count=7644 2056 1081 255
internal_value=0 0.045882 -0.0209516
internal_weight=0 124.229 273.809
internal_count=11036 3137 7899
is_linear=0
shrinkage=0.0556828


Tree=3
num_leaves=4
num_cat=0
split_feature=0 0 4
split_gain=107.751 24.9166 17.5829
threshold=9.5000000000000018 60.500000000000007 1.5000000000000002
decision_type=2 2 10
left_child=2 -2 -1
right_child=1 -3 -4
leaf_value=-0.018500915941687693 0.042262030269978448 0.163911111062471 0.1361909532687082
leaf_weight=292.28928562998772 98.027442429214716 5.5141723826527587 2.2961251996457568
leaf_count=8507 2332 132 65
internal_value=0 0.0487405 -0.0172952
internal_weight=0 103.542 294.585
internal_count=11036 2464 8572
is_linear=0
shrinkage=0.0556828


Tree=4
num_leaves=4
num_cat=0
split_feature=0 1 1
split_gain=95.3222 26.4107 12.5034
threshold=7.5000000000000009 5.5000000000000009 3.5000000000000004
decision_type=2 2 2
left_child=2 -2 -1
right_child=1 -3 -4
leaf_value=-0.02131044159088645 0.03327143166963805 0.1641464087257232 0.063406753577808797
leaf_weight=258.72184718772769 128.96964829415083 4.9649358913302413 5.5168645605444899
leaf_count=7736 3064 73 163
internal_value=0 0.0381229 -0.0195417
internal_weight=0 133.935 264.239
internal_count=11036 3137 7899
is_linear=0
shrinkage=0.0556828


Tree=5
num_leaves=4
num_cat=0
split_feature=0 1 5
split_gain=83.5229 20.8739 12.4859
threshold=7.5000000000000009 1.0000000180025095e-35 3.1350000000000002
decision_type=2 2 2
left_child=2 -2 -1
right_child=1 -3 -4
leaf_value=-0.02093580302163198 0.018182561919210569 0.062942982262503597 0.051220156526532855
leaf_weight=251.82666462287307 87.382404249161482 51.250860102474689 7.6618323512375346
leaf_count=7681 2056 1081 218
internal_value=0 0.0347299 -0.0188053
internal_weight=0 138.633 259.488
internal_count=11036 3137 7899
is_linear=0
shrinkage=0.0556828


Tree=6
num_leaves=4
num_cat=0
split_feature=0 5 3
split_gain=73.3773 20.0588 11.9114
threshold=7.5000000000000009 29.920000000000005 1.0000000180025095e-35
decision_type=2 2 10
left_child=2 -2 -1
right_child=1 -3 -4
leaf_value=-0.020428368229012492 0.027771672788603246 0.1412623411920445 0.043713111936837093
leaf_weight=245.67305199801922 138.05076632276177 5.0036912411451331 9.3173494897782785
leaf_count=7644 3039 98 255
internal_value=0 0.0317413 -0.0180846
internal_weight=0 143.054 254.99
internal_count=11036 3137 7899
is_linear=0
shrinkage=0.0556828


Tree=7
num_leaves=4
num_cat=0
split_feature=0 1 4
split_gain=64.8388 15.2066 14.1934
threshold=9.5000000000000018 3.5000000000000004 1.5000000000000002
decision_type=2 2 10
left_child=2 -2 -1
right_child=1 -3 -4
leaf_value=-0.016100580928894156 0.028279209043247617 0.10123202962670268 0.11546000573320905
leaf_weight=276.15084417164326 109.58908601477742 9.6382457837462407 2.5662221685051909
leaf_count=8507 2321 143 65
internal_value=0 0.0341767 -0.0148893
internal_weight=0 119.227 278.717
internal_count=11036 2464 8572
is_linear=0
shrinkage=0.0556828


Tree=8
num_leaves=4
num_cat=0
split_feature=0 2 5
split_gain=57.9735 15.5051 11.3573
threshold=7.5000000000000009 89.500000000000014 3.1350000000000002
decision_type=2 10 2
left_child=2 -2 -1
right_child=1 -3 -4
leaf_value=-0.018937457249056322 0.024090484413786306 0.13513772720314335 0.049380290238560547
leaf_weight=239.44446642138064 146.54310131818056 4.0050917044281951 7.790324453264474
leaf_count=7681 3064 73 218
internal_value=0 0.0270447 -0.0167848
internal_weight=0 150.548 247.235
internal_count=11036 3137 7899
is_linear=0
shrinkage=0.0556828


Tree=9
num_leaves=4
num_cat=0
split_feature=0 1 1
split_gain=51.2193 14.3461 11.3365
threshold=7.5000000000000009 1.0000000180025095e-35 3.5000000000000004
decision_type=2 2 2
left_child=2 -2 -1
right_child=1 -3 -4
leaf_value=-0.017948489636771398 0.011548753784177648 0.046499115075317843 0.062508975676261458
leaf_weight=237.83473870530725 95.309178836643696 58.92894708365202 5.5567067079246035
leaf_count=7736 2056 1081 163
internal_value=0 0.0249021 -0.0161116
internal_weight=0 154.238 243.391
internal_count=11036 3137 7899
is_linear=0
shrinkage=0.0556828


Tree=10
num_leaves=4
num_cat=0
split_feature=0 0 3
split_gain=45.3218 13.9332 10.9853
threshold=7.5000000000000009 60.500000000000007 1.0000000180025095e-35
decision_type=2 2 10
left_child=2 -2 -1
right_child=1 -3 -4
leaf_value=-0.017850552935108115 0.019171987361419 0.094931425063089742 0.043866810362659575
leaf_weight=230.45397246070206 149.75729667395353 7.9253220446407786 9.3031205236911756
leaf_count=7644 3005 132 255
internal_value=0 0.0229797 -0.0154558
internal_weight=0 157.683 239.757
internal_count=11036 3137 7899
is_linear=0
shrinkage=0.0556828


Tree=11
num_leaves=4
num_cat=0
split_feature=0 5 2
split_gain=40.4325 12.2887 10.9932
threshold=9.5000000000000018 3.1350000000000002 25.250000000000004
decision_type=2 2 10
left_child=1 -1 -2
right_child=2 -3 -4
leaf_value=-0.015347271361735061 0.018336614541718154 0.041713991752098875 0.063721022155773854
leaf_weight=253.38749590143561 112.18126277625561 12.268769115209578 19.411794953048229
leaf_count=8261 2125 311 339
internal_value=0 -0.012712 0.0250314
internal_weight=0 265.656 131.593
internal_count=11036 8572 2464
is_linear=0
shrinkage=0.0556828


Tree=12
num_leaves=4
num_cat=0
split_feature=0 4 1
split_gain=36.0152 11.5015 9.94588
threshold=7.5000000000000009 3.5000000000000004 3.5000000000000004
decision_type=2 10 2
left_child=2 -2 -1
right_child=1 -3 -4
leaf_value=-0.016086355285824364 0.017530070182090331 0.11521145034954797 0.057929052567996471
leaf_weight=227.58621771261096 159.86029919236898 3.8269119486212722 5.7718891836702815
leaf_count=7736 3069 68 163
internal_value=0 0.0198138 -0.0142557
internal_weight=0 163.687 233.358
internal_count=11036 3137 7899
is_linear=0
shrinkage=0.0556828


Tree=13
num_leaves=4
num_cat=0
split_feature=0 1 2
split_gain=32.7429 25.4591 8.57348
threshold=2.5000000000000004 2.5000000000000004 0.75000000000000011
decision_type=2 2 10
left_child=2 -2 -1
right_child=1 -3 -4
leaf_value=-0.026387751131891506 0.0059296511629785466 0.067108936337118674 0.025416387486318349
leaf_weight=125.69567023031414 237.25199797190726 23.147703226655722 10.7527240794152
leaf_count=4355 5923 392 366
internal_value=0 0.0113681 -0.0223054
internal_weight=0 260.4 136.448
internal_count=11036 6315 4721
is_linear=0
shrinkage=0.0556828


Tree=14
num_leaves=4
num_cat=0
split_feature=0 4 5
split_gain=29.718 11.0112 9.37725
threshold=9.5000000000000018 1.5000000000000002 29.920000000000005
decision_type=2 10 2
left_child=1 -1 -2
right_child=2 -3 -4
leaf_value=-0.01259031996494054 0.017272917622749791 0.097337469031659102 0.083714425576609325
leaf_weight=255.31539883837104 131.54555489122868 2.8569098189473143 6.9334005787968627
leaf_count=8507 2366 65 98
internal_value=0 -0.0113739 0.0205995
internal_weight=0 258.172 138.479
internal_count=11036 8572 2464
is_linear=0
shrinkage=0.0556828


Tree=15
num_leaves=4
num_cat=0
split_feature=0 1 2
split_gain=27.855 20.4205 7.90854
threshold=2.5000000000000004 2.5000000000000004 0.75000000000000011
decision_type=2 2 10
left_child=2 -2 -1
right_child=1 -3 -4
leaf_value=-0.025173255510217683 0.0052492486379420947 0.058367584193329866 0.02437118369137466
leaf_weight=121.20149903558195 239.57378245890141 24.75893147662282 10.886927001178263
leaf_count=4355 5923 392 366
internal_value=0 0.0102246 -0.0210897
internal_weight=0 264.333 132.088
internal_count=11036 6315 4721
is_linear=0
shrinkage=0.0556828


Tree=16
num_leaves=4
num_cat=0
split_feature=0 1 2
split_gain=25.1215 17.0702 7.20332
threshold=2.5000000000000004 2.5000000000000004 0.75000000000000011
decision_type=2 2 10
left_child=2 -2 -1
right_child=1 -3 -4
leaf_value=-0.024359574458860712 0.004932743539540943 0.052435814431069129 0.022479089583217496
leaf_weight=118.35782262869179 240.71588098071516 25.987337414175272 11.1384861767292
leaf_count=4355 5923 392 366
internal_value=0 0.0095614 -0.0203308
internal_weight=0 266.703 129.496
internal_count=11036 6315 4721
is_linear=0
shrinkage=0.0556828


Tree=17
num_leaves=4
num_cat=0
split_feature=0 1 2
split_gain=22.6554 15.3799 6.5632
threshold=2.5000000000000004 1.0000000180025095e-35 0.75000000000000011
decision_type=2 2 10
left_child=2 -2 -1
right_child=1 -3 -4
leaf_value=-0.023554389390251493 -0.00060292449606392552 0.027514368979057135 0.020772491368942866
leaf_weight=115.66578351520002 177.57871726714075 91.345759931951761 11.375297520309685
leaf_count=4355 4544 1771 366
internal_value=0 0.0089477 -0.0195853
internal_weight=0 268.924 127.041
internal_count=11036 6315 4721
is_linear=0
shrinkage=0.0556828


Tree=18
num_leaves=4
num_cat=0
split_feature=0 4 0
split_gain=20.9878 11.3679 8.03689
threshold=9.5000000000000018 4.5000000000000009 61.500000000000007
decision_type=2 10 2
left_child=1 -1 -2
right_child=2 -3 -4
leaf_value=-0.010956119739867971 0.013250873887814998 0.13133440157447424 0.067183775887597302
leaf_weight=248.89359384030104 135.95918061584234 1.7531523704528797 9.1429807394742948
leaf_count=8538 2339 34 125
internal_value=0 -0.00996087 0.0166492
internal_weight=0 250.647 145.102
internal_count=11036 8572 2464
is_linear=0
shrinkage=0.0556828


Tree=19
num_leaves=4
num_cat=0
split_feature=0 1 2
split_gain=19.2498 13.1755 6.04388
threshold=2.5000000000000004 3.5000000000000004 0.75000000000000011
decision_type=2 2 10
left_child=2 -2 -1
right_child=1 -3 -4
leaf_value=-0.022384495979095424 0.0047377194766456913 0.053085634583624086 0.020038624847326828
leaf_weight=111.9555110167712 253.30718020908535 18.771656338125467 11.480170482769607
leaf_count=4355 6084 231 366
internal_value=0 0.00807341 -0.0184389
internal_weight=0 272.079 123.436
internal_count=11036 6315 4721
is_linear=0
shrinkage=0.0556828


Tree=20
num_leaves=4
num_cat=0
split_feature=0 3 2
split_gain=17.3836 9.57926 7.354
threshold=7.5000000000000009 1.0000000180025095e-35 89.500000000000014
decision_type=2 10 10
left_child=1 -1 -2
right_child=2 -3 -4
leaf_value=-0.013273402611434429 0.01061011886929418 0.044725044315346213 0.074929875219759912
leaf_weight=207.35718202963471 172.98580204322934 9.2223105616867525 5.6929827630519858
leaf_count=7644 3064 255 73
internal_value=0 -0.0108037 0.0126594
internal_weight=0 216.579 178.679
internal_count=11036 7899 3137
is_linear=0
shrinkage=0.0556828


Tree=21
num_leaves=4
num_cat=0
split_feature=0 1 2
split_gain=16.2901 11.7854 5.49227
threshold=2.5000000000000004 1.0000000180025095e-35 0.75000000000000011
decision_type=2 2 10
left_child=2 -2 -1
right_child=1 -3 -4
leaf_value=-0.021204803856768879 -0.0011569206495262991 0.023032480756653206 0.019077016317517976
leaf_weight=108.43223532661796 179.07694163359702 95.891086217015982 11.619453862309454
leaf_count=4355 4544 1771 366
internal_value=0 0.00727878 -0.017306
internal_weight=0 274.968 120.052
internal_count=11036 6315 4721
is_linear=0
shrinkage=0.0556828


Tree=22
num_leaves=4
num_cat=0
split_feature=0 1 2
split_gain=14.6804 10.2382 4.99107
threshold=2.5000000000000004 1.0000000180025095e-35 0.75000000000000011
decision_type=2 2 10
left_child=2 -2 -1
right_child=1 -3 -4
leaf_value=-0.02044319077071827 -0.001093682716790509 0.021312193528049014 0.017687636600096899
leaf_weight=106.27171977236867 178.88883522711694 97.803401339799166 11.828098332509397
leaf_count=4355 4544 1771 366
internal_value=0 0.0068262 -0.0166243
internal_weight=0 276.692 118.1
internal_count=11036 6315 4721
is_linear=0
shrinkage=0.0556828


Tree=23
num_leaves=4
num_cat=0
split_feature=0 4 2
split_gain=13.397 8.76007 6.46762
threshold=9.5000000000000018 4.5000000000000009 23.500000000000004
decision_type=2 10 10
left_child=1 -1 -2
right_child=2 -3 -4
leaf_value=-0.0092787669883504596 0.007737473563900467 0.10802266480947399 0.038979369471765203
leaf_weight=240.37007175572217 127.71993437409401 1.9903273470699776 24.483769554644823
leaf_count=8538 2114 34 350
internal_value=0 -0.00831546 0.0127631
internal_weight=0 242.36 152.204
internal_count=11036 8572 2464
is_linear=0
shrinkage=0.0556828


Tree=24
num_leaves=4
num_cat=0
split_feature=0 1 2
split_gain=12.4591 9.2392 4.57608
threshold=2.5000000000000004 3.5000000000000004 0.75000000000000011
decision_type=2 2 10
left_child=2 -2 -1
right_child=1 -3 -4
leaf_value=-0.01935204332831884 0.0033241632717706275 0.042117527147005035 0.017083157858058091
leaf_weight=103.31621719524264 258.54093726724386 20.548282045871019 11.921161267906426
leaf_count=4355 6084 231 366
internal_value=0 0.00618037 -0.0155829
internal_weight=0 279.089 115.237
internal_count=11036 6315 4721
is_linear=0
shrinkage=0.0556828


Tree=25
num_leaves=4
num_cat=0
split_feature=5 4 3
split_gain=11.6799 7.47579 7.32077
threshold=1.885 1.5000000000000002 1.0000000180025095e-35
decision_type=2 10 10
left_child=2 -2 -1
right_child=1 -3 -4
leaf_value=-0.0071038934826795465 0.015023139451554798 0.098374304140274343 0.030715187311484697
leaf_weight=295.68608605861664 78.126589694991708 3.485218182206153 16.770076997578144
leaf_count=9146 1472 46 372
internal_value=0 0.0185826 -0.00507408
internal_weight=0 81.6118 312.456
internal_count=11036 1518 9518
is_linear=0
shrinkage=0.0556828


Tree=26
num_leaves=4
num_cat=0
split_feature=0 4 1
split_gain=10.9035 11.974 3.80656
threshold=29.500000000000004 4.5000000000000009 1.0000000180025095e-35
decision_type=2 10 2
left_child=1 -1 -2
right_child=2 -3 -4
leaf_value=-0.0043968228676123855 0.011775952244677096 0.086748497221297696 0.046748973228137654
leaf_weight=350.53661631606519 21.016725771129131 4.5267187543213359 17.84116169065237
leaf_count=10416 341 66 213
internal_value=0 -0.00323481 0.0278334
internal_weight=0 355.063 38.8579
internal_count=11036 10482 554
is_linear=0
shrinkage=0.0556828


Tree=27
num_leaves=4
num_cat=0
split_feature=0 1 2
split_gain=10.5423 7.6476 4.15879
threshold=2.5000000000000004 2.5000000000000004 0.75000000000000011
decision_type=2 2 10
left_child=2 -2 -1
right_child=1 -3 -4
leaf_value=-0.01826875744357627 0.0023520897596977504 0.031569384759751878 0.016372374723316971
leaf_weight=100.5305490642786 249.92060464061797 31.250418193638325 12.031476844102142
leaf_count=4355 5923 392 366
internal_value=0 0.00559941 -0.0145661
internal_weight=0 281.171 112.562
internal_count=11036 6315 4721
is_linear=0
shrinkage=0.0556828


Tree=28
num_leaves=4
num_cat=0
split_feature=0 1 2
split_gain=9.49126 7.14838 3.76852
threshold=2.5000000000000004 1.0000000180025095e-35 0.75000000000000011
decision_type=2 2 10
left_child=2 -2 -1
right_child=1 -3 -4
leaf_value=-0.01756337514225105 -0.001434257675958316 0.01698060093906003 0.015220122828472892
leaf_weight=98.795783594250679 179.77663668617606 102.69708807952702 12.216143444180487
leaf_count=4355 4544 1771 366
internal_value=0 0.00526071 -0.0139558
internal_weight=0 282.474 111.012
internal_count=11036 6315 4721
is_linear=0
shrinkage=0.0556828


Tree=29
num_leaves=4
num_cat=0
split_feature=5 3 4
split_gain=8.98381 6.14752 5.13109
threshold=1.885 1.0000000180025095e-35 1.5000000000000002
decision_type=2 10 10
left_child=1 -1 -2
right_child=2 -3 -4
leaf_value=-0.006458415658170554 0.012917919752017257 0.027688243227433275 0.077765073054269399
leaf_weight=291.83735206723213 80.138849845156074 17.317319873720407 3.9707515202462664
leaf_count=9146 1472 372 46
internal_value=0 -0.00454569 0.0159793
internal_weight=0 309.155 84.1096
internal_count=11036 9518 1518
is_linear=0
shrinkage=0.0556828


Tree=30
num_leaves=4
num_cat=0
split_feature=0 4 5
split_gain=8.34749 9.08298 3.21924
threshold=29.500000000000004 4.5000000000000009 43.850000000000001
decision_type=2 10 2
left_child=1 -1 -2
right_child=2 -3 -4
leaf_value=-0.0039756740346736531 0.018111679510627105 0.071480373044787188 0.067211762800338054
leaf_weight=347.57150967232883 35.841743990778923 5.0177320539951316 4.68102192133665
leaf_count=10416 504 66 50
internal_value=0 -0.00290185 0.0237835
internal_weight=0 352.589 40.5228
internal_count=11036 10482 554
is_linear=0
shrinkage=0.0556828


Tree=31
num_leaves=4
num_cat=0
split_feature=0 1 2
split_gain=8.01783 6.05966 3.41594
threshold=2.5000000000000004 1.0000000180025095e-35 0.75000000000000011
decision_type=2 2 10
left_child=2 -2 -1
right_child=1 -3 -4
leaf_value=-0.016538466148075501 -0.0014303111993318766 0.015429165187602158 0.014604171549250419
leaf_weight=96.37194100394845 179.67360020242631 104.57062034495175 12.316080935299395
leaf_count=4355 4544 1771 366
internal_value=0 0.00477212 -0.0130095
internal_weight=0 284.244 108.688
internal_count=11036 6315 4721
is_linear=0
shrinkage=0.0556828


Tree=32
num_leaves=4
num_cat=0
split_feature=0 3 3
split_gain=7.26453 6.81291 5.38935
threshold=9.5000000000000018 1.0000000180025095e-35 6.2500000000000009
decision_type=2 10 10
left_child=1 -1 -2
right_child=2 -3 -4
leaf_value=-0.0085415721236921892 0.010803146175452976 0.035944148749549355 -0.049697106434774638
leaf_weight=222.05522022768855 154.74615804478526 11.213172571733592 4.7040226720273486
leaf_count=8293 2400 279 64
internal_value=0 -0.00640315 0.0090183
internal_weight=0 233.268 159.45
internal_count=11036 8572 2464
is_linear=0
shrinkage=0.0556828


Tree=33
num_leaves=4
num_cat=0
split_feature=2 1 0
split_gain=6.89083 9.44805 9.24455
threshold=25.250000000000004 1.5000000000000002 75.500000000000014
decision_type=10 2 2
left_child=2 -2 -1
right_child=1 -3 -4
leaf_value=-0.0031093807915681519 0.0062752060298775971 0.079495141813791761 0.078489707406901241
leaf_weight=361.32841460220516 19.227556010708216 7.6335229799151412 4.3567504808306685
leaf_count=10634 284 68 50
internal_value=0 0.0270832 -0.00213721
internal_weight=0 26.8611 365.685
internal_count=11036 352 10684
is_linear=0
shrinkage=0.0556828


Tree=34
num_leaves=4
num_cat=0
split_feature=0 1 6
split_gain=6.6557 5.19388 3.13346
threshold=2.5000000000000004 3.5000000000000004 1.0000000180025095e-35
decision_type=2 2 2
left_child=2 -2 -1
right_child=1 -3 -4
leaf_value=-0.0026612097890723833 0.0020755978110272967 0.029732279966682915 -0.021779394443486332
leaf_weight=54.265691934153438 263.07791364192963 22.8854810744524 52.102646436542273
leaf_count=2406 6084 231 2315
internal_value=0 0.00428895 -0.0120259
internal_weight=0 285.963 106.368
internal_count=11036 6315 4721
is_linear=0
shrinkage=0.0556828


Tree=35
num_leaves=4
num_cat=0
split_feature=5 0 5
split_gain=6.21406 5.29309 4.37195
threshold=1.885 70.500000000000014 5.5550000000000006
decision_type=2 2 2
left_child=1 -1 -2
right_child=2 -3 -4
leaf_value=-0.0044434846157334965 0.031986853407771999 0.090721882143921379 0.004794907888666689
leaf_weight=303.21514149010181 26.243482526391745 1.8230440840125073 60.822557810693979
leaf_count=9497 611 21 907
internal_value=0 -0.00387473 0.0129911
internal_weight=0 305.038 87.066
internal_count=11036 9518 1518
is_linear=0
shrinkage=0.0556828


Tree=36
num_leaves=4
num_cat=0
split_feature=0 3 2
split_gain=5.80719 5.11894 3.1342
threshold=2.5000000000000004 6.2500000000000009 0.75000000000000011
decision_type=2 10 10
left_child=2 -2 -1
right_child=1 -3 -4
leaf_value=-0.014841304806766837 0.0049831403124797127 -0.050535953503511671 0.015157401100029305
leaf_weight=92.602376259863377 281.93118635751307 5.2449655830860129 12.223952189087866
leaf_count=4355 6237 78 366
internal_value=0 0.00396914 -0.0113431
internal_weight=0 287.176 104.826
internal_count=11036 6315 4721
is_linear=0
shrinkage=0.0556828


Tree=37
num_leaves=4
num_cat=0
split_feature=0 4 5
split_gain=5.57492 7.26422 2.34227
threshold=29.500000000000004 4.5000000000000009 16.975000000000005
decision_type=2 10 2
left_child=1 -1 -2
right_child=2 -3 -4
leaf_value=-0.0034488739447217755 0.0085915247827179596 0.061720690204614487 0.035417762464461815
leaf_weight=343.80959751456976 26.33325120806694 5.386328510940074 16.361919853836298
leaf_count=10416 365 66 189
internal_value=0 -0.00244364 0.018872
internal_weight=0 349.196 42.6952
internal_count=11036 10482 554
is_linear=0
shrinkage=0.0556828


Tree=38
num_leaves=4
num_cat=0
split_feature=1 6 2
split_gain=5.463 7.10445 6.59449
threshold=3.5000000000000004 1.0000000180025095e-35 18.500000000000004
decision_type=2 2 10
left_child=1 -1 -2
right_child=2 -3 -4
leaf_value=0.0016824124317426387 0.010703431511439349 -0.018802589382856932 0.081224925013125823
leaf_weight=301.95518189668655 21.119712799787525 63.538693776354194 5.1051097735762587
leaf_count=8065 294 2644 33
internal_value=0 -0.00187877 0.0244316
internal_weight=0 365.494 26.2248
internal_count=11036 10709 327
is_linear=0
shrinkage=0.0556828


Tree=39
num_leaves=4
num_cat=0
split_feature=2 0 3
split_gain=4.9731 7.21548 6.20692
threshold=0.75000000000000011 75.500000000000014 6.2500000000000009
decision_type=10 2 10
left_child=1 -1 -2
right_child=2 -3 -4
leaf_value=-0.0042191964891819525 0.015487288384845433 0.074615824461012142 -0.062198003875420918
leaf_weight=307.732775721699 76.76950135268271 3.6423320695757857 3.3271039947867385
leaf_count=9552 1401 38 45
internal_value=0 -0.00329702 0.0122603
internal_weight=0 311.375 80.0966
internal_count=11036 9590 1446
is_linear=0
shrinkage=0.0556828


Tree=40
num_leaves=4
num_cat=0
split_feature=0 2 1
split_gain=4.80793 6.09212 4.39662
threshold=1.5000000000000002 0.75000000000000011 5.5000000000000009
decision_type=2 10 2
left_child=1 -1 -2
right_child=2 -3 -4
leaf_value=-0.023755666757542742 0.00092781315475535598 0.040770548896727751 0.033986112465342035
leaf_weight=42.037409326061606 331.2646615896374 5.0855131000280371 12.961927091702817
leaf_count=2072 8703 150 111
internal_value=0 -0.016792 0.00217263
internal_weight=0 47.1229 344.227
internal_count=11036 2222 8814
is_linear=0
shrinkage=0.0556828


Tree=41
num_leaves=4
num_cat=0
split_feature=4 0 0
split_gain=4.56002 6.53456 3.35701
threshold=1.5000000000000002 60.500000000000007 14.500000000000002
decision_type=10 2 2
left_child=1 -1 -2
right_child=2 -3 -4
leaf_value=-0.0024317805942266476 0.061674596329794946 0.039536023031747164 -0.0012833050250751538
leaf_weight=368.46034178137779 6.3269225321710092 11.874113567173479 4.4892726056277752
leaf_count=10771 92 123 50
internal_value=0 -0.00112154 0.0355439
internal_weight=0 380.334 10.8162
internal_count=11036 10894 142
is_linear=0
shrinkage=0.0556828


Tree=42
num_leaves=4
num_cat=0
split_feature=2 4 1
split_gain=4.37027 6.26652 6.19435
threshold=25.250000000000004 1.5000000000000002 1.5000000000000002
decision_type=10 10 2
left_child=1 -1 -2
right_child=2 -3 -4
leaf_value=-0.002999766838417238 0.0038314000721170068 0.041265523165024319 0.060416012052836914
leaf_weight=352.34545863419771 19.884341187775139 10.203271899372337 8.5897416695952398
leaf_count=10552 284 132 68
internal_value=0 -0.001754 0.0209012
internal_weight=0 362.549 28.4741
internal_count=11036 10684 352
is_linear=0
shrinkage=0.0556828


Tree=43
num_leaves=4
num_cat=0
split_feature=0 2 3
split_gain=4.22049 5.46182 4.43344
threshold=1.5000000000000002 0.75000000000000011 6.2500000000000009
decision_type=2 10 10
left_child=1 -1 -2
right_child=2 -3 -4
leaf_value=-0.022786011642388311 0.0027833462245582534 0.037521348934446662 -0.049962837373687966
leaf_weight=40.881822194904089 339.64451274462044 5.2547767125070086 5.0137759279459706
leaf_count=2072 8735 150 79
internal_value=0 -0.0159172 0.00201604
internal_weight=0 46.1366 344.658
internal_count=11036 2222 8814
is_linear=0
shrinkage=0.0556828


Tree=44
num_leaves=4
num_cat=0
split_feature=5 3 5
split_gain=4.00921 4.81334 4.18402
threshold=1.885 1.0000000180025095e-35 5.5550000000000006
decision_type=2 10 2
left_child=1 -1 -2
right_child=2 -3 -4
leaf_value=-0.0049492036904168332 0.028457574837094254 0.024876941776962043 0.002306261597616903
leaf_weight=283.01999947801232 27.202419562265277 17.833319861441851 62.673997815698385
leaf_count=9146 611 372 907
internal_value=0 -0.00318124 0.0102213
internal_weight=0 300.853 89.8764
internal_count=11036 9518 1518
is_linear=0
shrinkage=0.0556828


Tree=45
num_leaves=4
num_cat=0
split_feature=1 5 2
split_gain=3.93766 6.03064 4.44994
threshold=3.5000000000000004 42.370000000000012 18.500000000000004
decision_type=2 2 10
left_child=1 -1 -2
right_child=2 -3 -4
leaf_value=-0.0024703909764240213 0.0088655021810627715 0.059095848270618215 0.064572336083630638
leaf_weight=358.49781860597432 21.54504883103073 5.0019365642219773 5.6021874547004691
leaf_count=10659 294 50 33
internal_value=0 -0.00162321 0.0203613
internal_weight=0 363.5 27.1472
internal_count=11036 10709 327
is_linear=0
shrinkage=0.0556828


Tree=46
num_leaves=3
num_cat=0
split_feature=3 3
split_gain=3.93244 8.00923
threshold=6.2500000000000009 1.0000000180025095e-35
decision_type=10 10
left_child=1 -1
right_child=-2 -3
leaf_value=-0.0013336988552323922 -0.049653070096998354 0.034955944950954831
leaf_weight=365.61601964756846 4.9016197212040415 19.882223542779684
leaf_count=10581 79 376
internal_value=0 0.000537954
internal_weight=0 385.498
internal_count=11036 10957
is_linear=0
shrinkage=0.0556828


Tree=47
num_leaves=4
num_cat=0
split_feature=6 0 2
split_gain=3.78223 11.0165 4.47091
threshold=1.0000000180025095e-35 40.500000000000007 0.75000000000000011
decision_type=2 2 8
left_child=2 -2 -1
right_child=1 -3 -4
leaf_value=-0.002944938501947244 -0.015785698167700389 0.1462382421034624 0.010381540102977919
leaf_weight=196.6838538441807 62.935964679345489 1.3286128416657437 129.41670774109662
leaf_count=5498 2715 14 2809
internal_value=0 -0.012436 0.00234383
internal_weight=0 64.2646 326.101
internal_count=11036 2729 8307
is_linear=0
shrinkage=0.0556828


Tree=48
num_leaves=3
num_cat=0
split_feature=3 3
split_gain=3.70383 6.85199
threshold=6.2500000000000009 1.0000000180025095e-35
decision_type=10 10
left_child=1 -1
right_child=-2 -3
leaf_value=-0.0012468969766856958 -0.049058990894678675 0.031828546590545279
leaf_weight=364.98508239351213 4.7306167036294928 20.511281840503216
leaf_count=10581 79 376
internal_value=0 0.000512963
internal_weight=0 385.496
internal_count=11036 10957
is_linear=0
shrinkage=0.0556828


Tree=49
num_leaves=3
num_cat=0
split_feature=3 3
split_gain=3.4487 5.94241
threshold=6.2500000000000009 1.0000000180025095e-35
decision_type=10 10
left_child=1 -1
right_child=-2 -3
leaf_value=-0.0011788202170661293 -0.048336037567589453 0.02923419931237865
leaf_weight=364.57804162986577 4.5394500475376836 21.071136444807053
leaf_count=10581 79 376
internal_value=0 0.000482889
internal_weight=0 385.649
internal_count=11036 10957
is_linear=0
shrinkage=0.0556828


Tree=50
num_leaves=4
num_cat=0
split_feature=6 0 2
split_gain=3.44474 11.5586 3.97357
threshold=1.0000000180025095e-35 48.500000000000007 0.75000000000000011
decision_type=2 2 8
left_child=2 -2 -1
right_child=1 -3 -4
leaf_value=-0.0027839548815884571 -0.015332386789146031 0.15461850666444943 0.0097554918547795993
leaf_weight=196.1354700550437 62.264246810227633 1.2660212516784657 130.48154581524432
leaf_count=5498 2718 11 2809
internal_value=0 -0.0119456 0.00222548
internal_weight=0 63.5303 326.617
internal_count=11036 2729 8307
is_linear=0
shrinkage=0.0556828


Tree=51
num_leaves=4
num_cat=0
split_feature=1 6 5
split_gain=3.28151 4.9217 4.25275
threshold=3.5000000000000004 1.0000000180025095e-35 11.510000000000003
decision_type=2 2 2
left_child=1 -1 -2
right_child=2 -3 -4
leaf_value=0.0013825810228245458 0.028551339078863827 -0.016146702154308367 -0.028768524773007141
leaf_weight=303.00534251332283 22.723927730694417 59.39788861759007 4.8741318620741358
leaf_count=8065 295 2644 32
internal_value=0 -0.00149047 0.018428
internal_weight=0 362.403 27.5981
internal_count=11036 10709 327
is_linear=0
shrinkage=0.0556828


Tree=52
num_leaves=3
num_cat=0
split_feature=3 3
split_gain=3.24319 5.03777
threshold=6.2500000000000009 1.0000000180025095e-35
decision_type=10 10
left_child=1 -1
right_child=-2 -3
leaf_value=-0.0010899931479789668 -0.047704846312693873 0.026555524791411437
leaf_weight=363.85248255170882 4.3834258113056412 21.653984997421503
leaf_count=10581 79 376
internal_value=0 0.000462862
internal_weight=0 385.506
internal_count=11036 10957
is_linear=0
shrinkage=0.0556828


Tree=53
num_leaves=3
num_cat=0
split_feature=2 4
split_gain=3.16496 3.80648
threshold=89.500000000000014 1.5000000000000002
decision_type=10 10
left_child=1 -1
right_child=-2 -3
leaf_value=-0.0017506825308118486 0.035534407424318896 0.031114288483361948
leaf_weight=371.00011071003973 7.5879432037472716 11.258544303476809
leaf_count=10824 73 139
internal_value=0 -0.000782721
internal_weight=0 382.259
internal_count=11036 10963
is_linear=0
shrinkage=0.0556828


Tree=54
num_leaves=3
num_cat=0
split_feature=3 0
split_gain=3.04357 4.48606
threshold=6.2500000000000009 31.500000000000004
decision_type=10 2
left_child=1 -1
right_child=-2 -3
leaf_value=-0.001570647489539969 -0.047081753424475188 0.018366938937653409
leaf_weight=346.57996778562665 4.224071465432643 38.920991457998753
leaf_count=10489 79 468
internal_value=0 0.000442293
internal_weight=0 385.501
internal_count=11036 10957
is_linear=0
shrinkage=0.0556828


Tree=55
num_leaves=4
num_cat=0
split_feature=1 0 0
split_gain=2.88999 3.90054 3.59288
threshold=5.5000000000000009 18.500000000000004 31.500000000000004
decision_type=2 2 2
left_child=2 -2 -1
right_child=1 -3 -4
leaf_value=-0.0028311427825372061 0.052102851226842405 -0.0068968326665263553 0.015156378761035703
leaf_weight=337.30506982468069 7.5060887485742551 6.4682071954011917 38.344389177858829
leaf_count=10432 85 36 483
internal_value=0 0.024794 -0.000995068
internal_weight=0 13.9743 375.649
internal_count=11036 121 10915
is_linear=0
shrinkage=0.0556828


Tree=56
num_leaves=3
num_cat=0
split_feature=3 3
split_gain=2.8502 4.3207
threshold=6.2500000000000009 1.0000000180025095e-35
decision_type=10 10
left_child=1 -1
right_child=-2 -3
leaf_value=-0.0010350588679115093 -0.046405905058040646 0.024282619136131684
leaf_weight=363.22430826351047 4.0726671926677218 22.176148071885109
leaf_count=10581 79 376
internal_value=0 0.000421734
internal_weight=0 385.4
internal_count=11036 10957
is_linear=0
shrinkage=0.0556828


Tree=57
num_leaves=4
num_cat=0
split_feature=0 1 3
split_gain=2.77294 3.16651 2.84776
threshold=2.5000000000000004 1.0000000180025095e-35 2.7500000000000004
decision_type=2 2 10
left_child=2 -2 -1
right_child=1 -3 -4
leaf_value=-0.0092419284664480642 -0.0018852325524827023 0.01007364678066971 0.075303692563626193
leaf_weight=96.835380349308252 180.59126968123019 110.75155729800463 1.251235395669936
leaf_count=4689 4544 1771 32
internal_value=0 0.00266084 -0.00816343
internal_weight=0 291.343 98.0866
internal_count=11036 6315 4721
is_linear=0
shrinkage=0.0556828


Tree=58
num_leaves=3
num_cat=0
split_feature=3 2
split_gain=2.67062 3.69449
threshold=6.2500000000000009 89.500000000000014
decision_type=10 10
left_child=1 -1
right_child=-2 -3
leaf_value=-0.00035134430580849351 -0.045746002287392819 0.03986016599705039
leaf_weight=378.12221409939229 3.9278288315981618 7.2195367068052283
leaf_count=10891 79 66
internal_value=0 0.000402035
internal_weight=0 385.342
internal_count=11036 10957
is_linear=0
shrinkage=0.0556828


Tree=59
num_leaves=4
num_cat=0
split_feature=0 2 3
split_gain=2.57472 4.85351 2.66545
threshold=1.5000000000000002 0.75000000000000011 6.2500000000000009
decision_type=2 10 10
left_child=1 -1 -2
right_child=2 -3 -4
leaf_value=-0.019892057024735638 0.0020488276668783113 0.037151703802064028 -0.044996251891696738
leaf_weight=37.763559531420469 342.38235304504633 5.2700757607817641 3.7752622086554757
leaf_count=2072 8735 150 79
internal_value=0 -0.0129062 0.00153574
internal_weight=0 43.0336 346.158
internal_count=11036 2222 8814
is_linear=0
shrinkage=0.0556828


Tree=60
num_leaves=4
num_cat=0
split_feature=5 0 3
split_gain=2.48713 5.54621 2.94702
threshold=2.0550000000000002 4.5000000000000009 5.7500000000000009
decision_type=2 2 10
left_child=2 -2 -1
right_child=1 -3 -4
leaf_value=-0.0019408554973552913 0.056344580474953436 0.0041117232131204773 -0.059028125486715981
leaf_weight=297.59933118708432 6.8287817668169728 81.872502218931913 2.8304689712822428
leaf_count=9559 218 1195 64
internal_value=0 0.00813294 -0.0024787
internal_weight=0 88.7013 300.43
internal_count=11036 1413 9623
is_linear=0
shrinkage=0.0556828


Tree=61
num_leaves=4
num_cat=0
split_feature=4 0 0
split_gain=2.45747 3.88832 2.78977
threshold=1.5000000000000002 61.500000000000007 13.500000000000002
decision_type=10 2 2
left_child=1 -1 -2
right_child=2 -3 -4
leaf_value=-0.0018901361932834118 0.049572280935938844 0.029841030888003169 -0.0042687802104438479
leaf_weight=364.71243424341083 6.4695963449776155 12.380256727337835 5.5382067635655403
leaf_count=10777 86 117 56
internal_value=0 -0.000848376 0.0247399
internal_weight=0 377.093 12.0078
internal_count=11036 10894 142
is_linear=0
shrinkage=0.0556828


Tree=62
num_leaves=4
num_cat=0
split_feature=1 0 2
split_gain=2.39518 2.82286 1.42329
threshold=5.5000000000000009 31.500000000000004 0.75000000000000011
decision_type=2 2 10
left_child=1 -1 -2
right_child=2 -3 -4
leaf_value=-0.0025613038567518401 0.0044670641218400075 0.013233198777602217 0.039638701172630027
leaf_weight=335.54015532881021 7.0237640254199487 39.181844674050808 7.249374195933342
leaf_count=10432 75 483 46
internal_value=0 -0.000909792 0.0223309
internal_weight=0 374.722 14.2731
internal_count=11036 10915 121
is_linear=0
shrinkage=0.0556828


Tree=63
num_leaves=4
num_cat=0
split_feature=6 0 2
split_gain=2.30351 8.29344 3.1647
threshold=1.0000000180025095e-35 48.500000000000007 23.500000000000004
decision_type=2 2 8
left_child=2 -2 -1
right_child=1 -3 -4
leaf_value=-0.0015002418224143933 -0.013250201791514019 0.12031221117784222 0.010881482337135049
leaf_weight=240.77976100705564 59.355483284220099 1.4773574620485295 87.178874358534813
leaf_count=6356 2718 11 1951
internal_value=0 -0.0100066 0.0017911
internal_weight=0 60.8328 327.959
internal_count=11036 2729 8307
is_linear=0
shrinkage=0.0556828


Tree=64
num_leaves=3
num_cat=0
split_feature=3 3
split_gain=2.27098 3.56386
threshold=6.2500000000000009 1.0000000180025095e-35
decision_type=10 10
left_child=1 -1
right_child=-2 -3
leaf_value=-0.00098618514322062209 -0.044164837861465654 0.02172769278588205
leaf_weight=362.30838899686933 3.585442977026104 22.763732502236962
leaf_count=10581 79 376
internal_value=0 0.000356557
internal_weight=0 385.072
internal_count=11036 10957
is_linear=0
shrinkage=0.0556828


Tree=65
num_leaves=4
num_cat=0
split_feature=4 5 0
split_gain=2.11105 3.20169 2.46455
threshold=1.5000000000000002 42.370000000000012 14.500000000000002
decision_type=10 2 2
left_child=1 -1 -2
right_child=2 -3 -4
leaf_value=-0.0014596522440682626 0.043101280068209666 0.038790039400865069 -0.0078161270305820638
leaf_weight=370.11354298889637 7.3480117395520193 6.2308383863419285 4.9216401502490044
leaf_count=10842 92 52 50
internal_value=0 -0.00079327 0.0226771
internal_weight=0 376.344 12.2697
internal_count=11036 10894 142
is_linear=0
shrinkage=0.0556828


Tree=66
num_leaves=3
num_cat=0
split_feature=3 3
split_gain=2.12499 3.08715
threshold=6.2500000000000009 1.0000000180025095e-35
decision_type=10 10
left_child=1 -1
right_child=-2 -3
leaf_value=-0.00092253390341398274 -0.043483535816224654 0.020032142742014623
leaf_weight=361.85214720852673 3.461576532572507 23.196541847661138
leaf_count=10581 79 376
internal_value=0 0.000339842
internal_weight=0 385.049
internal_count=11036 10957
is_linear=0
shrinkage=0.0556828


Tree=67
num_leaves=4
num_cat=0
split_feature=1 0 0
split_gain=2.08253 2.36378 1.23449
threshold=5.5000000000000009 23.500000000000004 17.500000000000004
decision_type=2 2 2
left_child=1 -1 -2
right_child=2 -3 -4
leaf_value=-0.0027764116858635343 0.036299440064059496 0.0093191377417338808 0.0036910842042595072
leaf_weight=314.45192584395409 7.5298528801649791 59.588367888703942 6.8968662396073341
leaf_count=10129 83 786 38
internal_value=0 -0.000849469 0.0207106
internal_weight=0 374.04 14.4267
internal_count=11036 10915 121
is_linear=0
shrinkage=0.0556828


Tree=68
num_leaves=4
num_cat=0
split_feature=6 3 2
split_gain=2.0366 7.17987 2.83255
threshold=1.0000000180025095e-35 1.0000000180025095e-35 23.500000000000004
decision_type=2 10 8
left_child=2 -2 -1
right_child=1 -3 -4
leaf_value=-0.0014486931679288258 -0.014684685026413848 0.061639264848535665 0.010235151344428825
leaf_weight=240.40165439993143 55.969959829002619 4.1015749666839829 87.843438344076276
leaf_count=6356 2644 85 1951
internal_value=0 -0.00947342 0.00167808
internal_weight=0 60.0715 328.245
internal_count=11036 2729 8307
is_linear=0
shrinkage=0.0556828


Tree=69
num_leaves=3
num_cat=0
split_feature=3 2
split_gain=2.0085 2.54238
threshold=6.2500000000000009 89.500000000000014
decision_type=10 10
left_child=1 -1
right_child=-2 -3
leaf_value=-0.00031807349628614639 -0.042900922383554065 0.032053214902024854
leaf_weight=377.18684001266956 3.3616453204303971 7.675586722791194
leaf_count=10891 79 66
internal_value=0 0.00032753
internal_weight=0 384.862
internal_count=11036 10957
is_linear=0
shrinkage=0.0556828


Tree=70
num_leaves=3
num_cat=0
split_feature=3 3
split_gain=1.86349 2.48875
threshold=6.2500000000000009 1.0000000180025095e-35
decision_type=10 10
left_child=1 -1
right_child=-2 -3
leaf_value=-0.00084062877445053132 -0.042116000905136688 0.017748894043122836
leaf_weight=361.11191599071026 3.2371716834604731 23.801732655614614
leaf_count=10581 79 376
internal_value=0 0.000308883
internal_weight=0 384.914
internal_count=11036 10957
is_linear=0
shrinkage=0.0556828


Tree=71
num_leaves=4
num_cat=0
split_feature=6 1 2
split_gain=1.83758 6.8131 2.48486
threshold=1.0000000180025095e-35 3.5000000000000004 0.75000000000000011
decision_type=2 2 8
left_child=2 -2 -1
right_child=1 -3 -4
leaf_value=-0.0024323170845081902 -0.013742520101106206 0.06652189147162782 0.0074204397982460483
leaf_weight=194.53110830672085 56.03639860264957 3.4827930424362412 134.05837112106383
leaf_count=5498 2644 85 2809
internal_value=0 -0.00904581 0.00158742
internal_weight=0 59.5192 328.589
internal_count=11036 2729 8307
is_linear=0
shrinkage=0.0556828


Tree=72
num_leaves=4
num_cat=0
split_feature=4 5 0
split_gain=1.79085 2.65623 2.18708
threshold=1.5000000000000002 42.370000000000012 13.500000000000002
decision_type=10 2 2
left_child=1 -1 -2
right_child=2 -3 -4
leaf_value=-0.0013518282423167812 0.041608359338297755 0.03476034199603497 -0.0051932858850735585
leaf_weight=369.05917200818658 6.9205705635249597 6.4253396056592456 5.6018470339477062
leaf_count=10842 86 52 56
internal_value=0 -0.000733872 0.0206719
internal_weight=0 375.485 12.5224
internal_count=11036 10894 142
is_linear=0
shrinkage=0.0556828


Tree=73
num_leaves=3
num_cat=0
split_feature=3 2
split_gain=1.75232 2.18007
threshold=6.2500000000000009 23.500000000000004
decision_type=10 10
left_child=1 -1
right_child=-2 -3
leaf_value=-0.000937311031879242 -0.041483522402121914 0.014537513910148374
leaf_weight=354.09975469857454 3.1379894949495784 30.671774668619037
leaf_count=10614 79 343
internal_value=0 0.000296253
internal_weight=0 384.772
internal_count=11036 10957
is_linear=0
shrinkage=0.0556828


Tree=74
num_leaves=4
num_cat=0
split_feature=1 3 2
split_gain=1.67982 2.07134 1.14505
threshold=5.5000000000000009 5.7500000000000009 0.75000000000000011
decision_type=2 10 10
left_child=1 -1 -2
right_child=2 -3 -4
leaf_value=-0.00036046054305025375 0.0025550991331080583 -0.043093720987939704 0.033659972563564428
leaf_weight=369.58983540534973 7.1885891649872047 3.5507040694355956 7.4959309063851833
leaf_count=10826 75 89 46
internal_value=0 -0.000767099 0.018433
internal_weight=0 373.141 14.6845
internal_count=11036 10915 121
is_linear=0
shrinkage=0.0556828


Tree=75
num_leaves=4
num_cat=0
split_feature=0 2 3
split_gain=1.64444 4.48937 1.67798
threshold=1.5000000000000002 2.7500000000000004 4.2500000000000009
decision_type=2 10 10
left_child=1 -1 -2
right_child=2 -3 -4
leaf_value=-0.013565420710701383 0.0017374753547317913 0.104056880317456 -0.02706898606676051
leaf_weight=39.87434459477663 340.40545576810837 1.0321601405739773 6.3873801454901686
leaf_count=2191 8693 31 121
internal_value=0 -0.0105976 0.00120691
internal_weight=0 40.9065 346.793
internal_count=11036 2222 8814
is_linear=0
shrinkage=0.0556828


Tree=76
num_leaves=4
num_cat=0
split_feature=0 5 3
split_gain=1.57807 4.51896 1.79817
threshold=7.5000000000000009 3.1350000000000002 4.2500000000000009
decision_type=2 2 10
left_child=1 -1 -2
right_child=2 -3 -4
leaf_value=-0.0056276797162444041 0.0042614467675260491 0.034962521395529862 -0.029337764075579531
leaf_weight=179.04764366336167 194.62301889434457 8.928363982588051 5.0673183705657712
leaf_count=7681 3041 218 96
internal_value=0 -0.00369975 0.00340884
internal_weight=0 187.976 199.69
internal_count=11036 7899 3137
is_linear=0
shrinkage=0.0556828


Tree=77
num_leaves=4
num_cat=0
split_feature=4 0 0
split_gain=1.54437 2.3774 1.93818
threshold=1.5000000000000002 61.500000000000007 14.500000000000002
decision_type=10 2 2
left_child=1 -1 -2
right_child=2 -3 -4
leaf_value=-0.0015334974399369213 0.036322389414669226 0.022509161444666224 -0.0082364612677378775
leaf_weight=361.60738887265325 7.7969615608453733 13.218176461756228 4.9471211843192577
leaf_count=10777 92 117 50
internal_value=0 -0.000685636 0.0190251
internal_weight=0 374.826 12.7441
internal_count=11036 10894 142
is_linear=0
shrinkage=0.0556828


Tree=78
num_leaves=4
num_cat=0
split_feature=1 3 0
split_gain=1.46243 1.76974 1.10098
threshold=5.5000000000000009 5.7500000000000009 17.500000000000004
decision_type=2 10 2
left_child=1 -1 -2
right_child=2 -3 -4
leaf_value=-0.00035764979508965273 0.031442648699384658 -0.041500167798636849 0.0010435268821955815
leaf_weight=369.37513754889369 7.8374946787953359 3.2703731618821612 6.9873757362365723
leaf_count=10826 83 89 38
internal_value=0 -0.000718721 0.0171147
internal_weight=0 372.646 14.8249
internal_count=11036 10915 121
is_linear=0
shrinkage=0.0556828


Tree=79
num_leaves=4
num_cat=0
split_feature=6 0 2
split_gain=1.43818 6.24242 2.07976
threshold=1.0000000180025095e-35 48.500000000000007 23.500000000000004
decision_type=2 2 8
left_child=2 -2 -1
right_child=1 -3 -4
leaf_value=-0.0013122753097194234 -0.01118403017494924 0.099291000320220174 0.0086361855979629008
leaf_weight=239.57950379513204 56.694240249693394 1.6315036192536343 89.49182984046638
leaf_count=6356 2718 11 1951
internal_value=0 -0.00809379 0.00139324
internal_weight=0 58.3257 329.071
internal_count=11036 2729 8307
is_linear=0
shrinkage=0.0556828


Tree=80
num_leaves=3
num_cat=0
split_feature=4 5
split_gain=1.35051 1.59914
threshold=32.000000000000007 29.920000000000005
decision_type=10 2
left_child=1 -1
right_child=-2 -3
leaf_value=-0.00099334026689533884 0.032259882131263712 0.020368203232583884
leaf_weight=372.10245355591178 3.9737363532185546 11.19268570654094
leaf_count=10903 36 97
internal_value=0 -0.000369557
internal_weight=0 383.295
internal_count=11036 11000
is_linear=0
shrinkage=0.0556828


Tree=81
num_leaves=4
num_cat=0
split_feature=1 5 5
split_gain=1.32963 7.28734 2.99629
threshold=2.5000000000000004 11.150000000000002 23.255000000000003
decision_type=2 2 2
left_child=2 -2 -1
right_child=1 -3 -4
leaf_value=-0.0022225510471321052 0.019409541346390793 -0.042277331340999112 0.024866572083088307
leaf_weight=331.02320459578186 35.875494714826345 7.1154996640980235 13.163518311455844
leaf_count=10280 563 53 140
internal_value=0 0.00919966 -0.00118652
internal_weight=0 42.991 344.187
internal_count=11036 616 10420
is_linear=0
shrinkage=0.0556828


Tree=82
num_leaves=3
num_cat=0
split_feature=3 3
split_gain=1.30909 2.20027
threshold=6.2500000000000009 1.0000000180025095e-35
decision_type=10 10
left_child=1 -1
right_child=-2 -3
leaf_value=-0.00084874623706568723 -0.038480321700676084 0.016548273607952631
leaf_weight=360.34136022441089 2.7265554759651414 24.044840894639492
leaf_count=10581 79 376
internal_value=0 0.000239505
internal_weight=0 384.386
internal_count=11036 10957
is_linear=0
shrinkage=0.0556828


Tree=83
num_leaves=4
num_cat=0
split_feature=6 3 2
split_gain=1.29254 5.80169 1.86166
threshold=1.0000000180025095e-35 1.0000000180025095e-35 23.500000000000004
decision_type=2 10 8
left_child=2 -2 -1
right_child=1 -3 -4
leaf_value=-0.0012528657316947592 -0.01273223590237558 0.054302606107855582 0.0081399669286805719
leaf_weight=239.22770430799574 53.46206727065146 4.3270945083349934 90.054951995611191
leaf_count=6356 2644 85 1951
internal_value=0 -0.00771285 0.00131596
internal_weight=0 57.7892 329.283
internal_count=11036 2729 8307
is_linear=0
shrinkage=0.0556828


Tree=84
num_leaves=3
num_cat=0
split_feature=5 0
split_gain=1.26514 1.48481
threshold=68.985000000000014 97.500000000000014
decision_type=2 2
left_child=1 -1
right_child=-2 -3
leaf_value=2.1138739050382829e-05 0.044545461597028831 -0.042884935520875571
leaf_weight=382.50530235376209 1.964000767096876 2.5172433145344248
leaf_count=10998 15 23
internal_value=0 -0.000259377
internal_weight=0 385.023
internal_count=11036 11021
is_linear=0
shrinkage=0.0556828


Tree=85
num_leaves=4
num_cat=0
split_feature=4 0 0
split_gain=1.25488 1.89361 1.73303
threshold=1.5000000000000002 16.500000000000004 13.500000000000002
decision_type=10 2 2
left_child=1 -1 -2
right_child=2 -3 -4
leaf_value=-0.0029557547511567311 0.034809438523354816 0.00610592957350942 -0.006170506554937622
leaf_weight=277.6551003260538 7.3484013043344003 96.301040582358837 5.6673779338598251
leaf_count=9594 86 1300 56
internal_value=0 -0.000622193 0.0169658
internal_weight=0 373.956 13.0158
internal_count=11036 10894 142
is_linear=0
shrinkage=0.0556828


Tree=86
num_leaves=4
num_cat=0
split_feature=3 3 0
split_gain=1.24308 2.61231 0.604438
threshold=4.2500000000000009 1.0000000180025095e-35 23.500000000000004
decision_type=10 10 2
left_child=1 -1 -2
right_child=2 -3 -4
leaf_value=-0.00075174126669437589 -0.042273426740472811 0.019364572727514739 -0.0070494537236716797
leaf_weight=359.61452016606927 3.0947929592803112 21.195414278656244 2.9506000578403473
leaf_count=10581 68 334 53
internal_value=0 0.000367908 -0.0250815
internal_weight=0 380.81 6.04539
internal_count=11036 10915 121
is_linear=0
shrinkage=0.0556828


Tree=87
num_leaves=3
num_cat=0
split_feature=3 2
split_gain=1.19011 1.59352
threshold=6.2500000000000009 89.500000000000014
decision_type=10 10
left_child=1 -1
right_child=-2 -3
leaf_value=-0.00030257138132516173 -0.037490476908504107 0.024569132022003635
leaf_weight=376.05163268372416 2.611663255840539 8.1604088172316533
leaf_count=10891 79 66
internal_value=0 0.000225687
internal_weight=0 384.212
internal_count=11036 10957
is_linear=0
shrinkage=0.0556828


Tree=88
num_leaves=4
num_cat=0
split_feature=1 3 2
split_gain=1.15822 1.47825 1.04006
threshold=5.5000000000000009 5.7500000000000009 0.75000000000000011
decision_type=2 10 10
left_child=1 -1 -2
right_child=2 -3 -4
leaf_value=-0.0003257298286312073 0.00017936476938831266 -0.039694504113189415 0.029436247286231298
leaf_weight=368.70247065462172 7.3861505612730962 2.9811528054997316 7.6896646842360497
leaf_count=10826 75 89 46
internal_value=0 -0.000641494 0.0151023
internal_weight=0 371.684 15.0758
internal_count=11036 10915 121
is_linear=0
shrinkage=0.0556828


Tree=89
num_leaves=3
num_cat=0
split_feature=4 6
split_gain=1.13952 1.2668
threshold=32.000000000000007 1.0000000180025095e-35
decision_type=10 2
left_child=1 -1
right_child=-2 -3
leaf_value=0.0010013724704650581 0.029215543888720202 -0.007997676657573994
leaf_weight=325.56610536482185 4.0881209373474112 56.992007547989488
leaf_count=8273 36 2727
internal_value=0 -0.000339271
internal_weight=0 382.558
internal_count=11036 11000
is_linear=0
shrinkage=0.0556828


Tree=90
num_leaves=4
num_cat=0
split_feature=1 2 6
split_gain=1.10101 4.07601 3.09366
threshold=1.0000000180025095e-35 16.500000000000004 1.0000000180025095e-35
decision_type=2 8 2
left_child=2 -2 -1
right_child=1 -3 -4
leaf_value=0.00017127443697463035 -0.0024475737322281386 0.017875214734969697 -0.018220176305954381
leaf_weight=210.7531572971493 98.728023916482925 44.342543101869524 32.767660369165242
leaf_count=6113 2358 903 1662
internal_value=0 0.00385117 -0.00230344
internal_weight=0 143.071 243.521
internal_count=11036 3261 7775
is_linear=0
shrinkage=0.0556828


Tree=91
num_leaves=3
num_cat=0
split_feature=5 0
split_gain=1.06593 1.37057
threshold=68.985000000000014 97.500000000000014
decision_type=2 2
left_child=1 -1
right_child=-2 -3
leaf_value=2.753659385399499e-05 0.040269130060021148 -0.041849768742046954
leaf_weight=382.01538655161858 2.024823570623993 2.4386587701737872
leaf_count=10998 15 23
internal_value=0 -0.000238098
internal_weight=0 384.454
internal_count=11036 11021
is_linear=0
shrinkage=0.0556828


Tree=92
num_leaves=4
num_cat=0
split_feature=4 0 5
split_gain=1.04697 1.63916 1.54842
threshold=1.5000000000000002 61.500000000000007 1.3550000000000002
decision_type=10 2 2
left_child=1 -1 -2
right_child=2 -3 -4
leaf_value=-0.0012912301807593792 -0.0017788707511122461 0.018328111184405006 0.036515857705551748
leaf_weight=359.51678077504039 7.3137964922934753 13.707121707499025 5.9267080277204514
leaf_count=10777 92 117 50
internal_value=0 -0.000570685 0.0153626
internal_weight=0 373.224 13.2405
internal_count=11036 10894 142
is_linear=0
shrinkage=0.0556828


Tree=93
num_leaves=3
num_cat=0
split_feature=3 3
split_gain=1.04898 1.57308
threshold=6.2500000000000009 1.0000000180025095e-35
decision_type=10 10
left_child=1 -1
right_child=-2 -3
leaf_value=-0.00072804065348771718 -0.036208505225215876 0.013773856346711411
leaf_weight=359.09678527712822 2.4682061960920683 24.793613821268082
leaf_count=10581 79 376
internal_value=0 0.000208566
internal_weight=0 383.89
internal_count=11036 10957
is_linear=0
shrinkage=0.0556828


Tree=94
num_leaves=4
num_cat=0
split_feature=3 3 0
split_gain=0.997671 2.07215 0.651376
threshold=4.2500000000000009 1.0000000180025095e-35 24.500000000000004
decision_type=10 10 2
left_child=1 -1 -2
right_child=2 -3 -4
leaf_value=-0.00068795739567245476 -0.041294169219937532 0.017014245557561845 -0.0036623097458658126
leaf_weight=358.86558667942882 2.9535431498661628 21.744891885668039 2.7577342242002487
leaf_count=10581 70 334 51
internal_value=0 0.000323398 -0.0231233
internal_weight=0 380.61 5.71128
internal_count=11036 10915 121
is_linear=0
shrinkage=0.0556828


Tree=95
num_leaves=4
num_cat=0
split_feature=1 3 0
split_gain=0.974293 1.26925 1.0167
threshold=5.5000000000000009 5.7500000000000009 17.500000000000004
decision_type=2 10 2
left_child=1 -1 -2
right_child=2 -3 -4
leaf_value=-0.00030608225870945718 0.027271555438779276 -0.038135660664001772 -0.0015978345146396343
leaf_weight=368.32377853710204 8.10335850343108 2.7706455430015913 7.0931008905172339
leaf_count=10826 83 89 38
internal_value=0 -0.000588523 0.0137965
internal_weight=0 371.094 15.1965
internal_count=11036 10915 121
is_linear=0
shrinkage=0.0556828


end of trees

feature_importances:
hospital_stay=74
digoxina=53
antiarritmico=41
admission_pre_t0_count=40
icu_t0=26
bic=22
procedure_type_new_X2=12

parameters:
[boosting: gbdt]
[objective: binary]
[metric: binary_logloss]
[tree_learner: serial]
[device_type: cpu]
[data: ]
[valid: ]
[num_iterations: 96]
[learning_rate: 0.0556828]
[num_leaves: 4]
[num_threads: 0]
[deterministic: 1]
[force_col_wise: 0]
[force_row_wise: 0]
[histogram_pool_size: -1]
[max_depth: 2]
[min_data_in_leaf: 56]
[min_sum_hessian_in_leaf: 0.001]
[bagging_fraction: 1]
[pos_bagging_fraction: 1]
[neg_bagging_fraction: 1]
[bagging_freq: 0]
[bagging_seed: 24187]
[feature_fraction: 1]
[feature_fraction_bynode: 1]
[feature_fraction_seed: 11805]
[extra_trees: 0]
[extra_seed: 32071]
[early_stopping_round: 0]
[first_metric_only: 0]
[max_delta_step: 0]
[lambda_l1: 0]
[lambda_l2: 0]
[linear_lambda: 0]
[min_gain_to_split: 0]
[drop_rate: 0.1]
[max_drop: 50]
[skip_drop: 0.5]
[xgboost_dart_mode: 0]
[uniform_drop: 0]
[drop_seed: 3498]
[top_rate: 0.2]
[other_rate: 0.1]
[min_data_per_group: 100]
[max_cat_threshold: 32]
[cat_l2: 10]
[cat_smooth: 10]
[max_cat_to_onehot: 4]
[top_k: 20]
[monotone_constraints: ]
[monotone_constraints_method: basic]
[monotone_penalty: 0]
[feature_contri: ]
[forcedsplits_filename: ]
[refit_decay_rate: 0.9]
[cegb_tradeoff: 1]
[cegb_penalty_split: 0]
[cegb_penalty_feature_lazy: ]
[cegb_penalty_feature_coupled: ]
[path_smooth: 0]
[interaction_constraints: ]
[verbosity: -1]
[saved_feature_importance_type: 0]
[linear_tree: 0]
[max_bin: 255]
[max_bin_by_feature: ]
[min_data_in_bin: 3]
[bin_construct_sample_cnt: 200000]
[data_random_seed: 2487]
[is_enable_sparse: 1]
[enable_bundle: 1]
[use_missing: 1]
[zero_as_missing: 0]
[feature_pre_filter: 0]
[pre_partition: 0]
[two_round: 0]
[header: 0]
[label_column: ]
[weight_column: ]
[group_column: ]
[ignore_column: ]
[categorical_feature: ]
[forcedbins_filename: ]
[precise_float_parser: 0]
[objective_seed: 24437]
[num_class: 1]
[is_unbalance: 0]
[scale_pos_weight: 1]
[sigmoid: 1]
[boost_from_average: 1]
[reg_sqrt: 0]
[alpha: 0.9]
[fair_c: 1]
[poisson_max_delta_step: 0.7]
[tweedie_variance_power: 1.5]
[lambdarank_truncation_level: 30]
[lambdarank_norm: 1]
[label_gain: ]
[eval_at: ]
[multi_error_top_k: 1]
[auc_mu_weights: ]
[num_machines: 1]
[local_listen_port: 12400]
[time_out: 120]
[machine_list_filename: ]
[machines: ]
[gpu_platform_id: -1]
[gpu_device_id: -1]
[gpu_use_dp: 0]
[num_gpu: 1]

end of parameters
