tree
version=v3
num_class=1
num_tree_per_iteration=1
label_index=0
max_feature_idx=14
objective=binary sigmoid:1
feature_names=hospital_stay age year_adm_t0 admission_pre_t0_count espironolactona comorbidities_count diuretico metodos_graficos_qtde antiarritmico education_level_X2 education_level_X4 education_level_X999 education_level_.merged cied_final_group_1_X2 cied_final_group_1_.merged
feature_infos=[0:360] [0:103.90000000000001] [1999:2021] [0:38] [0:141] [0:8] [0:1245] [0:97] [0:844] [0:1] [0:1] [0:1] [0:1] [0:1] none
tree_sizes=1774 1798 1609 1825 1398 1394 1609 1721 1603 1720 1732 1820 1824 1607 1726 1408 1712 1308 1731 1834 1621 1619 1303 1719 1408 1512 1407 1295 1413 1415 1625 1411 1192 1409 1420 1311 1417 1406 1193 1418 1618 991 1206 1409 1098 1422 1090 1412 1411 884 1196 1313 1087 1527 981 875 1387 1196 1633 883 986 881 881 1501 1521 987 1635 1521 882 1196 675 1401 1413 884 977 674 1090 1204 881 670 1399 1298 1728 881 1725 1527 673 1206 1507 674 1306 1093 880 1399 1721

Tree=0
num_leaves=16
num_cat=0
split_feature=0 11 4 4 2 5 6 1 1 1 5 13 1 6 1
split_gain=236.637 72.4672 55.1882 48.0532 36.5991 32.7315 29.4605 28.4759 26.7035 24.6758 19.7734 18.0992 17.0934 11.5751 5.59091
threshold=13.500000000000002 1.0000000180025095e-35 1.0000000180025095e-35 3.5000000000000004 2015.5000000000002 3.5000000000000004 2.2500000000000004 74.450000000000017 79.450000000000017 77.950000000000017 1.5000000000000002 1.0000000180025095e-35 68.050000000000011 35.500000000000007 64.65000000000002
decision_type=2 2 10 10 8 2 10 2 2 2 2 2 2 10 2
left_child=2 5 8 7 -5 13 14 -3 11 -8 -10 -1 -7 -2 -4
right_child=1 3 6 4 -6 12 9 -9 10 -11 -12 -13 -14 -15 -16
leaf_value=-3.0733128646651768 -3.0316410392107933 -2.935621127410923 -3.0673565411759087 -2.6053086792320976 -2.9298725268102537 -2.9427151451734508 -2.9469508936433098 -2.7754493342040414 -3.0408760008754543 -2.7266473506457505 -2.9568793752697733 -2.9930128940635057 -2.7252497197150047 -2.9278672010193225 -2.9956365176819091
leaf_weight=258.77197355031967 24.9940165579319 18.10520634055138 12.629485398530962 7.1096054166555378 2.5612243115901956 4.1509497463703147 22.741905525326732 9.008444130420683 65.885287463665009 3.1352918297052375 19.739090815186501 16.162208586931229 3.709359347820282 7.5953548550605765 11.039759963750837
leaf_count=5860 566 410 286 161 58 94 515 204 1492 71 447 366 84 172 250
internal_value=-3.02514 -2.90693 -3.0474 -2.83215 -2.69127 -2.97493 -2.97455 -2.8824 -3.05741 -2.92026 -3.02151 -3.06859 -2.84009 -3.00746 -3.03391
internal_weight=0 77.2342 410.105 36.7845 9.67083 40.4497 49.5464 27.1137 360.559 25.8772 85.6244 274.934 7.86031 32.5894 23.6692
internal_count=11036 1749 9287 833 219 916 1122 614 8165 586 1939 6226 178 738 536
is_linear=0
shrinkage=1


Tree=1
num_leaves=16
num_cat=0
split_feature=0 11 4 3 1 5 2 3 5 6 0 3 4 0 1
split_gain=182.974 48.6569 44.4864 31.1707 30.149 27.4254 38.3701 27.4994 24.3371 19.2832 16.4818 16.3728 12.4846 10.2499 4.86164
threshold=12.500000000000002 1.0000000180025095e-35 1.0000000180025095e-35 1.5000000000000002 59.750000000000007 2.5000000000000004 2013.5000000000002 3.5000000000000004 3.5000000000000004 2.2500000000000004 20.500000000000004 1.5000000000000002 1.0000000180025095e-35 27.500000000000004 64.65000000000002
decision_type=2 2 10 2 2 2 8 2 2 10 2 2 10 2 2
left_child=2 8 5 4 -3 7 -7 -1 13 14 -5 -11 -10 -2 -4
right_child=1 3 9 10 -6 6 -8 -9 12 11 -12 -13 -14 -15 -16
leaf_value=-0.041742090838423652 -0.017821813195015964 0.023578999593782186 -0.039789299971224448 0.15168463772541244 0.16286274709290807 -0.046200844119351381 0.1017970720703754 0.12482797164881396 0.061430958639683099 0.062373505164213756 0.36901861961611881 0.23145174241823899 0.22492723993366176 0.064812119930177964 0.027842903357383479
leaf_weight=302.1222218722105 23.556503936648369 12.327174030244349 11.856408800929787 3.2068349346518508 26.588362511247396 19.056775622069836 18.919047493487597 5.4686374627053729 5.2784819751977903 23.664740268141035 4.6090136431157589 3.5724639855325213 4.8631102554500103 12.426534529775379 11.20278427749872
leaf_count=7058 533 240 279 63 507 442 429 127 100 487 85 73 96 270 247
internal_value=0 0.092744 -0.0220785 0.145687 0.118742 -0.0314935 0.0275297 -0.0387807 0.0391045 0.0426087 0.279847 0.08455 0.139831 0.0107153 -0.00693173
internal_weight=0 92.856 395.863 46.7314 38.9155 345.567 37.9758 307.591 46.1246 50.2964 7.81585 27.2372 10.1416 35.983 23.0592
internal_count=11036 1894 9142 895 747 8056 871 7185 999 1086 148 560 196 803 526
is_linear=0
shrinkage=0.0736173


Tree=2
num_leaves=14
num_cat=0
split_feature=0 11 3 4 4 1 5 5 4 6 4 13 1
split_gain=148.273 44.1666 38.0955 36.8037 28.6487 27.5837 20.4146 20.2265 13.3451 12.0866 12.0194 11.9841 4.41287
threshold=10.500000000000002 1.0000000180025095e-35 3.5000000000000004 1.0000000180025095e-35 3.5000000000000004 75.950000000000017 4.5000000000000009 2.5000000000000004 5.5000000000000009 2.2500000000000004 2.2500000000000004 1.0000000180025095e-35 64.65000000000002
decision_type=2 2 2 10 10 2 2 2 10 10 10 2 2
left_child=3 6 4 5 -3 11 8 -7 -2 12 -11 -1 -5
right_child=1 2 -4 9 -6 7 -8 -9 -10 10 -12 -13 -14
leaf_value=-0.05235366670412897 -0.01478769738633608 0.069606535063763492 0.35539545834122882 -0.036541542519706427 0.18681044318039353 -0.013421995286726459 0.15823688103072189 0.087536247245892471 0.067747514598194433 0.16041829417028797 0.042970557334805884 0.018516870186169175 0.029453215342020451
leaf_weight=197.79562342166901 35.292889028787613 41.830479305237532 3.3859521709382525 10.941784344613554 15.48732743039727 100.73336540162563 5.5961254201829425 12.040117010474203 15.185027528554199 6.1736780069768455 20.08685665205121 13.835596673190592 11.023062419146298
leaf_count=4822 776 775 52 267 238 2400 97 252 311 116 384 309 237
internal_value=0 0.0719365 0.11545 -0.0231299 0.101275 -0.0320502 0.0248308 -0.00264332 0.010041 0.0368758 0.0705817 -0.0477204 -0.00342206
internal_weight=0 116.778 60.7038 372.63 57.3178 324.405 56.074 112.773 50.4779 48.2254 26.2605 211.631 21.9648
internal_count=11036 2249 1065 8787 1013 7783 1184 2652 1087 1004 500 5131 504
is_linear=0
shrinkage=0.0736173


Tree=3
num_leaves=16
num_cat=0
split_feature=0 4 11 1 2 13 5 5 8 0 6 4 1 8 8
split_gain=121.121 32.0544 31.0599 25.5863 25.3863 24.3176 16.67 16.327 11.5994 10.3828 9.38946 7.93778 7.24454 4.60599 4.48836
threshold=10.500000000000002 1.0000000180025095e-35 1.0000000180025095e-35 75.950000000000017 2015.5000000000002 1.0000000180025095e-35 3.5000000000000004 1.5000000000000002 7.2500000000000009 27.500000000000004 2.2500000000000004 2.2500000000000004 68.050000000000011 0.75000000000000011 0.75000000000000011
decision_type=2 10 2 2 10 2 2 2 10 2 10 10 2 10 10
left_child=1 3 6 8 5 -4 9 -5 -1 -2 14 -12 -8 -6 -3
right_child=2 10 4 7 13 -7 12 -9 -10 -11 11 -13 -14 -15 -16
leaf_value=-0.048399988643642748 -0.023719859769822375 -0.022854944054179007 0.091422951079870765 -0.018920008426248497 -0.039005277863058511 0.21094590551662137 0.039763249675157562 0.045364273816579155 0.099229625083048417 0.054097860742187351 0.12834590924230946 0.038261279356241178 0.14691596231345186 0.061868414309091492 0.053338426090197975
leaf_weight=199.67384994775057 30.289368715137243 16.256119642406706 44.406437698751688 83.762434776872396 7.4224140122532827 11.64425705000758 6.84662803635001 28.765039317309856 2.9266236126422873 13.404354378581045 7.1063057892024544 20.866395138204098 6.8314240239560604 3.6642127595841885 5.6449780985712996
leaf_count=5058 691 371 706 2036 126 172 119 616 73 270 116 384 104 61 133
internal_value=0 -0.0219552 0.0621307 -0.0306342 0.0961203 0.116253 0.0223555 -0.00248722 -0.0462674 0.00015305 0.032883 0.0611468 0.0932801 -0.00566577 -0.00321621
internal_weight=0 365.002 124.509 315.128 67.1373 56.0507 57.3718 112.527 202.6 43.6937 49.8738 27.9727 13.6781 11.0866 21.9011
internal_count=11036 8787 2249 7783 1065 878 1184 2652 5131 961 1004 500 223 187 504
is_linear=0
shrinkage=0.0736173


Tree=4
num_leaves=12
num_cat=0
split_feature=0 3 11 4 3 1 1 4 1 13 6
split_gain=99.9344 29.2605 32.0228 25.4086 23.1663 23.0372 22.2053 21.4974 20.0727 10.8617 7.96871
threshold=10.500000000000002 3.5000000000000004 1.0000000180025095e-35 1.0000000180025095e-35 1.0000000180025095e-35 79.450000000000017 85.950000000000017 5.5000000000000009 37.150000000000013 1.0000000180025095e-35 3.7500000000000004
decision_type=2 2 2 10 2 2 2 8 2 2 10
left_child=1 3 -3 5 6 -1 7 -2 -6 -10 -5
right_child=4 2 -4 10 8 -7 -8 -9 9 -11 -12
leaf_value=-0.044209878273159656 -0.014207996923137732 -0.026088641530122397 0.26117760686298941 -0.0025852842335154923 -0.048677663985657961 0.0023321764640738866 0.19184322572452289 0.064068437175517273 0.086158855913571281 0.16614309314900069 0.056721396606262353
leaf_weight=222.2109165713191 42.505945779383183 4.2870051302015764 4.1281925961375237 26.547845419496298 4.8557688593864432 77.821698270738125 4.3462860547006121 34.405085366219282 32.48744822666049 12.8371116630733 22.843426208943129
leaf_count=5825 803 91 87 580 86 1815 71 558 545 186 389
internal_value=0 -0.0208166 0.114834 -0.0240835 0.0542438 -0.0321379 0.0299562 0.0208079 0.0935727 0.108813 0.024844
internal_weight=0 357.839 8.4152 349.424 131.438 300.033 81.2573 76.911 50.1803 45.3246 49.3913
internal_count=11036 8787 178 8609 2249 7640 1432 1361 817 731 969
is_linear=0
shrinkage=0.0736173


Tree=5
num_leaves=12
num_cat=0
split_feature=0 3 3 4 1 8 13 5 3 5 0
split_gain=85.8767 41.5967 26.0176 24.8786 24.0893 19.9241 19.0548 13.6401 10.6957 6.89411 5.29303
threshold=6.5000000000000009 6.5000000000000009 1.0000000180025095e-35 1.5000000000000002 75.550000000000011 39.500000000000007 1.0000000180025095e-35 2.5000000000000004 1.5000000000000002 2.5000000000000004 3.5000000000000004
decision_type=2 2 2 10 2 10 2 2 2 2 2
left_child=3 2 5 4 9 -2 -4 -6 10 -1 -5
right_child=1 -3 6 8 7 -7 -8 -9 -10 -11 -12
leaf_value=-0.056448873219261834 0.0045959128023462768 0.296478985388195 0.046458815579752372 0.035589544170983645 -0.014750611411624705 0.11607480887930466 0.13587274157377055 0.070904454091508307 0.14040135726284073 -0.0084872977662285472 -0.033396559274304356
leaf_weight=142.9299225397408 113.7615231461823 3.306029073894023 48.138725768774748 22.682846620678905 88.810850374400616 9.4071212485432607 17.653686951845884 11.364926233887671 4.3622681610286227 18.324829831719398 8.208909906446932
leaf_count=3932 2269 42 862 445 2181 148 245 214 74 471 153
internal_value=0 0.0376042 0.033075 -0.025557 -0.0333854 0.0131102 0.0704507 -0.00503306 0.0324953 -0.0509986 0.0172578
internal_weight=0 192.267 188.961 296.685 261.431 123.169 65.7924 100.176 35.254 161.255 30.8918
internal_count=11036 3566 3524 7470 6798 2417 1107 2395 672 4403 598
is_linear=0
shrinkage=0.0736173


Tree=6
num_leaves=14
num_cat=0
split_feature=0 3 4 1 3 5 1 0 13 5 3 5 0
split_gain=72.9075 28.8589 21.861 22.528 17.4144 15.2284 20.8134 14.3029 13.1415 10.3523 7.70093 7.35042 4.46679
threshold=6.5000000000000009 1.0000000180025095e-35 1.5000000000000002 75.950000000000017 6.5000000000000009 3.5000000000000004 65.050000000000011 36.500000000000007 1.0000000180025095e-35 2.5000000000000004 1.5000000000000002 2.5000000000000004 3.5000000000000004
decision_type=2 2 10 2 2 2 2 2 2 2 2 2 2
left_child=2 5 3 11 8 7 -7 -2 -3 -5 12 -1 -4
right_child=1 4 10 9 -6 6 -8 -9 -10 -11 -12 -13 -14
leaf_value=-0.055057330878267231 -0.0075592227584912741 0.041279286138917418 0.031905754468669063 -0.012908091054637203 0.21647905131853776 -0.015609817675493243 0.15515469608166477 0.075101146425400458 0.11223833227540427 0.061239716501809816 0.1147662952818668 -0.0058620623587667718 -0.031901949234068069
leaf_weight=138.12140483781695 96.046024408191442 50.10926016792655 23.409429177641872 85.151270143687725 4.1528510451316825 6.9245212748646727 8.7638390921056253 12.864096365869043 19.707542177289724 11.594174329191445 4.9191231727600089 18.686709050089121 7.9701091237366191
leaf_count=4002 1976 862 445 2111 42 112 128 201 245 203 74 482 153
internal_value=0 0.0335963 -0.0243092 -0.0319588 0.0700209 0.0119723 0.0797827 0.00220434 0.0613093 -0.00402206 0.0291246 -0.0491948 0.0156992
internal_weight=0 198.568 289.852 253.554 73.9697 124.598 15.6884 108.91 69.8168 96.7454 36.2987 156.808 31.3795
internal_count=11036 3566 7470 6798 1149 2417 240 2177 1107 2314 672 4484 598
is_linear=0
shrinkage=0.0736173


Tree=7
num_leaves=15
num_cat=0
split_feature=7 2 3 11 2 3 13 5 1 8 13 0 7 6
split_gain=62.1457 25.9444 25.1943 21.5422 29.1376 17.9962 17.2313 15.1737 11.8366 9.94495 9.79727 8.10318 5.99836 5.1434
threshold=4.5000000000000009 2015.5000000000002 1.0000000180025095e-35 1.0000000180025095e-35 2013.5000000000002 6.5000000000000009 1.0000000180025095e-35 2.5000000000000004 75.950000000000017 0.75000000000000011 1.0000000180025095e-35 18.500000000000004 10.500000000000002 15.750000000000002
decision_type=10 10 2 2 10 2 2 2 2 10 2 2 8 10
left_child=2 3 8 4 -2 10 -5 13 9 -1 -4 -10 -9 -3
right_child=1 7 5 6 -6 -7 -8 12 11 -11 -12 -13 -14 -15
leaf_value=-0.047749828252624062 -0.019009063728225337 -0.060766725409616897 -0.002634991717901324 0.075921333979145328 0.1136773694693467 0.19240600346516837 0.1871899839202352 0.11020169918938355 -0.011526152608085734 0.011129129473008955 0.055782849766805122 0.12173616689590447 0.00044000356421004295 0.0041558273150451089
leaf_weight=144.54353257641196 27.48072362691164 17.498336113989357 87.659815721213818 41.437670323997736 13.315281882882116 2.9386627525091162 9.2213239148259145 6.5856551714241478 82.880360931158066 17.420552708208561 18.916120339184999 2.5489159226417533 4.5712486393749723 10.63127129524946
leaf_count=3935 568 385 2131 649 216 40 99 102 1940 392 300 35 66 178
internal_value=0 0.0426187 -0.0167086 0.0641125 0.0242981 0.012689 0.0961753 -0.00741662 -0.0297221 -0.0414169 0.00773357 -0.00755006 0.0652297 -0.03623
internal_weight=0 130.742 356.908 91.455 40.796 109.515 50.659 39.2865 247.393 161.964 106.576 85.4293 11.1569 28.1296
internal_count=11036 2263 8773 1532 784 2471 748 731 6302 4327 2431 1975 168 563
is_linear=0
shrinkage=0.0736173


Tree=8
num_leaves=14
num_cat=0
split_feature=0 11 5 3 4 1 7 1 5 5 3 6 7
split_gain=54.8386 22.278 19.7774 19.4968 18.959 20.4483 17.0391 14.2188 9.12931 6.34125 5.05035 4.94465 4.08318
threshold=6.5000000000000009 1.0000000180025095e-35 1.5000000000000002 3.5000000000000004 1.5000000000000002 75.550000000000011 4.5000000000000009 86.15000000000002 2.5000000000000004 2.5000000000000004 1.5000000000000002 24.250000000000004 1.5000000000000002
decision_type=2 2 2 2 10 2 8 2 2 2 2 10 10
left_child=4 2 11 6 5 9 -3 -4 -7 -1 12 -2 -6
right_child=1 3 7 -5 10 8 -8 -9 -10 -11 -12 -13 -14
leaf_value=-0.053277446725968805 -0.050221749144623629 -0.0072228204954279604 0.01977112359575622 0.155453815520219 -0.030811814388516302 -0.012509528068991112 0.059492859075020631 0.17339579893194054 0.054293709603434034 -0.0062991409560000777 0.091628325847778816 0.023830014469868273 0.030674955657738912
leaf_weight=125.45495275035501 32.731735102832317 28.666191700845957 53.52676710486412 8.7562077678740007 7.7759694047272232 85.868791107088327 75.098071236163378 3.4772314839065066 12.730352606624363 17.778567105531693 5.5523133426904669 5.7444332912564269 23.671580292284489
leaf_count=3932 770 527 929 74 150 2181 1117 50 214 471 74 99 448
internal_value=0 0.0277701 0.00161569 0.0499637 -0.0221769 -0.0296854 0.0410618 0.0291422 -0.00388441 -0.0474464 0.0268996 -0.0391659 0.0154713
internal_weight=0 208.001 95.4802 112.52 278.833 241.833 103.764 57.004 98.5991 143.234 36.9999 38.4762 31.4475
internal_count=11036 3566 1848 1718 7470 6798 1644 979 2395 4403 672 869 598
is_linear=0
shrinkage=0.0736173


Tree=9
num_leaves=15
num_cat=0
split_feature=0 3 4 1 4 7 2 1 13 5 5 5 1 6
split_gain=46.8861 18.0273 16.6584 18.9808 12.4256 13.1405 11.5833 10.9117 9.0097 8.36203 7.56312 6.03895 4.69922 5.07294
threshold=6.5000000000000009 1.0000000180025095e-35 1.5000000000000002 75.550000000000011 6.5000000000000009 6.5000000000000009 2014.5000000000002 85.950000000000017 1.0000000180025095e-35 1.5000000000000002 2.5000000000000004 2.5000000000000004 80.450000000000017 3.7500000000000004
decision_type=2 2 10 2 10 10 10 2 2 2 2 2 2 10
left_child=2 4 3 11 7 -6 8 -2 -3 -8 -5 -1 13 -4
right_child=1 6 12 10 5 -7 9 -9 -10 -11 -12 -13 -14 -15
leaf_value=-0.051976809512941015 -0.011293930050383186 0.051344671801200864 -0.011495688756892041 -0.011727702402637503 -0.0057082728565096231 0.097670629149560789 -0.045862411483951142 0.07304296466769726 0.11542342848813056 0.04111212772156736 0.047891662857197322 -0.0058706848836496692 0.10416938933412352 0.045193432194769699
leaf_weight=119.3592671956867 93.442942153662443 38.826166305691004 17.725635781884193 84.888909351080656 11.876852769404652 15.180882502347229 8.9599851891398448 9.1261369064450246 17.141806080937386 18.078477136790752 13.344214916229246 17.675820667296648 3.6101306825876227 16.535681620240211
leaf_count=3932 1899 573 358 2181 180 192 163 146 165 248 214 471 59 255
internal_value=0 0.0250694 -0.0210316 -0.0283258 0.00791651 0.052293 0.0518562 -0.00379001 0.0709706 0.0122906 -0.00362887 -0.0460297 0.0242822 0.0158644
internal_weight=0 212.633 273.14 235.268 129.627 27.0577 83.0064 102.569 55.968 27.0385 98.2331 137.035 37.8714 34.2613
internal_count=11036 3566 7470 6798 2417 372 1149 2045 738 411 2395 4403 672 613
is_linear=0
shrinkage=0.0736173


Tree=10
num_leaves=15
num_cat=0
split_feature=0 3 1 5 2 8 0 11 6 7 6 11 4 7
split_gain=40.5067 24.7875 17.8759 14.9973 19.7869 13.3737 11.6078 22.7761 18.6289 10.0578 8.50513 8.25354 8.21088 1.88836
threshold=16.500000000000004 1.0000000180025095e-35 59.750000000000007 1.5000000000000002 2013.5000000000002 74.500000000000014 2.5000000000000004 1.0000000180025095e-35 3.7500000000000004 20.500000000000004 35.500000000000007 1.0000000180025095e-35 1.0000000180025095e-35 54.500000000000007
decision_type=2 2 2 2 10 10 2 2 10 8 10 2 8 8
left_child=1 3 9 11 -5 12 8 -8 -3 10 -2 -1 -4 -11
right_child=2 6 5 4 -6 -7 7 -9 -10 13 -12 -13 -14 -15
leaf_value=-0.055569389303045093 -0.00077287496318438425 -0.021271527681188784 0.025810748997278046 -0.03631878902774402 0.034200527410008112 0.17965059378156584 -0.0049331194905859526 0.082206532241010946 0.14516328555800537 -0.081437352513012332 0.090014882437763927 -0.023281216364746338 0.080943618004658102 -0.024987598082132127
leaf_weight=74.15673603862524 18.201061878353361 50.378928055986762 28.258645925670862 41.236000701785088 45.20021640509367 5.0129203461110583 33.89471273496747 31.236805789172649 3.9289201050996772 6.2299360409378979 8.0724949464201909 101.81143610738218 30.376091286540031 6.6288123354315767
leaf_count=2231 277 1388 392 1007 942 51 666 549 70 84 100 2836 342 101
internal_value=0 -0.011899 0.0401663 -0.0245534 0.000557979 0.0642396 0.0159023 0.0368587 -0.00923074 0.00101169 0.0271215 -0.0368881 0.0543727 -0.0523369
internal_weight=0 381.844 102.78 262.404 86.4362 63.6477 119.439 65.1315 54.3078 39.1323 26.2736 175.968 58.6347 12.8587
internal_count=11036 9689 1347 7016 1949 785 2673 1215 1458 562 377 5067 734 185
is_linear=0
shrinkage=0.0736173


Tree=11
num_leaves=16
num_cat=0
split_feature=7 3 2 4 1 2 3 5 7 0 1 11 7 6 0
split_gain=35.3626 17.6245 17.5057 12.5684 15.7479 11.0916 13.1578 10.2654 9.95356 9.77328 12.1281 5.83863 4.31249 4.126 0.00451221
threshold=4.5000000000000009 1.0000000180025095e-35 2015.5000000000002 3.5000000000000004 73.15000000000002 2002.5000000000002 6.5000000000000009 2.5000000000000004 18.500000000000004 13.500000000000002 79.450000000000017 1.0000000180025095e-35 10.500000000000002 15.750000000000002 6.5000000000000009
decision_type=10 2 10 10 2 8 2 2 10 2 2 2 10 10 2
left_child=1 9 3 4 -2 14 -7 13 -5 10 -1 -11 -9 -4 -3
right_child=2 5 7 8 -6 6 -8 12 -10 11 -12 -13 -14 -15 -16
leaf_value=-0.041296921845806488 -0.0058638310463230365 -0.07647336132197359 -0.059690977681434595 0.10094737705022196 0.064614749183238979 0.011599710319953957 0.16326455101538595 0.077126257116550981 -0.0024136887574150701 -0.039983218193710424 -0.001210642224792693 0.046568455083705898 -0.0095519454324541828 -0.002128286972601427 -0.080348722321583285
leaf_weight=150.84279931150377 36.021520245820284 4.8108099624514571 16.5281803496182 28.052581947296858 32.851552532985806 101.203687697649 3.1980350576341143 7.8895806148648244 6.1575159952044478 5.866507127881051 56.121883869171143 15.086202330887318 5.1357278861105442 11.405271794646977 2.4613221064209938
leaf_count=4632 671 141 385 294 509 2262 30 102 58 127 1334 209 66 178 38
internal_value=0 -0.013837 0.0296929 0.0458702 0.0277535 0.0101223 0.0162455 -0.0110213 0.0823433 -0.0255764 -0.0304269 0.022335 0.04295 -0.036188 -0.077785
internal_weight=0 339.591 144.042 103.083 68.8731 111.674 104.402 40.9588 34.2101 227.917 206.965 20.9527 13.0253 27.9335 7.27213
internal_count=11036 8773 2263 1532 1180 2471 2292 731 352 6302 5966 336 168 563 179
is_linear=0
shrinkage=0.0736173


Tree=12
num_leaves=16
num_cat=0
split_feature=0 11 2 4 1 2 5 2 5 5 6 7 1 1 8
split_gain=30.7376 14.2281 14.2331 14.042 17.0215 13.3717 13.3145 8.41495 5.65597 5.56855 3.82078 3.48602 5.80399 5.76707 2.90925
threshold=6.5000000000000009 1.0000000180025095e-35 2015.5000000000002 1.5000000000000002 75.550000000000011 2002.5000000000002 1.5000000000000002 2013.5000000000002 2.5000000000000004 2.5000000000000004 24.250000000000004 1.5000000000000002 62.750000000000007 78.15000000000002 1.7500000000000002
decision_type=2 2 10 10 2 10 2 10 2 2 10 10 2 2 10
left_child=3 6 5 4 8 -3 10 -8 -1 -6 -2 12 -5 -13 -4
right_child=1 2 14 11 9 -7 7 -9 -10 -11 -12 13 -14 -15 -16
leaf_value=-0.049285043657689334 -0.047802038645271945 -0.079117534064616316 -0.044158430306792937 0.042394964099796983 -0.0092141949012473807 0.05135468970082769 -0.016898011463765135 0.039416825158140323 -0.0038344073084302824 0.040915451717680268 0.015634165748540107 0.021111119351388846 -0.078851022587576647 0.11057090323274658 0.022112335184111809
leaf_weight=108.24456511251628 30.257241362705827 4.4423136860132209 12.680177997797729 4.2772778496146184 81.853595042601228 102.08221750892699 22.552680779248476 39.683535039424896 17.195578875020146 14.074021216481922 6.2000064365565768 25.013636998832229 4.2814922891557217 4.6278910711407653 5.0078330300748339
leaf_count=3932 770 82 234 87 2181 1333 413 566 471 214 99 439 77 69 69
internal_value=0 0.0191803 0.0357591 -0.0180902 -0.0252031 0.0459137 -0.00168524 0.0190099 -0.0430546 -0.00185942 -0.0370139 0.0231284 -0.0182579 0.0350784 -0.0253958
internal_weight=0 222.906 124.213 259.568 221.368 106.525 98.6935 62.2362 125.44 95.9276 36.4572 38.2003 8.55877 29.6415 17.688
internal_count=11036 3566 1718 7470 6798 1415 1848 979 4403 2395 869 672 164 508 303
is_linear=0
shrinkage=0.0736173


Tree=13
num_leaves=14
num_cat=0
split_feature=4 13 1 0 0 2 5 7 7 1 1 9 13
split_gain=26.9848 19.0678 19.5989 18.1664 9.8075 9.49157 8.01008 7.3379 7.56751 6.8118 5.94593 4.77419 4.37438
threshold=1.0000000180025095e-35 1.0000000180025095e-35 74.250000000000014 36.500000000000007 33.500000000000007 2015.5000000000002 4.5000000000000009 4.5000000000000009 20.500000000000004 48.45000000000001 80.550000000000011 1.0000000180025095e-35 1.0000000180025095e-35
decision_type=10 2 2 2 2 10 2 10 10 2 2 2 2
left_child=1 2 4 -4 -1 7 12 10 -9 -3 -2 -11 -7
right_child=5 9 3 -5 -6 6 -8 8 -10 11 -12 -13 -14
leaf_value=-0.037983972804743256 0.0093214906331711804 0.1378922446748892 -0.0018399041846207805 0.14269137395593728 0.033956322176061461 0.011028422603100945 0.094736667604370148 0.076741903765517913 -0.012005304599559832 0.044117507026741019 0.11094133941806293 -0.042457046501608281 -0.038381901657734446
leaf_weight=161.58218685351312 31.943575959652662 3.6875945441424873 148.79934718087316 4.8672559745609751 10.967136062681673 24.486782213672996 4.5211928263306609 37.424302987754345 6.0488136298954478 23.345873335376385 3.4583218470215789 4.051083341240882 16.091853201389313
leaf_count=5104 532 72 3429 49 162 423 46 376 62 393 51 81 256
internal_value=0 -0.0111333 -0.016383 0.002738 -0.0334115 0.0287281 0.00179019 0.0441309 0.0643937 0.0439593 0.0192485 0.0313161 -0.00856572
internal_weight=0 357.3 326.216 153.667 172.549 123.975 45.0998 78.875 43.4731 31.0846 35.4019 27.397 40.5786
internal_count=11036 9290 8744 3478 5266 1746 725 1021 438 546 583 474 679
is_linear=0
shrinkage=0.0736173


Tree=14
num_leaves=15
num_cat=0
split_feature=3 0 2 11 0 2 1 8 5 8 1 6 0 1
split_gain=24.2099 18.0615 11.9374 12.9969 15.879 13.7847 10.4523 10.3827 9.94102 7.10463 11.6682 7.49944 0.00308163 3.13974e-05
threshold=1.0000000180025095e-35 12.500000000000002 2002.5000000000002 1.0000000180025095e-35 2.5000000000000004 2010.5000000000002 80.350000000000009 0.75000000000000011 1.5000000000000002 39.500000000000007 85.550000000000011 13.250000000000002 6.5000000000000009 57.250000000000007
decision_type=2 2 8 2 2 8 2 10 2 8 2 10 2 2
left_child=1 6 12 5 -5 -4 7 -1 -8 10 -3 -11 13 -2
right_child=2 9 3 4 -6 -7 8 -9 -10 11 -12 -13 -14 -15
leaf_value=-0.039797126007285168 -0.075939080930630926 -0.0082352323820915219 -0.048624018649088996 -0.0029787719439396993 0.066111066663617768 0.021812740446257629 -0.017392540454849285 0.017501024971187676 0.048788278391339535 0.021735570317148432 0.11660754366712957 0.10666335058749374 -0.079549280550368487 -0.076340603081354694
leaf_weight=148.99127617292106 2.1702400334179393 52.59210255369544 20.266358053311706 25.871356595307589 59.468505000695586 58.588370267301798 39.609273908659816 19.366972777992487 17.841119755059481 18.645046096295122 4.3964820206165305 8.0755335874855501 2.1664765514433384 2.0546848736703396
leaf_count=4866 76 791 512 730 714 1051 1022 471 302 270 46 82 38 65
internal_value=0 -0.0131261 0.0214144 0.0252566 0.045166 0.00370987 -0.0239537 -0.0332059 0.0031598 0.0160816 0.00139598 0.0474026 -0.0772919 -0.0761344
internal_weight=0 309.518 170.586 164.195 85.3399 78.8547 225.809 168.358 57.4504 83.7092 56.9886 26.7206 6.3914 4.22492
internal_count=11036 7850 3186 3007 1444 1563 6661 5337 1324 1189 837 352 179 141
is_linear=0
shrinkage=0.0736173


Tree=15
num_leaves=12
num_cat=0
split_feature=6 0 1 3 5 2 4 1 2 2 7
split_gain=21.2802 14.0851 10.3546 10.2483 9.26151 7.45992 8.65954 7.08505 6.23198 4.97993 4.75798
threshold=3.2500000000000004 4.5000000000000009 75.950000000000017 3.5000000000000004 5.5000000000000009 2016.5000000000002 1.0000000180025095e-35 69.450000000000017 2015.5000000000002 2020.5000000000002 18.500000000000004
decision_type=10 2 2 2 2 10 10 2 10 8 8
left_child=1 2 9 7 5 6 -2 -3 -4 -1 -7
right_child=4 3 8 -5 -6 10 -8 -9 -10 -11 -12
leaf_value=-0.042938948496991834 0.0042522071321737867 -0.015796245933145485 0.0068334715537097584 0.079580977963799801 0.10606689560038758 -0.00015503558580153037 0.047114075223206327 0.017834214992513878 -0.043347077838906525 0.035277119357266323 -0.080856385226901029
leaf_weight=102.5297803170979 45.251500211656094 69.176629928871989 60.540117727592587 9.5562235563993436 6.8249385710805646 33.239356584846973 58.660194721072912 66.668668230995536 17.22994395531714 4.6098944451659909 4.4947081804275504
leaf_count=3768 845 1593 1536 98 65 566 632 1327 405 140 61
internal_value=0 -0.011251 -0.0247313 0.00589228 0.0223038 0.0182678 0.0284486 0.000708544 -0.00428402 -0.0395735 -0.00976781
internal_weight=0 330.311 184.91 145.402 148.471 141.646 103.912 135.845 77.7701 107.14 37.7341
internal_count=11036 8867 5849 3018 2169 2104 1477 2920 1941 3908 627
is_linear=0
shrinkage=0.0736173


Tree=16
num_leaves=15
num_cat=0
split_feature=3 0 1 1 7 3 5 8 0 4 1 1 7 0
split_gain=19.6833 14.7158 10.8128 9.03248 8.90242 10.1865 8.48203 8.41997 7.01601 6.3404 9.46013 4.89649 2.79672 0.736162
threshold=1.0000000180025095e-35 12.500000000000002 37.150000000000013 79.450000000000017 2.5000000000000004 3.5000000000000004 1.5000000000000002 0.75000000000000011 53.500000000000007 5.5000000000000009 85.550000000000011 59.750000000000007 2.5000000000000004 33.500000000000007
decision_type=2 2 2 2 10 2 2 10 2 8 2 2 8 2
left_child=1 3 12 7 5 -4 -5 -1 -6 10 -3 -11 -2 -14
right_child=2 9 4 6 8 -7 -8 -9 -10 11 -12 -13 13 -15
leaf_value=-0.038462091587340499 0.013643775541725528 -0.017757717525099692 -0.0034349020539926182 -0.017705901393453204 0.035755460678775067 0.078596399724334673 0.039127060430714879 0.01340816150587049 0.12833803490510562 0.0045105621254406857 0.089607797432948944 0.056030872282966736 -0.078605582248284511 -0.034229889246316383
leaf_weight=134.59487696550786 3.225177671760318 39.134776594117284 68.748757312074304 43.590932004153728 77.843420591205359 9.3156996760517341 21.130571413785219 19.405601508915424 4.7040599957108489 17.113215886056423 5.0178869180381289 24.043319635093212 6.843327485024929 2.8780973479151726
leaf_count=4702 92 651 1675 1144 1048 124 347 468 44 239 47 252 167 36
internal_value=0 -0.0121125 0.0189598 -0.0222275 0.0241767 0.00635417 0.000849183 -0.0319259 0.0410314 0.013821 -0.00555578 0.0346083 -0.04576 -0.0654678
internal_weight=0 304.031 173.559 218.722 160.612 78.0645 64.7215 154 82.5475 85.3092 44.1527 41.1565 12.9466 9.72142
internal_count=11036 7850 3186 6661 2891 1799 1491 5170 1092 1189 698 491 295 203
is_linear=0
shrinkage=0.0736173


Tree=17
num_leaves=11
num_cat=0
split_feature=4 11 2 2 3 2 7 6 2 6
split_gain=17.1533 15.478 19.6673 21.2915 19.0621 11.0153 6.21351 7.83896 6.6582 4.38557
threshold=1.0000000180025095e-35 1.0000000180025095e-35 2013.5000000000002 2014.5000000000002 3.5000000000000004 2015.5000000000002 23.500000000000004 56.500000000000007 2015.5000000000002 17.750000000000004
decision_type=10 2 8 10 2 10 10 10 10 10
left_child=1 2 9 -4 5 -3 7 8 -2 -1
right_child=6 4 3 -5 -6 -7 -8 -9 -10 -11
leaf_value=-0.057838101616941556 0.032437880456882 0.0050784918411698847 0.088701058166693603 -0.017799046543988305 0.097142832923994227 -0.050455452287219406 -0.044228156598286827 0.081264334058485571 -0.0058971869857916614 0.016023831611150573
leaf_weight=71.751424157992005 73.58546588383615 164.00784235261381 12.238338269293306 60.294540744274855 11.265660490840672 21.947316909208894 7.2535633444786063 12.450743809342383 36.850336246192455 4.6381823420524588
leaf_count=2410 934 4175 262 1645 107 612 79 111 622 79
internal_value=0 -0.00936996 -0.0272845 0.000170519 0.00415742 -0.00147589 0.0219812 0.0258893 0.0196462 -0.0533534
internal_weight=0 346.143 148.922 72.5329 197.221 185.955 130.14 122.887 110.436 76.3896
internal_count=11036 9290 4396 1907 4894 4787 1746 1667 1556 2489
is_linear=0
shrinkage=0.0736173


Tree=18
num_leaves=15
num_cat=0
split_feature=3 0 2 11 2 0 5 2 1 8 1 6 0 3
split_gain=15.8781 12.1813 9.67395 8.78548 10.6183 9.69945 8.12009 16.865 7.37151 5.31922 8.52467 5.06962 0.00216472 0.000148975
threshold=1.0000000180025095e-35 12.500000000000002 2002.5000000000002 1.0000000180025095e-35 2010.5000000000002 2.5000000000000004 1.5000000000000002 2013.5000000000002 92.850000000000009 39.500000000000007 69.450000000000017 40.500000000000007 6.5000000000000009 2.5000000000000004
decision_type=2 2 8 2 8 2 2 10 2 8 2 10 2 2
left_child=1 6 12 4 -4 -5 8 -8 -1 10 -3 -11 13 -2
right_child=2 9 3 5 -6 -7 7 -9 -10 11 -12 -13 -14 -15
leaf_value=-0.033449550215232951 -0.075612766683145288 -0.026729128855753615 -0.046306839515405832 -0.0026757631281452694 0.016984506877902698 0.050734290593806006 -0.039604271995164017 0.031181648228082882 0.090850435397633919 0.021495488749248365 0.029927873313604809 0.095891020604312233 -0.079018482229183756 -0.076544498988068727
leaf_weight=136.16063844412565 2.1972321495413776 31.229433391243219 18.784518416970968 25.725445695221424 61.06828011572361 64.954322326928377 33.313300222158432 40.317360328510404 2.6357279121875754 22.033857703208927 26.694740980863571 6.4077315330505362 1.9589362461119888 1.6125566866248844
leaf_count=4789 90 497 512 730 1051 714 934 866 72 297 340 55 38 51
internal_value=0 -0.0111281 0.0167303 0.019902 0.00209589 0.0355821 -0.0206059 -0.000844584 -0.0310891 0.0121837 -0.000618373 0.0382564 -0.0770297 -0.0760071
internal_weight=0 298.793 176.301 170.533 79.8528 90.6798 212.427 73.6307 138.796 86.3658 57.9242 28.4416 5.76873 3.80979
internal_count=11036 7850 3186 3007 1563 1444 6661 1800 4861 1189 837 352 179 141
is_linear=0
shrinkage=0.0736173


Tree=19
num_leaves=16
num_cat=0
split_feature=6 11 0 2 2 2 8 7 7 0 6 7 1 0 1
split_gain=13.9013 14.6637 11.0789 9.03299 14.951 8.64504 8.35744 6.22125 9.87113 5.77369 7.14482 4.82771 3.70954 2.62556 2.60442
threshold=1.0000000180025095e-35 1.0000000180025095e-35 4.5000000000000009 2013.5000000000002 2014.5000000000002 2002.5000000000002 0.75000000000000011 14.500000000000002 4.5000000000000009 6.5000000000000009 58.250000000000007 3.5000000000000004 58.150000000000013 18.500000000000004 66.250000000000014
decision_type=10 2 2 8 10 10 10 10 10 2 10 10 2 2 2
left_child=1 3 11 13 -5 -4 7 8 -2 12 -11 -3 -8 -1 -9
right_child=6 2 5 4 -6 -7 9 14 -10 10 -12 -13 -14 -15 -16
leaf_value=-0.060533558229373258 -0.0089356164103396793 -0.021126218094273331 -0.078234853648137453 0.082536145192954283 -0.028943555423800636 0.027364754464827022 0.1258318251948525 -0.080304318880576306 0.032842207049296614 0.0088085340874171324 0.068255268638431107 0.088882986213996748 0.047373318198095815 -0.0046057024298809509 -0.013074065066783993
leaf_weight=47.750030355527997 79.140685392543674 74.835740230977535 4.4546969681978217 7.7460437193512908 41.187832333147526 73.91322130151093 5.0225249286741009 6.3340366967022401 50.024029109627008 46.232503548264503 14.360515754669903 2.2262499649077645 9.3376106191426498 5.0281101092696181 6.1595305725932121
leaf_count=1822 1875 2564 102 171 1195 1294 99 95 739 515 125 72 190 111 67
internal_value=0 -0.012349 0.00187212 -0.0340808 -0.0112967 0.0213621 0.0129648 0.00244637 0.00724446 0.0328441 0.0228974 -0.0179482 0.0748145 -0.0552054 -0.0471587
internal_weight=0 257.142 155.43 101.712 48.9339 78.3679 216.611 141.658 129.165 74.9532 60.593 77.062 14.3601 52.7781 12.4936
internal_count=11036 7331 4032 3299 1366 1396 3705 2776 2614 929 640 2636 289 1933 162
is_linear=0
shrinkage=0.0736173


Tree=20
num_leaves=14
num_cat=0
split_feature=3 4 1 5 1 2 7 8 1 7 7 0 5
split_gain=13.3583 10.3394 10.2657 11.2689 8.55634 6.27465 5.7483 5.06872 4.04435 6.99994 2.68795 0.759484 5.39343e-05
threshold=1.0000000180025095e-35 6.5000000000000009 66.250000000000014 2.5000000000000004 37.150000000000013 2002.5000000000002 2.5000000000000004 0.75000000000000011 69.850000000000009 6.5000000000000009 2.5000000000000004 35.500000000000007 1.0000000180025095e-35
decision_type=2 10 2 2 2 8 8 10 2 10 8 2 2
left_child=1 2 7 -4 10 12 -7 -1 9 -3 -2 -12 -6
right_child=4 8 3 -5 5 6 -8 -9 -10 -11 11 -13 -14
leaf_value=-0.043691330369329831 0.013657487255015503 -0.032948457675170233 -0.014085957997149382 0.033726336882906813 -0.076306682634369613 0.0030354862214738072 0.031980863267861183 -8.2876430560829217e-07 0.07208653656360603 0.044302137097991877 -0.078517218962076765 -0.031659726517694511 -0.076876702277023382
leaf_weight=74.067969394847751 3.2098520919680569 10.632404979318382 134.70566904172301 33.324447089806199 1.8381203226745122 57.732687257230282 104.45979135669768 17.860989890992641 8.3209006078541261 15.80886637419462 6.3864702451974154 2.6535625234246254 1.7618604991585014
leaf_count=2640 92 157 3879 533 65 1330 1437 401 81 159 170 33 59
internal_value=0 -0.0103821 -0.0154243 -0.00460362 0.0151573 0.019544 0.0216777 -0.0352026 0.0273248 0.0132386 -0.0442143 -0.0647629 -0.0765857
internal_weight=0 294.721 259.959 168.03 178.042 165.792 162.192 91.929 34.7622 26.4413 12.2499 9.04003 3.59998
internal_count=11036 7850 7453 4412 3186 2891 2767 3041 397 316 295 203 124
is_linear=0
shrinkage=0.0736173


Tree=21
num_leaves=14
num_cat=0
split_feature=3 0 1 1 5 8 2 0 1 5 11 7 6
split_gain=11.4497 8.96094 7.68871 7.4369 6.81831 6.48974 5.20207 5.16158 5.15037 4.66383 4.51433 2.51389 0.819446
threshold=1.0000000180025095e-35 12.500000000000002 79.450000000000017 37.150000000000013 1.0000000180025095e-35 0.75000000000000011 2015.5000000000002 53.500000000000007 59.750000000000007 3.5000000000000004 1.0000000180025095e-35 2.5000000000000004 28.250000000000004
decision_type=2 2 2 2 2 10 10 2 2 2 2 8 10
left_child=1 2 5 11 -4 -1 8 10 -3 -8 -5 -2 -13
right_child=3 6 4 7 -6 -7 9 -9 -10 -11 -12 12 -14
leaf_value=-0.034142090772057578 0.012493177609193645 -0.010904827129186006 -0.02750687809952803 0.0017013753713347487 0.022393849759035037 0.011305908405114393 -0.041708392858521737 0.083879871301345818 0.032890270661023999 0.048363637663541417 0.02640591809556618 -0.07813318880473992 -0.027905084946950369
leaf_weight=121.24620328098536 3.249096950516102 20.995246822014451 24.099190454930067 72.785339763388038 38.621936177834868 19.809834806248546 15.567755468189718 6.1757532507181159 47.426111983135343 3.8949234671890727 89.230379587039351 6.0730691226199269 2.4787824526429176
leaf_count=4702 92 341 702 1415 789 468 278 49 529 41 1427 173 30
internal_value=0 -0.00974986 -0.018224 0.0138616 0.00322061 -0.0277594 0.00989912 0.0178253 0.0194516 -0.0236829 0.0153074 -0.0426311 -0.0635744
internal_weight=0 291.661 203.777 179.992 62.7211 141.056 87.884 168.191 68.4214 19.4627 162.016 11.8009 8.55185
internal_count=11036 7850 6661 3186 1491 5170 1189 2891 870 319 2842 295 203
is_linear=0
shrinkage=0.0736173


Tree=22
num_leaves=11
num_cat=0
split_feature=4 13 1 0 1 0 7 6 1 9
split_gain=10.6731 12.0918 12.2821 8.95509 6.41279 6.17804 5.95204 6.33304 5.27022 3.14508
threshold=1.0000000180025095e-35 1.0000000180025095e-35 74.250000000000014 36.500000000000007 48.45000000000001 33.500000000000007 20.500000000000004 56.500000000000007 39.050000000000004 1.0000000180025095e-35
decision_type=10 2 2 2 2 2 10 10 2 2
left_child=1 2 5 -4 -3 -1 7 8 -2 -6
right_child=6 4 3 -5 9 -7 -8 -9 -10 -11
leaf_value=-0.031648028837465446 -0.047749272291084083 0.12357656420706731 -0.0012879777132704989 0.089189014081941992 0.032207266716331832 0.023664003515523693 -0.036878093094428029 0.071050548593706339 0.019713128899345473 -0.039975312851050805
leaf_weight=138.41751520801336 6.6727969981729975 3.8824567086994639 146.35932129248977 6.1789013408124438 25.107699012383822 11.883430942893026 10.347334168851374 12.445627409964798 105.46531041152775 3.7614320050925008
leaf_count=5104 109 72 3429 49 393 162 107 99 1431 81
internal_value=0 -0.0077439 -0.0123394 0.00237699 0.0347484 -0.0272748 0.0167723 0.0212283 0.0156988 0.0228024
internal_weight=0 335.591 302.839 152.538 32.7516 150.301 134.931 124.584 112.138 28.8691
internal_count=11036 9290 8744 3478 546 5266 1746 1639 1540 474
is_linear=0
shrinkage=0.0736173


Tree=23
num_leaves=15
num_cat=0
split_feature=2 2 11 1 3 5 1 6 6 1 3 4 9 1
split_gain=10.0131 23.6155 30.5056 19.43 17.5692 14.8382 11.6852 7.23604 6.78353 9.31487 6.29016 2.50572 1.79657 0.449966
threshold=2015.5000000000002 2013.5000000000002 1.0000000180025095e-35 85.750000000000014 3.5000000000000004 1.5000000000000002 59.95000000000001 17.750000000000004 2.7500000000000004 52.650000000000013 2.5000000000000004 18.250000000000004 1.0000000180025095e-35 90.450000000000017
decision_type=10 8 2 2 2 2 2 10 10 2 2 8 2 2
left_child=1 2 7 10 -4 8 12 -1 13 -10 -3 -8 -7 -2
right_child=5 3 4 -5 -6 6 11 -9 9 -11 -12 -13 -14 -15
leaf_value=-0.047359920488923825 -0.06935558228765748 0.039137918397175564 0.0063740446797332026 0.15720888679695655 0.090123357888647976 -0.062136287850087756 0.019498688519721127 0.015572098927547613 0.076681755063346291 -0.041118755140856736 -0.048488553118638159 0.080779270959895136 -0.0050191307957710672 -0.028637009015710611
leaf_weight=77.470603916794062 32.54304351657629 49.764301927760243 188.55044602788985 7.5643624775111666 14.628520261496304 12.188764141872527 40.565619733184576 11.352944370359181 4.7305573876947191 15.748582910746334 4.8745470121502867 3.9700543731451026 3.9522169567644587 1.540422786027192
leaf_count=2686 1212 893 4313 87 115 215 713 150 92 360 47 37 72 44
internal_value=0 0.00544453 -0.00332878 0.0466294 0.0124038 -0.0195376 0.00551239 -0.0393163 -0.0473945 -0.0139076 0.0313204 0.0249614 -0.0481508 -0.0675153
internal_weight=0 354.206 292.003 62.2032 203.179 115.239 60.6767 88.8235 54.5626 20.4791 54.6388 44.5357 16.141 34.0835
internal_count=11036 8291 7264 1027 4428 2745 1037 2836 1708 452 940 750 287 1256
is_linear=0
shrinkage=0.0736173


Tree=24
num_leaves=12
num_cat=0
split_feature=2 2 2 11 1 5 1 6 1 0 1
split_gain=9.82538 10.5205 17.0997 28.8453 13.9459 13.518 10.2063 6.5899 0.55642 0.00347984 0.000117124
threshold=2002.5000000000002 2015.5000000000002 2013.5000000000002 1.0000000180025095e-35 85.750000000000014 1.5000000000000002 59.95000000000001 2.7500000000000004 22.050000000000004 12.500000000000002 76.15000000000002
decision_type=8 10 8 2 2 2 2 10 2 2 2
left_child=8 2 3 -2 -4 7 -7 -3 -1 10 -10
right_child=1 5 4 -5 -6 6 -8 -9 9 -11 -12
leaf_value=-0.028792428021135377 -0.037156640721986593 -0.066790701292413046 0.028224322772821945 0.014739819264705292 0.12962706493234183 -0.046537899287576998 0.02263975535763631 -0.013120816382083686 -0.075384497101074435 -0.07873317072248133 -0.076165931969595743
leaf_weight=1.5513069638982404 82.232834462076426 31.996522206813097 56.078987980261445 197.33140105195343 8.4590388201177102 15.501821929588912 45.436358580365777 20.242883736267686 5.6075504506006819 2.5062712430953979 1.2760341521352527
leaf_count=61 2676 1256 940 4166 87 287 750 452 271 48 42
internal_value=0 0.00095569 0.00735957 -0.000525342 0.0415152 -0.0185145 0.00504193 -0.0459935 -0.0696366 -0.0763845 -0.0755294
internal_weight=0 457.28 344.102 279.564 64.538 113.178 60.9382 52.2394 10.9412 9.38986 6.88358
internal_count=11036 10614 7869 6842 1027 2745 1037 1708 422 361 313
is_linear=0
shrinkage=0.0736173


Tree=25
num_leaves=13
num_cat=0
split_feature=3 4 1 5 2 7 0 8 7 7 0 3
split_gain=9.14978 7.52707 7.5405 6.56161 6.54725 5.63977 5.24313 4.56366 3.45125 6.1898 0.000925187 0.000100419
threshold=1.0000000180025095e-35 6.5000000000000009 66.250000000000014 2.5000000000000004 2002.5000000000002 21.500000000000004 53.500000000000007 0.75000000000000011 17.500000000000004 6.5000000000000009 6.5000000000000009 2.5000000000000004
decision_type=2 10 2 2 8 10 2 8 10 10 2 2
left_child=1 2 7 -4 10 6 -6 -1 9 -3 11 -2
right_child=4 8 3 -5 5 -7 -8 -9 -10 -11 -12 -13
leaf_value=-0.046539889324954412 -0.075152207556216627 -0.0013611236572504486 -0.011997009591880256 0.023511995926253474 0.014685739549655791 -0.053172792376686755 0.088107658544501935 -0.012019913203931244 -0.027860527061788053 0.065822483173917923 -0.077777230815265413 -0.076024666196937346
leaf_weight=47.137246862053871 1.6780896717682474 14.526222033426167 130.079315347597 36.010334543883801 164.82238602824509 6.4354275651276103 5.4452135339379302 37.08439324144274 6.0793505236506453 15.218151666224001 1.4911819640547035 1.2457071524113414
leaf_count=1880 90 205 3879 533 2899 68 40 1161 56 136 38 51
internal_value=0 -0.0088799 -0.0133969 -0.00429821 0.0122645 0.0144769 0.0170338 -0.0313401 0.0226819 0.0330121 -0.076285 -0.0755239
internal_weight=0 286.135 250.311 166.09 181.118 176.703 170.268 84.2216 35.8237 29.7444 4.41498 2.9238
internal_count=11036 7850 7453 4412 3186 3007 2939 3041 397 341 179 141
is_linear=0
shrinkage=0.0736173


Tree=26
num_leaves=12
num_cat=0
split_feature=2 2 2 11 5 1 1 6 1 0 1
split_gain=8.61628 9.15982 13.6993 25.1275 11.8606 10.1257 9.03158 6.40438 0.589249 0.00253461 7.7964e-05
threshold=2002.5000000000002 2015.5000000000002 2013.5000000000002 1.0000000180025095e-35 1.5000000000000002 85.750000000000014 56.95000000000001 2.7500000000000004 22.050000000000004 12.500000000000002 75.950000000000017
decision_type=8 10 8 2 2 2 2 10 2 2 2
left_child=8 2 3 -2 7 -4 -6 -3 -1 10 -10
right_child=1 4 5 -5 6 -7 -8 -9 9 -11 -12
leaf_value=-0.025284111337511548 -0.035521643723758191 -0.065948439437653758 0.025156829385305335 0.013497163208948469 -0.054519361403197929 0.10796473676691448 0.017636010788564752 -0.01200776996923871 -0.07518745752901404 -0.078191104474843953 -0.07585729270544958
leaf_weight=1.449901814572512 79.193587690591812 29.750830879434943 57.415099374949932 199.30321050994098 11.5825919508934 9.2989488430321199 49.919425737112761 19.913650361821055 5.0116059472784382 2.2683065198361874 1.1596083510667083
leaf_count=61 2676 1256 940 4166 220 87 817 452 270 48 43
internal_value=0 0.000817408 0.00673583 -0.000441867 -0.0175614 0.036699 0.00404709 -0.0443202 -0.0686385 -0.0760868 -0.0753133
internal_weight=0 456.377 345.211 278.497 111.166 66.714 61.502 49.6645 9.88942 8.43952 6.17121
internal_count=11036 10614 7869 6842 2745 1027 1037 1708 422 361 313
is_linear=0
shrinkage=0.0736173


Tree=27
num_leaves=11
num_cat=0
split_feature=4 13 1 0 1 7 6 7 1 2
split_gain=7.97706 9.18957 8.42012 11.8619 5.14684 4.74082 4.72694 4.63551 4.10291 2.98472
threshold=1.0000000180025095e-35 1.0000000180025095e-35 66.250000000000014 40.500000000000007 48.45000000000001 20.500000000000004 62.250000000000007 14.500000000000002 4.4500000000000011 2014.5000000000002
decision_type=10 2 2 2 2 10 10 10 2 8
left_child=1 2 8 -4 -3 6 7 -2 -1 -6
right_child=5 4 3 -5 9 -7 -8 -9 -10 -11
leaf_value=0.076142357754230186 0.0169261239807274 0.10595310534691976 -0.0063022087797867466 0.088996494443474142 0.031104050321263017 -0.034672040382794395 0.063076199109906861 -0.052767469160760881 -0.032502605106772234 -0.025250942405752583
leaf_weight=1.9260011268779624 109.79577902704477 4.1797061525285235 199.53558785561472 7.338807549327611 23.132573048584167 9.933503143489359 11.532716177403925 5.4278379455208769 85.95481691043824 6.5313591435551634
leaf_count=59 1507 72 5259 59 362 107 87 45 3367 112
internal_value=0 -0.00685957 -0.0110312 -0.00292152 0.0294722 0.0143027 0.0181407 0.0136431 -0.0301215 0.0186959
internal_weight=0 328.599 294.755 206.874 33.8436 136.69 126.756 115.224 87.8808 29.6639
internal_count=11036 9290 8744 5318 546 1746 1639 1552 3426 474
is_linear=0
shrinkage=0.0736173


Tree=28
num_leaves=12
num_cat=0
split_feature=2 3 5 2 1 1 7 2 0 0 3
split_gain=7.81173 8.13055 5.54656 8.07922 5.85861 4.96291 3.75633 1.93835 0.622 0.00138444 0.000107577
threshold=2002.5000000000002 1.0000000180025095e-35 1.0000000180025095e-35 2006.5000000000002 8.1500000000000004 28.450000000000003 21.500000000000004 2008.5000000000002 23.500000000000004 12.500000000000002 2.5000000000000004
decision_type=8 2 2 8 2 2 10 10 2 2 2
left_child=8 2 3 -2 -4 7 -7 -3 9 10 -1
right_child=1 5 4 -5 -6 6 -8 -9 -10 -11 -12
leaf_value=-0.075027393623828806 4.0776171249521783e-05 0.003676057228789636 0.10492986193662486 -0.048497418309348339 -0.0023280391181642363 0.017346212085739079 -0.045963167988800867 -0.079079336069582201 -0.020384526174800383 -0.077669618661083323 -0.075789322510597668
leaf_weight=5.1465598121285421 36.973790972493589 2.3942672759294501 2.7985913837328544 37.368191328831017 199.70196487382054 166.45797601528466 5.2389563098549834 4.2686655186116695 1.28357139788568 1.4873908683657644 1.2477453006431458
leaf_count=299 1226 63 57 1616 4708 2794 53 97 30 36 57
internal_value=0 0.000737789 -0.00715935 -0.0243571 -0.000845717 0.0129954 0.0154145 -0.0493419 -0.0679073 -0.0756466 -0.0751761
internal_weight=0 455.202 276.843 74.342 202.501 178.36 171.697 6.66293 9.16527 7.8817 6.39431
internal_count=11036 10614 7607 2842 4765 3007 2847 160 422 392 356
is_linear=0
shrinkage=0.0736173


Tree=29
num_leaves=12
num_cat=0
split_feature=2 2 2 11 5 3 1 6 0 0 3
split_gain=7.18198 7.89895 11.3218 21.6877 10.1697 8.95926 8.01936 6.06067 0.628041 0.0011052 8.62906e-05
threshold=2002.5000000000002 2015.5000000000002 2013.5000000000002 1.0000000180025095e-35 1.5000000000000002 2.5000000000000004 56.95000000000001 2.7500000000000004 23.500000000000004 12.500000000000002 2.5000000000000004
decision_type=8 10 8 2 2 2 2 10 2 2 2
left_child=8 2 3 -2 7 -4 -6 -3 9 10 -1
right_child=1 4 5 -5 6 -7 -8 -9 -10 -11 -12
leaf_value=-0.074925784469796031 -0.033911678381719539 -0.06489912192736294 0.040892521884476625 0.012174239497273188 -0.053544006357041686 -0.056109652073328235 0.015326171258708984 -0.011314804996865548 -0.01924575605974704 -0.077371564360318862 -0.075633111197457914
leaf_weight=4.7875361535698158 76.327767912298441 27.297373721376061 62.842537587508559 201.25616183876991 11.171662904322146 5.621856475248932 50.961758606135845 19.691510058008134 1.2603438664227722 1.3869507703930137 1.1614941535517571
leaf_count=299 2676 1256 976 4166 220 51 817 452 30 36 57
internal_value=0 0.000669154 0.00611501 -0.000498091 -0.0166007 0.0329273 0.00294323 -0.0424437 -0.0672525 -0.0755002 -0.0750639
internal_weight=0 455.171 346.048 277.584 109.122 68.4644 62.1334 46.9889 8.59632 7.33598 5.94903
internal_count=11036 10614 7869 6842 2745 1027 1037 1708 422 392 356
is_linear=0
shrinkage=0.0736173


Tree=30
num_leaves=14
num_cat=0
split_feature=3 4 1 2 1 8 0 6 5 6 1 8 2
split_gain=6.71201 5.55665 5.77089 5.22214 5.01973 4.35853 3.16805 9.70089 7.05762 2.86656 6.95992 3.17865 1.26173
threshold=1.0000000180025095e-35 6.5000000000000009 66.250000000000014 2015.5000000000002 28.450000000000003 0.75000000000000011 2.5000000000000004 3.7500000000000004 1.0000000180025095e-35 10.750000000000002 68.050000000000011 14.250000000000002 2008.5000000000002
decision_type=2 10 2 8 2 8 2 10 2 10 2 10 10
left_child=1 2 5 -4 12 -1 7 -6 -8 10 -3 -11 -2
right_child=4 9 3 -5 6 -7 8 -9 -10 11 -12 -13 -14
leaf_value=-0.043836552237192225 -0.016035669895357266 0.0061747929586041146 0.0027292235322280583 -0.029782513235501785 -0.013974693845721784 -0.009022821096731486 0.058590616696202212 0.094327011501409624 0.011362422391356276 -0.021810094684646401 0.11410106836472417 0.033637154221037878 -0.078612529704263426
leaf_weight=43.300730348564684 3.1709703560918561 8.9856309350579959 130.72028372529894 33.671704662032425 44.294903324916959 35.441342270933092 20.446449287235737 4.9869360420852891 106.29953331314027 12.644536368548872 5.0627657640725365 10.062272176146505 3.8864283235743642
leaf_count=1880 104 123 3372 1040 1324 1161 336 69 1256 142 51 81 97
internal_value=0 -0.00774649 -0.0117795 -0.00393002 0.0103821 -0.0281671 0.0128229 -0.00301541 0.0189812 0.0189317 0.0450693 0.00276074 -0.050496
internal_weight=0 279.889 243.134 164.392 183.085 78.7421 176.028 49.2818 126.746 36.7552 14.0484 22.7068 7.0574
internal_count=11036 7850 7453 4412 3186 3041 2985 1393 1592 397 174 223 201
is_linear=0
shrinkage=0.0736173


Tree=31
num_leaves=12
num_cat=0
split_feature=2 2 2 11 5 3 1 6 1 0 1
split_gain=6.6017 6.35334 9.44483 18.615 9.06502 7.70697 7.12875 5.83732 0.661768 0.00158177 4.0887e-05
threshold=2002.5000000000002 2015.5000000000002 2013.5000000000002 1.0000000180025095e-35 1.5000000000000002 2.5000000000000004 56.95000000000001 2.7500000000000004 22.050000000000004 12.500000000000002 76.15000000000002
decision_type=8 10 8 2 2 2 2 10 2 2 2
left_child=8 2 3 -2 7 -4 -6 -3 -1 10 -10
right_child=1 4 5 -5 6 -7 -8 -9 9 -11 -12
leaf_value=-0.017664346557109332 -0.032349149023577856 -0.063839317987984479 0.036637704835773832 0.010809301176811163 -0.051883293988993211 -0.054378355555605926 0.014435586423784213 -0.010050913000840241 -0.074869761906845453 -0.077470555137624644 -0.075415173884576275
leaf_weight=1.2638699477538446 73.795251483097672 25.166267770342529 64.752402288839221 203.57128766551614 10.597450237721203 5.4678121730685225 51.336300361901522 19.335415408946574 3.9749082690104842 1.9090359956026075 0.91668124590069044
leaf_count=61 2676 1256 976 4166 220 51 817 452 271 48 42
internal_value=0 0.00061363 0.0054326 -0.000673298 -0.0151237 0.0295506 0.0030878 -0.0404689 -0.0665822 -0.0756734 -0.074972
internal_weight=0 454.022 347.587 277.367 106.435 70.2202 61.9338 44.5017 8.0645 6.80063 4.89159
internal_count=11036 10614 7869 6842 2745 1027 1037 1708 422 361 313
is_linear=0
shrinkage=0.0736173


Tree=32
num_leaves=10
num_cat=0
split_feature=2 3 1 7 0 1 0 0 3
split_gain=6.06081 6.27459 4.95939 4.0709 4.06939 3.96987 0.774845 0.00079017 6.41956e-05
threshold=2002.5000000000002 1.0000000180025095e-35 94.90000000000002 21.500000000000004 53.500000000000007 8.1500000000000004 24.500000000000004 12.500000000000002 2.5000000000000004
decision_type=8 2 2 10 2 2 2 2 2
left_child=6 2 5 4 -3 -2 7 8 -1
right_child=1 3 -4 -5 -6 -7 -8 -9 -10
leaf_value=-0.074747448409630893 0.071165364465834144 0.011140797434416637 0.08767276271416205 -0.04927072353583152 0.074154657689617168 -0.0085518005709690256 -0.0070516802517424865 -0.076876110414256821 -0.075398082035790626
leaf_weight=4.151937022805213 3.4291070811450473 169.02182472124696 2.997727256268262 5.8400025293231002 5.7428467199206343 266.69696315843612 1.0464082043617962 1.3499343851581214 1.02467580512166
leaf_count=299 79 2899 53 68 40 7475 26 40 57
internal_value=0 0.000544971 -0.00649481 0.011191 0.0132115 -0.00753983 -0.0658609 -0.0752899 -0.0748762
internal_weight=0 453.728 273.124 180.605 174.765 270.126 7.57296 6.52655 5.17661
internal_count=11036 10614 7607 3007 2939 7554 422 396 356
is_linear=0
shrinkage=0.0736173


Tree=33
num_leaves=12
num_cat=0
split_feature=4 13 0 1 1 2 7 6 1 5 7
split_gain=5.73348 6.66603 6.85971 7.55014 4.42445 4.30923 4.11931 4.5459 3.74862 3.12975 1.118
threshold=1.0000000180025095e-35 1.0000000180025095e-35 33.500000000000007 75.950000000000017 45.95000000000001 2020.5000000000002 20.500000000000004 1.2500000000000002 62.95000000000001 1.0000000180025095e-35 3.5000000000000004
decision_type=10 2 2 2 2 10 10 10 2 2 10
left_child=1 2 3 -1 -3 6 7 -2 -4 -6 -7
right_child=5 4 8 -5 9 10 -8 -9 -10 -11 -12
leaf_value=-0.024890702650874053 -0.0099716355713230231 0.098897202328160058 -0.012996835745231645 -0.00015680198789675906 0.051908375752834246 -0.010572460776348951 -0.031238047786849441 0.026651188809844583 0.055136307080561588 0.00037477312170892957 -0.057255780923268162
leaf_weight=135.47091654548422 22.7588100284338 3.8497399799525729 6.5730556435883072 132.11162787023932 8.9753277627751249 6.1347921751439554 9.325530441477893 95.222694838419557 13.095207549631594 22.146061958745122 5.084435697644949
leaf_count=5564 438 58 110 2962 141 86 105 1061 108 347 56
internal_value=0 -0.00590018 -0.00959471 -0.012679 0.0244465 0.0120091 0.0158636 0.0195866 0.0323665 0.0152369 -0.0317288
internal_weight=0 322.222 287.251 267.583 34.9711 138.526 127.307 117.982 19.6683 31.1214 11.2192
internal_count=11036 9290 8744 8526 546 1746 1604 1499 218 488 142
is_linear=0
shrinkage=0.0736173


Tree=34
num_leaves=12
num_cat=0
split_feature=2 2 5 2 11 1 1 6 0 0 3
split_gain=5.47765 5.38165 8.19063 7.93109 16.016 7.25422 6.47361 5.48044 0.803575 0.000601904 5.53461e-05
threshold=2002.5000000000002 2015.5000000000002 1.5000000000000002 2013.5000000000002 1.0000000180025095e-35 85.750000000000014 59.95000000000001 2.7500000000000004 26.500000000000004 12.500000000000002 2.5000000000000004
decision_type=8 10 2 8 2 2 2 10 2 2 2
left_child=8 3 7 4 -2 -5 -4 -3 9 10 -1
right_child=1 2 6 5 -6 -7 -8 -9 -10 -11 -12
leaf_value=-0.074653633613664575 -0.030793294537398166 -0.062858955668381455 -0.041769135889188444 0.017077294038569078 0.0096995336373004032 0.083567658373102885 0.015625474550433484 -0.0098524782943708415 -0.00383955485953596 -0.076574316247113222 -0.075283860790558169
leaf_weight=3.7921312442049375 71.356972426176071 23.431017612107098 13.664790375158189 61.282436262816191 205.06672975793481 10.402135238051413 48.279022447764874 19.260469111613929 0.99795434251427639 1.2874243250116704 0.94297047518193711
leaf_count=299 2676 1256 287 940 4166 87 750 452 24 42 57
internal_value=0 0.000504831 -0.0141348 0.00490524 -0.000753425 0.0267257 0.00296424 -0.0389448 -0.0650243 -0.0751629 -0.0747791
internal_weight=0 452.744 104.635 348.108 276.424 71.6846 61.9438 42.6915 7.02048 6.02253 4.7351
internal_count=11036 10614 2745 7869 6842 1027 1037 1708 422 398 356
is_linear=0
shrinkage=0.0736173


Tree=35
num_leaves=11
num_cat=0
split_feature=2 3 5 0 1 7 6 0 0 3
split_gain=5.02654 5.29071 3.98155 6.96193 4.51854 3.46258 3.50979 0.881363 0.000486445 4.44041e-05
threshold=2002.5000000000002 1.0000000180025095e-35 1.0000000180025095e-35 21.500000000000004 8.1500000000000004 21.500000000000004 29.250000000000004 27.500000000000004 12.500000000000002 2.5000000000000004
decision_type=8 2 2 2 2 10 10 2 2 2
left_child=7 2 3 -2 -4 6 -3 8 9 -1
right_child=1 5 4 -5 -6 -7 -8 -9 -10 -11
leaf_value=-0.074579275257046315 -0.028621398412039572 0.008381950962116469 0.087856642376756902 0.051454002984963297 -0.002178062607172267 -0.046998133698164052 0.042018596532591219 0.0028432027795296131 -0.076326117128162341 -0.075164528500913305
leaf_weight=3.5263745770789674 63.464437822811306 157.10371980536729 3.0677773794159284 6.4855677280575028 197.74007067177445 5.5652000382542601 18.826507762074471 0.91346259601414193 1.2803549943491814 0.87738415598869313
leaf_count=299 2765 2788 57 77 4708 68 151 21 45 57
internal_value=0 0.000447641 -0.00607147 -0.021197 -0.000802586 0.010173 0.0119814 -0.0642766 -0.0750631 -0.0746959
internal_weight=0 452.253 270.758 69.95 200.808 181.495 175.93 6.59758 5.68411 4.40376
internal_count=11036 10614 7607 2842 4765 3007 2939 422 401 356
is_linear=0
shrinkage=0.0736173


Tree=36
num_leaves=12
num_cat=0
split_feature=2 2 5 2 11 3 1 1 0 0 3
split_gain=4.61222 4.76657 7.21292 6.53907 14.0967 6.79158 5.96585 5.38332 0.867034 0.00038886 3.56239e-05
threshold=2002.5000000000002 2015.5000000000002 1.5000000000000002 2013.5000000000002 1.0000000180025095e-35 2.5000000000000004 53.650000000000013 57.750000000000007 27.500000000000004 12.500000000000002 2.5000000000000004
decision_type=8 10 2 8 2 2 2 2 2 2 2
left_child=8 3 7 4 -2 -5 -4 -3 9 10 -1
right_child=1 2 6 5 -6 -7 -8 -9 -10 -11 -12
leaf_value=-0.07451030640035454 -0.029382914547916816 0.0051413424816988884 -0.059402300262350743 0.030460033124245282 0.0089865495210974984 -0.055083188947472543 0.01071415273653125 -0.054128295688525896 0.0026269365115204777 -0.076129237417643963 -0.07505381186233552
leaf_weight=3.2790172109380356 69.346300216391683 11.560711799189447 7.4725532960146657 67.645851571112871 206.17791710421443 5.4339475817978373 54.841019567102194 29.491580846719444 0.9157887864857911 1.1924459272995589 0.81627130601555098
leaf_count=299 2676 455 174 976 4166 51 863 1253 21 45 57
internal_value=0 0.000405346 -0.0134784 0.00452206 -0.000670607 0.0240994 0.00230589 -0.0374374 -0.0635057 -0.0749593 -0.0746186
internal_weight=0 451.97 103.366 348.604 275.524 73.0798 62.3136 41.0523 6.20352 5.28773 4.09529
internal_count=11036 10614 2745 7869 6842 1027 1037 1708 422 401 356
is_linear=0
shrinkage=0.0736173


Tree=37
num_leaves=12
num_cat=0
split_feature=4 13 0 1 1 2 1 7 6 0 4
split_gain=4.49339 5.27232 5.58589 5.96102 4.79093 3.80489 3.55266 3.42558 3.6489 2.55067 1.22116
threshold=1.0000000180025095e-35 1.0000000180025095e-35 40.500000000000007 75.950000000000017 65.450000000000017 2020.5000000000002 45.95000000000001 20.500000000000004 1.2500000000000002 24.500000000000004 4.2500000000000009
decision_type=10 2 2 2 2 10 2 10 10 2 10
left_child=1 2 3 -1 -4 7 -3 8 -2 -8 -7
right_child=5 6 4 -5 -6 10 9 -9 -10 -11 -12
leaf_value=-0.021977686289248451 -0.0092877370920811508 0.086032594597459294 -0.015495381750004401 -2.7059947948540224e-05 0.072248813563617523 -0.001539008894755772 0.021133160640568169 -0.029516543953270059 0.023627861715305346 -0.040922440476981528 -0.051315051637281686
leaf_weight=134.31610669288784 22.482757887803018 4.0788817703723899 5.6702257059514514 133.87698630988598 8.3220554850995523 4.5273025929927808 27.495440054684881 9.060443399474023 97.001747980713844 4.1286666411906472 6.5148471686989069
leaf_count=5612 438 58 95 2977 60 65 450 105 1061 38 77
internal_value=0 -0.00528222 -0.00865454 -0.0110203 0.0366914 0.0105627 0.0213715 0.014125 0.0174343 0.0130315 -0.0309068
internal_weight=0 317.888 282.185 268.193 13.9923 139.587 35.703 128.545 119.485 31.6241 11.0421
internal_count=11036 9290 8744 8589 155 1746 546 1604 1499 488 142
is_linear=0
shrinkage=0.0736173


Tree=38
num_leaves=10
num_cat=0
split_feature=3 1 1 8 7 6 8 7 2
split_gain=4.32758 3.94448 3.79585 3.49864 4.58359 3.6089 3.43075 3.90582 1.19418
threshold=1.0000000180025095e-35 28.450000000000003 94.90000000000002 39.500000000000007 17.500000000000004 40.500000000000007 95.500000000000014 21.500000000000004 2008.5000000000002
decision_type=2 2 2 10 10 10 10 10 10
left_child=2 8 3 4 -1 -5 7 -3 -2
right_child=1 6 -4 5 -6 -7 -8 -9 -10
leaf_value=-0.0075739707042714044 -0.014185875948120277 0.010482621358400767 0.072931090860616082 -0.007273284184913408 -0.064284765025509935 0.063982569680538032 0.082674840152947432 -0.06597943647444364 -0.078236375006045716
leaf_weight=245.41407870873809 2.9240710274316362 170.98423181381077 3.2354457303881636 8.0707112345844489 7.9748441306874147 7.369383178651332 3.4807434976100913 3.6989214848726979 3.4257661774754524
leaf_count=7534 104 2919 53 93 115 55 21 45 97
internal_value=0 0.00827353 -0.00633175 -0.0072857 -0.00935881 0.0267363 0.0103056 0.00886353 -0.0487414
internal_weight=0 184.514 272.064 268.829 253.389 15.4401 178.164 174.683 6.34984
internal_count=11036 3186 7850 7797 7649 148 2985 2964 201
is_linear=0
shrinkage=0.0736173


Tree=39
num_leaves=12
num_cat=0
split_feature=2 2 5 2 11 3 1 6 0 0 3
split_gain=4.14919 4.02477 6.40357 5.43652 12.1199 5.95809 5.33689 5.26097 1.0614 0.000601794 3.2403e-05
threshold=2002.5000000000002 2015.5000000000002 1.5000000000000002 2013.5000000000002 1.0000000180025095e-35 2.5000000000000004 53.650000000000013 2.7500000000000004 28.500000000000004 12.500000000000002 2.5000000000000004
decision_type=8 10 2 8 2 2 2 10 2 2 2
left_child=8 3 7 4 -2 -5 -4 -3 9 10 -1
right_child=1 2 6 5 -6 -7 -8 -9 -10 -11 -12
leaf_value=-0.074435640657801561 -0.027817155425282205 -0.06111712725728119 -0.058087476813461672 0.02758063258177023 0.0081715086569154084 -0.053619843348953387 0.0098954526269806851 -0.0072221730260506817 0.017613465119350295 -0.076420813391889969 -0.074975360614343192
leaf_weight=2.9927754751406606 67.152753000147641 20.839005094952881 7.0579978469759217 68.981408901512623 207.16426062304527 5.271460097283124 55.225624565966427 18.556715131737292 0.77490310743451107 1.2303411895409224 0.75491341715678562
leaf_count=299 2676 1256 174 976 4166 51 863 452 19 47 57
internal_value=0 0.000385572 -0.0125014 0.00414477 -0.000638509 0.0218159 0.00219161 -0.0357308 -0.0625323 -0.0750081 -0.0745444
internal_weight=0 450.249 101.679 348.57 274.317 74.2529 62.2836 39.3957 5.75293 4.97803 3.74769
internal_count=11036 10614 2745 7869 6842 1027 1037 1708 422 403 356
is_linear=0
shrinkage=0.0736173


Tree=40
num_leaves=14
num_cat=0
split_feature=3 4 1 8 1 1 1 7 2 6 1 7 2
split_gain=3.8277 3.48551 3.98871 4.29968 3.37492 3.46862 5.91792 5.88743 3.19523 2.64743 4.75395 2.97282 1.176
threshold=1.0000000180025095e-35 6.5000000000000009 66.250000000000014 0.75000000000000011 28.450000000000003 68.050000000000011 67.250000000000014 2.5000000000000004 2015.5000000000002 10.750000000000002 68.050000000000011 6.5000000000000009 2008.5000000000002
decision_type=2 10 2 8 2 2 2 8 8 10 2 10 10
left_child=1 2 3 -1 12 6 -6 -7 -4 10 -3 -11 -2
right_child=4 9 8 -5 5 7 -8 -9 -10 11 -12 -13 -14
leaf_value=-0.040281311530117443 -0.012486785026389202 0.0062785633553302991 0.0021074547955454107 -0.0041832210536796545 0.016482999780385778 -0.022562165038473549 0.10677073962275953 0.014154403045111097 -0.02445872026088125 -0.041239456775097882 0.093193031820521813 0.016515064119429494 -0.077867133738040953
leaf_weight=39.016001326963305 2.8526496547274283 8.9053548201918584 130.4734695921652 33.014022971503437 73.052948948461562 37.430356903001666 4.1582832634448996 64.371277148835361 30.218746933154762 6.8650177195668247 5.5275537744164458 16.294882457703352 3.1235841065645218
leaf_count=1880 104 123 3372 1161 1340 774 62 809 1040 85 51 138 97
internal_value=0 -0.00598125 -0.00934103 -0.0237362 0.00776206 0.00957887 0.0213455 0.00065448 -0.00288841 0.0148178 0.0395653 -0.000604431 -0.046659
internal_weight=0 270.315 232.722 72.03 184.989 179.013 77.2112 101.802 160.692 37.5928 14.4329 23.1599 5.97623
internal_count=11036 7850 7453 3041 3186 2985 1402 1583 4412 397 174 223 201
is_linear=0
shrinkage=0.0736173


Tree=41
num_leaves=8
num_cat=0
split_feature=2 3 5 2 0 0 3
split_gain=3.82538 3.65278 3.62614 3.70891 1.07499 0.000496306 2.81935e-05
threshold=2002.5000000000002 6.5000000000000009 5.5000000000000009 2015.5000000000002 29.500000000000004 12.500000000000002 2.5000000000000004
decision_type=8 2 2 10 2 2 2
left_child=4 2 3 -2 5 6 -1
right_child=1 -3 -4 -5 -6 -7 -8
leaf_value=-0.074379556158572918 0.0019774596158812258 0.048456731687579642 0.039261520206784466 -0.014505262846588948 0.019553142438831227 -0.07623100306856509 -0.074898940957325882
leaf_weight=2.7908475687727328 333.5573024712503 8.3968304190784675 12.054593829438089 95.074047001078725 0.75843030214309681 1.1794612091034649 0.71063435915857542
leaf_count=299 7744 56 114 2700 18 48 57
internal_value=0 0.000357811 -0.000558666 -0.00167855 -0.0617515 -0.0749249 -0.074485
internal_weight=0 449.083 440.686 428.631 5.43937 4.68094 3.50148
internal_count=11036 10614 10558 10444 422 404 356
is_linear=0
shrinkage=0.0736173


Tree=42
num_leaves=10
num_cat=0
split_feature=2 3 1 1 7 6 0 0 3
split_gain=3.50402 3.38807 3.19666 3.67857 2.6348 2.84402 1.03776 0.000398098 2.2622e-05
threshold=2002.5000000000002 1.0000000180025095e-35 8.1500000000000004 66.850000000000009 21.500000000000004 29.250000000000004 29.500000000000004 12.500000000000002 2.5000000000000004
decision_type=8 2 2 2 10 10 2 2 2
left_child=6 2 -2 -4 5 -3 7 8 -1
right_child=1 4 3 -5 -6 -7 -8 -9 -10
leaf_value=-0.074325030737129941 0.064108473653752107 0.0062789773834118117 -0.017727039613716564 0.00052465422930405496 -0.043912772634785831 0.036212613015143953 0.017785450211801872 -0.076043784368537204 -0.074807456793694535
leaf_weight=2.5946044116280969 3.5792064080014816 159.17178838700056 92.650722282938659 169.02060149237514 5.1468153297901145 19.286005845293403 0.77188467606902111 1.0983485905453561 0.66097590839490283
leaf_count=299 79 2788 3187 4341 68 151 18 48 57
internal_value=0 0.000328689 -0.00499259 -0.00593778 0.00801626 0.00951392 -0.0608848 -0.0748319 -0.074423
internal_weight=0 448.855 265.251 261.671 183.605 178.458 5.12581 4.35393 3.25558
internal_count=11036 10614 7607 7528 3007 2939 422 404 356
is_linear=0
shrinkage=0.0736173


Tree=43
num_leaves=12
num_cat=0
split_feature=4 13 0 1 1 2 1 7 0 5 4
split_gain=3.3956 4.09686 4.57313 4.68521 3.59394 3.35183 3.01582 2.77922 3.19766 2.51964 1.19376
threshold=1.0000000180025095e-35 1.0000000180025095e-35 40.500000000000007 75.950000000000017 65.450000000000017 2020.5000000000002 45.95000000000001 20.500000000000004 56.500000000000007 1.0000000180025095e-35 4.2500000000000009
decision_type=10 2 2 2 2 8 2 10 2 2 10
left_child=1 2 3 -1 -4 7 -3 8 -2 -8 -7
right_child=5 6 4 -5 -6 10 9 -9 -10 -11 -12
leaf_value=-0.019849845249758774 0.012885616257446086 0.077132834479108944 -0.013508994558334021 -0.0001913554055904127 0.062523284603889465 -0.0010942681179910349 0.042825245009012705 -0.027657886894184074 0.072946334863943876 -0.0024010240370347228 -0.050690842091947845
leaf_weight=129.12392317457125 115.55318491812795 4.2229238934814921 5.5018260758370152 133.77216056361794 8.6924017481505853 4.4909450411796552 9.4731001518666726 8.7186582628637534 5.0124861411750308 22.610001174733043 6.3475332427769899
leaf_count=5612 1461 58 95 2977 60 65 141 105 38 347 77
internal_value=0 -0.0046025 -0.00764926 -0.00984681 0.0330524 0.00918338 0.0186505 0.0124801 0.0153826 0.0109528 -0.0301404
internal_weight=0 313.396 277.09 262.896 14.1942 140.123 36.306 129.284 120.566 32.0831 10.8385
internal_count=11036 9290 8744 8589 155 1746 546 1604 1499 488 142
is_linear=0
shrinkage=0.0736173


Tree=44
num_leaves=9
num_cat=0
split_feature=2 3 7 4 7 0 0 3
split_gain=3.16762 2.89213 3.15693 4.20788 3.94064 1.21182 0.000420631 1.9606e-05
threshold=2002.5000000000002 6.5000000000000009 4.5000000000000009 15.500000000000002 17.500000000000004 31.500000000000004 12.500000000000002 2.5000000000000004
decision_type=8 2 10 10 10 2 2 2
left_child=5 2 3 -2 -4 6 7 -1
right_child=1 -3 4 -5 -6 -7 -8 -9
leaf_value=-0.074269348932903601 -0.0040792083756924927 0.042769225262586349 0.012434203076241043 -0.075644869370273954 -0.020653590819857213 0.031886351807335116 -0.076031765616797364 -0.074737175926406677
leaf_weight=2.3779047490097578 274.88139559840783 8.5276350788772088 137.21893265517429 4.5259133577346793 22.73968153540045 0.67067725770175446 1.1309697851538656 0.61003705859184254
leaf_count=299 8276 56 1971 45 266 15 51 57
internal_value=0 0.000307242 -0.000516901 -0.00523845 0.00773045 -0.0598803 -0.0748226 -0.0743649
internal_weight=0 447.894 439.366 279.407 159.959 4.78959 4.11891 2.98794
internal_count=11036 10614 10558 8321 2237 422 407 356
is_linear=0
shrinkage=0.0736173


Tree=45
num_leaves=12
num_cat=0
split_feature=2 3 2 2 13 1 1 2 0 0 3
split_gain=2.89755 2.81131 3.01952 6.85184 4.55941 2.51448 3.27117 1.46559 1.21661 0.000345408 1.57333e-05
threshold=2002.5000000000002 1.0000000180025095e-35 2019.5000000000002 2015.5000000000002 1.0000000180025095e-35 28.450000000000003 68.050000000000011 2008.5000000000002 34.500000000000007 12.500000000000002 2.5000000000000004
decision_type=8 2 10 8 2 2 2 10 2 2 2
left_child=8 2 3 -2 -4 7 -7 -3 9 10 -1
right_child=1 5 4 -5 -6 6 -8 -9 -10 -11 -12
leaf_value=-0.074222769690674567 -0.0015756704076695873 0.0011443749506811238 0.043682998098560688 -0.035995013249795801 -0.044360944475766766 0.020136473978232511 4.5383535253398138e-05 -0.077715147051354225 0.033394624906230533 -0.07586161349659501 -0.074657361025195226
leaf_weight=2.2104728422127664 208.16031935531646 2.2687789890915147 14.350134982261809 36.901015245355666 4.0979230143129817 77.314016030170023 101.67989234626293 2.9223745539784431 0.66023064404726017 1.0827550454996524 0.56732431799173344
leaf_count=299 5655 63 403 1480 69 1306 1541 97 14 52 57
internal_value=0 0.000280893 -0.00459633 -0.00675849 0.0241255 0.00725862 0.00872346 -0.0432498 -0.058953 -0.0747463 -0.0743115
internal_weight=0 447.694 263.509 245.061 18.4481 184.185 178.994 5.19115 4.52078 3.86055 2.7778
internal_count=11036 10614 7607 7135 472 3007 2847 160 422 408 356
is_linear=0
shrinkage=0.0736173


Tree=46
num_leaves=9
num_cat=0
split_feature=1 6 0 2 1 1 8 6
split_gain=2.89886 2.88381 7.22734 6.40247 4.56883 4.15772 3.97691 2.55556
threshold=93.15000000000002 1.0000000180025095e-35 4.5000000000000009 2006.5000000000002 88.050000000000011 90.65000000000002 0.75000000000000011 2.2500000000000004
decision_type=2 10 2 8 2 2 10 8
left_child=1 2 4 -4 -1 6 -3 -2
right_child=7 5 3 -5 -6 -7 -8 -9
leaf_value=-0.024319073725469327 0.0048560551735732649 -0.0014324785168838906 0.023493809387379775 -0.011414314975773889 0.036953111825248131 -0.072233650651635214 0.0192489538526751 0.088438318247750128
leaf_weight=103.18533042538911 4.2651224769651881 135.96056586876512 56.95007800264284 56.947406110353768 7.0456889709457746 3.7228088229894629 80.063143883831799 3.7043931167572737
leaf_count=4488 81 2690 1125 1453 183 51 921 44
internal_value=0 -0.00108948 -0.00696499 0.00604016 -0.0204027 0.00490319 0.00623252 0.0437068
internal_weight=0 443.875 224.129 113.897 110.231 219.747 216.024 7.96952
internal_count=11036 10911 7249 2578 4671 3662 3611 125
is_linear=0
shrinkage=0.0736173


Tree=47
num_leaves=12
num_cat=0
split_feature=2 2 5 1 1 2 11 3 0 0 0
split_gain=2.67404 2.43215 5.30995 5.43928 4.9515 4.49284 10.0701 5.71637 1.38161 0.000436893 1.24232e-05
threshold=2002.5000000000002 2015.5000000000002 1.5000000000000002 57.750000000000007 56.95000000000001 2013.5000000000002 1.0000000180025095e-35 2.5000000000000004 41.500000000000007 14.500000000000002 4.5000000000000009
decision_type=8 10 2 2 2 8 2 2 2 2 2
left_child=8 5 3 -3 -4 6 -2 -7 9 10 -1
right_child=1 2 4 -5 -6 7 -8 -9 -10 -11 -12
leaf_value=-0.074174857056210047 -0.026490101742205643 0.011921087196159304 -0.047025792272707777 -0.050663994667642327 0.011920212646138108 0.02457355302571328 0.0066500694976789369 -0.0550678033775958 0.046587389989870845 -0.076105498004155725 -0.074496588150244222
leaf_weight=1.6091614034958182 65.23960311152041 10.647801832761614 9.0626089321449381 25.668585253879428 52.248077034950256 70.250489657744765 208.50803859625012 5.2492670118808737 0.58910527080297459 1.0009558261372147 1.0917218402028082
leaf_count=244 2676 455 220 1253 817 976 4166 51 12 45 121
internal_value=0 0.000265667 -0.0100065 -0.0323143 0.00320714 0.00313711 -0.0012479 0.0190363 -0.0581276 -0.0747918 -0.0743049
internal_weight=0 446.874 97.6271 36.3164 61.3107 349.247 273.748 75.4998 4.29094 3.70184 2.70088
internal_count=11036 10614 2745 1708 1037 7869 6842 1027 422 410 365
is_linear=0
shrinkage=0.0736173


Tree=48
num_leaves=12
num_cat=0
split_feature=4 3 11 2 13 1 0 2 6 6 6
split_gain=2.62322 3.34817 7.41337 2.95654 2.91076 4.47607 2.76631 2.37664 5.7603 3.34468 1.15719
threshold=1.0000000180025095e-35 3.5000000000000004 1.0000000180025095e-35 2020.5000000000002 1.0000000180025095e-35 64.850000000000009 24.500000000000004 2019.5000000000002 7.2500000000000009 2.2500000000000004 12.500000000000002
decision_type=10 2 2 10 2 2 2 8 8 10 10
left_child=1 4 -3 7 5 -1 -6 9 -9 -2 -5
right_child=3 2 -4 10 6 -7 -8 8 -10 -11 -12
leaf_value=-0.025565753088475172 -0.014259692126235776 -0.050857611619776463 0.055726186371296241 -0.0078309936903541936 0.023294526340352582 -0.0030656795972691885 -0.03989350050925633 0.11053809764366969 -0.0078565664889272153 0.014996206678236894 -0.056710908342663881
leaf_weight=63.41995089687407 27.346666975878179 4.8518779920414099 13.046779671218246 5.9992446284741145 28.05896851606667 196.01806439179927 4.3349375147372475 4.1978057157248232 4.7439587786793718 93.888169212266803 4.6665984950959682
leaf_count=3099 539 112 107 95 470 5460 42 69 55 941 47
internal_value=0 -0.00407235 0.026834 0.00804538 -0.0059679 -0.00856585 0.0148387 0.0110984 0.0477251 0.00839702 -0.0292173
internal_weight=0 309.731 17.8987 140.842 291.832 259.438 32.3939 130.177 8.94176 121.235 10.6658
internal_count=11036 9290 219 1746 9071 8559 512 1604 124 1480 142
is_linear=0
shrinkage=0.0736173


Tree=49
num_leaves=7
num_cat=0
split_feature=1 1 6 0 2 6
split_gain=2.43365 2.64848 2.64311 6.52386 3.59548 2.02005
threshold=93.15000000000002 92.250000000000014 1.0000000180025095e-35 4.5000000000000009 2006.5000000000002 2.2500000000000004
decision_type=2 2 10 2 10 8
left_child=1 2 3 -1 -4 -2
right_child=5 -3 4 -5 -6 -7
leaf_value=-0.019286025381046099 0.0045153775389604241 -0.069265767153847385 -0.065635362964765229 0.0060684528059368774 0.0064610645077407868 0.077733606687125048
leaf_weight=106.79813211993314 4.273999406024811 3.0599008295685044 3.8154400726780286 113.39538345253095 214.54897530889139 3.910661520436407
leaf_count=4654 81 48 66 2573 3570 44
internal_value=0 -0.00101385 -0.000537648 -0.00622896 0.00520134 0.0394993
internal_weight=0 441.618 438.558 220.194 218.364 8.18466
internal_count=11036 10911 10863 7227 3636 125
is_linear=0
shrinkage=0.0736173


Tree=50
num_leaves=10
num_cat=0
split_feature=2 7 6 6 0 1 0 0 0
split_gain=2.37451 2.29448 4.18953 3.90359 2.58282 2.1575 1.41965 0.000343675 1.11513e-05
threshold=2002.5000000000002 21.500000000000004 56.500000000000007 82.500000000000014 51.500000000000007 60.95000000000001 44.500000000000007 14.500000000000002 4.5000000000000009
decision_type=8 10 10 10 2 2 2 2 2
left_child=6 2 4 -4 -2 -3 7 8 -1
right_child=1 5 3 -5 -6 -7 -8 -9 -10
leaf_value=-0.074128394249999105 -0.001191281219493812 -0.067304514210043687 0.076040499439089956 0.0080863552085106028 0.042423511419551772 -0.0061196697618352541 0.050913470350181504 -0.075904058563733084 -0.074446675292250755
leaf_weight=1.4529448456596585 405.5568585828878 5.1371413469314557 7.5432795528322485 11.667389474809168 7.4944110419601193 7.9676807429641485 0.56849046051502217 0.954959301277995 1.012166906148195
leaf_count=244 10220 92 64 86 68 84 11 46 121
internal_value=0 0.000243027 0.00116306 0.0347693 -0.000399933 -0.0301044 -0.0568121 -0.0747184 -0.0742591
internal_weight=0 445.367 432.262 19.2107 413.051 13.1048 3.98856 3.42007 2.46511
internal_count=11036 10614 10438 150 10288 176 422 411 365
is_linear=0
shrinkage=0.0736173


Tree=51
num_leaves=11
num_cat=0
split_feature=2 3 1 1 5 6 7 0 0 0
split_gain=2.16747 2.26122 2.77399 3.01359 2.4442 6.26845 5.9746 1.62418 0.000718056 7.38736e-05
threshold=2002.5000000000002 1.0000000180025095e-35 8.1500000000000004 66.850000000000009 1.0000000180025095e-35 79.500000000000014 2.5000000000000004 45.500000000000007 26.500000000000004 12.500000000000002
decision_type=8 2 2 2 2 8 8 2 2 2
left_child=7 2 -2 -4 6 -6 -3 8 9 -1
right_child=1 4 3 -5 5 -7 -8 -9 -10 -11
leaf_value=-0.074176034946829991 0.059209543913080295 -0.011707314356001999 -0.015988596147736699 0.00073065266056660297 0.0083686742044912533 -0.035300126772207611 0.048365496370898112 0.06677552766494621 -0.077510424441384951 -0.075081088351240194
leaf_weight=2.1748401958029722 3.6878273421898475 15.354006278328596 89.664813013281673 167.70445133978501 126.5004309117794 20.734626777470112 21.587899667210877 0.50715151801705349 0.46239935886114825 0.63044991949573148
leaf_count=356 79 484 3187 4341 1813 321 389 10 14 42
internal_value=0 0.000220861 -0.00418577 -0.00509416 0.00646694 0.00221894 0.0233977 -0.0557987 -0.0748225 -0.0743794
internal_weight=0 445.234 261.057 257.369 184.177 147.235 36.9419 3.77484 3.26769 2.80529
internal_count=11036 10614 7607 7528 3007 2134 873 422 412 398
is_linear=0
shrinkage=0.0736173


Tree=52
num_leaves=9
num_cat=0
split_feature=5 2 9 7 0 3 2 1
split_gain=2.16542 3.06298 4.96419 8.19464 4.11174 3.54577 4.27949 1.62162
threshold=5.5000000000000009 2015.5000000000002 1.0000000180025095e-35 4.5000000000000009 27.500000000000004 6.5000000000000009 2013.5000000000002 68.850000000000009
decision_type=2 10 2 10 2 2 8 2
left_child=1 5 4 -4 -3 6 -1 -2
right_child=7 2 3 -5 -6 -7 -8 -9
leaf_value=-0.0031412959768578963 0.056257521078199042 -0.031328623322810327 0.045372685282244911 -0.038341835597413707 0.020530952832624738 0.05565623659499324 0.017563795483560934 0.0047518391564964754
leaf_weight=267.70666050468571 6.2658157008700055 56.752008232753724 16.751479241531346 10.193086873274295 9.7021625582128745 6.5689223450608543 67.801906595937908 7.0292884316295385
leaf_count=7191 62 1738 653 206 117 48 964 57
internal_value=0 -0.00113443 -0.0129502 0.0137036 -0.0237572 0.00209167 0.00104293 0.0290258
internal_weight=0 435.476 93.3987 26.9446 66.4542 342.077 335.509 13.2951
internal_count=11036 10917 2714 859 1855 8203 8155 119
is_linear=0
shrinkage=0.0736173


Tree=53
num_leaves=13
num_cat=0
split_feature=4 11 2 5 3 6 6 2 1 1 13 6
split_gain=2.04219 2.77905 7.70993 6.02463 5.78647 4.94657 4.37361 2.5142 2.23928 3.38557 2.61864 1.13204
threshold=1.0000000180025095e-35 1.0000000180025095e-35 2012.5000000000002 1.0000000180025095e-35 3.5000000000000004 17.750000000000004 45.250000000000007 2020.5000000000002 43.750000000000007 51.45000000000001 1.0000000180025095e-35 12.500000000000002
decision_type=10 2 8 2 2 10 10 8 2 2 2 10
left_child=1 2 5 -4 6 -1 -3 8 10 -10 -2 -9
right_child=7 4 3 -5 -6 -7 -8 11 9 -11 -12 -13
leaf_value=-0.047001124224176453 -0.036952961864404263 -0.0033434393781488565 -0.052476714780499652 0.0098379048023063045 0.048418954775514257 0.043755657065294079 0.079881720603769163 -0.0064567114462790844 0.049268149509549754 0.008869479757768953 0.032743594334824003 -0.055410831610576271
leaf_weight=36.247955101309344 10.438469720073043 177.5861676861532 9.7112427162937802 62.671985368710011 13.38615775015205 3.5757149625569573 3.4893196262419215 5.8913236446678621 12.603710721246896 104.08261342626065 4.0570409363135687 4.5273515023291111
leaf_count=2174 153 4753 672 1481 107 69 34 95 162 1234 55 47
internal_value=0 -0.00361029 -0.012836 0.00147751 0.00171308 -0.0388522 -0.00173969 0.00707855 0.00984305 0.0132331 -0.0174461 -0.0277293
internal_weight=0 306.669 112.207 72.3832 194.462 39.8237 181.075 141.601 131.182 116.686 14.4955 10.4187
internal_count=11036 9290 4396 2153 4894 2243 4787 1746 1604 1396 208 142
is_linear=0
shrinkage=0.0736173


Tree=54
num_leaves=8
num_cat=0
split_feature=7 0 1 6 1 1 8
split_gain=2.06408 3.79125 3.72262 4.18698 2.98026 4.64708 2.20008
threshold=21.500000000000004 40.500000000000007 64.450000000000017 40.500000000000007 8.1500000000000004 28.450000000000003 5.2500000000000009
decision_type=10 2 2 10 2 2 10
left_child=1 4 3 -3 -1 -6 -2
right_child=6 2 -4 -5 5 -7 -8
leaf_value=0.073049390468546166 -0.059983050815525622 -0.043289897541866872 0.0553458182317767 0.039815874665067377 -0.065550284093036912 -0.00067964507889388631 0.00085700204620072764
leaf_weight=2.9151974197011432 6.3806927241384965 6.306809067726137 13.18316203728318 6.8581780306994915 6.0757986521348348 399.22362867696211 6.5053415615111589
leaf_count=98 110 80 84 57 331 10210 66
internal_value=0 0.000628284 0.0276936 3.28436e-06 -0.00111865 -0.00165211 -0.0292688
internal_weight=0 434.563 26.3481 13.165 408.215 405.299 12.886
internal_count=11036 10860 221 137 10639 10541 176
is_linear=0
shrinkage=0.0736173


Tree=55
num_leaves=7
num_cat=0
split_feature=1 1 2 5 2 0
split_gain=2.03853 2.44602 2.41075 5.07042 3.79194 1.82075
threshold=93.15000000000002 92.250000000000014 2015.5000000000002 5.5000000000000009 2013.5000000000002 5.5000000000000009
decision_type=2 2 10 2 8 2
left_child=1 2 4 -4 -1 -2
right_child=5 -3 3 -5 -6 -7
leaf_value=-0.0016905943518163431 0.0031792851403366611 -0.068110417205126728 -0.014350094734681329 0.075507686645084643 0.017073375177724122 0.0719450572214686
leaf_weight=267.79818599508144 4.4034058023244125 2.9159152591601005 89.829769417643547 3.5372481029480687 74.634428869001567 3.9663388710469007
leaf_count=7167 88 48 2656 31 1009 37
internal_value=0 -0.000909603 -0.000459965 -0.0109458 0.00239908 0.0357667
internal_weight=0 438.716 435.8 93.367 342.433 8.36974
internal_count=11036 10911 10863 2687 8176 125
is_linear=0
shrinkage=0.0736173


Tree=56
num_leaves=12
num_cat=0
split_feature=1 7 7 5 1 8 6 6 1 0 6
split_gain=1.9425 7.17277 3.2177 3.13656 2.98418 2.08056 5.24965 7.01956 4.94211 4.47221 2.50046
threshold=88.65000000000002 10.500000000000002 2.5000000000000004 2.5000000000000004 90.15000000000002 0.75000000000000011 73.500000000000014 63.500000000000007 68.450000000000017 8.5000000000000018 68.250000000000014
decision_type=2 8 10 2 2 10 10 10 2 2 8
left_child=5 2 4 -4 -2 6 7 -1 9 -7 -10
right_child=1 -3 3 -5 -6 8 -8 -9 10 -11 -12
leaf_value=-0.0038414366288633205 0.069880441242030203 -0.058218063632962613 0.11078705351697325 0.024116209620289875 -0.013373038153968822 0.053759906364456635 -0.065126585948458007 0.12151640074849661 -0.018466039436245703 0.0089161418230317025 0.039366026859613955
leaf_weight=309.29093821626157 3.3851720606908255 5.1067195590585461 5.0211617704480869 4.119439460337162 7.5096412524580956 16.479845985304564 7.5150000965222707 2.4399398844689122 36.475200018845499 44.862992352806032 4.5580579489469519
leaf_count=9066 67 61 108 24 168 394 89 23 473 532 31
internal_value=0 0.0196663 0.0395178 0.0717267 0.012495 -0.0013975 -0.00432599 -0.00286025 0.00773462 0.0209635 -0.0120419
internal_weight=0 25.1421 20.0354 9.1406 10.8948 421.622 319.246 311.731 102.376 61.3428 41.0333
internal_count=11036 428 367 132 235 10608 9178 9089 1430 926 504
is_linear=0
shrinkage=0.0736173


Tree=57
num_leaves=10
num_cat=0
split_feature=2 7 0 1 1 1 0 0 0
split_gain=1.86841 1.87342 3.06679 3.35265 2.84653 1.99272 1.60129 0.000502492 5.54166e-05
threshold=2002.5000000000002 21.500000000000004 40.500000000000007 64.450000000000017 8.1500000000000004 60.95000000000001 45.500000000000007 26.500000000000004 12.500000000000002
decision_type=8 10 2 2 2 2 2 2 2
left_child=6 2 4 -4 -2 -3 7 8 -1
right_child=1 5 3 -5 -6 -7 -8 -9 -10
leaf_value=-0.074134977848711189 0.07180713337778219 -0.065591157873786624 -0.0019269885358972256 0.051069738041390894 -0.0010716873041563334 -0.005037998841894418 0.06693717317361797 -0.077072748692833468 -0.074957393667776914
leaf_weight=1.9707425327505919 2.9256507912650696 4.7230708627030236 12.464804785326125 13.449327014386652 401.94238198176026 7.8249848391860723 0.50647794269025315 0.41860217507928599 0.57317849248647679
leaf_count=356 83 92 125 84 10146 84 10 14 42
internal_value=0 0.000209654 0.00102641 0.0255781 -0.000545052 -0.0278301 -0.0540287 -0.0747092 -0.0743203
internal_weight=0 443.33 430.782 25.9141 404.868 12.5481 3.469 2.96252 2.54392
internal_count=11036 10614 10438 209 10229 176 422 412 398
is_linear=0
shrinkage=0.0736173


Tree=58
num_leaves=14
num_cat=0
split_feature=3 2 2 13 4 9 6 7 2 0 5 1 0
split_gain=1.71433 2.55246 5.27258 4.11026 4.54254 3.71494 2.96274 2.53805 13.0631 3.42302 3.2035 8.06176 4.7486
threshold=1.0000000180025095e-35 2019.5000000000002 2015.5000000000002 1.0000000180025095e-35 1.0000000180025095e-35 1.0000000180025095e-35 61.500000000000007 1.0000000180025095e-35 2006.5000000000002 14.500000000000002 1.0000000180025095e-35 81.250000000000014 53.500000000000007
decision_type=2 10 8 2 10 2 10 8 8 2 2 2 2
left_child=1 2 6 4 -3 -4 -1 8 9 -2 11 -9 -12
right_child=7 3 5 -5 -6 -7 -8 10 -10 -11 12 -13 -14
leaf_value=-0.0033981404175157668 0.026256870263786293 0.0090792485070594516 -0.052630772805074111 -0.043811238694983115 0.09405296383017886 -0.0031292410891274737 0.042886058639401453 0.0033813066938202783 0.16216056893688885 -0.064824337257245762 -0.0051900908031448697 0.089911285813382383 0.055432807032428637
leaf_weight=200.14922244451009 6.1702845646068418 9.3093422362580913 20.551868392620236 4.0197894591838113 5.379801125265657 13.688779696822165 7.7868689000606528 24.903432763414457 3.3368731690570721 3.5073083974421024 132.66703897761181 7.6208784617483607 7.3926830058917394
leaf_count=5831 173 323 908 69 80 572 67 677 80 26 2006 159 65
internal_value=0 -0.00404885 -0.00607277 0.0221496 0.0402003 -0.032841 -0.00166487 0.00520702 0.0365564 -0.00675236 0.00284298 0.0236564 -0.00199027
internal_weight=0 260.886 242.177 18.7089 14.6891 34.2406 207.936 185.598 13.0145 9.67759 172.584 32.5243 140.06
internal_count=11036 7850 7378 472 403 1480 5898 3186 279 199 2907 836 2071
is_linear=0
shrinkage=0.0736173


Tree=59
num_leaves=7
num_cat=0
split_feature=7 6 6 0 2 8
split_gain=1.74535 2.68694 3.38724 2.95371 3.25038 1.90442
threshold=21.500000000000004 56.500000000000007 79.500000000000014 66.500000000000014 2002.5000000000002 5.2500000000000009
decision_type=10 10 10 2 8 8
left_child=1 3 -3 4 -1 -2
right_child=5 2 -4 -5 -6 -7
leaf_value=-0.075239489603566856 -0.057772682812979773 0.064534405797026295 0.0024629867937559138 0.066879634833014012 -0.00069278948074741971 -4.0700726975324514e-06
leaf_weight=3.1947006613481781 5.8896475452929709 7.871873494237664 12.070217620581387 3.4755519796162835 407.26599193038419 6.5124450810253629
leaf_count=420 110 61 89 30 10260 66
internal_value=0 0.000570809 0.0269648 -0.000700769 -0.001273 -0.0274379
internal_weight=0 433.878 19.9421 413.936 410.461 12.4021
internal_count=11036 10860 150 10710 10680 176
is_linear=0
shrinkage=0.0736173


Tree=60
num_leaves=8
num_cat=0
split_feature=1 1 13 2 7 0 0
split_gain=1.68211 2.79973 7.92493 2.41208 2.1381 2.08912 0.00132717
threshold=1.0500000000000003 35.850000000000001 1.0000000180025095e-35 2002.5000000000002 4.5000000000000009 63.500000000000007 34.500000000000007
decision_type=2 2 2 8 8 2 2
left_child=-1 2 5 6 -5 -2 -3
right_child=1 3 -4 4 -6 -7 -8
leaf_value=0.052269334715725112 -0.065015265130275696 -0.074290783878004724 0.080791034834586883 -0.0041585856897193747 0.0062910370073258519 0.03753543287791887 -0.078860340521337044
leaf_weight=3.2872790098190299 11.694981972454114 1.8468884383328252 2.8142521101981393 217.48096796683967 207.23636372480541 1.1857305988669384 0.42343466542661179
leaf_count=60 608 317 41 6490 3494 18 8
internal_value=0 -0.000586785 -0.0311233 0.000535658 0.000940198 -0.055575 -0.075143
internal_weight=0 442.683 15.695 426.988 424.717 12.8807 2.27032
internal_count=11036 10976 667 10309 9984 626 325
is_linear=0
shrinkage=0.0736173


Tree=61
num_leaves=7
num_cat=0
split_feature=1 1 2 5 2 6
split_gain=1.66821 2.19251 2.05719 4.71591 3.13992 1.52981
threshold=93.15000000000002 92.250000000000014 2015.5000000000002 1.5000000000000002 2013.5000000000002 2.2500000000000004
decision_type=2 2 10 2 8 8
left_child=1 2 4 -4 -1 -2
right_child=5 -3 3 -5 -6 -7
leaf_value=-0.0015256417827434474 0.0015586874174296696 -0.065910245981916665 -0.032486865519496123 0.0022668212322663256 0.01548616186996625 0.063683096715614104
leaf_weight=266.70808365149423 4.3949133530259106 2.7868392895907155 32.954652090091258 59.124573268927634 75.429618874564767 4.2021712791174659
leaf_count=7167 81 48 1670 1017 1009 44
internal_value=0 -0.000821584 -0.00040384 -0.0101713 0.00222488 0.0319245
internal_weight=0 437.004 434.217 92.0792 342.138 8.59708
internal_count=11036 10911 10863 2687 8176 125
is_linear=0
shrinkage=0.0736173


Tree=62
num_leaves=7
num_cat=0
split_feature=7 1 0 1 1 1
split_gain=1.61681 2.45629 2.65503 3.00441 2.51559 1.85568
threshold=21.500000000000004 1.0500000000000003 40.500000000000007 35.850000000000001 64.450000000000017 60.95000000000001
decision_type=10 2 2 2 2 2
left_child=1 -1 3 -3 -4 -2
right_child=5 2 4 -5 -6 -7
leaf_value=0.076491851408509753 -0.064465389307652513 -0.037083723287230322 -0.0013986204283550543 -0.00018239996084104364 0.044455739888824904 -0.0048539500823033535
leaf_weight=2.2968067000620058 4.4548136405646783 12.333142503630368 12.212600085884334 392.41577634308487 13.822682365775107 7.7598986085504293
leaf_count=38 92 618 123 9997 84 84
internal_value=0 0.000563794 0.000158969 -0.00130682 0.0229464 -0.0265948
internal_weight=0 433.081 430.784 404.749 26.0353 12.2147
internal_count=11036 10860 10822 10615 207 176
is_linear=0
shrinkage=0.0736173


Tree=63
num_leaves=13
num_cat=0
split_feature=1 7 7 1 6 7 0 5 4 3 8 2
split_gain=1.51879 6.29511 2.47381 2.39132 2.38836 1.74325 5.31787 4.41295 4.33128 5.1399 3.55156 3.1164
threshold=88.65000000000002 10.500000000000002 2.5000000000000004 90.15000000000002 1.2500000000000002 4.5000000000000009 3.5000000000000004 1.0000000180025095e-35 10.500000000000002 3.5000000000000004 10.250000000000002 2015.5000000000002
decision_type=2 8 10 2 8 8 2 2 8 2 8 8
left_child=5 2 3 -2 -4 8 7 -7 9 -1 -10 -8
right_child=1 -3 4 -5 -6 6 11 -9 10 -11 -12 -13
leaf_value=-0.0048389563513849309 0.060579160562778941 -0.057225514364629575 0.1027990909860643 -0.012660140257692645 0.029276824076043394 -0.0024001927330926731 0.012096826313383945 -0.068270212745287134 -0.086903334145635489 0.051328565362839564 -0.020121277022483008 -0.012175900174111987
leaf_weight=173.03585946327075 3.5835637720301801 4.9643825637176624 4.3390697445720408 7.4159655040130019 5.3432091865688571 13.029698216589169 152.76843560440466 9.5535655771382135 5.4379960596561459 9.3044398464262468 20.913186431862414 35.288264273665845
leaf_count=5846 67 61 75 168 57 660 2214 506 61 104 526 691
internal_value=0 0.0172188 0.0350882 0.0112007 0.0622255 -0.00123592 0.00348865 -0.0302657 -0.0060046 -0.00197285 -0.0339028 0.00754212
internal_weight=0 25.6462 20.6818 10.9995 9.68228 419.331 210.64 22.5833 208.691 182.34 26.3512 188.057
internal_count=11036 428 367 235 132 10608 4071 1166 6537 5950 587 2905
is_linear=0
shrinkage=0.0736173


Tree=64
num_leaves=13
num_cat=0
split_feature=4 11 2 7 3 6 6 2 0 0 7 6
split_gain=1.49437 2.49305 6.7112 4.40742 4.39331 3.50095 2.78393 2.10248 2.25597 5.76887 3.55995 1.04146
threshold=1.0000000180025095e-35 1.0000000180025095e-35 2013.5000000000002 6.5000000000000009 3.5000000000000004 45.250000000000007 17.750000000000004 2020.5000000000002 2.5000000000000004 1.5000000000000002 4.5000000000000009 12.500000000000002
decision_type=10 2 8 8 2 10 10 10 2 2 10 10
left_child=1 2 6 -4 5 -3 -1 8 9 -2 -10 -9
right_child=7 4 3 -5 -6 -7 -8 11 10 -11 -12 -13
leaf_value=-0.041005445068087829 -0.031929449378166892 -0.0026139575052433295 0.013708921780902911 -0.029349346265321111 0.042042131849844198 0.070198517668190533 0.021271418542618464 -0.0059223609598767664 -0.015944614055117177 0.051054447378781447 0.012983398708265162 -0.053626716526762194
leaf_weight=38.496561489300802 6.1573282894678441 175.39914310816675 49.833241961430758 17.37550751445815 13.757092637475578 3.6533159073442212 4.3274304643273345 5.8274636007845384 33.327952460385859 17.285263994242996 74.796409019269049 4.3179403152316809
leaf_count=2410 123 4753 1640 267 107 34 79 95 474 320 687 47
internal_value=0 -0.00309392 -0.0119357 0.00257705 0.00195192 -0.00112832 -0.0347123 0.00606532 0.00855534 0.0292583 0.00406671 -0.0262256
internal_weight=0 302.842 110.033 67.2087 192.81 179.052 42.824 141.712 131.567 23.4426 108.124 10.1454
internal_count=11036 9290 4396 1907 4894 4787 2489 1746 1604 443 1161 142
is_linear=0
shrinkage=0.0736173


Tree=65
num_leaves=8
num_cat=0
split_feature=7 0 1 1 1 3 8
split_gain=1.53742 1.87734 2.58787 3.02893 2.26811 3.55429 1.73574
threshold=21.500000000000004 40.500000000000007 4.4500000000000011 28.450000000000003 64.450000000000017 1.0000000180025095e-35 5.2500000000000009
decision_type=10 2 2 2 2 2 8
left_child=1 2 -1 -4 5 -3 -2
right_child=6 4 3 -5 -6 -7 -8
leaf_value=0.076673456299568829 -0.056193722280164719 0.036181958784470038 -0.052930969188100724 -0.00037334276625541505 0.039733326603006137 -0.0401025584517469 -0.00020558531380375654
leaf_weight=2.3283947161398819 5.5806580139324042 6.4984591640532035 6.0331170370336613 396.1541041249875 14.122353941202162 6.7465435974299908 6.4916769396513709
leaf_count=59 110 79 370 10210 84 58 66
internal_value=0 0.000548731 -0.000713728 -0.00116175 0.0192091 -0.00267472 -0.0260871
internal_weight=0 431.883 404.516 402.187 27.3674 13.245 12.0723
internal_count=11036 10860 10639 10580 221 137 176
is_linear=0
shrinkage=0.0736173


Tree=66
num_leaves=14
num_cat=0
split_feature=3 7 2 0 5 1 6 2 2 12 13 9 0
split_gain=1.42818 2.22944 9.11776 3.09076 2.85298 6.14599 4.61741 2.17019 4.51691 3.78469 4.81553 3.42403 2.25902
threshold=1.0000000180025095e-35 1.0000000180025095e-35 2006.5000000000002 14.500000000000002 1.0000000180025095e-35 81.250000000000014 79.500000000000014 2019.5000000000002 2015.5000000000002 1.0000000180025095e-35 1.0000000180025095e-35 1.0000000180025095e-35 64.500000000000014
decision_type=2 8 8 2 2 2 8 10 8 2 2 2 2
left_child=7 2 3 -2 5 -3 -6 8 12 10 -9 -10 -1
right_child=1 4 -4 -5 6 -7 -8 9 11 -11 -12 -13 -14
leaf_value=-0.0027231192552388817 0.026097393747540262 0.0037221352678334001 0.12969097053506229 -0.061730651552490148 0.002829318830527124 0.07745891053565522 -0.038659640999025364 0.024144193206706251 -0.050914877976016557 0.083793450689304966 -0.080248316122604538 -0.0026244934814820572 0.049919557173122818
leaf_weight=202.17747555533424 6.1638430384919012 24.654858182417229 3.8283864939585337 3.3525947891175747 122.59312179265544 8.1515266266651434 16.493479194585234 11.960748880170287 19.267074308358133 4.0085173780098549 2.9942885069176546 13.556420785840599 4.5164575865492216
leaf_count=5855 173 677 80 26 1732 159 339 313 908 106 53 572 43
internal_value=0 0.00476582 0.0337516 -0.004844 0.00251552 0.0220438 -0.00209062 -0.00370344 -0.00560149 0.0202696 0.00324279 -0.0309705 -0.00157283
internal_weight=0 185.238 13.3448 9.51644 171.893 32.8064 139.087 258.481 239.517 18.9636 14.955 32.8235 206.694
internal_count=11036 3186 279 199 2907 836 2071 7850 7378 472 366 1480 5898
is_linear=0
shrinkage=0.0736173


Tree=67
num_leaves=13
num_cat=0
split_feature=4 13 1 0 8 0 2 10 0 5 4 13
split_gain=1.34804 2.46683 2.61947 2.25517 4.16739 2.54628 2.14704 1.91762 2.7099 2.29522 3.73228 3.24943
threshold=1.0000000180025095e-35 1.0000000180025095e-35 48.45000000000001 33.500000000000007 16.500000000000004 44.500000000000007 2012.5000000000002 1.0000000180025095e-35 16.500000000000004 2.5000000000000004 23.500000000000004 1.0000000180025095e-35
decision_type=10 2 2 2 10 2 8 2 2 2 10 2
left_child=1 3 -3 4 -1 -5 -4 9 -9 10 -2 -11
right_child=7 2 6 5 -6 -7 -8 8 -10 11 -12 -13
leaf_value=-0.0056310945233316754 0.01738995256867611 0.065173090912168913 0.02035021181530371 0.048805705364968185 -0.058867975196655764 -0.0033519510379011914 -0.020607607013654324 0.00080972573683920398 0.076696225470569229 0.0072044475651326092 -0.032878029251469015 -0.029227969444282621
leaf_weight=235.69321753666736 68.315198012627661 4.8756300816312423 21.65538763883524 8.4957478726282734 8.2477558804675919 12.589406087994574 10.204933695495127 5.4330493728630227 4.8063442381098866 31.294673997908831 9.0672689499333483 23.032188257202506
leaf_count=8377 980 72 323 86 149 132 151 104 50 310 86 216
internal_value=0 -0.00295645 0.0149214 -0.00543455 -0.00743106 0.0176637 0.00723133 0.00574284 0.0364306 0.0033571 0.0114998 -0.00824129
internal_weight=0 301.762 36.736 265.026 243.941 21.0852 31.8603 141.949 10.2394 131.709 77.3825 54.3269
internal_count=11036 9290 546 8744 8526 218 474 1746 154 1592 1066 526
is_linear=0
shrinkage=0.0736173


Tree=68
num_leaves=7
num_cat=0
split_feature=1 1 7 8 0 6
split_gain=1.38023 1.94733 1.69407 2.40657 2.20082 1.44102
threshold=93.15000000000002 92.250000000000014 21.500000000000004 5.2500000000000009 40.500000000000007 2.2500000000000004
decision_type=2 2 10 8 2 8
left_child=1 2 4 -4 -1 -2
right_child=5 -3 3 -5 -6 -7
leaf_value=-0.0010065377936384408 -0.00053209648257425174 -0.063737440803673079 -0.066580206146080456 0.0016741692133666565 0.020711784151964858 0.059078053567324318
leaf_weight=393.66899860021658 4.4812498381361339 2.6442451803013673 5.0081964572891566 6.348377564921976 27.022458512336016 4.3132096547633418
leaf_count=10472 81 48 108 65 218 44
internal_value=0 -0.000754362 -0.000368889 -0.0284257 0.000388505 0.0287035
internal_weight=0 434.692 432.048 11.3566 420.691 8.79446
internal_count=11036 10911 10863 173 10690 125
is_linear=0
shrinkage=0.0736173


Tree=69
num_leaves=10
num_cat=0
split_feature=5 2 2 9 7 4 5 2 6
split_gain=1.3273 2.46696 1.95039 3.92659 7.27306 3.80123 3.0526 3.50718 2.45889
threshold=5.5000000000000009 2014.5000000000002 2015.5000000000002 1.0000000180025095e-35 4.5000000000000009 19.500000000000004 4.5000000000000009 2013.5000000000002 11.750000000000002
decision_type=2 10 10 2 10 10 2 8 10
left_child=2 -2 6 5 -5 -4 7 -1 -8
right_child=1 -3 3 4 -6 -7 8 -9 -10
leaf_value=-0.00057668555973364709 -0.0082423007204167984 0.054239469291845907 -0.026572526433479387 0.041747223419113133 -0.037654594790846145 0.034910260820066569 -0.061581419742241551 0.019024253701925183 0.0022977938693005966
leaf_weight=265.84969078865834 6.9846653132699412 6.7190410364419222 56.624019407201558 17.216326374094937 9.8168610013090056 6.0301187168806782 7.3051859603729081 60.783990924246609 5.9058988802134991
leaf_count=7171 65 54 1788 653 206 67 101 892 39
internal_value=0 0.022393 -0.000880682 -0.0105371 0.0129132 -0.0206551 0.00166772 0.0030709 -0.0330248
internal_weight=0 13.7037 429.532 89.6873 27.0332 62.6541 339.845 326.634 13.2111
internal_count=11036 119 10917 2714 859 1855 8203 8063 140
is_linear=0
shrinkage=0.0736173


Tree=70
num_leaves=5
num_cat=0
split_feature=3 3 3 3
split_gain=1.31532 4.42234 2.42156 2.67082
threshold=9.5000000000000018 6.5000000000000009 4.5000000000000009 3.5000000000000004
decision_type=2 2 2 2
left_child=1 2 3 -1
right_child=-2 -3 -4 -5
leaf_value=-0.00082787340316173167 -0.047754761790894655 0.064740098379384436 -0.039077077771596531 0.035946863396109738
leaf_weight=414.58767464850098 3.1245604094583532 5.6757731004618099 8.7160440243314934 10.986624693032352
leaf_count=10743 22 44 102 125
internal_value=0 0.000178562 -0.000665198 0.000121503
internal_weight=0 439.966 434.29 425.574
internal_count=11036 11014 10970 10868
is_linear=0
shrinkage=0.0736173


Tree=71
num_leaves=12
num_cat=0
