tree
version=v3
num_class=1
num_tree_per_iteration=1
label_index=0
max_feature_idx=6
objective=binary sigmoid:1
feature_names=hospital_stay admission_pre_t0_count year_adm_t0 antiarritmico procedure_type_new_X2 procedure_type_new_X3 procedure_type_new_.merged
feature_infos=[0:241] [0:38] [1999:2021] [0:844] [0:1] [0:1] [0:1]
tree_sizes=952 968 967 976 981 974 973 973 967 983 972 974 975 975 983 973 983 980 985 981 872 866 985 978 876 877 970 961 780 868 871 865 881 983 993 874 977 889 987 982 968 872 881 980 676 985 873 882 976 980 678 974 972 871 872 870 978 689 670 980 873 992 685 982 868 881 876 883 983 772 872 882 884 867 878

Tree=0
num_leaves=8
num_cat=0
split_feature=0 1 1 0 3 4 0
split_gain=438.266 145.564 85.2576 41.3119 40.7084 35.6431 30.4249
threshold=9.5000000000000018 1.5000000000000002 1.5000000000000002 2.5000000000000004 122.50000000000001 1.0000000180025095e-35 62.500000000000007
decision_type=2 2 2 2 10 2 2
left_child=2 4 5 -4 -2 -1 -3
right_child=1 6 3 -5 -6 -7 -8
leaf_value=-1.95428325726241 -1.8433510118289418 -1.6465931511817238 -1.9178095372860797 -1.7708818869510679 -1.4610320452061638 -2.0031994380284295 -1.2245829905004642
leaf_weight=606.10354643315077 229.5290197879076 44.525513052940369 57.215284273028374 37.40143096446991 3.3394134789705268 248.1184214875102 2.1149618700146666
leaf_count=5445 2062 400 514 336 30 2229 19
internal_value=-1.9224 -1.80276 -1.95765 -1.85973 -1.83787 -1.96849 -1.62746
internal_weight=0 279.509 948.839 94.6167 232.868 854.222 46.6405
internal_count=11035 2511 8524 850 2092 7674 419
is_linear=0
shrinkage=1


Tree=1
num_leaves=8
num_cat=0
split_feature=0 1 1 4 0 0 1
split_gain=323.582 76.8376 68.4102 32.1892 29.6547 27.5372 22.1897
threshold=9.5000000000000018 1.5000000000000002 1.5000000000000002 1.0000000180025095e-35 64.500000000000014 2.5000000000000004 5.5000000000000009
decision_type=2 2 2 2 2 2 2
left_child=2 4 3 -1 -2 -4 -3
right_child=1 6 5 -5 -6 -7 -8
leaf_value=-0.029143930678390967 0.06272540311701677 0.18242374423095126 0.0040778451714891138 -0.076813017822886812 0.25406070281656845 0.12010513122813571 0.37586847448461924
leaf_weight=591.81413490325212 237.88689961284399 49.353358685970306 57.411164402961731 233.46089579164982 9.9748597070574743 41.758760333061218 8.1679825186729413
leaf_count=5445 2011 359 514 2229 81 336 60
internal_value=0 0.0966952 -0.0323773 -0.042629 0.0704254 0.052935 0.209893
internal_weight=0 305.383 924.445 825.275 247.862 99.1699 57.5213
internal_count=11035 2511 8524 7674 2092 850 419
is_linear=0
shrinkage=0.108713


Tree=2
num_leaves=8
num_cat=0
split_feature=0 1 1 4 3 3 1
split_gain=248.342 66.6885 43.1746 26.6438 26.2748 13.715 11.2347
threshold=7.5000000000000009 1.5000000000000002 2.5000000000000004 1.0000000180025095e-35 1.7500000000000002 11.250000000000002 6.5000000000000009
decision_type=2 2 2 2 8 8 2
left_child=2 4 3 -1 -2 -3 -4
right_child=1 5 6 -5 -6 -7 -8
leaf_value=-0.02669196254576052 0.022584562969300805 0.1272440089654078 0.056811585800487688 -0.070007494026371991 0.085915262306938703 0.22340393555654228 0.26510342491621414
leaf_weight=548.22306675463915 189.01467163860798 49.05382214486599 38.521200343966484 241.87992236763239 131.14226337522268 27.277287632226944 3.3245375901460639
leaf_count=5120 1582 322 321 2417 1071 175 27
internal_value=0 0.0702962 -0.034253 -0.0399525 0.048526 0.161607 0.0733598
internal_weight=0 396.488 831.949 790.103 320.157 76.3311 41.8457
internal_count=11035 3150 7885 7537 2653 497 348
is_linear=0
shrinkage=0.108713


Tree=3
num_leaves=8
num_cat=0
split_feature=0 1 2 1 0 4 2
split_gain=194.786 50.6482 30.8041 33.4909 27.6879 26.5801 18.3911
threshold=11.500000000000002 1.5000000000000002 2014.5000000000002 1.0000000180025095e-35 57.500000000000007 1.0000000180025095e-35 2005.5000000000002
decision_type=2 2 10 2 2 2 8
left_child=1 5 3 -2 -4 -1 -3
right_child=2 6 4 -5 -6 -7 -8
leaf_value=-0.022482393472395851 0.065499994227896902 -0.014414267105345451 0.012356694647156871 0.15910719117173533 0.22612138933106615 -0.067233983634493552 0.076452658471402882
leaf_weight=615.34343222528696 109.85096147656441 41.330766268074512 91.621856898069382 76.721427977085114 7.7683032453060141 210.52048881351948 72.504349023103714
leaf_count=5799 848 339 685 504 49 2245 566
internal_value=0 -0.0245197 0.0779504 0.103993 0.0290645 -0.03389 0.0434611
internal_weight=0 939.699 285.963 186.572 99.3902 825.864 113.835
internal_count=11035 8949 2086 1352 734 8044 905
is_linear=0
shrinkage=0.108713


Tree=4
num_leaves=8
num_cat=0
split_feature=0 1 2 1 3 4 2
split_gain=155.997 38.2889 49.4217 29.3455 22.5673 21.2225 7.35646
threshold=7.5000000000000009 1.0000000180025095e-35 2020.5000000000002 2.5000000000000004 45.500000000000007 1.0000000180025095e-35 2004.5000000000002
decision_type=2 2 10 2 10 2 8
left_child=3 4 -3 5 -2 -1 -5
right_child=1 2 -4 6 -6 -7 -8
leaf_value=-0.022599179245093071 0.017374323907119578 0.1113083951537813 -0.094182021569329061 -0.0059628331388205105 0.14335299085820599 -0.062851580697834419 0.086826413442595979
leaf_weight=529.44687243551016 242.57070783525705 152.60142963379622 15.211271218955515 15.189177207648752 18.056414753198624 218.76633052527905 30.12727440148592
leaf_count=5120 1931 979 116 122 124 2417 226
internal_value=0 0.0521803 0.0926819 -0.0292234 0.0261022 -0.0343684 0.0557253
internal_weight=0 428.44 167.813 793.53 260.627 748.213 45.3165
internal_count=11035 3150 1095 7885 2055 7537 348
is_linear=0
shrinkage=0.108713


Tree=5
num_leaves=8
num_cat=0
split_feature=0 1 2 1 3 3 2
split_gain=122.183 27.3579 36.9909 24.85 18.1893 15.8184 9.8503
threshold=7.5000000000000009 1.0000000180025095e-35 2020.5000000000002 1.5000000000000002 1.2500000000000002 107.50000000000001 2004.5000000000002
decision_type=2 2 10 2 10 10 8
left_child=3 5 -3 4 -1 -2 -5
right_child=1 2 -4 6 -6 -7 -8
leaf_value=-0.038565004541737107 0.018754705654574527 0.092718838663950282 -0.089917394989496205 -0.028024547241934639 0.0358520945095974 0.19700280459605019 0.047950938239813577
leaf_weight=638.19556725025177 259.22261122614145 162.62702062726021 14.255318224430082 28.850762516260147 41.332146853208542 6.0207335352897635 67.015610791742802
leaf_count=6683 2022 979 116 249 430 33 523
internal_value=0 0.0448844 0.0779998 -0.0267287 -0.0340386 0.0228007 0.0250863
internal_weight=0 442.126 176.882 775.394 679.528 265.243 95.8664
internal_count=11035 3150 1095 7885 7113 2055 772
is_linear=0
shrinkage=0.108713


Tree=6
num_leaves=8
num_cat=0
split_feature=0 1 4 1 2 0 2
split_gain=97.2726 28.1765 19.9032 18.1976 17.1326 10.6997 5.35778
threshold=11.500000000000002 1.5000000000000002 1.0000000180025095e-35 4.5000000000000009 2015.5000000000002 2.5000000000000004 2004.5000000000002
decision_type=2 2 2 2 10 2 10
left_child=1 2 -1 4 -2 -3 -5
right_child=3 5 -4 6 -6 -7 -8
leaf_value=-0.016976227102013099 0.060463537403712284 -0.0030851465638120044 -0.057869886096408356 0.34067870191637878 0.0021494297063152038 0.061429610642327027 0.13929201351803272
leaf_weight=587.68111840635538 219.57384563982487 60.068514935672283 184.92264384031296 1.7366974651813532 81.699958682060242 61.475869953632355 15.459689572453497
leaf_count=5799 1429 514 2245 8 575 391 74
internal_value=0 -0.0191097 -0.0267641 0.0508584 0.0446498 0.0295457 0.15963
internal_weight=0 894.148 772.604 318.47 301.274 121.544 17.1964
internal_count=11035 8949 8044 2086 2004 905 82
is_linear=0
shrinkage=0.108713


Tree=7
num_leaves=8
num_cat=0
split_feature=0 3 1 0 0 1 2
split_gain=78.1187 20.3653 18.5279 16.8549 16.3818 9.25111 8.02944
threshold=7.5000000000000009 1.0000000180025095e-35 3.5000000000000004 64.500000000000014 1.5000000000000002 3.5000000000000004 2018.5000000000002
decision_type=2 8 2 2 2 2 8
left_child=2 3 4 -2 -1 -3 -4
right_child=1 5 6 -5 -6 -7 -8
leaf_value=-0.053788501650533581 0.0081754471140225854 0.051984129347593083 0.053633433852323435 0.17924307032860823 -0.016042469095400646 0.13316463896192385 0.27605960078301361
leaf_weight=181.38907108455896 239.15975847840309 197.58373929560184 20.47181294858456 7.0063947588205329 541.72880604118109 18.111032232642174 2.1164304465055457
leaf_count=2141 1720 1306 145 39 5585 85 14
internal_value=0 0.0344131 -0.0224822 0.0130444 -0.0255108 0.0588005 0.0744739
internal_weight=0 461.861 745.706 246.166 723.118 215.695 22.5882
internal_count=11035 3150 7885 1759 7726 1391 159
is_linear=0
shrinkage=0.108713


Tree=8
num_leaves=8
num_cat=0
split_feature=0 3 0 2 3 1 0
split_gain=62.1468 21.8242 19.9999 13.5489 15.773 12.499 4.13956
threshold=12.500000000000002 0.75000000000000011 1.5000000000000002 2011.5000000000002 95.500000000000014 2.5000000000000004 10.500000000000002
decision_type=2 10 2 10 10 2 2
left_child=1 2 -1 5 -5 -2 -3
right_child=3 6 -4 4 -6 -7 -8
leaf_value=-0.05446583494134976 0.053521896211571426 0.044035663294367221 -0.012221979540136717 0.01112540159604735 0.16100063209953494 0.15238755651036434 -0.019214577960444082
leaf_weight=167.60376888513565 132.28531666100025 79.507132329046726 631.57729499787092 151.73977675288916 8.7790088057517988 17.062262520194054 14.451986782252787
leaf_count=2046 827 748 6220 984 42 77 91
internal_value=0 -0.0152544 -0.0210813 0.0412495 0.0193223 0.0648168 0.0343071
internal_weight=0 893.14 799.181 309.866 160.519 149.348 93.9591
internal_count=11035 9105 8266 1930 1026 904 839
is_linear=0
shrinkage=0.108713


Tree=9
num_leaves=8
num_cat=0
split_feature=0 1 1 2 4 0 2
split_gain=50.9604 15.7176 14.7991 23.8967 13.3123 9.82579 6.98903
threshold=7.5000000000000009 1.5000000000000002 1.0000000180025095e-35 2020.5000000000002 1.0000000180025095e-35 61.500000000000007 2004.5000000000002
decision_type=2 2 2 10 2 2 8
left_child=1 4 5 -4 -1 -2 -3
right_child=2 6 3 -5 -6 -7 -8
leaf_value=-0.015843251564857132 0.0066922062909861423 -0.024191484869625308 0.060549838604962491 -0.088033172988952108 -0.052097393202971035 0.10593849748564953 0.040269498683238286
leaf_weight=463.70216701924801 269.83365273475647 27.868253454566002 180.49165787547827 13.768672585487364 161.35559762269258 12.328380495309828 69.338247664272785
leaf_count=4907 1989 249 979 116 2206 66 523
internal_value=0 -0.0188777 0.0269267 0.0500187 -0.0252021 0.0110285 0.0217891
internal_weight=0 722.264 476.422 194.26 625.058 282.162 97.2065
internal_count=11035 7885 3150 1095 7113 2055 772
is_linear=0
shrinkage=0.108713


Tree=10
num_leaves=8
num_cat=0
split_feature=3 0 2 1 2 2 1
split_gain=41.9324 29.4006 25.274 12.2786 10.9148 7.05094 6.09006
threshold=0.75000000000000011 2.5000000000000004 2014.5000000000002 5.5000000000000009 2020.5000000000002 2007.5000000000002 1.5000000000000002
decision_type=10 2 10 2 10 10 2
left_child=1 3 -3 -1 5 -2 -6
right_child=4 2 -4 -5 6 -7 -8
leaf_value=-0.036175774858993467 0.11643158395838958 0.018132605517553035 -0.031001157050972426 0.17992236833619371 -0.083462845765765542 0.043317029361562405 0.20223572802989512
leaf_weight=364.97311051189899 17.067340284585953 445.535799048841 171.30439775437117 3.134191930294036 10.500687457621094 179.90477479994297 0.96263837814331132
leaf_count=4323 126 3720 1491 22 98 1249 6
internal_value=0 -0.010022 0.00448753 -0.0343358 0.0436508 0.0496523 -0.0594712
internal_weight=0 984.947 616.84 368.107 208.435 196.972 11.4633
internal_count=11035 9556 5211 4345 1479 1375 104
is_linear=0
shrinkage=0.108713


Tree=11
num_leaves=8
num_cat=0
split_feature=0 1 3 5 2 1 0
split_gain=35.2006 14.7081 16.6218 8.99752 8.92335 10.0601 7.1776
threshold=12.500000000000002 1.5000000000000002 1.2500000000000002 1.0000000180025095e-35 2020.5000000000002 1.0000000180025095e-35 79.500000000000014
decision_type=2 2 8 2 10 2 2
left_child=1 2 -1 -3 5 -2 -6
right_child=4 3 -4 -5 6 -7 -8
leaf_value=-0.028788933960607371 0.016569279546327201 0.030484787999800235 0.0066379753520030638 -0.072311671967848393 -0.10121770287548103 0.056031857115782298 0.22302754584263162
leaf_weight=512.39326120167971 180.9685865342617 118.5062802284956 225.3648738488555 10.996902227401732 8.9443630129098857 132.06235860288143 0.88685962557792741
leaf_count=5760 1188 844 2416 85 79 658 5
internal_value=0 -0.0120354 -0.017967 0.0217557 0.0300149 0.0332179 -0.071968
internal_weight=0 867.261 737.758 129.503 322.862 313.031 9.83122
internal_count=11035 9105 8176 929 1930 1846 84
is_linear=0
shrinkage=0.108713


Tree=12
num_leaves=8
num_cat=0
split_feature=0 1 4 0 1 2 2
split_gain=29.0036 11.1183 12.3715 9.73874 9.28331 7.10774 5.41356
threshold=7.5000000000000009 2.5000000000000004 1.0000000180025095e-35 64.500000000000014 5.5000000000000009 2004.5000000000002 2013.5000000000002
decision_type=2 2 2 2 2 10 10
left_child=1 2 -1 4 -2 -5 -3
right_child=3 6 -4 5 -6 -7 -8
leaf_value=-0.0096399632406757568 0.013582922765776231 0.05651970760972376 -0.043736363741093361 -0.10127949923609823 0.097133036600834805 0.11409541766871077 -0.024281563966188507
leaf_weight=475.81989019364119 452.29648446291685 36.288080520927906 170.95337650924921 2.0074059963226345 16.282954171299934 18.504150778055191 13.425139948725699
leaf_count=5120 2983 264 2417 10 70 87 84
internal_value=0 -0.0148442 -0.0186522 0.0196958 0.0164863 0.0930173 0.0346992
internal_weight=0 696.486 646.773 489.091 468.579 20.5116 49.7132
internal_count=11035 7885 7537 3150 3053 97 348
is_linear=0
shrinkage=0.108713


Tree=13
num_leaves=8
num_cat=0
split_feature=3 0 2 1 2 2 1
split_gain=26.4585 19.5103 19.3036 11.975 7.66299 5.57698 4.50168
threshold=0.75000000000000011 2.5000000000000004 2014.5000000000002 9.5000000000000018 2020.5000000000002 2009.5000000000002 1.5000000000000002
decision_type=10 2 10 2 10 10 2
left_child=1 3 -3 -1 5 -2 -6
right_child=4 2 -4 -5 6 -7 -8
leaf_value=-0.029606280545816755 0.0722863371090222 0.015041107846417111 -0.028267824286212904 0.49686692033916241 -0.079075193477733147 0.029017967584651874 0.15345840363184893
leaf_weight=347.59398557990789 45.136112600564957 450.69711280614138 166.59131667017937 0.51135806739330192 9.692157641053198 160.03489865362644 1.0951118618249882
leaf_count=4342 303 3720 1491 3 98 1072 6
internal_value=0 -0.00825267 0.00335307 -0.0288329 0.0338411 0.0385367 -0.0554686
internal_weight=0 965.394 617.288 348.105 215.958 205.171 10.7873
internal_count=11035 9556 5211 4345 1479 1375 104
is_linear=0
shrinkage=0.108713


Tree=14
num_leaves=8
num_cat=0
split_feature=3 0 2 2 5 1 1
split_gain=20.7189 16.3679 13.3167 6.09677 4.59906 3.98945 3.59051
threshold=0.75000000000000011 1.5000000000000002 2011.5000000000002 2020.5000000000002 1.0000000180025095e-35 2.5000000000000004 1.5000000000000002
decision_type=10 2 10 10 2 2 2
left_child=1 5 -3 4 -2 -1 -5
right_child=3 2 -4 6 -6 -7 -8
leaf_value=-0.047122223479612306 0.037997403153399438 0.010173687001041636 -0.01802773251958964 -0.075157216723305748 -0.025237624804628579 0.016553328540623996 0.12644895196721467
leaf_weight=129.81913506239653 194.87875462323427 478.20459923148155 337.58455856144428 9.1216674000024778 14.612327143549917 12.772859446704386 1.1789698302745808
leaf_count=1943 1279 4330 3180 98 96 103 6
internal_value=0 -0.0074362 -0.00149644 0.0295718 0.0335867 -0.0414184 -0.0520822
internal_weight=0 958.381 815.789 219.792 209.491 142.592 10.3006
internal_count=11035 9556 7510 1479 1375 2046 104
is_linear=0
shrinkage=0.108713


Tree=15
num_leaves=8
num_cat=0
split_feature=0 2 1 1 2 2 1
split_gain=18.1241 11.1032 10.357 6.54389 7.77982 4.47597 0.594874
threshold=12.500000000000002 1.0000000180025095e-35 6.5000000000000009 2.5000000000000004 2015.5000000000002 2010.5000000000002 1.0000000180025095e-35
decision_type=2 10 2 2 10 10 2
left_child=1 6 -3 4 -2 -5 -1
right_child=3 2 -4 5 -6 -7 -8
leaf_value=0.38842707330065296 0.025414059283368214 -0.010647247926743755 0.11344486414241806 0.10579283304287843 -0.015641220698317804 0.033660150517884728 0.23796395496886041
leaf_weight=0.6418437287211407 216.079061627388 833.47230696305633 8.0255294889211637 16.074088141322136 72.972376465797424 27.665007054805756 0.60164906084537506
leaf_count=8 1237 9050 40 67 503 123 7
internal_value=0 -0.00898407 -0.00946376 0.0209796 0.0150495 0.0601689 0.315627
internal_weight=0 842.741 841.498 332.791 289.051 43.7391 1.24349
internal_count=11035 9105 9090 1930 1740 190 15
is_linear=0
shrinkage=0.108713


Tree=16
num_leaves=8
num_cat=0
split_feature=1 2 3 0 3 0 1
split_gain=15.7099 21.9554 14.6222 12.4528 10.5331 7.6248 1.72957
threshold=1.0000000180025095e-35 2020.5000000000002 1.2500000000000002 2.5000000000000004 3.2500000000000004 14.500000000000002 1.5000000000000002
decision_type=2 10 8 2 8 2 2
left_child=2 3 5 -2 -4 -1 -3
right_child=1 6 4 -5 -6 -7 -8
leaf_value=-0.027015118683447355 -0.006081166050864068 -0.088103194918175518 0.080814602314569245 0.036244979324496635 0.0038833472861061857 0.010237708994148328 -0.0013159536714449258
leaf_weight=407.91030807048082 118.6178102530539 23.895992018282417 22.956033147871494 267.21989853680134 251.16445307806134 77.228106737136841 3.0615812167525283
leaf_count=4744 1373 289 201 1601 2280 528 19
internal_value=0 0.0166056 -0.00974446 0.0232327 0.0103259 -0.0210849 -0.0782467
internal_weight=0 412.795 759.259 385.838 274.12 485.138 26.9576
internal_count=11035 3282 7753 2974 2481 5272 308
is_linear=0
shrinkage=0.108713


Tree=17
num_leaves=8
num_cat=0
split_feature=3 0 2 2 0 2 3
split_gain=12.8961 12.4943 9.16666 4.62517 5.47889 3.66216 3.1152
threshold=0.75000000000000011 1.5000000000000002 2011.5000000000002 2009.5000000000002 109.50000000000001 2011.5000000000002 35.500000000000007
decision_type=10 2 10 10 2 10 10
left_child=1 5 -3 6 -5 -1 -2
right_child=3 2 -4 4 -6 -7 -8
leaf_value=-0.024570284680705021 0.037990011644599288 0.0086636084148672948 -0.014911737035770116 0.01320749520252164 0.24536038632240134 -0.063204129663790007 0.10439360040948295
leaf_weight=92.781919609755278 37.507430210709572 479.90149712562561 328.24444103986025 175.56309181824327 1.209737867116927 42.181075297296047 10.740621879696844
leaf_count=1389 252 4330 3180 1171 5 657 51
internal_value=0 -0.00602551 -0.000911984 0.0229389 0.0147962 -0.0366448 0.0527723
internal_weight=0 943.109 808.146 225.021 176.773 134.963 48.2481
internal_count=11035 9556 7510 1479 1176 2046 303
is_linear=0
shrinkage=0.108713


Tree=18
num_leaves=8
num_cat=0
split_feature=1 2 2 3 3 2 1
split_gain=12.2767 17.815 11.8036 10.0724 7.51383 7.27171 1.58935
threshold=1.0000000180025095e-35 2020.5000000000002 2002.5000000000002 1.2500000000000002 3.2500000000000004 2005.5000000000002 1.5000000000000002
decision_type=2 10 8 8 8 10 2
left_child=3 2 -2 5 -5 -1 -3
right_child=1 6 -4 4 -6 -7 -8
leaf_value=0.045978110485455782 -0.057125795878877346 -0.084386728909379524 0.024958291014210106 0.065105788226250946 0.0021601949052702713 -0.021165061034862057 -0.00059107964628778728
leaf_weight=19.899665795266628 21.941096417605877 22.028487496078018 367.29657623916864 24.587904527783394 253.3534086458385 453.55392743647099 3.0448791161179534
leaf_count=223 182 289 2792 201 2280 5049 19
internal_value=0 0.0146097 0.0203313 -0.00869907 0.00772864 -0.018343 -0.0742107
internal_weight=0 414.311 389.238 751.395 277.941 473.454 25.0734
internal_count=11035 3282 2974 7753 2481 5272 308
is_linear=0
shrinkage=0.108713


Tree=19
num_leaves=8
num_cat=0
split_feature=0 1 2 3 3 1 3
split_gain=10.6975 9.71073 14.0027 7.8322 7.36977 6.75396 5.72267
threshold=2.5000000000000004 1.0000000180025095e-35 2020.5000000000002 1.2500000000000002 45.500000000000007 9.5000000000000018 1.7500000000000002
decision_type=2 2 10 10 8 2 10
left_child=3 4 -3 5 -2 -1 -5
right_child=1 2 -4 6 -6 -7 -8
leaf_value=-0.021672563320381283 -0.010200428142309863 0.028393000909536625 -0.072462780717614972 0.34299661356508016 0.019634918355120042 0.32566868415578892 0.027824330015409338
leaf_weight=328.4707058146596 376.74594989418983 274.69067498296499 17.293847918510437 0.69544060528278251 132.17865660041571 0.66295778751373191 32.509139351546764
leaf_count=4415 3469 1601 212 6 1037 3 292
internal_value=0 0.00661558 0.0224194 -0.0158962 -0.00245155 -0.0209729 0.0344253
internal_weight=0 800.909 291.985 362.338 508.925 329.134 33.2046
internal_count=11035 6319 1813 4716 4506 4418 298
is_linear=0
shrinkage=0.108713


Tree=20
num_leaves=7
num_cat=0
split_feature=0 0 2 3 2 1
split_gain=8.86574 7.95065 7.74761 5.64182 5.5119 4.95815
threshold=1.5000000000000002 64.500000000000014 2011.5000000000002 5.7500000000000009 2004.5000000000002 2.5000000000000004
decision_type=2 2 10 10 10 2
left_child=3 2 -2 5 -3 -1
right_child=1 4 -4 -5 -6 -7
leaf_value=-0.033874373674698789 0.010413116224894194 -0.10240459771260745 -0.0088535525922997169 0.35610123114344916 0.086735938358011522 0.034451465745945382
leaf_weight=126.99408626928926 549.33250718191266 2.0107384175062206 447.71103117614985 0.45549498498439689 19.291651040315628 13.928736031055449
leaf_count=2066 4729 10 4027 5 87 111
internal_value=0 0.00316572 0.00176164 -0.0258864 0.0688829 -0.0271211
internal_weight=0 1018.35 997.044 141.378 21.3024 140.923
internal_count=11035 8853 8756 2182 97 2177
is_linear=0
shrinkage=0.108713


Tree=21
num_leaves=7
num_cat=0
split_feature=1 0 2 2 0 3
split_gain=8.39694 7.6933 6.85231 6.7677 4.83889 6.28608
threshold=5.5000000000000009 2.5000000000000004 2011.5000000000002 1.0000000180025095e-35 42.500000000000007 4.2500000000000009
decision_type=2 2 10 10 2 8
left_child=1 3 -3 -1 5 -2
right_child=4 2 -4 -5 -6 -7
leaf_value=0.24550725899508072 0.029636526224296803 0.013432349570674658 -0.0070159412631312429 -0.016008501036972572 -0.11536998290506502 0.14517394017778135
leaf_weight=1.1734629571437825 14.261139973998075 431.833715967834 351.19596927985549 348.6109997741878 1.6974477171897877 9.1274353712797147
leaf_count=12 65 3310 2922 4677 7 42
internal_value=0 -0.00172674 0.0042611 -0.0151312 0.0618624 0.0747252
internal_weight=0 1132.81 783.03 349.784 25.086 23.3886
internal_count=11035 10921 6232 4689 114 107
is_linear=0
shrinkage=0.108713


Tree=22
num_leaves=8
num_cat=0
split_feature=1 2 2 0 2 5 3
split_gain=7.5444 12.1224 9.89099 6.78573 6.09976 5.25134 1.63144
threshold=1.0000000180025095e-35 2020.5000000000002 2002.5000000000002 14.500000000000002 2006.5000000000002 1.0000000180025095e-35 9.2500000000000018
decision_type=2 10 8 2 10 2 10
left_child=3 2 -2 4 -1 -5 -3
right_child=1 6 -4 5 -6 -7 -8
leaf_value=0.0035836566620980046 -0.056034689601668346 -0.079353852562143806 0.01990387228102997 0.017822186649154477 -0.020216256263676669 -0.063696845846803532 0.0022614904808680222
leaf_weight=189.26518201828003 21.436174888163805 18.783777497708801 373.0020137168467 151.41715940088034 388.54406559094787 9.9532719552516919 3.4219427034258834
leaf_count=2172 182 268 2792 941 4578 62 40
internal_value=0 0.0113771 0.0157769 -0.00691585 -0.0124204 0.0127941 -0.0667768
internal_weight=0 416.644 394.438 739.18 577.809 161.37 22.2057
internal_count=11035 3282 2974 7753 6750 1003 308
is_linear=0
shrinkage=0.108713


Tree=23
num_leaves=8
num_cat=0
split_feature=3 4 1 1 2 1 0
split_gain=6.75526 8.1534 5.52683 4.96321 3.24984 4.75802 3.8517
threshold=0.75000000000000011 1.0000000180025095e-35 1.0000000180025095e-35 6.5000000000000009 2007.5000000000002 1.5000000000000002 109.50000000000001
decision_type=10 2 2 2 10 2 2
left_child=1 2 -1 -3 5 -2 -6
right_child=4 3 -4 -5 6 -7 -8
leaf_value=-0.0058653926467205162 0.025951831300577207 -0.02823816568847435 0.014229218350984859 0.14013734528037847 0.011219052626030098 0.14405688818575219 0.20607866732535718
leaf_weight=522.18695468455553 14.998946182429792 165.61471286043525 234.36584661900997 2.0952166616916648 207.34977070242167 5.5132101923227301 1.2058463841676701
leaf_count=5362 100 2480 1704 10 1348 26 5
internal_value=0 -0.0044479 0.00035954 -0.0261346 0.0164066 0.0576958 0.0123457
internal_weight=0 924.263 756.553 167.71 229.068 20.5122 208.556
internal_count=11035 9556 7066 2490 1479 126 1353
is_linear=0
shrinkage=0.108713


Tree=24
num_leaves=7
num_cat=0
split_feature=2 1 3 0 1 4
split_gain=6.40797 7.07643 6.77566 5.10436 2.32901 1.69597
threshold=2002.5000000000002 1.5000000000000002 1.2500000000000002 66.500000000000014 7.5000000000000009 1.0000000180025095e-35
decision_type=8 2 8 2 2 2
left_child=4 2 -2 -3 5 -1
right_child=1 3 -4 -5 -6 -7
leaf_value=-0.031755069333864627 -0.0097317309614306374 0.017497136697697788 0.0098938333637413403 0.14337857987184752 0.11999032724780644 -0.081603875405817872
leaf_weight=36.755452886223793 578.58978785574436 195.52638506144285 324.52012500911951 3.8825917690992346 1.0635068416595448 10.334170192480086
leaf_count=298 6629 1138 2825 16 5 124
internal_value=0 0.00141304 -0.00267955 0.0199481 -0.0391017 -0.0426948
internal_weight=0 1102.52 903.11 199.409 48.1531 47.0896
internal_count=11035 10608 9454 1154 427 422
is_linear=0
shrinkage=0.108713


Tree=25
num_leaves=7
num_cat=0
split_feature=0 3 2 1 1 1
split_gain=5.90134 7.87319 5.47466 5.6092 1.84303 1.75664
threshold=1.0000000180025095e-35 1.7500000000000002 2002.5000000000002 1.0000000180025095e-35 7.5000000000000009 2.5000000000000004
decision_type=2 10 8 2 2 2
left_child=1 5 4 -4 -2 -1
right_child=2 -3 3 -5 -6 -7
leaf_value=-0.06584057571271619 -0.038935832118571115 0.42830499288847734 -0.0034471348103350275 0.012862675253155022 0.10398818164546446 0.079056620902177924
leaf_weight=23.870859429240234 45.474983353167772 0.39672091230749984 684.77363409101963 391.79975290596485 1.0919225364923466 1.0315765365958203
leaf_count=427 419 5 7192 2979 5 8
internal_value=0 -0.0521836 0.000909972 0.00248853 -0.0355845 -0.0598382
internal_weight=0 25.2992 1123.14 1076.57 46.5669 24.9024
internal_count=11035 440 10595 10171 424 435
is_linear=0
shrinkage=0.108713


Tree=26
num_leaves=8
num_cat=0
split_feature=0 2 4 2 0 3 3
split_gain=5.43586 5.17872 6.90747 4.3536 4.45043 4.21438 4.02765
threshold=64.500000000000014 2011.5000000000002 1.0000000180025095e-35 2012.5000000000002 87.500000000000014 95.500000000000014 78.500000000000014
decision_type=2 10 2 10 2 8 8
left_child=1 2 -1 6 -5 -3 -2
right_child=3 5 -4 4 -6 -7 -8
leaf_value=0.010986697392848596 0.056184076363346665 -0.011038898924570342 -0.016477139575121414 0.16322035467849358 0.013385952360522514 0.073201063696077512 -0.078071597541907248
leaf_weight=505.57835521548986 7.4230686426162729 475.11596290394664 137.7151759378612 6.1947742998599988 3.7678244560956955 7.1240310966968527 4.0992991030216226
leaf_count=4231 33 4735 1941 28 17 31 19
internal_value=0 -0.00127743 0.00510729 0.0539246 0.106553 -0.00979444 0.00842009
internal_weight=0 1125.53 643.294 21.485 9.9626 482.24 11.5224
internal_count=11035 10938 6172 97 45 4766 52
is_linear=0
shrinkage=0.108713


Tree=27
num_leaves=8
num_cat=0
split_feature=1 3 0 1 2 0 1
split_gain=4.98275 5.40255 4.99391 4.3895 4.0679 2.86169 1.35487
threshold=6.5000000000000009 47.500000000000007 1.0000000180025095e-35 3.5000000000000004 2005.5000000000002 9.5000000000000018 7.5000000000000009
decision_type=2 10 2 2 8 2 2
left_child=1 2 -1 -3 6 -6 -2
right_child=4 3 -4 -5 5 -7 -8
leaf_value=-0.051875337208920444 0.23143194210881629 0.030447996548964174 -0.0014230240737951795 0.2073024890726908 -0.034641298368831341 0.072695478019703053 0.099887112681740886
leaf_weight=23.702688254415989 1.6892769187688803 38.424592040479183 1065.6297267638147 1.7334458380937565 4.8929550051689148 7.3380374908447266 2.0463214963674545
leaf_count=439 8 188 10332 7 22 30 9
internal_value=0 -0.00107721 -0.00252081 0.038082 0.0600816 0.0297559 0.159373
internal_weight=0 1129.49 1089.33 40.158 15.9666 12.231 3.7356
internal_count=11035 10966 10771 195 69 52 17
is_linear=0
shrinkage=0.108713


Tree=28
num_leaves=6
num_cat=0
split_feature=2 0 3 2 1
split_gain=4.60614 4.72068 5.18932 4.56323 0.328407
threshold=1.0000000180025095e-35 1.0000000180025095e-35 1.7500000000000002 2002.5000000000002 1.0000000180025095e-35
decision_type=10 2 10 10 2
left_child=4 2 -2 -3 -1
right_child=1 3 -4 -5 -6
leaf_value=0.21796110274940397 -0.057439587691512396 -0.033205029649156989 0.28749659003920497 0.0019492058876076329 0.12475423505464291
leaf_weight=0.94568771868944057 22.266593299806122 45.488707181066275 0.52767876535653968 1073.591938495636 0.8468330055475235
leaf_count=8 434 424 5 10157 7
internal_value=0 -0.000477355 -0.0494544 0.000520247 0.173928
internal_weight=0 1141.87 22.7943 1119.08 1.79252
internal_count=11035 11020 439 10581 15
is_linear=0
shrinkage=0.108713


Tree=29
num_leaves=7
num_cat=0
split_feature=0 2 1 2 2 1
split_gain=4.08057 4.17959 5.53908 3.46636 2.85587 2.71356
threshold=64.500000000000014 2011.5000000000002 6.5000000000000009 2004.5000000000002 2012.5000000000002 1.5000000000000002
decision_type=2 10 2 10 10 2
left_child=1 2 -1 -2 -3 -5
right_child=3 4 -4 5 -6 -7
leaf_value=0.0034794336514263908 -0.094639647392473922 -0.03195615064723327 0.093423706747226345 0.041308656359254611 -0.0057459424504109104 0.14694347522205992
leaf_weight=635.57145125046372 1.8771776407957101 55.6015883423388 8.196336552500723 16.295994579792026 422.23259192332625 3.4894301593303672
leaf_count=6136 10 502 36 72 4264 15
internal_value=0 -0.00109288 0.00462459 0.0465438 -0.00879581 0.0599388
internal_weight=0 1121.6 643.768 21.6626 477.834 19.7854
internal_count=11035 10938 6172 97 4766 87
is_linear=0
shrinkage=0.108713


Tree=30
num_leaves=7
num_cat=0
split_feature=0 2 3 2 2 2
split_gain=3.82529 5.53919 4.21599 8.89259 3.84579 3.17253
threshold=1.5000000000000002 1.0000000180025095e-35 2.7500000000000004 2015.5000000000002 2002.5000000000002 2015.5000000000002
decision_type=2 10 10 8 10 10
left_child=2 -2 5 -4 -3 -1
right_child=1 4 3 -5 -6 -7
leaf_value=-0.012953131515468343 0.29556307627639861 -0.030398631776863031 -0.0097461161578396814 0.42474771353646668 0.0032550935484269863 -0.059201900913755649
leaf_weight=106.21479648351669 0.75949600338935752 41.864450789988041 1.9120529666543 0.78537142276763905 969.37936966493726 20.994406141340733
leaf_count=1750 5 378 19 8 8470 405
internal_value=0 0.00208228 -0.0177341 0.116759 0.00186186 -0.020586
internal_weight=0 1012 129.907 2.69742 1011.24 127.209
internal_count=11035 8853 2182 27 8848 2155
is_linear=0
shrinkage=0.108713


Tree=31
num_leaves=7
num_cat=0
split_feature=1 2 2 0 2 0
split_gain=3.69282 3.50716 4.02266 2.94148 1.70499 1.2165
threshold=8.5000000000000018 2002.5000000000002 2011.5000000000002 20.500000000000004 2014.5000000000002 17.500000000000004
decision_type=2 8 10 2 10 2
left_child=1 5 -3 4 -2 -1
right_child=3 2 -4 -5 -6 -7
leaf_value=-0.02250110562204358 0.085311353110228985 0.0064552669978474248 -0.0068330275804268812 0.19765803412687116 -0.054404386739786571 -0.07021845109885537
leaf_weight=35.742507599294186 2.860991731286048 608.69366688281298 482.78854161500931 1.8567317724227903 1.614978492259979 7.669105425477027
leaf_count=380 12 5782 4801 8 7 45
internal_value=0 -0.000627712 0.000577538 0.0826205 0.0349004 -0.0309309
internal_weight=0 1134.89 1091.48 6.3327 4.47597 43.4116
internal_count=11035 11008 10583 27 19 425
is_linear=0
shrinkage=0.108713


Tree=32
num_leaves=7
num_cat=0
split_feature=0 2 5 3 3 2
split_gain=3.52951 4.17667 5.81546 3.9111 3.31097 2.77401
threshold=3.5000000000000004 2018.5000000000002 1.0000000180025095e-35 13.500000000000002 81.500000000000014 1.0000000180025095e-35
decision_type=2 10 2 10 8 10
left_child=3 2 -2 5 -3 -1
right_child=1 4 -4 -5 -6 -7
leaf_value=0.13360350782330302 0.010083846867783285 -0.022335023729397916 -0.035741608671708058 0.2150971377668523 0.11653327030334844 -0.0089137953200642914
leaf_weight=1.6202191859483708 593.63385366275907 78.429823700338602 34.638928703963757 0.92755474895238776 2.0830430984497061 429.29667349159718
leaf_count=12 4372 731 239 7 10 5664
internal_value=0 0.00456989 0.00755733 -0.00789794 -0.0187422 -0.00837794
internal_weight=0 708.786 628.273 431.844 80.5129 430.917
internal_count=11035 5352 4611 5683 741 5676
is_linear=0
shrinkage=0.108713


Tree=33
num_leaves=8
num_cat=0
split_feature=3 4 0 2 5 0 0
split_gain=3.16194 4.71372 3.80591 3.57941 3.06541 4.36494 3.43847
threshold=0.75000000000000011 1.0000000180025095e-35 74.000000000000014 2006.5000000000002 1.0000000180025095e-35 29.500000000000004 109.50000000000001
decision_type=10 2 2 10 2 2 2
left_child=1 3 -3 -1 6 -6 -2
right_child=4 2 -4 -5 5 -7 -8
leaf_value=0.010751965923327661 0.01350391129811687 -0.021265371351644427 0.2333019155066049 -0.0049725025645857889 -0.074131327140578115 0.047054760975634338 0.18479321091760312
leaf_weight=263.80217587202787 214.01597507297993 156.70691066607833 0.69718223810195823 486.81554344296455 10.796519152820112 5.2066777348518363 1.3940852880477894
leaf_count=2218 1361 2487 3 4848 83 29 6
internal_value=0 -0.00303305 -0.0201378 0.000553811 0.0112021 -0.0347031 0.0146125
internal_weight=0 908.022 157.404 750.618 231.413 16.0032 215.41
internal_count=11035 9556 2490 7066 1479 112 1367
is_linear=0
shrinkage=0.108713


Tree=34
num_leaves=8
num_cat=0
split_feature=1 2 5 0 5 5 0
split_gain=3.08185 9.09661 6.12123 3.46064 4.11622 3.95166 1.56127
threshold=1.0000000180025095e-35 2020.5000000000002 1.0000000180025095e-35 14.500000000000002 1.0000000180025095e-35 1.0000000180025095e-35 11.500000000000002
decision_type=2 10 2 2 2 2 2
left_child=3 2 -2 4 -1 -5 -3
right_child=1 6 -4 5 -6 -7 -8
leaf_value=-0.01065300426402962 0.014885858572948274 -0.043137750033356063 -0.035797010259196876 0.013720697401067255 0.031918229550934901 -0.059023126207048013 -0.10794850179488119
leaf_weight=530.20857678353786 365.56848521903157 14.393088672310116 30.51387395337224 153.13100274652243 28.274432688951492 9.3655441179871541 6.3225648179650298
leaf_count=6434 2742 230 232 941 316 62 78
internal_value=0 0.00730833 0.0109813 -0.00443503 -0.00849774 0.00952808 -0.0629185
internal_weight=0 416.798 396.082 720.98 558.483 162.497 20.7157
internal_count=11035 3282 2974 7753 6750 1003 308
is_linear=0
shrinkage=0.108713


Tree=35
num_leaves=7
num_cat=0
split_feature=1 2 2 0 2 4
split_gain=2.97097 2.85946 2.82456 2.50828 1.30377 1.16622
threshold=8.5000000000000018 2002.5000000000002 2011.5000000000002 20.500000000000004 2014.5000000000002 1.0000000180025095e-35
decision_type=2 8 10 2 10 2
left_child=1 5 -3 4 -2 -1
right_child=3 2 -4 -5 -6 -7
leaf_value=-0.018845788759896495 0.074851104921131659 0.0054375735778125376 -0.0057282326635435237 0.18313858845443484 -0.04780610045645995 -0.062849580214897602
leaf_weight=33.454226218163967 2.8587498962879172 610.09915380179882 477.16894228756428 1.7944763749837873 1.5959547013044355 9.0420001111924631
leaf_count=299 12 5782 4801 8 7 126
internal_value=0 -0.000544036 0.00053724 0.0746213 0.0309076 -0.0282086
internal_weight=0 1129.76 1087.27 6.24918 4.4547 42.4962
internal_count=11035 11008 10583 27 19 425
is_linear=0
shrinkage=0.108713


Tree=36
num_leaves=8
num_cat=0
split_feature=0 0 1 5 2 0 3
split_gain=2.67308 3.95896 4.20608 3.93504 3.24868 3.66178 2.85356
threshold=64.500000000000014 42.500000000000007 5.5000000000000009 1.0000000180025095e-35 2012.5000000000002 87.500000000000014 78.500000000000014
decision_type=2 2 2 2 10 2 8
left_child=1 2 -1 -3 6 -6 -2
right_child=4 3 -4 -5 5 -7 -8
leaf_value=-0.00063520959172094337 0.037630544819605809 -0.024240732115867868 0.045667695561140087 -0.14728994636483156 0.13289338571409051 -0.003408679803729252 -0.07645758009463817
leaf_weight=1050.942377448082 7.5198719352483758 35.845249824225903 23.709058783948421 3.3594014123082152 6.3642438650131208 3.6743161231279373 3.9530773758888254
leaf_count=10621 33 190 107 20 28 17 19
internal_value=0 -0.000851593 0.000386329 -0.0347847 0.0378391 0.0830041 -0.00167924
internal_weight=0 1113.86 1074.65 39.2047 21.5115 10.0386 11.4729
internal_count=11035 10938 10728 210 97 45 52
is_linear=0
shrinkage=0.108713


Tree=37
num_leaves=7
num_cat=0
split_feature=0 3 1 2 4 2
split_gain=2.46702 3.67223 2.52516 7.41042 3.1606 2.30161
threshold=1.0000000180025095e-35 1.7500000000000002 1.0000000180025095e-35 2020.5000000000002 1.0000000180025095e-35 2002.5000000000002
decision_type=2 10 2 10 2 10
left_child=1 5 4 -4 -2 -1
right_child=2 -3 3 -5 -6 -7
leaf_value=0.26088839012795018 -0.00066800450245487386 0.22405691356099541 0.010607734182655664 -0.058341569630840119 -0.023017174196903176 -0.049682253692330744
leaf_weight=0.28608428314328804 618.26596696674824 0.61667038500308891 391.05584901571274 19.333236090838909 85.074877370148897 19.837129734456539
leaf_count=4 5985 5 2858 301 1451 431
internal_value=0 -0.037259 0.000582814 0.00735957 -0.00337132 -0.045267
internal_weight=0 20.7399 1113.73 410.389 703.341 20.1232
internal_count=11035 440 10595 3159 7436 435
is_linear=0
shrinkage=0.108713


Tree=38
num_leaves=8
num_cat=0
split_feature=3 4 3 4 0 0 2
split_gain=2.27578 3.5406 2.8534 8.28289 5.34928 2.7697 2.66187
threshold=0.75000000000000011 1.0000000180025095e-35 3.2500000000000004 1.0000000180025095e-35 24.500000000000004 74.000000000000014 2006.5000000000002
decision_type=10 2 10 2 2 2 10
left_child=1 6 4 -4 -2 -3 -1
right_child=2 5 3 -5 -6 -7 -8
leaf_value=0.0092520269132703014 0.039690429930676917 -0.018611313157207408 -0.0048225515127561505 0.091728304068533786 -0.055054774852075973 0.20001723082044193 -0.0043005937393449552
leaf_weight=265.45857738703489 59.102430302649736 152.56443173065782 153.14720976352692 11.274136912077664 7.9955769777297965 0.68791824579238792 482.77824971824884
leaf_count=2218 466 2487 893 78 42 3 4848
internal_value=0 -0.00257577 0.00950764 0.0017978 0.0284003 -0.0176299 0.000507589
internal_weight=0 901.489 231.519 164.421 67.098 153.252 748.237
internal_count=11035 9556 1479 971 508 2490 7066
is_linear=0
shrinkage=0.108713


Tree=39
num_leaves=8
num_cat=0
split_feature=2 1 5 0 0 2 0
split_gain=2.18009 2.64623 3.22813 2.75643 1.02763 2.4585 1.72507
threshold=2002.5000000000002 1.5000000000000002 1.0000000180025095e-35 9.5000000000000018 17.500000000000004 2000.5000000000002 5.5000000000000009
decision_type=8 2 2 2 2 10 2
left_child=4 3 -3 -2 6 -6 -1
right_child=1 2 -4 -5 5 -7 -8
leaf_value=-0.035686378287809413 -0.0062179725235821451 0.015546764926938753 -0.043060120447521784 0.0064178659167887855 0.0078779691936993294 -0.11669559680489618 0.01411380546548825
leaf_weight=21.246395967900753 571.98753421381116 189.09560757130384 11.800728924572466 317.17327934131026 3.4039832800626746 4.1611402481794357 13.408903542906044
leaf_count=273 7437 1080 74 2017 22 24 108
internal_value=0 0.000835421 0.0121042 -0.00171063 -0.0243419 -0.0606428 -0.0164176
internal_weight=0 1090.06 200.896 889.161 42.2204 7.56512 34.6553
internal_count=11035 10608 1154 9454 427 46 381
is_linear=0
shrinkage=0.108713


Tree=40
num_leaves=8
num_cat=0
split_feature=0 0 3 0 2 0 3
split_gain=1.97145 3.32324 3.57458 3.46792 2.60422 3.03353 2.30006
threshold=64.500000000000014 42.500000000000007 81.500000000000014 38.500000000000007 2012.5000000000002 82.500000000000014 78.500000000000014
decision_type=2 2 10 2 10 2 8
left_child=1 3 -3 -1 6 -6 -2
right_child=4 2 -4 -5 5 -7 -8
leaf_value=-0.00019763067205544953 0.032040222111791958 -0.046960201527129805 0.041388773206668283 0.064389675533760987 0.13539932711276953 0.015953842702935993 -0.070845794129670417
leaf_weight=1060.6652952097356 7.5381796658039102 32.09996010363102 6.5100146532058707 9.9170259833335859 4.7947932183742505 5.2801421731710434 3.8947885036468515
leaf_count=10675 33 181 29 53 21 24 19
internal_value=0 -0.0007294 -0.0320637 0.000400655 0.0325018 0.0727995 -0.00300923
internal_weight=0 1109.19 38.61 1070.58 21.5079 10.0749 11.433
internal_count=11035 10938 210 10728 97 45 52
is_linear=0
shrinkage=0.108713


Tree=41
num_leaves=7
num_cat=0
split_feature=1 0 2 2 2 0
split_gain=1.94739 2.26864 2.01201 2.26956 1.05022 0.969466
threshold=8.5000000000000018 20.500000000000004 2002.5000000000002 2011.5000000000002 2014.5000000000002 17.500000000000004
decision_type=2 2 8 10 10 2
left_child=2 4 5 -4 -2 -1
right_child=1 -3 3 -5 -6 -7
leaf_value=-0.016400989010806149 0.059933061214356528 0.16805030221691808 0.0048535688996220105 -0.0051810437670017266 -0.050127788051592688 -0.060549542640954225
leaf_weight=33.935729071497917 2.8359556645154944 1.6936288774013517 610.14492315798998 472.80146545916796 1.6043202131986616 7.1101085245609275
leaf_count=380 12 8 5782 4801 7 45
internal_value=0 0.0609989 -0.000422884 0.000472577 0.0201669 -0.0240486
internal_weight=0 6.1339 1123.99 1082.95 4.44028 41.0458
internal_count=11035 27 11008 10583 19 425
is_linear=0
shrinkage=0.108713


Tree=42
num_leaves=7
num_cat=0
split_feature=0 3 1 2 3 2
split_gain=1.8772 2.49299 1.73106 5.99455 2.65747 1.6727
threshold=1.0000000180025095e-35 1.7500000000000002 1.0000000180025095e-35 2020.5000000000002 122.50000000000001 2002.5000000000002
decision_type=2 10 2 10 10 10
left_child=1 5 4 -4 -2 -1
right_child=2 -3 3 -5 -6 -7
leaf_value=0.19811020960265063 -0.003359139465660561 0.16393436417721596 0.0089494914380076028 -0.054675089854418574 0.074864560106056396 -0.045228102154719882
leaf_weight=0.33993543684483185 693.98774753883481 0.72933036088943382 392.3965185135603 18.31836960837245 5.1710662841796866 18.671830885112286
leaf_count=4 7414 5 2858 301 22 431
internal_value=0 -0.0333104 0.000510075 0.00611176 -0.00278059 -0.0408771
internal_weight=0 19.7411 1109.87 410.715 699.159 19.0118
internal_count=11035 440 10595 3159 7436 435
is_linear=0
shrinkage=0.108713


Tree=43
num_leaves=8
num_cat=0
split_feature=4 3 0 1 2 1 2
split_gain=1.87802 8.86077 9.30998 3.21478 2.17196 2.98812 2.49864
threshold=1.0000000180025095e-35 4.2500000000000009 3.5000000000000004 6.5000000000000009 2011.5000000000002 3.5000000000000004 2012.5000000000002
decision_type=2 10 2 2 10 2 8
left_child=4 3 -3 -2 5 -1 -6
right_child=1 2 -4 -5 6 -7 -8
leaf_value=0.0047776104315332118 -0.018399397717191766 0.29446050593064099 0.03635723354377729 0.10640246319968738 -0.026651445171570223 0.044952207845205802 -0.00087409021826096638
leaf_weight=500.20122577622533 163.82109603658319 2.0383738018572322 8.7065379768609983 2.476219877600669 50.368516743183136 22.881561510264874 377.69449745118618
leaf_count=4164 2642 18 49 11 427 109 3615
internal_value=0 -0.0103589 0.085321 -0.0165411 0.00183548 0.00653499 -0.00390721
internal_weight=0 177.042 10.7449 166.297 951.146 523.083 428.063
internal_count=11035 2720 67 2653 8315 4273 4042
is_linear=0
shrinkage=0.108713


Tree=44
num_leaves=5
num_cat=0
split_feature=2 0 3 3
split_gain=1.65014 1.9488 2.03309 1.48539
threshold=1.0000000180025095e-35 1.0000000180025095e-35 1.7500000000000002 13.500000000000002
decision_type=10 2 10 10
left_child=-1 2 -2 -3
right_child=1 3 -4 -5
leaf_value=0.09083418710948199 -0.042499588470257928 -0.00093340176521682539 0.13503575765455889 0.012988517153721091
leaf_weight=2.3545899912714949 18.000912494957451 1006.2629996109754 0.79605875164270301 99.533573530614376
leaf_count=15 434 10046 5 535
internal_value=0 -0.00027031 -0.0349809 0.000319721
internal_weight=0 1124.59 18.797 1105.8
internal_count=11035 11020 439 10581
is_linear=0
shrinkage=0.108713


Tree=45
num_leaves=8
num_cat=0
split_feature=2 2 0 0 4 1 0
split_gain=1.49266 1.92676 3.39534 2.78986 0.725512 1.70865 1.15776
threshold=2002.5000000000002 2006.5000000000002 2.5000000000000004 61.500000000000007 1.0000000180025095e-35 7.5000000000000009 17.500000000000004
decision_type=8 10 2 2 2 2 2
left_child=4 2 -2 -3 6 -6 -1
right_child=1 3 -4 -5 5 -7 -8
leaf_value=-0.0022928422937521778 -0.0069945487553816918 -0.0032712293834053887 0.016635129894888349 0.037337053984432184 -0.063502491453460611 0.115344841093821 -0.052142442171797927
leaf_weight=25.420616269111633 113.62271815910935 755.68368643335998 195.56306198239326 20.53825568407774 7.7335271351039392 0.68744438886642445 7.0288148820400229
leaf_count=254 1618 7449 1447 94 124 3 46
internal_value=0 0.000694025 0.00795146 -0.00219676 -0.0204693 -0.0489023 -0.0130907
internal_weight=0 1085.41 309.186 776.222 40.8704 8.42097 32.4494
internal_count=11035 10608 3065 7543 427 127 300
is_linear=0
shrinkage=0.108713


Tree=46
num_leaves=7
num_cat=0
split_feature=1 0 4 3 2 2
split_gain=1.41106 2.03695 1.42182 6.40064 1.50813 0.769649
threshold=8.5000000000000018 20.500000000000004 1.0000000180025095e-35 60.500000000000007 2011.5000000000002 2014.5000000000002
decision_type=2 2 2 10 10 10
left_child=2 5 4 -4 -1 -2
right_child=1 -3 3 -5 -6 -7
leaf_value=0.0052029753967324961 0.048954822170208731 0.15881367288796092 -0.011527030153988104 0.196303804738786 -0.0035287191288788382 -0.045812528866509286
leaf_weight=523.99731080234051 2.7951529920101157 1.5733206719160078 171.49276531673968 1.769400194287299 422.09578000754118 1.5884042680263517
leaf_count=4266 12 8 2709 8 4025 7
internal_value=0 0.0527008 -0.000350715 -0.00940461 0.00130736 0.0146154
internal_weight=0 5.95688 1119.36 173.262 946.093 4.38356
internal_count=11035 27 11008 2717 8291 19
is_linear=0
shrinkage=0.108713


Tree=47
num_leaves=7
num_cat=0
split_feature=2 1 2 2 0 0
split_gain=1.25077 1.67548 5.29744 2.63828 0.642681 2.12821
threshold=2002.5000000000002 1.0000000180025095e-35 2020.5000000000002 2020.5000000000002 45.500000000000007 29.500000000000004
decision_type=8 2 10 8 2 2
left_child=4 3 -3 -2 5 -1
right_child=1 2 -4 -5 -6 -7
leaf_value=-0.015584332052043936 -0.0035527842944117877 0.0089390546633058929 -0.051912779580921387 0.046377610912597018 0.062252308512874478 -0.13555359949020079
leaf_weight=37.302245654165745 672.59987986274064 381.03216388821602 17.692719960585237 12.744062712416051 1.1217774599790562 1.8334828615188588
leaf_count=407 7346 2792 308 162 8 12
internal_value=0 0.000635592 0.00623886 -0.00262432 -0.0188793 -0.0212048
internal_weight=0 1084.07 398.725 685.344 40.2575 39.1357
internal_count=11035 10608 3100 7508 427 419
is_linear=0
shrinkage=0.108713


Tree=48
num_leaves=8
num_cat=0
split_feature=3 0 3 0 3 3 4
split_gain=1.14205 5.71265 6.67566 3.06303 2.11915 5.29403 4.48405
threshold=13.500000000000002 8.5000000000000018 16.500000000000004 87.500000000000014 3.2500000000000004 1.2500000000000002 1.0000000180025095e-35
decision_type=10 2 10 2 10 10 2
left_child=4 2 -2 -3 5 -1 -6
right_child=1 3 -4 -5 6 -7 -8
leaf_value=-0.0015966697767849547 0.26530458066434409 0.00089277877970438948 0.027519998450860596 0.11360262977536389 -0.030715583384646482 0.037628846494355918 0.0569761977298388
leaf_weight=916.17713455855846 2.1852279826998702 90.709665924310684 3.8604895733296871 2.9420765340328208 57.151264362037182 42.553056448698044 7.8365076929330817
leaf_count=9747 16 477 28 14 379 317 57
internal_value=0 0.0110454 0.113467 0.00443357 -0.00114343 0.000144347 -0.0201413
internal_weight=0 99.6975 6.04572 93.6517 1023.72 958.73 64.9878
internal_count=11035 535 44 491 10500 10064 436
is_linear=0
shrinkage=0.108713


Tree=49
num_leaves=8
num_cat=0
split_feature=4 3 0 1 0 0 1
split_gain=1.18327 5.3613 5.44486 2.7592 1.42688 1.37176 0.927274
threshold=1.0000000180025095e-35 4.2500000000000009 3.5000000000000004 2.5000000000000004 1.0000000180025095e-35 42.500000000000007 1.0000000180025095e-35
decision_type=2 10 2 2 2 2 2
left_child=4 3 -3 -2 6 -6 -1
right_child=1 2 -4 -5 5 -7 -8
leaf_value=-0.071242353267035 -0.019282531349834278 0.20453443901970511 0.023625234574045764 0.021078607024663677 0.0028433152950598796 -0.014569189284967435 0.025433505978245053
leaf_weight=5.0782673098146907 137.98656418174505 2.5261088460683814 8.8710204288363439 23.414904180914164 886.83469314873219 56.902319747954607 1.5245898887515066
leaf_count=115 2479 18 49 174 7878 296 26
internal_value=0 -0.00833873 0.0637227 -0.0134272 0.00144108 0.00179343 -0.04892
internal_weight=0 172.799 11.3971 161.401 950.34 943.737 6.60286
internal_count=11035 2720 67 2653 8315 8174 141
is_linear=0
shrinkage=0.108713


Tree=50
num_leaves=5
num_cat=0
split_feature=2 0 3 1
split_gain=1.12935 1.25288 1.49372 1.09149
threshold=1.0000000180025095e-35 1.0000000180025095e-35 1.7500000000000002 8.5000000000000018
decision_type=10 2 10 2
left_child=-1 2 -2 -3
right_child=1 3 -4 -5
leaf_value=0.072819782998928967 -0.036283827204573453 -1.7642732381648676e-05 0.11073784743771958 0.04722153570370121
leaf_weight=2.5070471838116637 16.655910115689043 1096.8296188376844 0.85882896929979224 5.8113338053226462
leaf_count=15 434 10554 5 27
internal_value=0 -0.000226903 -0.0290747 0.000231326
internal_weight=0 1120.16 17.5147 1102.64
internal_count=11035 11020 439 10581
is_linear=0
shrinkage=0.108713


Tree=51
num_leaves=8
num_cat=0
split_feature=0 5 2 3 3 2 3
split_gain=1.07435 3.8989 4.64392 3.72488 5.01355 3.57096 1.52124
threshold=15.500000000000002 1.0000000180025095e-35 2016.5000000000002 29.500000000000004 31.500000000000004 2015.5000000000002 27.250000000000004
decision_type=2 2 10 10 8 10 10
left_child=3 5 -3 6 -5 -2 -1
right_child=1 2 -4 4 -6 -7 -8
leaf_value=-0.0024035505133979422 0.016617284956005444 -0.084923354482539737 0.038570248671896401 0.24834757796873494 0.03047094162851656 -0.01435023589680552 -0.095634662081866384
leaf_weight=848.34617771580815 189.66194882243872 11.179977595806124 5.3072068095207205 1.5277440696954698 6.8219213150441655 57.305392704904079 2.0734839290380469
leaf_count=9494 990 66 40 8 40 385 12
internal_value=0 0.00601462 -0.0451709 -0.00192142 0.070336 0.0094317 -0.00263087
internal_weight=0 263.455 16.4872 858.769 8.34967 246.967 850.42
internal_count=11035 1481 106 9554 48 1375 9506
is_linear=0
shrinkage=0.108713


Tree=52
num_leaves=8
num_cat=0
split_feature=0 0 5 0 1 2 0
split_gain=0.996872 2.85403 3.21529 2.96603 2.09708 2.22685 1.54615
threshold=64.500000000000014 42.500000000000007 1.0000000180025095e-35 41.500000000000007 1.5000000000000002 2012.5000000000002 87.500000000000014
decision_type=2 2 2 2 2 10 2
left_child=1 3 -3 -1 5 -2 -6
right_child=4 2 -4 -5 6 -7 -8
leaf_value=0.00026681882005265262 -0.026568109533815162 -0.020677710723445746 -0.13913399961568437 0.12377597834536443 0.16632986491049151 0.050293887965076771 0.017173866600226635
leaf_weight=1060.0223209392279 9.7641718685627037 34.742719274014235 2.9370651021599761 2.3029491901397696 1.9098216146230691 8.1926901340484601 1.4411628693342207
leaf_count=10716 44 190 20 12 9 37 7
internal_value=0 -0.000508327 -0.0299111 0.000534567 0.0232326 0.00849963 0.102182
internal_weight=0 1100.01 37.6798 1062.33 21.3078 17.9569 3.35098
internal_count=11035 10938 210 10728 97 81 16
is_linear=0
shrinkage=0.108713


Tree=53
num_leaves=7
num_cat=0
split_feature=2 2 1 0 0 0
split_gain=0.9825 1.57453 3.19674 2.02842 0.626895 1.94998
threshold=2002.5000000000002 2006.5000000000002 6.5000000000000009 55.500000000000007 45.500000000000007 29.500000000000004
decision_type=8 10 2 2 2 2
left_child=4 2 -2 -3 5 -1
right_child=1 3 -4 -5 -6 -7
leaf_value=-0.013926241312414132 0.0060658799984322255 -0.0031162881647134578 0.12343927975794747 0.02742712728916645 0.063558026358419686 -0.13290134218017047
leaf_weight=36.823833303526044 306.66088514402509 745.25232575275004 2.7671534717082968 26.614985056221485 1.113404408097266 1.7034234553575505
leaf_count=407 3052 7416 13 127 8 12
internal_value=0 0.000563486 0.00711553 -0.00206311 -0.0168625 -0.0191865
internal_weight=0 1081.3 309.428 771.867 39.6407 38.5273
internal_count=11035 10608 3065 7543 427 419
is_linear=0
shrinkage=0.108713


Tree=54
num_leaves=7
num_cat=0
split_feature=4 3 1 0 3 0
split_gain=0.924795 4.88459 2.41332 1.17166 2.9906 2.2227
threshold=1.0000000180025095e-35 65.500000000000014 2.5000000000000004 42.500000000000007 46.500000000000007 41.500000000000007
decision_type=2 10 2 2 10 2
left_child=3 2 -2 5 -5 -1
right_child=1 -3 -4 4 -6 -7
leaf_value=0.0019521444315368282 -0.014483487623849307 0.2029691661519695 0.021798648970897148 -0.03006105801216432 0.025109226082928968 0.10674787475398383
leaf_weight=890.90542033314705 143.93534950166941 1.2943825125694264 25.506223849952221 39.772528100758791 16.400476567447186 2.3984235227107993
leaf_count=8007 2532 6 182 219 77 12
internal_value=0 -0.00741475 -0.0090219 0.00127586 -0.0139533 0.00223351
internal_weight=0 170.736 169.442 949.477 56.173 893.304
internal_count=11035 2720 2714 8315 296 8019
is_linear=0
shrinkage=0.108713


Tree=55
num_leaves=7
num_cat=0
split_feature=1 0 2 2 1 1
split_gain=0.86336 1.95742 0.958437 1.2537 1.15447 0.657216
threshold=8.5000000000000018 20.500000000000004 2002.5000000000002 2006.5000000000002 3.5000000000000004 10.500000000000002
decision_type=2 2 8 10 2 2
left_child=2 5 4 -4 -1 -2
right_child=1 -3 3 -5 -6 -7
leaf_value=-0.011064632457975274 0.045553159908174379 0.15115301126176278 0.0061796635900189393 -0.0020185156210366156 -0.075816013144920494 -0.03945869401351422
leaf_weight=35.225467879325151 2.2621831744909278 1.4508522972464559 309.65351671725512 765.33103928528726 3.5854698270559302 2.0475690364837646
leaf_count=396 10 8 3062 7521 29 9
internal_value=0 0.0419324 -0.000262949 0.000343002 -0.0170466 0.00516391
internal_weight=0 5.7606 1113.8 1074.98 38.8109 4.30975
internal_count=11035 27 11008 10583 425 19
is_linear=0
shrinkage=0.108713


Tree=56
num_leaves=8
num_cat=0
split_feature=0 5 2 2 3 3 3
split_gain=0.824987 3.07687 3.76817 2.91151 2.89662 3.60632 1.2809
threshold=15.500000000000002 1.0000000180025095e-35 2016.5000000000002 2015.5000000000002 29.500000000000004 31.500000000000004 27.250000000000004
decision_type=2 2 8 10 10 8 10
left_child=4 3 -3 -2 6 -6 -1
right_child=1 2 -4 -5 5 -7 -8
leaf_value=-0.0021058747300358462 0.014706047138739117 -0.078802616415268922 0.033583541482229785 -0.013378520837517121 0.20673426624557181 0.026984863033349585 -0.089815362682222732
leaf_weight=846.05777612142265 190.28407020121813 10.530470028519627 5.3007173724472532 56.603747520595789 1.6311755180358858 6.8961109519004831 1.9724085777997959
leaf_count=9494 990 66 40 385 8 40 12
internal_value=0 0.00528793 -0.0411726 0.00826712 -0.00167593 0.0613689 -0.00230988
internal_weight=0 262.719 15.8312 246.888 856.557 8.52729 848.03
internal_count=11035 1481 106 1375 9554 48 9506
is_linear=0
shrinkage=0.108713


Tree=57
num_leaves=5
num_cat=0
split_feature=2 0 2 1
split_gain=0.831679 0.960178 1.41557 0.909309
threshold=1.0000000180025095e-35 1.0000000180025095e-35 2014.5000000000002 1.0000000180025095e-35
decision_type=10 2 8 2
left_child=-1 2 -2 -3
right_child=1 3 -4 -5
leaf_value=0.061250133886314846 0.0032197462599457926 -0.0021891674139731623 -0.059973086586001138 0.0042855267784615084
leaf_weight=2.6104365438222876 9.0816287361085433 691.59376370534301 7.7771865464746943 407.34129461087286
leaf_count=15 228 7429 211 3152
internal_value=0 -0.000184195 -0.0259319 0.000210802
internal_weight=0 1115.79 16.8588 1098.94
internal_count=11035 11020 439 10581
is_linear=0
shrinkage=0.108713


Tree=58
num_leaves=5
num_cat=0
split_feature=0 0 0 0
split_gain=0.715445 0.716987 3.49886 1.69199
threshold=174.50000000000003 42.500000000000007 55.500000000000007 41.500000000000007
decision_type=2 2 2 2
left_child=1 3 -3 -1
right_child=-2 2 -4 -5
leaf_value=0.00031635334151598521 0.10181948361841887 -0.040515973715785907 0.013372571384852157 0.089990832565112838
leaf_weight=1057.4016174934804 0.81439939141273399 26.883582070469856 30.276329319924116 2.492561697959899
leaf_count=10716 4 155 148 12
internal_value=0 -0.000112369 -0.0119724 0.000527242
internal_weight=0 1117.05 57.1599 1059.89
internal_count=11035 11031 303 10728
is_linear=0
shrinkage=0.108713


Tree=59
num_leaves=8
num_cat=0
split_feature=4 3 0 1 3 3 3
split_gain=0.722378 4.0801 3.63193 1.86622 1.04134 6.14948 4.67464
threshold=1.0000000180025095e-35 7.2500000000000009 13.500000000000002 6.5000000000000009 3.2500000000000004 1.2500000000000002 10.250000000000002
decision_type=2 10 2 2 10 10 10
left_child=4 3 -3 -2 5 -1 -6
right_child=1 2 -4 -5 6 -7 -8
leaf_value=0.00070197505739851235 -0.011599476463787155 -0.028966952355406451 0.13189801499258724 0.08307910930418709 -0.036020614176874834 0.048273569721319243 0.0054762462945099283
leaf_weight=763.39294431358576 159.398492295295 2.6011955663561812 4.5781797766685486 2.4990775585174552 46.071195647120476 33.525314129889011 105.67330698668957
leaf_count=7198 2671 16 22 11 318 224 575
internal_value=0 -0.0065817 0.0736142 -0.010138 0.00113154 0.00270325 -0.00712263
internal_weight=0 169.077 7.17938 161.898 948.663 796.918 151.745
internal_count=11035 2720 38 2682 8315 7422 893
is_linear=0
shrinkage=0.108713


Tree=60
num_leaves=7
num_cat=0
split_feature=1 0 2 2 1 1
split_gain=0.682347 1.82115 0.764326 1.0454 1.02223 0.559522
threshold=8.5000000000000018 20.500000000000004 2002.5000000000002 2006.5000000000002 3.5000000000000004 10.500000000000002
decision_type=2 2 8 10 2 2
left_child=2 5 4 -4 -1 -2
right_child=1 -3 3 -5 -6 -7
leaf_value=-0.0097557282051557795 0.039964453492131256 0.14685450708299877 0.0056316071350159033 -0.0018535832520737061 -0.072018161555111163 -0.038775767272401909
leaf_weight=34.87071380764246 2.2568735480308524 1.3678290918469427 310.19669281691313 762.75891776010394 3.4223038703203192 2.0222612023353577
leaf_count=396 10 8 3062 7521 29 9
internal_value=0 0.0376577 -0.000228201 0.000310422 -0.0153202 0.00275289
internal_weight=0 5.64696 1111.25 1072.96 38.293 4.27913
internal_count=11035 27 11008 10583 425 19
is_linear=0
shrinkage=0.108713


Tree=61
num_leaves=8
num_cat=0
split_feature=5 1 2 2 1 2 0
split_gain=0.649457 3.4392 7.27976 2.27289 1.84186 3.12697 2.94953
threshold=1.0000000180025095e-35 1.0000000180025095e-35 2001.5000000000002 2003.5000000000002 1.0000000180025095e-35 2020.5000000000002 14.500000000000002
decision_type=2 2 10 10 2 10 2
left_child=4 2 -2 -3 6 -6 -1
right_child=1 3 -4 -5 5 -7 -8
leaf_value=-0.0067878914123739925 0.29575865339334478 -0.082086227608948042 0.0038360266582740015 -0.017765472406302545 0.0086397847321021595 -0.041496660782671155 0.010387111211364557
leaf_weight=511.99413068220019 1.0388668179512013 9.2894850671291369 35.826982885599136 21.567846022546291 367.96866071596742 15.31404330767691 153.63539785146713
leaf_count=6434 11 81 367 177 2742 282 941
internal_value=0 -0.0103512 0.0120623 -0.037129 0.000633185 0.00663659 -0.00282369
internal_weight=0 67.7232 36.8658 30.8573 1048.91 383.283 665.63
internal_count=11035 636 378 258 10399 3024 7375
is_linear=0
shrinkage=0.108713


Tree=62
num_leaves=5
num_cat=0
split_feature=2 0 3 4
split_gain=0.629892 0.738496 1.33017 0.638394
threshold=1.0000000180025095e-35 1.0000000180025095e-35 1.7500000000000002 1.0000000180025095e-35
decision_type=10 2 10 2
left_child=-1 2 -2 -3
right_child=1 3 -4 -5
leaf_value=0.052474803949337588 -0.030418439235911195 0.0012471536477756129 0.1081307077492368 -0.0062524439582110746
leaf_weight=2.6930620223283759 15.492440804839134 939.8757829554379 0.86467145383358079 156.47975954040885
leaf_count=15 434 8164 5 2417
internal_value=0 -0.000165334 -0.0230944 0.000176757
internal_weight=0 1112.71 16.3571 1096.36
internal_count=11035 11020 439 10581
is_linear=0
shrinkage=0.108713


Tree=63
num_leaves=8
num_cat=0
split_feature=2 2 0 0 1 2 3
split_gain=0.590372 3.52313 2.7906 2.77441 2.06013 3.8438 2.19364
threshold=2011.5000000000002 2012.5000000000002 57.500000000000007 39.500000000000007 3.5000000000000004 2010.5000000000002 78.500000000000014
decision_type=10 10 2 2 2 10 10
left_child=4 3 -3 -2 6 -6 -1
right_child=1 2 -4 -5 5 -7 -8
leaf_value=0.0013701509882644467 -0.020753798791224395 -0.0012056776226948328 0.049325127806357442 -0.10184955498302636 0.041587940537852384 -0.076926010749475984 -0.058719565497124898
leaf_weight=610.55143380537629 48.443468064069748 396.90198075771332 13.351121444255112 5.5578662082552901 29.374358244240284 3.6345335096120825 7.2655208557844153
leaf_count=6006 479 4245 64 30 163 17 31
internal_value=0 -0.00299715 0.000438778 -0.0291002 0.00207728 0.0285386 0.000663497
internal_weight=0 464.254 410.253 54.0013 650.826 33.0089 617.817
internal_count=11035 4818 4309 509 6217 180 6037
is_linear=0
shrinkage=0.108713


Tree=64
num_leaves=7
num_cat=0
split_feature=0 1 3 0 1 3
split_gain=0.577763 3.10414 3.28802 1.42477 3.91627 3.37162
threshold=42.500000000000007 5.5000000000000009 46.500000000000007 38.500000000000007 2.5000000000000004 142.50000000000003
decision_type=2 2 10 2 2 10
left_child=3 2 -2 5 -5 -1
right_child=1 -3 -4 4 -6 -7
leaf_value=0.0003349469821204076 -0.023008878004468044 -0.17038118729338952 0.035711613309410778 0.012191987403965961 0.19736402576916853 -0.2003401768758627
leaf_weight=1045.7510497458279 40.461043525487185 1.4027747809886921 15.620873264968393 8.8019330166280252 1.594362124800681 0.99043932557105918
leaf_count=10671 225 7 75 46 7 4
internal_value=0 -0.0106485 -0.00665306 0.000542814 0.0405897 0.000145066
internal_weight=0 57.4847 56.0819 1057.14 10.3963 1046.74
internal_count=11035 307 300 10728 53 10675
is_linear=0
shrinkage=0.108713


Tree=65
num_leaves=7
num_cat=0
split_feature=5 1 0 0 0 1
split_gain=0.57945 2.8447 5.09253 2.0205 1.63582 1.359
threshold=1.0000000180025095e-35 1.0000000180025095e-35 13.500000000000002 85.500000000000014 110.50000000000001 1.0000000180025095e-35
decision_type=2 2 2 2 2 2
left_child=4 2 -2 -3 5 -1
right_child=1 3 -4 -5 -6 -7
leaf_value=-0.0026032538726202172 0.033492124540564702 -0.039844070740057046 -0.059461427244123045 0.11538330962763528 0.085198252730541865 0.0055347426754816589
leaf_weight=661.51516552269459 27.943442329764366 29.196911867707971 9.2787082493305189 1.0258480757474888 2.6942864507436743 382.89720979891717
leaf_count=7367 309 253 69 5 13 3019
internal_value=0 -0.0097976 0.0103207 -0.0345752 0.000598501 0.000380257
internal_weight=0 67.4449 37.2222 30.2228 1047.11 1044.41
internal_count=11035 636 378 258 10399 10386
is_linear=0
shrinkage=0.108713


Tree=66
num_leaves=7
num_cat=0
split_feature=1 0 4 3 0 2
split_gain=0.556555 1.63814 0.633615 3.43932 1.1942 0.548189
threshold=8.5000000000000018 20.500000000000004 1.0000000180025095e-35 65.500000000000014 25.500000000000004 2014.5000000000002
decision_type=2 2 2 10 2 10
left_child=2 5 4 -4 -1 -2
right_child=1 -3 3 -5 -6 -7
leaf_value=0.0024009367549852659 0.03205646630637364 0.1416924406640083 -0.0077092948057052744 0.17795657757673358 -0.0090248120739729164 -0.048378520043217597
leaf_weight=817.33955188840628 2.6674022227525702 1.2889871150255201 165.32805855944753 1.1876308321952809 124.59174885973334 1.6033041924238203
leaf_count=7612 12 8 2711 6 679 7
internal_value=0 0.0342792 -0.000203215 -0.00638508 0.000889623 0.00185965
internal_weight=0 5.55969 1108.45 166.516 941.931 4.27071
internal_count=11035 27 11008 2717 8291 19
is_linear=0
shrinkage=0.108713


Tree=67
num_leaves=7
num_cat=0
split_feature=3 3 0 4 1 2
split_gain=0.553338 2.53788 3.79549 2.53259 1.47418 1.10049
threshold=0.75000000000000011 3.2500000000000004 24.500000000000004 1.0000000180025095e-35 10.500000000000002 2014.5000000000002
decision_type=10 10 2 2 2 10
left_child=4 2 -2 -3 5 -1
right_child=1 3 -4 -5 -6 -7
leaf_value=0.00070937377065121603 0.031295930574324476 -0.0065718997861364589 -0.050000518154435965 0.044464558710861177 0.11792319470887053 -0.0083211756315036273
leaf_weight=671.68193175457418 60.960335280746222 150.63933903351426 7.6375200301408759 12.440265551209448 1.2246567904949177 209.14612836018205
leaf_count=6909 466 893 42 78 6 2641
internal_value=0 0.00470091 0.0222446 -0.00267867 -0.00126914 -0.00143486
internal_weight=0 231.677 68.5979 163.08 882.053 880.828
internal_count=11035 1479 508 971 9556 9550
is_linear=0
shrinkage=0.108713


Tree=68
num_leaves=8
num_cat=0
split_feature=4 0 2 3 0 0 2
split_gain=0.546723 2.87159 1.95256 1.9074 0.75937 2.2577 1.89379
threshold=1.0000000180025095e-35 28.500000000000004 2008.5000000000002 65.500000000000014 33.500000000000007 28.500000000000004 2008.5000000000002
decision_type=2 2 10 10 2 2 10
left_child=4 3 -3 -2 5 -1 -6
right_child=1 2 -4 -5 6 -7 -8
leaf_value=0.00094387512888658809 -0.0085965293183871694 0.0012510120199897697 0.16693477048246949 0.17329229003816135 -0.032582103861524235 0.033504694734849405 0.0027832955193074637
leaf_weight=840.96945240721107 162.44012436643243 1.5168259441852563 1.8857126310467718 0.68425768613815208 27.006777442991734 25.94391005858779 53.042752955108881
leaf_count=7736 2699 8 10 3 140 144 295
internal_value=0 -0.00577178 0.0930742 -0.00783356 0.000982836 0.00191832 -0.00914814
internal_weight=0 166.527 3.40254 163.124 946.963 866.913 80.0495
internal_count=11035 2720 18 2702 8315 7880 435
is_linear=0
shrinkage=0.108713


Tree=69
num_leaves=6
num_cat=0
split_feature=2 3 1 0 1
split_gain=0.515663 2.4739 1.90737 1.2641 0.983986
threshold=2006.5000000000002 10.250000000000002 6.5000000000000009 119.50000000000001 1.0000000180025095e-35
decision_type=10 10 2 2 2
left_child=1 2 -1 4 -2
right_child=3 -3 -4 -5 -6
leaf_value=0.0018699733097684351 -0.0048746905310994683 0.11885362821267113 0.08003059122867183 0.096272139325416353 0.0031657406265454924
leaf_weight=343.14003054611385 471.5056500248611 2.181131199002265 3.7300867587327948 1.556236945092677 290.84607445821166
leaf_count=3462 5336 11 19 8 2199
internal_value=0 0.00343623 0.00271048 -0.00160736 -0.00180717
internal_weight=0 349.051 346.87 763.908 762.352
internal_count=11035 3492 3481 7543 7535
is_linear=0
shrinkage=0.108713


Tree=70
num_leaves=7
num_cat=0
split_feature=2 2 0 0 0 0
split_gain=0.533349 0.771075 2.22012 1.18707 0.652276 1.86503
threshold=2002.5000000000002 2006.5000000000002 57.500000000000007 55.500000000000007 45.500000000000007 29.500000000000004
decision_type=8 10 2 2 2 2
left_child=4 2 -2 -3 5 -1
right_child=1 3 -4 -5 -6 -7
leaf_value=-0.0099360678589086541 0.006011409027064628 -0.0022446659055583231 -0.07712043800726015 0.021301475371862933 0.070636525093252397 -0.13075543374233831
leaf_weight=35.553006680682302 307.46427230350673 736.44170613959432 3.8441633880138388 26.205087553709745 1.0800566598772992 1.5769803225994099
leaf_count=407 3045 7416 20 127 8 12
internal_value=0 0.000425503 0.00498486 -0.0014356 -0.012645 -0.0150675
internal_weight=0 1073.96 311.308 762.647 38.21 37.13
internal_count=11035 10608 3065 7543 427 419
is_linear=0
shrinkage=0.108713


Tree=71
num_leaves=7
num_cat=0
split_feature=5 1 2 2 0 0
split_gain=0.518495 2.4291 4.48598 2.0393 1.15983 0.937598
threshold=1.0000000180025095e-35 1.0000000180025095e-35 2001.5000000000002 2003.5000000000002 110.50000000000001 103.50000000000001
decision_type=2 2 10 10 2 2
left_child=4 2 -2 -3 5 -1
right_child=1 3 -4 -5 -6 -7
leaf_value=0.0005183356307957728 0.2077848815698235 -0.077083162291692306 0.0019438869872053352 -0.01426229043783548 0.072927397917825224 -0.082864860483450209
leaf_weight=1040.5553493667394 1.2959392741322506 8.6296736747026461 36.319376066327095 20.892563436180353 2.6117374524474135 1.5962100252509106
leaf_count=10378 11 81 367 177 13 8
internal_value=0 -0.00928394 0.00903561 -0.0326255 0.000571952 0.000390622
internal_weight=0 67.1376 37.6153 29.5222 1044.76 1042.15
internal_count=11035 636 378 258 10399 10386
is_linear=0
shrinkage=0.108713


Tree=72
num_leaves=7
num_cat=0
split_feature=4 3 0 0 0 3
split_gain=0.486901 2.32967 1.65456 0.784427 3.73741 1.89404
threshold=1.0000000180025095e-35 65.500000000000014 28.500000000000004 25.500000000000004 28.500000000000004 47.500000000000007
decision_type=2 10 2 2 2 10
left_child=3 2 -2 5 -5 -1
right_child=1 -3 -4 4 -6 -7
leaf_value=0.0015359022439992737 -0.0079705616729727081 0.15729843550109612 0.073514221224087309 -0.052125682324654914 0.00077050653231585601 0.046866739721967338
leaf_weight=810.82250907644629 161.53662805445492 1.0328480154275883 2.9997440427541724 18.553307499736547 105.86019467189908 11.041843209415672
leaf_count=7575 2699 6 15 104 579 57
internal_value=0 -0.00546326 -0.00648497 0.000927108 -0.0071177 0.00214493
internal_weight=0 165.569 164.536 946.278 124.414 821.864
internal_count=11035 2720 2714 8315 683 7632
is_linear=0
shrinkage=0.108713


Tree=73
num_leaves=7
num_cat=0
split_feature=2 0 2 0 1 0
split_gain=0.461065 4.51983 1.35889 0.579067 2.51413 1.30174
threshold=1999.5000000000002 5.5000000000000009 1999.5000000000002 42.500000000000007 5.5000000000000009 38.500000000000007
decision_type=10 2 8 2 2 2
left_child=1 2 -1 5 -5 -2
right_child=3 -3 -4 4 -6 -7
leaf_value=-0.12148537788163959 2.2540992255570604e-05 0.21203517931368507 0.018346053956981495 -0.0072516694779944336 -0.15495632025150655 0.038903453554713072
leaf_weight=1.2100405395030969 1039.9032279700041 1.2494863569736478 2.557182639837265 54.843364227563143 1.396643891930579 10.277455512434242
leaf_count=16 10638 9 14 298 7 53
internal_value=0 0.0328596 -0.0265681 -0.000172498 -0.0109197 0.000403044
internal_weight=0 5.01671 3.76722 1106.42 56.24 1050.18
internal_count=11035 39 30 10996 305 10691
is_linear=0
shrinkage=0.108713


Tree=74
num_leaves=7
num_cat=0
split_feature=0 3 5 1 2 2
split_gain=0.444953 2.30749 1.99718 3.38245 2.57146 1.17713
threshold=15.500000000000002 47.500000000000007 1.0000000180025095e-35 5.5000000000000009 2015.5000000000002 2015.5000000000002
decision_type=2 10 2 2 10 8
left_child=1 5 4 -4 -2 -1
right_child=2 -3 3 -5 -6 -7
leaf_value=-0.0036596037637836813 0.012243640444796325 0.11756614765563873 -0.049110891104120015 0.15261019779724661 -0.014308904912174004 0.0060896472432429944
leaf_weight=660.39072513021529 190.58570179343224 1.9280666261911381 13.823107842355965 1.0575745999813069 55.70415648445487 188.04665207490325
leaf_count=7175 990 9 100 6 385 2370
internal_value=0 -0.00122883 0.00390139 -0.0347745 0.00623817 -0.00149879
internal_weight=0 850.365 261.171 14.8807 246.29 848.437
internal_count=11035 9554 1481 106 1375 9545
is_linear=0
shrinkage=0.108713


end of trees

feature_importances:
hospital_stay=136
year_adm_t0=122
admission_pre_t0_count=98
antiarritmico=78
procedure_type_new_X2=28
procedure_type_new_X3=17

parameters:
[boosting: gbdt]
[objective: binary]
[metric: binary_logloss]
[tree_learner: serial]
[device_type: cpu]
[data: ]
[valid: ]
[num_iterations: 75]
[learning_rate: 0.108713]
[num_leaves: 8]
[num_threads: 0]
[deterministic: 1]
[force_col_wise: 0]
[force_row_wise: 0]
[histogram_pool_size: -1]
[max_depth: 3]
[min_data_in_leaf: 7]
[min_sum_hessian_in_leaf: 0.001]
[bagging_fraction: 1]
[pos_bagging_fraction: 1]
[neg_bagging_fraction: 1]
[bagging_freq: 0]
[bagging_seed: 28824]
[feature_fraction: 1]
[feature_fraction_bynode: 1]
[feature_fraction_seed: 15214]
[extra_trees: 0]
[extra_seed: 12453]
[early_stopping_round: 0]
[first_metric_only: 0]
[max_delta_step: 0]
[lambda_l1: 0]
[lambda_l2: 0]
[linear_lambda: 0]
[min_gain_to_split: 0]
[drop_rate: 0.1]
[max_drop: 50]
[skip_drop: 0.5]
[xgboost_dart_mode: 0]
[uniform_drop: 0]
[drop_seed: 21306]
[top_rate: 0.2]
[other_rate: 0.1]
[min_data_per_group: 100]
[max_cat_threshold: 32]
[cat_l2: 10]
[cat_smooth: 10]
[max_cat_to_onehot: 4]
[top_k: 20]
[monotone_constraints: ]
[monotone_constraints_method: basic]
[monotone_penalty: 0]
[feature_contri: ]
[forcedsplits_filename: ]
[refit_decay_rate: 0.9]
[cegb_tradeoff: 1]
[cegb_penalty_split: 0]
[cegb_penalty_feature_lazy: ]
[cegb_penalty_feature_coupled: ]
[path_smooth: 0]
[interaction_constraints: ]
[verbosity: -1]
[saved_feature_importance_type: 0]
[linear_tree: 0]
[max_bin: 255]
[max_bin_by_feature: ]
[min_data_in_bin: 3]
[bin_construct_sample_cnt: 200000]
[data_random_seed: 3923]
[is_enable_sparse: 1]
[enable_bundle: 1]
[use_missing: 1]
[zero_as_missing: 0]
[feature_pre_filter: 0]
[pre_partition: 0]
[two_round: 0]
[header: 0]
[label_column: ]
[weight_column: ]
[group_column: ]
[ignore_column: ]
[categorical_feature: ]
[forcedbins_filename: ]
[precise_float_parser: 0]
[objective_seed: 10294]
[num_class: 1]
[is_unbalance: 0]
[scale_pos_weight: 1]
[sigmoid: 1]
[boost_from_average: 1]
[reg_sqrt: 0]
[alpha: 0.9]
[fair_c: 1]
[poisson_max_delta_step: 0.7]
[tweedie_variance_power: 1.5]
[lambdarank_truncation_level: 30]
[lambdarank_norm: 1]
[label_gain: ]
[eval_at: ]
[multi_error_top_k: 1]
[auc_mu_weights: ]
[num_machines: 1]
[local_listen_port: 12400]
[time_out: 120]
[machine_list_filename: ]
[machines: ]
[gpu_platform_id: -1]
[gpu_device_id: -1]
[gpu_use_dp: 0]
[num_gpu: 1]

end of parameters
