tree
version=v3
num_class=1
num_tree_per_iteration=1
label_index=0
max_feature_idx=11
objective=binary sigmoid:1
feature_names=hospital_stay age year_adm_t0 espironolactona laboratorio comorbidities_count admission_pre_t0_count vasodilatador education_level_X2 education_level_X4 education_level_X999 education_level_.merged
feature_infos=[0:360] [0:110.59999999999999] [1999:2021] [0:162] [0:3474] [0:8] [0:38] [0:1278] [0:1] [0:1] [0:1] [0:1]
tree_sizes=1663 1702 1505 1395 1384 1704 1717 1822 1811 1388 1617 1292 1511 1505 1391 1193 1189 1399 1407 1299 1512 1280 1399 1513 1623 1737 1396 1619 1200 1627 1517 1620 1518 770 1406 1718 990 1422 1419 1113 1516 1617 1104 993 1421 1728 1093 1431 1414 1314 1310 1316 1617 1095 1311

Tree=0
num_leaves=15
num_cat=0
split_feature=0 1 5 3 2 5 4 7 1 6 10 3 7 2
split_gain=156.241 73.0824 46.6256 36.8018 34.7498 22.9115 21.0049 17.8468 16.0462 13.9973 22.7409 11.2463 10.244 0.897364
threshold=13.500000000000002 73.15000000000002 3.5000000000000004 2.2500000000000004 2019.5000000000002 1.5000000000000002 127.50000000000001 20.750000000000004 60.050000000000004 3.5000000000000004 1.0000000180025095e-35 3.5000000000000004 95.500000000000014 2020.5000000000002
decision_type=2 2 2 10 8 2 10 10 2 2 2 10 8 8
left_child=4 3 7 12 9 13 -5 -3 -7 11 -11 -1 -2 -6
right_child=1 2 -4 6 5 8 -8 -9 -10 10 -12 -13 -14 -15
leaf_value=-3.8867657355311542 -3.8807814314577023 -3.7546706037094308 -3.4499936157088871 -3.8427990755864796 -3.8667615847489358 -3.8831176776728187 -3.6903987740593025 -3.5969853800044129 -3.7298475132678233 -3.9074421235596182 -3.6688439071643817 -3.8281833993651624 -3.7997856406233641 -3.9074421235596182
leaf_weight=161.61990712583065 10.743636790663009 5.6247288659214956 1.9828180894255636 2.9539942964911443 2.3470091670751563 1.9625852517783622 6.8184662871062756 2.3065434917807579 7.5266156047582626 1.8411882258951655 1.8007225506007671 7.8301081694662562 5.321236301213502 2.6100360564887524
leaf_count=7988 531 278 98 146 116 97 337 114 372 91 89 387 263 129
internal_value=-3.8587 -3.76724 -3.65705 -3.80952 -3.87613 -3.805 -3.73647 -3.70881 -3.76155 -3.88207 -3.78947 -3.88406 -3.85395 -3.88818
internal_weight=0 35.7514 9.91409 25.8373 187.538 14.4462 9.77246 7.93127 9.4892 173.092 3.64191 169.45 16.0649 4.95705
internal_count=11036 1767 490 1277 9269 714 483 392 469 8555 180 8375 794 245
is_linear=0
shrinkage=1


Tree=1
num_leaves=15
num_cat=0
split_feature=0 1 2 3 7 5 10 4 6 7 3 7 4 2
split_gain=130.221 45.9501 30.9569 27.8419 23.3497 18.3989 18.3053 14.0138 12.3129 12.0499 10.4315 8.95808 7.05684 0.885874
threshold=13.500000000000002 73.15000000000002 2019.5000000000002 2.2500000000000004 41.500000000000007 1.5000000000000002 1.0000000180025095e-35 127.50000000000001 3.5000000000000004 2.2500000000000004 3.5000000000000004 301.00000000000006 26.500000000000004 2020.5000000000002
decision_type=2 2 8 10 10 2 2 10 2 8 10 8 8 8
left_child=2 3 8 11 6 13 -3 -5 10 -7 -1 -2 -10 -4
right_child=1 4 5 7 -6 9 -8 -9 12 -11 -12 -13 -14 -15
leaf_value=-0.02747732407424763 -0.019015306471664505 0.044378462510906318 -0.0077414248373046963 0.014903656349567536 0.2778051089730329 0.11209128080030424 0.17919459392646747 0.13588516536661305 0.12681844067405837 -0.009436438125271656 0.028198212885844901 0.058314249199583466 -0.0014098949000730637 -0.048697961194791799
leaf_weight=157.32628444582224 11.246287019923335 4.0894962921738607 2.3289289101958266 2.9993434995412818 2.7745764683932057 8.0087158344685996 5.2315488290041685 8.0074552800506336 1.9023265689611428 2.4216501638293275 8.0623849052935821 4.9021728802472344 2.0132307223975658 2.4907527677714825
leaf_count=7988 565 165 116 146 103 361 222 337 87 108 387 229 93 129
internal_value=0 0.0788403 -0.0169144 0.0443675 0.156234 0.0482314 0.120046 0.102918 -0.0227824 0.0838758 -0.0247632 0.00445955 0.0608883 -0.0289073
internal_weight=0 39.2509 184.554 27.1553 12.0956 15.25 9.32105 11.0068 169.304 10.4304 165.389 16.1485 3.91556 4.81968
internal_count=11036 1767 9269 1277 490 714 387 483 8555 469 8375 794 180 245
is_linear=0
shrinkage=0.0477388


Tree=2
num_leaves=13
num_cat=0
split_feature=0 6 1 3 2 10 5 3 1 1 10 2
split_gain=110.393 36.2121 28.5866 29.9538 27.7301 17.3372 15.0643 11.4033 11.1711 9.28741 6.44255 0.873882
threshold=13.500000000000002 3.5000000000000004 72.750000000000014 5.5000000000000009 2019.5000000000002 1.0000000180025095e-35 1.5000000000000002 1.5000000000000002 60.050000000000004 80.15000000000002 1.0000000180025095e-35 2020.5000000000002
decision_type=2 2 2 10 8 2 2 10 2 2 2 8
left_child=4 2 3 -2 7 -4 11 9 -8 -1 -9 -6
right_child=1 -3 5 -5 6 -7 8 10 -10 -11 -12 -13
leaf_value=-0.03248907740875797 -0.010722938854120231 0.24917351078705718 0.053585054394558386 0.094227647594769287 -0.0074281783360169431 0.16164671825644203 -0.026039386882596632 -0.0091617747690367346 0.09607253155546723 -0.0033330150092707178 0.051950046518926311 -0.048652371326131517
leaf_weight=117.81557494960725 16.304618025198582 2.4015616159886113 6.0378747750073654 9.9979951847344619 2.3116999566555014 7.6968698240816593 2.095649827271699 9.6463113520294446 9.2147414758801443 31.571027357131243 6.6359734479337922 2.3768123723566532
leaf_count=6116 784 100 217 399 116 267 97 475 372 1640 324 129
internal_value=0 0.0691199 0.0583197 0.0291703 -0.0163963 0.114142 0.043622 -0.0221924 0.073447 -0.0263273 0.0157448 -0.0283265
internal_weight=0 42.4389 40.0374 26.3026 181.668 13.7347 15.9989 165.669 11.3104 149.387 16.2823 4.68851
internal_count=11036 1767 1667 1183 9269 484 714 8555 469 7756 799 245
is_linear=0
shrinkage=0.0477388


Tree=3
num_leaves=12
num_cat=0
split_feature=0 7 5 2 10 5 6 1 1 4 2
split_gain=94.6204 29.8593 29.0787 24.943 18.1863 12.5206 11.2022 9.91679 8.98073 6.32786 0.861409
threshold=13.500000000000002 162.00000000000003 4.5000000000000009 2019.5000000000002 1.0000000180025095e-35 1.5000000000000002 3.5000000000000004 80.15000000000002 78.050000000000011 24.500000000000004 2020.5000000000002
decision_type=2 10 2 8 2 2 2 2 2 8 8
left_child=3 2 4 6 -2 10 7 -1 -7 -8 -5
right_child=1 -3 -4 5 -6 8 9 -9 -10 -11 -12
leaf_value=-0.029688005003074135 0.0065052273911079556 0.20752696620656647 0.19662585497911839 -0.0071254336312612659 0.071332757386908724 0.03905388391947047 0.11660317699091621 -6.8466054534839485e-05 0.12997441688248115 -0.0023849407396431006 -0.048608988386376326
leaf_weight=125.72536859475076 18.915034130215645 2.9732927139848462 2.9117977749556294 2.2952829822897938 20.605473456904292 8.6707031540572626 2.0181588027626267 32.399183422327042 3.4654272682964793 2.0564967263489962 2.2679856419563293
leaf_count=6687 778 99 103 116 787 341 83 1688 128 97 129
internal_value=0 0.0612802 0.0510325 -0.0158855 0.0403054 0.0396686 -0.0216051 -0.0236191 0.0650159 0.0565493 -0.0277431
internal_weight=0 45.4056 42.4323 178.899 39.5205 16.6994 162.199 158.125 12.1361 4.07466 4.56327
internal_count=11036 1767 1668 9269 1565 714 8555 8375 469 180 245
is_linear=0
shrinkage=0.0477388


Tree=4
num_leaves=12
num_cat=0
split_feature=4 10 7 6 10 1 2 1 2 3 0
split_gain=83.605 30.2455 25.7899 23.7996 31.444 18.1659 17.8799 13.139 12.3091 20.8174 12.0011
threshold=70.500000000000014 1.0000000180025095e-35 101.25000000000001 3.5000000000000004 1.0000000180025095e-35 68.950000000000017 2019.5000000000002 79.65000000000002 2019.5000000000002 18.250000000000004 1.5000000000000002
decision_type=10 2 8 2 2 2 8 2 8 8 2
left_child=3 8 5 6 -5 -3 7 -1 9 -2 -8
right_child=1 2 -4 4 -6 -7 10 -9 -10 -11 -12
leaf_value=-0.028813518467635871 -0.014575947929712899 0.033156197973211718 0.2493593494627151 -0.048924599969606325 0.18571497355167152 0.13852763262782247 0.12062629418529769 0.0041313419059894633 0.095470645428984424 0.12169638603168523 0.012095118561756411
leaf_weight=127.37776204198599 15.246308661997324 7.5504436269402522 2.5542500633746377 2.2713310047984114 3.0486517734825611 7.3665426895022392 2.813955923542383 35.216021845117211 4.6182540189474812 3.0690651796758166 13.280206849798558
leaf_count=6824 647 307 73 100 110 254 117 1792 166 97 549
internal_value=0 0.0618716 0.109193 -0.0139646 0.0855372 0.0851924 -0.016927 -0.021678 0.0258211 0.00825889 0.0310711
internal_weight=0 40.4049 17.4712 184.008 5.31998 14.917 178.688 162.594 22.9336 18.3154 16.0942
internal_count=11036 1544 634 9492 210 561 9282 8616 910 744 666
is_linear=0
shrinkage=0.0477388


Tree=5
num_leaves=15
num_cat=0
split_feature=0 3 10 5 2 1 4 5 3 6 7 1 2 0
split_gain=73.9929 20.6402 20.055 18.3662 19.7047 17.0003 15.5025 9.74935 9.66038 9.23606 8.24239 9.51966 2.52645 2.18486
threshold=13.500000000000002 1.5000000000000002 1.0000000180025095e-35 2.5000000000000004 2013.5000000000002 50.550000000000004 127.50000000000001 4.5000000000000009 18.250000000000004 4.5000000000000009 1.7500000000000002 72.950000000000017 2013.5000000000002 27.500000000000004
decision_type=2 10 2 2 10 2 8 2 10 2 10 2 10 2
left_child=1 3 7 9 -5 13 -7 8 -2 -1 11 -3 -12 -4
right_child=2 10 5 4 -6 6 -8 -9 -10 -11 12 -13 -14 -15
leaf_value=-0.028628973263891081 -0.0073708850597981488 0.027250953646631968 -0.030591756200370201 -0.031286038843828363 0.06794471647695377 0.04739416784865319 0.13067609795170351 0.10225499833800221 0.076963127150463509 0.077967330080990077 0.018484377780661747 0.11733749302993128 -0.048845682496557338 0.033184766938705521
leaf_weight=133.49090835824609 17.185391409322627 11.926567897200586 2.5964020173996714 8.2422695122659224 10.209914350882171 8.3880355805158633 12.970327077433465 2.8275183513760558 3.7755799666047087 1.8785129655152548 2.1280990131199351 3.4455921407788983 3.1502046454697847 2.316285302862525
leaf_count=7310 709 576 108 452 455 289 383 81 115 74 102 153 147 82
internal_value=0 -0.0150433 0.0507981 -0.0210595 0.0236201 0.0795512 0.0979689 0.0190444 0.00781972 -0.0271497 0.0297703 0.0474434 -0.0216996 -0.000521733
internal_weight=0 174.472 50.0595 153.822 18.4522 26.271 21.3584 23.7885 20.961 135.369 20.6505 15.3722 5.2783 4.91269
internal_count=11036 9269 1767 8291 907 862 672 905 824 7384 978 729 249 190
is_linear=0
shrinkage=0.0477388


Tree=6
num_leaves=15
num_cat=0
split_feature=0 10 5 2 3 7 4 1 2 3 1 4 7 2
split_gain=65.0666 25.1268 21.1802 20.3064 16.1515 16.0137 15.3306 20.625 11.6563 14.7055 10.4157 8.87985 6.94892 1.68871
threshold=10.500000000000002 1.0000000180025095e-35 2.5000000000000004 2013.5000000000002 1.5000000000000002 3.7500000000000004 127.50000000000001 50.550000000000004 2019.5000000000002 18.250000000000004 70.550000000000011 12.500000000000002 17.250000000000004 2009.5000000000002
decision_type=2 2 2 10 10 10 8 2 8 10 2 10 10 10
left_child=2 8 4 13 12 -5 10 -8 9 -2 -3 -6 -1 -4
right_child=1 6 3 5 11 -7 7 -9 -10 -11 -12 -13 -14 -15
leaf_value=-0.029850104163916192 -0.02094305158378721 -0.012352073147144663 -0.048645619403500893 0.084997172468351229 -0.010915768708818423 -0.034328957299339567 -0.0079243009363292195 0.12069787895282028 0.075933110611009269 0.077997762334020879 0.07110303945317592 0.070167904241052084 0.06997757898929903 -0.0054761740269769097
leaf_weight=124.50794707611203 20.441084142774351 6.5339490547776204 5.4776094593107718 11.750239469110964 6.3009845335036498 3.2781673762947312 3.4702595919370678 15.674586387351154 4.9495877791196099 4.1122249793261281 7.1243722643703222 6.017899738624692 1.6096710078418244 3.3148561716079712
leaf_count=6976 901 294 306 476 306 149 129 440 162 114 232 283 89 179
internal_value=0 0.0410671 -0.0163251 0.0252546 -0.0234797 0.0589684 0.0698179 0.0973834 0.00910023 -0.0043723 0.0311793 0.0286944 -0.028576 -0.0323703
internal_weight=0 62.3061 162.257 23.8209 138.437 15.0284 32.8032 19.1448 29.5029 24.5533 13.6583 12.3189 126.118 8.79247
internal_count=11036 2272 8764 1110 7654 625 1095 569 1177 1015 526 589 7065 485
is_linear=0
shrinkage=0.0477388


Tree=7
num_leaves=16
num_cat=0
split_feature=0 10 5 2 3 7 4 1 4 1 4 1 5 1 2
split_gain=57.5055 20.2703 19.4196 17.496 14.9694 13.0837 11.4832 15.3584 11.0758 8.66576 7.3827 7.11481 6.54968 1.84437 1.66796
threshold=10.500000000000002 1.0000000180025095e-35 2.5000000000000004 2013.5000000000002 1.5000000000000002 3.7500000000000004 127.50000000000001 50.550000000000004 95.500000000000014 70.550000000000011 12.500000000000002 79.550000000000011 4.5000000000000009 73.350000000000009 2009.5000000000002
decision_type=2 2 2 10 10 10 8 2 10 2 10 2 2 2 10
left_child=2 8 4 14 11 -5 9 -8 13 -3 -6 -1 -10 -2 -4
right_child=1 6 3 5 10 -7 7 -9 12 -11 -12 -13 -14 -15 -16
leaf_value=-0.034608687564701951 -0.042641241787678988 -0.011905251127094204 -0.048602618009246347 0.074548575459773905 -0.010506543553619397 -0.033805490441309108 -0.0076039122226967959 0.10267904947847821 0.018249953368668768 0.063286133815712353 0.062384411220472606 -0.0080199438774054797 0.095552231822749828 0.0027380185283717592 -0.0052429684607070244
leaf_weight=92.165204497054219 7.7880172692239302 6.4574467446655017 5.2267678435891884 12.731207227334378 6.2355133686214668 3.1725821997970334 3.4444737955927875 17.495422210544348 16.261473098769788 7.6093591395765543 6.4345347844064236 30.534154057502747 2.9512621611356726 2.7661209292709827 3.2974493093788624
leaf_count=5412 386 294 306 476 306 149 129 440 598 232 283 1653 75 118 179
internal_value=0 0.0375024 -0.0158211 0.0233551 -0.0228907 0.0529335 0.0621284 0.0845382 0.0085415 0.0287691 0.0265114 -0.027992 0.0301243 -0.0307478 -0.0318297
internal_weight=0 64.7736 159.797 24.428 135.369 15.9038 35.0067 20.9399 29.7669 14.0668 12.67 122.699 19.2127 10.5541 8.52422
internal_count=11036 2272 8764 1110 7654 625 1095 569 1177 526 589 7065 673 504 485
is_linear=0
shrinkage=0.0477388


Tree=8
num_leaves=16
num_cat=0
split_feature=0 5 10 2 3 7 4 4 1 0 1 4 4 1 1
split_gain=51.0319 17.8301 16.5689 15.1943 13.8913 10.86 9.97465 8.8218 10.6752 7.86416 6.91899 6.28268 6.19818 1.79288 1.69395
threshold=10.500000000000002 2.5000000000000004 1.0000000180025095e-35 2013.5000000000002 1.5000000000000002 3.7500000000000004 95.500000000000014 127.50000000000001 59.650000000000013 24.500000000000004 79.550000000000011 184.50000000000003 12.500000000000002 73.350000000000009 77.850000000000009
decision_type=2 2 2 10 10 10 10 8 2 2 2 10 10 2 2
left_child=1 4 6 14 10 -5 13 9 -9 -4 -1 -8 -6 -2 -3
right_child=2 3 7 5 12 -7 11 8 -10 -11 -12 -13 -14 -15 -16
leaf_value=-0.034104461522307075 -0.042342463007836326 -0.041515300034511649 0.010540400680048403 0.06607216570899628 -0.010108652393983859 -0.033274726446227726 0.063408812578166163 0.020607538594594525 0.094385669554853627 0.10375483085935377 -0.0076977106382088694 0.0074744968926294874 0.055899546879437267 0.0026003854996838739 0.014349479215105506
leaf_weight=89.13667821791023 7.4761037454009074 6.753719452768566 11.958144742995499 13.654166175052525 6.1731103565543872 3.0717739053070536 7.1999571099877384 6.1332051940262344 16.47729891911149 2.4926217235624781 30.299504596740007 12.559832207858561 6.8278098646551371 2.7733035795390606 1.5143556240946052
leaf_count=5412 386 403 442 476 306 149 263 203 366 84 1653 410 283 118 82
internal_value=0 -0.015325 0.0344019 0.021657 -0.0223044 0.0478268 0.00803334 0.055753 0.074373 0.026619 -0.0274054 0.0278555 0.0245575 -0.0301817 -0.0312833
internal_weight=0 157.431 67.0705 24.994 132.437 16.7259 30.0092 37.0613 22.6105 14.4508 119.436 19.7598 13.0009 10.2494 8.26808
internal_count=11036 8764 2272 1110 7654 625 1177 1095 569 526 7065 673 589 504 485
is_linear=0
shrinkage=0.0477388


Tree=9
num_leaves=12
num_cat=0
split_feature=0 5 1 6 2 3 4 7 6 4 4
split_gain=45.4243 16.388 15.2441 16.2555 13.2829 12.9034 12.0979 9.13077 7.1236 5.24641 1.75136
threshold=10.500000000000002 2.5000000000000004 88.65000000000002 3.5000000000000004 2013.5000000000002 1.5000000000000002 68.500000000000014 3.7500000000000004 3.5000000000000004 12.500000000000002 27.500000000000004
decision_type=2 2 2 2 10 10 8 10 2 10 10
left_child=1 5 3 6 10 8 -2 -6 -1 -7 -3
right_child=2 4 -4 -5 7 9 -8 -9 -10 -11 -12
leaf_value=-0.028749290205974963 -0.018217443999141863 -0.041287037639311845 0.1423991009236992 0.11709387755528346 0.059056883325742708 -0.0097220767198215926 0.032256024402770346 -0.032736897658156461 0.045389878929396998 0.050415125795007093 0.016394841002455196
leaf_weight=113.28956010751426 13.94923924282193 6.5553094595670718 2.7218524347990742 4.2828595098108044 14.523858040571215 6.1136333905160409 48.280889419838786 2.9755343105643979 3.0326318982988587 7.1994117069989443 1.4683070061728356
leaf_count=6942 620 402 61 113 476 306 1478 149 123 283 83
internal_value=0 -0.0148369 0.0316649 0.0271334 0.0201288 -0.0217211 0.0209421 0.0434486 -0.0268164 0.0227988 -0.0307314
internal_weight=0 155.158 69.2348 66.513 25.523 129.635 62.2301 17.4994 116.322 13.313 8.02362
internal_count=11036 8764 2272 2211 1110 7654 2098 625 7065 589 485
is_linear=0
shrinkage=0.0477388


Tree=10
num_leaves=14
num_cat=0
split_feature=0 5 10 3 2 2 3 7 1 7 3 4 2
split_gain=40.5435 15.0749 13.3221 11.9949 11.677 8.57534 11.5879 7.75886 6.90899 6.74242 7.29718 4.47171 1.71885
threshold=10.500000000000002 2.5000000000000004 1.0000000180025095e-35 1.5000000000000002 2013.5000000000002 2019.5000000000002 18.250000000000004 3.7500000000000004 79.550000000000011 107.25000000000001 3.5000000000000004 12.500000000000002 2009.5000000000002
decision_type=2 2 2 10 10 8 10 10 2 10 8 10 10
left_child=1 3 5 8 12 6 -2 -6 -1 10 -4 -5 -3
right_child=2 4 9 11 7 -7 -8 -9 -10 -11 -12 -13 -14
leaf_value=-0.033183964536942022 -0.02140840064613668 -0.048509846307104199 0.018334438366670675 -0.0093467743438550386 0.053155801987992315 0.058610674556881001 0.061591449517656917 -0.032192274131449691 -0.0062613702662268067 0.1012502558014884 0.061663227921884313 0.045718501327544479 -0.0027514343609897959
leaf_weight=84.055478691123426 20.735087972134359 4.6687295967713025 17.468495922163129 6.0569478273391706 15.344322677701713 5.7236005868762723 4.7029570937156668 2.8836634941399089 29.293865810148418 4.6838852427899829 17.971395744010806 7.550822401419282 3.1218200055882335
leaf_count=5412 901 306 521 306 476 162 114 149 1653 74 500 283 179
internal_value=0 -0.0143577 0.0292334 -0.0211419 0.0187458 0.00581551 -0.00606348 0.0396538 -0.0262261 0.0474206 0.0403063 0.0212084 -0.0301736
internal_weight=0 152.976 71.2854 126.957 26.0185 31.1616 25.438 18.228 113.349 40.1238 35.4399 13.6078 7.79055
internal_count=11036 8764 2272 7654 1110 1177 1015 625 7065 1095 1021 589 485
is_linear=0
shrinkage=0.0477388


Tree=11
num_leaves=11
num_cat=0
split_feature=4 6 0 1 3 7 5 4 3 0
split_gain=36.6543 17.2307 19.0661 15.2248 13.9819 9.71487 7.32952 6.7675 5.86755 2.86629
threshold=70.500000000000014 3.5000000000000004 6.5000000000000009 79.450000000000017 1.0000000180025095e-35 100.00000000000001 4.5000000000000009 224.50000000000003 7.5000000000000009 22.500000000000004
decision_type=10 2 2 2 10 10 2 10 10 2
left_child=1 3 -3 6 -5 7 -1 8 -2 -9
right_child=5 2 -4 4 -6 -7 -8 9 -10 -11
leaf_value=-0.024352987919725736 0.024941525305342986 -0.0074421029242800344 0.1620826796186097 0.0028553834204953052 0.10371062455539531 0.078706947870279709 0.045418232242468902 0.040993716238894425 0.073057231765370045 -0.0097191485609417951
leaf_weight=121.61581064946949 19.842905923724178 3.4314350048080078 2.7029012944549322 36.018825409933925 3.4310740176588288 9.181607745587824 3.5309840869158498 3.154969745315614 8.1476458758115751 13.029803737998007
leaf_count=7143 695 132 78 1868 125 170 146 99 222 358
internal_value=0 -0.0113049 0.0672536 -0.0142327 0.0116271 0.0340257 -0.0223844 0.024739 0.0389473 0.000166535
internal_weight=0 170.731 6.13434 164.597 39.4499 53.3569 125.147 44.1753 27.9906 16.1848
internal_count=11036 9492 210 9282 1993 1544 7289 1374 917 457
is_linear=0
shrinkage=0.0477388


Tree=12
num_leaves=13
num_cat=0
split_feature=0 2 10 7 7 1 4 6 1 4 4 1
split_gain=33.1198 13.8748 11.1151 10.2696 7.94718 10.6666 7.49053 6.61724 6.0213 6.99403 4.62376 1.67118
threshold=10.500000000000002 2019.5000000000002 1.0000000180025095e-35 21.750000000000004 2.2500000000000004 60.050000000000004 95.500000000000014 1.0000000180025095e-35 43.650000000000013 127.50000000000001 184.50000000000003 73.350000000000009
decision_type=2 8 2 10 8 2 10 2 2 8 10 2
left_child=1 3 6 7 5 -3 11 -1 -4 -10 -8 -2
right_child=2 4 8 -5 -6 -7 10 -9 9 -11 -12 -13
leaf_value=-0.027266161981525441 -0.042113019745847274 -0.035296220473686565 -0.013927033517604026 0.084487924759084523 -0.048942761947869284 0.059217099221507516 0.047858420568311376 -0.0027897248820057635 0.020653911533350541 0.062763622997380114 0.0027105912065101914 0.0010353019963340729
leaf_weight=94.173558176495135 7.2222913708537799 3.4963937606662538 4.0569644290953866 2.1496754111722103 2.8049327358603469 12.276181628927587 8.3245620559901017 34.355447648093104 14.25230032764375 24.340157067403197 13.640973083674906 2.854096919298172
leaf_count=5930 386 162 153 113 125 390 263 2044 456 486 410 118
internal_value=0 -0.013505 0.0254343 -0.0189929 0.0250986 0.0382658 0.00418757 -0.0207237 0.0413966 0.0472124 0.0198208 -0.0298914
internal_weight=0 149.256 74.6913 130.679 18.5775 15.7726 32.0419 128.529 42.6494 38.5925 21.9655 10.0764
internal_count=11036 8764 2272 8087 677 552 1177 7974 1095 942 673 504
is_linear=0
shrinkage=0.0477388


Tree=13
num_leaves=13
num_cat=0
split_feature=0 5 3 1 10 7 1 4 6 1 4 1
split_gain=29.7163 13.1183 11.1101 10.3585 11.2763 9.90509 8.05729 7.30024 7.14195 6.49412 3.81907 0.541696
threshold=10.500000000000002 2.5000000000000004 1.5000000000000002 88.65000000000002 1.0000000180025095e-35 3.2500000000000004 78.550000000000011 57.500000000000007 2.5000000000000004 79.050000000000011 12.500000000000002 76.65000000000002
decision_type=2 2 10 2 2 8 2 10 2 2 10 2
left_child=1 2 9 4 7 6 -3 -2 -6 -1 -4 -7
right_child=3 5 10 -5 8 11 -8 -9 -10 -11 -12 -13
leaf_value=-0.032293552438866273 -0.048697033992086969 0.014846422696577904 -0.008220973583376541 0.10584850716997245 0.029050168352134823 -0.048541298120581014 0.082414704744639231 0.009529916014343413 0.091589255617746876 -0.0062245952375659065 0.042715687546312664 -0.013850610751713503
leaf_weight=76.735417262651026 6.1045996965840486 15.627092218026524 5.8905400857329351 3.3402650486677876 37.257783332839608 4.1028220644220701 5.4159785471856585 25.017411863431334 4.6848491448909035 30.407755167223513 7.7920893188565969 1.3678182689473031
leaf_count=5302 336 613 306 61 964 262 164 817 94 1763 283 71
internal_value=0 -0.0130492 -0.0197219 0.0236389 0.0198805 0.0173594 0.0322369 -0.00189133 0.0360356 -0.0248951 0.0207868 -0.0398676
internal_weight=0 147.34 120.826 76.4049 73.0646 26.5137 21.0431 31.122 41.9426 107.143 13.6826 5.47064
internal_count=11036 8764 7654 2272 2211 1110 777 1153 1058 7065 589 333
is_linear=0
shrinkage=0.0477388


Tree=14
num_leaves=12
num_cat=0
split_feature=7 3 6 5 7 6 1 2 2 2 1
split_gain=26.8991 14.825 15.4872 11.4386 9.99948 9.79125 9.46117 5.22551 10.5136 3.75853 3.6133
threshold=19.250000000000004 1.0000000180025095e-35 6.5000000000000009 2.5000000000000004 1.2500000000000002 1.5000000000000002 82.050000000000011 2014.5000000000002 2010.5000000000002 2018.5000000000002 60.050000000000004
decision_type=10 10 2 2 10 2 2 10 10 10 2
left_child=1 2 3 -1 6 7 -3 8 -2 -9 -6
right_child=5 4 -4 -5 10 -7 -8 9 -10 -11 -12
leaf_value=-0.020555402107245636 0.0078258534936754016 0.023181651376045807 0.13847988954747098 0.014526852612751934 0.015613470847143861 0.098410212077179357 0.1190412701167778 -0.029299531375204437 0.097668547441657191 0.037939317732295363 -0.049710533609909839
leaf_weight=128.86105589475483 6.500727973878389 30.874899446032941 1.5172600373625744 25.346911134198308 2.9349593091756088 6.0558107551187268 2.5394778810441485 4.56070050317794 5.4630794636905193 3.24099484924227 5.634384186938405
leaf_count=7870 160 1101 42 1007 111 129 74 131 138 80 193
internal_value=0 -0.00650805 -0.0132957 -0.014789 0.0186684 0.0453011 0.0304669 0.0290293 0.0488511 -0.00136704 -0.0273374
internal_weight=0 197.709 155.725 154.208 41.9837 25.8213 33.4144 19.7655 11.9638 7.8017 8.56934
internal_count=11036 10398 8919 8877 1479 638 1175 509 298 211 304
is_linear=0
shrinkage=0.0477388


Tree=15
num_leaves=10
num_cat=0
split_feature=0 2 1 5 10 7 7 1 6
split_gain=25.0749 11.6754 9.66238 9.74609 9.28333 8.39135 6.72746 8.69523 6.35245
threshold=10.500000000000002 2019.5000000000002 89.550000000000011 5.5000000000000009 1.0000000180025095e-35 21.750000000000004 2.2500000000000004 60.050000000000004 1.0000000180025095e-35
decision_type=2 8 2 2 2 10 8 2 2
left_child=1 5 3 4 -2 8 7 -3 -1
right_child=2 6 -4 -5 -6 -7 -8 -9 -10
leaf_value=-0.026057225531673226 -0.0062461282820715138 -0.034845149910695178 0.10438860250225056 0.099904886026126322 0.028430367283946472 0.07090704524585234 -0.048875854861959118 0.05086597293982173 -0.0016904000171511734
leaf_weight=89.230701521039009 29.842088504694402 3.3861197931692066 3.0525582339614621 3.1549700843170276 42.870035048574209 2.3906585061922661 2.6190740726888171 13.262523372657595 33.550991832278669
leaf_count=5930 1117 162 49 60 1046 113 125 390 2044
internal_value=0 -0.012349 0.0211134 0.0177628 0.0141986 -0.0176741 0.0222451 0.0334334 -0.0193988
internal_weight=0 144.44 78.9197 75.8671 72.7121 125.172 19.2677 16.6486 122.782
internal_count=11036 8764 2272 2223 2163 8087 677 552 7974
is_linear=0
shrinkage=0.0477388


Tree=16
num_leaves=10
num_cat=0
split_feature=4 6 1 0 3 5 5 4 7
split_gain=22.7676 12.9813 13.3622 11.1106 8.71237 6.66243 6.04318 5.40593 6.07604
threshold=70.500000000000014 3.5000000000000004 79.450000000000017 6.5000000000000009 1.0000000180025095e-35 5.5000000000000009 4.5000000000000009 78.500000000000014 6.7500000000000009
decision_type=10 2 2 2 10 2 2 10 10
left_child=1 2 6 -3 -4 7 -1 -2 -9
right_child=5 3 4 -5 -6 -7 -8 8 -10
leaf_value=-0.022601663667979461 0.079905967741276798 -0.0068637136193846586 0.0038183759265389065 0.11479344127271325 0.077034633556796864 0.089996521121805118 0.038659470556984807 0.001703707243115214 0.034106090791969176
leaf_weight=113.47678525932133 3.3226175718009463 3.3845661152154198 35.31065387185663 3.4595284573733807 4.1379992701113215 3.3648867569863787 3.792407961562275 27.704551908187568 25.172458231449127
leaf_count=7143 127 132 1868 78 125 57 146 826 534
internal_value=0 -0.00972508 -0.0125356 0.0546311 0.0114985 0.0247473 -0.0206205 0.0208406 0.0171291
internal_weight=0 163.562 156.718 6.84409 39.4487 59.5645 117.269 56.1996 52.877
internal_count=11036 9492 9282 210 1993 1544 7289 1487 1360
is_linear=0
shrinkage=0.0477388


Tree=17
num_leaves=12
num_cat=0
split_feature=0 2 5 1 2 6 1 10 6 4 1
split_gain=20.7617 11.2787 16.2872 12.7587 12.5169 11.577 10.014 7.47828 8.04678 6.71188 5.06913
threshold=10.500000000000002 2013.5000000000002 1.5000000000000002 86.15000000000002 2014.5000000000002 3.5000000000000004 89.950000000000017 1.0000000180025095e-35 3.5000000000000004 100.50000000000001 79.050000000000011
decision_type=2 8 2 2 8 2 2 2 2 10 2
left_child=1 5 4 -4 -3 10 7 9 -9 -2 -1
right_child=6 2 3 -5 -6 -7 -8 8 -10 -11 -12
leaf_value=-0.033254324212519649 -0.034615403252080353 0.088028523557098004 0.018948636344706914 0.12786532259637984 -0.033820090081838047 0.064470188075335458 0.10332688491388894 0.021604808253466463 0.092987586628819577 0.012386235026922057 -0.0068170217847143555
leaf_weight=59.750811777077615 10.060525840148328 2.0986717632040408 27.932584396563474 2.686867816373705 22.734226959757507 3.3589595640078178 3.0647637303918591 42.233332697302103 3.9342291466891757 22.209656864404678 22.84973325394094
leaf_count=4412 523 150 1094 87 1531 128 45 1016 53 635 1362
internal_value=0 -0.0115795 0.00520647 0.0285061 -0.0235225 -0.0224081 0.0186718 0.0153641 0.0276878 -0.00226696 -0.025941
internal_weight=0 141.412 55.4524 30.6195 24.8329 85.9595 81.5025 78.4377 46.1676 32.2702 82.6005
internal_count=11036 8764 2862 1181 1681 5902 2272 2227 1069 1158 5774
is_linear=0
shrinkage=0.0477388


Tree=18
num_leaves=12
num_cat=0
split_feature=0 2 5 2 1 6 1 10 6 4 10
split_gain=18.7359 10.5026 14.6347 11.0143 10.5907 10.3417 8.07307 6.53886 6.47052 6.41652 4.93382
threshold=10.500000000000002 2013.5000000000002 1.5000000000000002 2014.5000000000002 60.050000000000004 3.5000000000000004 89.950000000000017 1.0000000180025095e-35 3.5000000000000004 57.500000000000007 1.0000000180025095e-35
decision_type=2 8 2 8 2 2 2 2 2 10 2
left_child=1 5 3 -3 -4 10 7 9 -9 -2 -1
right_child=6 2 4 -5 -6 -7 -8 8 -10 -11 -12
leaf_value=-0.040568411839859771 -0.048635546565327988 0.076801614965696874 -0.032280805079682048 -0.03330482800709212 0.03947043977727923 0.057701310903392727 0.090246148379736282 0.020174968531863076 0.081975156735125038 0.0076015208077131321 -0.016177633504621439
leaf_weight=30.292908399365842 5.5966904591768971 2.285580099560323 5.7335005886852768 22.001703265123069 25.71629498898983 3.5683011990040532 3.3341868482530108 43.046699589118361 4.2414607666432849 26.598492524586618 50.257865442894399
leaf_count=2209 337 150 269 1531 912 128 45 1016 53 821 3565
internal_value=0 -0.0111784 0.00489306 -0.0229431 0.0263897 -0.0218273 0.0174727 0.01442 0.0257181 -0.00217452 -0.0253503
internal_weight=0 139.856 55.7371 24.2873 31.4498 84.1191 82.8175 79.4833 47.2882 32.1952 80.5508
internal_count=11036 8764 2862 1681 1181 5902 2272 2227 1069 1158 5774
is_linear=0
shrinkage=0.0477388


Tree=19
num_leaves=11
num_cat=0
split_feature=3 6 1 0 6 7 7 4 1 1
split_gain=17.7134 13.7981 12.8623 15.7738 6.29018 5.56201 11.4498 7.07834 6.42232 3.10811
threshold=1.0000000180025095e-35 6.5000000000000009 72.750000000000014 40.500000000000007 1.0000000180025095e-35 31.250000000000004 1.2500000000000002 267.50000000000006 82.450000000000017 60.050000000000004
decision_type=10 2 2 2 2 10 10 8 2 2
left_child=1 2 4 -4 -1 6 8 -7 -2 -8
right_child=5 -3 3 -5 -6 7 9 -9 -10 -11
leaf_value=-0.032498014829906718 0.020862170217016463 0.10397210057902727 -0.00075869682706373347 0.11289637992133235 -0.003855942675039786 0.079170130646539133 0.0062448486567998956 0.008325315376063883 0.094466341837448328 -0.049790247488426913
leaf_weight=56.165845161303878 31.811614340171218 2.4477414116263381 77.53678266890347 2.8865196984261265 25.366029188036919 7.6495210351422402 3.4183105230331403 5.5431553162634382 2.9523919411003581 6.6339325699955225
leaf_count=3824 1105 47 3923 47 1432 148 125 87 70 228
internal_value=0 -0.00852504 -0.0102253 0.00332056 -0.023587 0.0221581 0.0141378 0.0494033 0.0271131 -0.0307353
internal_weight=0 164.403 161.955 80.4233 81.5319 58.0089 44.8162 13.1927 34.764 10.0522
internal_count=11036 9273 9226 3970 5256 1763 1528 235 1175 353
is_linear=0
shrinkage=0.0477388


Tree=20
num_leaves=13
num_cat=0
split_feature=4 6 3 1 10 1 0 2 4 7 3 6
split_gain=16.1247 10.664 10.0988 9.97574 9.62997 9.88164 8.05381 8.0029 5.34634 4.90192 6.76958 4.69631
threshold=70.500000000000014 1.0000000180025095e-35 1.0000000180025095e-35 80.450000000000017 1.0000000180025095e-35 83.250000000000014 36.500000000000007 2013.5000000000002 78.500000000000014 6.7500000000000009 13.500000000000002 1.5000000000000002
decision_type=10 2 10 2 2 2 2 10 10 10 10 2
left_child=1 2 6 -4 7 -6 -1 -3 -2 10 -10 -11
right_child=8 4 3 -5 5 -7 -8 -9 9 11 -12 -13
leaf_value=-0.025551305206644285 0.074383771430715562 -0.044035804548731829 -2.0213417326433252e-05 0.097350564411331567 0.04064711903202034 -0.038398886190295266 0.072708507102811445 0.01168056861519005 -0.010943407382040745 0.019605082627298386 0.040775297586184853 0.064565960716152157
leaf_weight=88.911721168085933 3.8465950805693856 10.549093860201539 13.645687283016743 2.9091046527028075 23.327453058212999 4.2628644239157429 1.9425804335623968 13.260613550432025 21.978453321382407 22.842826630920175 7.8199880942702285 6.8920036144554606
leaf_count=6110 131 709 631 78 1189 183 58 534 687 462 158 106
internal_value=0 -0.00864423 -0.0172019 0.0170903 0.00923848 0.0284341 -0.0234504 -0.013005 0.0198374 0.016313 0.0026291 0.0300262
internal_weight=0 158.809 107.409 16.5548 51.4 27.5903 90.8543 23.8097 63.3799 59.5333 29.7984 29.7348
internal_count=11036 9492 6877 709 2615 1372 6168 1243 1544 1413 845 568
is_linear=0
shrinkage=0.0477388


Tree=21
num_leaves=11
num_cat=0
split_feature=0 2 5 2 1 6 7 1 5 1
split_gain=14.5682 9.55921 12.7233 10.1063 9.36084 8.90879 7.14875 6.17409 5.97547 7.3115
threshold=10.500000000000002 2013.5000000000002 1.5000000000000002 2014.5000000000002 60.050000000000004 5.5000000000000009 23.750000000000004 89.950000000000017 5.5000000000000009 83.15000000000002
decision_type=2 8 2 8 2 2 10 2 2 2
left_child=1 5 3 -3 -4 6 -1 8 9 -2
right_child=7 2 4 -5 -6 -7 -8 -9 -10 -11
leaf_value=-0.024614004810140644 0.014253402109775907 0.071056571081989275 -0.031788198351449047 -0.03248420493553876 0.036231170987634627 0.10772433709738363 0.082286279223342362 0.075232666814048929 0.069869324380758185 -0.03378365616944836
leaf_weight=78.074274849146605 70.058803740888834 2.3944345293566611 5.5757756428793064 20.90702292136848 26.647739514708519 1.212464503943919 1.4521751636639226 3.6989558301866046 3.8975187428295603 8.0507925618439895
leaf_count=5804 2006 150 269 1531 912 36 62 45 60 161
internal_value=0 -0.0102183 0.00502886 -0.0218445 0.0244615 -0.020704 -0.022662 0.014902 0.0121807 0.0093022
internal_weight=0 136.264 55.525 23.3015 32.2235 80.7389 79.5265 85.7061 82.0071 78.1096
internal_count=11036 8764 2862 1681 1181 5902 5866 2272 2227 2167
is_linear=0
shrinkage=0.0477388


Tree=22
num_leaves=12
num_cat=0
split_feature=3 1 0 6 2 7 7 2 1 2 5
split_gain=13.5863 12.686 11.442 7.78314 6.36219 3.99354 10.2112 5.7469 4.4495 3.508 3.13704
threshold=1.0000000180025095e-35 72.750000000000014 40.500000000000007 3.5000000000000004 2010.5000000000002 31.250000000000004 1.2500000000000002 2014.5000000000002 60.050000000000004 2020.5000000000002 1.5000000000000002
decision_type=10 2 2 2 8 10 10 8 2 10 2
left_child=1 3 4 9 -3 6 8 -7 -2 -1 -8
right_child=5 2 -4 -5 -6 7 10 -9 -10 -11 -12
leaf_value=-0.027319371182064952 0.0039954963519642289 -0.01231792538498459 0.093112318207564201 0.037086003638421065 0.014960788833876078 0.066046715431240438 0.0065082583079027929 0.0046725054256419552 0.037882441778037242 0.023071092555409376 -0.049879163531090544
leaf_weight=71.585306651890278 15.18347912840545 37.538950985297561 3.261052753776311 4.8856235928833476 40.514709187671542 8.4340707473456824 3.4051605807617289 5.9158494099974641 21.105126055888832 3.2933651981875292 6.6197679471224546
leaf_count=5003 552 2175 47 133 1770 128 127 107 623 145 226
internal_value=0 -0.00776713 0.00550176 -0.0212939 0.00184143 0.0187401 0.0119221 0.0407448 0.0237038 -0.0251031 -0.0307261
internal_weight=0 161.079 81.3147 79.7643 78.0537 60.6635 46.3135 14.3499 36.2886 74.8787 10.0249
internal_count=11036 9273 3992 5281 3945 1763 1528 235 1175 5148 353
is_linear=0
shrinkage=0.0477388


Tree=23
num_leaves=13
num_cat=0
split_feature=0 2 5 2 1 10 6 1 10 0 4 4
split_gain=12.5015 8.47237 11.2494 9.08087 7.99953 7.99282 12.4076 4.93591 5.46043 6.156 5.47513 0.435186
threshold=10.500000000000002 2013.5000000000002 1.5000000000000002 2014.5000000000002 86.15000000000002 1.0000000180025095e-35 3.5000000000000004 89.950000000000017 1.0000000180025095e-35 12.500000000000002 57.500000000000007 27.500000000000004
decision_type=2 8 2 8 2 2 2 2 2 2 10 10
left_child=1 5 3 -3 -4 11 -7 8 10 -10 -2 -1
right_child=7 2 4 -5 -6 6 -8 -9 9 -11 -12 -13
leaf_value=-0.042468817790773127 -0.048605712496534462 0.063581178965268811 0.014424832600915188 -0.031962097272881178 0.09229738660296459 -0.013993610920206678 0.091081551597378976 0.065493853611342773 0.0765858499301207 0.015990770476697995 0.0044754978150865713 -0.025791174658544552
leaf_weight=24.222308238036934 5.2599262287840238 2.5526516987010863 29.811744111590087 20.266251846216619 3.3435184285044661 47.110109963454306 2.7083722408860913 3.9794639721512786 4.1681134998798361 45.869718469679356 28.01591429580003 4.181248338893055
leaf_count=1987 337 150 1094 1531 87 3565 71 45 160 909 821 279
internal_value=0 -0.00965686 0.00452309 -0.0212741 0.0222778 -0.0198038 -0.00828122 0.0135528 0.0110718 0.0210383 -0.00391507 -0.0400137
internal_weight=0 134.196 55.9742 22.8189 33.1553 78.222 49.8185 87.2931 83.3137 50.0378 33.2758 28.4036
internal_count=11036 8764 2862 1681 1181 5902 3636 2272 2227 1069 1158 2266
is_linear=0
shrinkage=0.0477388


Tree=24
num_leaves=14
num_cat=0
split_feature=3 1 0 6 1 0 2 10 7 2 2 0 4
split_gain=11.8056 11.4084 9.25486 7.09986 7.51496 6.19583 5.4593 3.43939 4.27256 3.41496 5.90212 3.08149 2.14397
threshold=1.0000000180025095e-35 72.750000000000014 40.500000000000007 1.0000000180025095e-35 50.550000000000004 11.500000000000002 2010.5000000000002 1.0000000180025095e-35 31.250000000000004 2013.5000000000002 2015.5000000000002 22.500000000000004 46.500000000000007
decision_type=10 2 2 2 2 2 8 2 10 10 10 2 8
left_child=1 3 6 5 -5 -1 -3 9 11 12 -11 -9 -2
right_child=7 2 -4 4 -6 -7 -8 8 -10 10 -12 -13 -14
leaf_value=-0.040796127917436364 -0.048719689964732422 -0.011716211831779195 0.080390241580348479 -0.042124472418205203 0.015185913428491583 -0.003042554674467774 0.013542319004328342 0.028600287890568309 0.058911380206950539 0.061701715135846089 0.0040808825409601292 -0.014188065018520362 -0.00057702011707012825
leaf_weight=37.712350262328982 3.3160715587437126 36.907039139419794 3.5546121168881646 7.1585979284718659 19.199321085587144 13.436187680810688 41.350576061755419 15.157684468664234 8.0300103444606048 5.1224101502448347 19.374117718078196 5.1353068482130757 5.787415419705213
leaf_count=3251 185 2175 47 459 998 573 1770 493 97 159 571 92 166
internal_value=0 -0.00738183 0.00505216 -0.0205066 -0.000379125 -0.0308787 0.00163015 0.0171817 0.0294359 0.00685201 0.0161298 0.0177723 -0.0181137
internal_weight=0 159.319 81.8122 77.5065 26.3579 51.1485 78.2576 61.923 28.323 33.6 24.4965 20.293 9.10349
internal_count=11036 9273 3992 5281 1457 3824 3945 1763 682 1081 730 585 351
is_linear=0
shrinkage=0.0477388


Tree=25
num_leaves=15
num_cat=0
split_feature=3 1 0 6 1 0 6 5 10 7 2 2 7 4
split_gain=10.6188 10.588 8.32147 6.77499 7.00713 6.05415 3.9588 3.21021 2.98066 3.57146 3.08428 4.95256 2.8201 2.07854
threshold=1.0000000180025095e-35 72.750000000000014 16.500000000000004 1.0000000180025095e-35 50.550000000000004 11.500000000000002 1.0000000180025095e-35 1.5000000000000002 1.0000000180025095e-35 31.250000000000004 2013.5000000000002 2015.5000000000002 1.2500000000000002 46.500000000000007
decision_type=10 2 2 2 2 2 2 2 2 10 8 10 10 8
left_child=1 3 6 5 -5 -1 -3 -4 10 12 13 -12 -10 -2
right_child=8 2 7 4 -6 -7 -8 -9 9 -11 11 -13 -14 -15
leaf_value=-0.040462507866283297 -0.048673258558390255 -0.011086560907407424 0.012894589768411015 -0.041807321595408259 0.01425262057466985 -0.0029058132865395852 0.014093777985416932 0.054437769379563468 0.025784615781766992 0.053558859941911258 0.055487786251621408 0.0038713687191415931 -0.017415418421694334 -0.00054976810138517983
leaf_weight=36.243681875988841 3.1644287668168518 44.17123387940228 8.1354952100664395 6.8754219990223673 19.473019894212484 13.397818039171396 20.991468012332916 8.8511723726987821 16.259205341339118 8.4011585582047683 5.4163944041356471 19.445867084898055 4.3692422667518249 5.7843842366710314
leaf_count=3251 185 2723 149 459 998 573 992 128 458 97 159 571 127 166
internal_value=0 -0.00709791 0.00478256 -0.0199414 -0.000375787 -0.0303263 -0.00297498 0.0345413 0.0160998 0.0273204 0.00646601 0.0151163 0.0166346 -0.0175669
internal_weight=0 158.139 82.1494 75.9899 26.3484 49.6415 65.1627 16.9867 62.8407 29.0296 33.8111 24.8623 20.6284 8.94881
internal_count=11036 9273 3992 5281 1457 3824 3715 277 1763 682 1081 730 585 351
is_linear=0
shrinkage=0.0477388


Tree=26
num_leaves=12
num_cat=0
split_feature=3 1 4 6 5 2 1 1 2 1 1
split_gain=9.56231 9.82035 7.50477 6.69487 4.53167 3.21533 2.6096 11.656 5.80216 5.65675 4.19371
threshold=1.0000000180025095e-35 72.750000000000014 421.50000000000006 3.5000000000000004 5.5000000000000009 2020.5000000000002 59.650000000000013 62.45000000000001 2008.5000000000002 64.550000000000011 51.750000000000007
decision_type=10 2 10 2 2 10 2 2 10 2 2
left_child=1 3 4 5 -3 -1 8 -8 -2 -9 -10
right_child=6 2 -4 -5 -6 -7 7 9 10 -11 -12
leaf_value=-0.025544923022052048 0.065409934596076136 5.9084246060449365e-05 0.081385879797036903 0.033553897204409523 0.075063329938753448 0.022680042433780193 0.086545498034499888 -0.039401234123418963 0.011530740334499081 0.019292614539331565 -0.032816141486582212
leaf_weight=66.15888733882457 2.891814484260979 77.762129950337112 2.7972102668136349 5.0742799295112482 1.8802062505856145 3.3083905633538953 5.5655785743147126 4.2562613105401388 11.671064838767053 30.983115265145898 8.3271491946652514
leaf_count=5003 91 3923 35 133 34 145 146 126 372 756 272
internal_value=0 -0.00682467 0.00452917 -0.0193815 0.00182979 -0.0232482 0.0151061 0.0223433 0.00220465 0.0122035 -0.00693506
internal_weight=0 156.981 82.4395 74.5416 79.6423 69.4673 63.695 40.805 22.89 35.2394 19.9982
internal_count=11036 9273 3992 5281 3957 5148 1763 1028 735 882 644
is_linear=0
shrinkage=0.0477388


Tree=27
num_leaves=14
num_cat=0
split_feature=0 7 5 10 6 1 4 1 2 1 1 1 4
split_gain=8.98612 8.00506 9.30374 6.98102 9.96087 8.96073 5.51178 4.3893 4.13 3.9509 3.30691 4.65224 1.25769
threshold=6.5000000000000009 3.2500000000000004 2.5000000000000004 1.0000000180025095e-35 3.5000000000000004 88.65000000000002 44.500000000000007 48.350000000000001 2014.5000000000002 59.650000000000013 79.050000000000011 83.250000000000014 21.500000000000004
decision_type=2 8 2 2 2 2 10 2 10 2 2 2 10
left_child=1 2 7 5 9 6 -2 -1 -4 -5 12 -12 -3
right_child=3 10 8 4 -6 -7 -8 -9 -10 -11 11 -13 -14
leaf_value=-0.04839368841626461 -0.043327484094715464 -0.043736332804434591 -0.0072369907160108968 -0.0090969852131829627 0.076586188434813088 0.083824508943750375 -0.0015236729346966937 -0.0068465668641705547 0.041144388873926387 0.019864265674703757 0.030616215945103106 -0.038414300393828614 -0.0061501739045458255
leaf_weight=6.5490049272775641 9.015525062568484 20.645428089424975 5.7215073658153441 14.068965926766394 6.2012492902576914 2.4475921271368852 35.45779759157449 50.336473800241947 13.529249640181659 45.30158447381109 4.2191293546929938 4.7074445551261306 2.2500261934474102
leaf_count=574 643 1835 322 516 71 47 1147 3690 305 1150 275 304 157
internal_value=0 -0.0103259 -0.00192177 0.0089548 0.0190147 -0.00510386 -0.00999804 -0.0116297 0.026765 0.0130014 -0.0304334 -0.00578715 -0.0400426
internal_weight=0 107.958 76.1362 112.493 65.5718 46.9209 44.4733 56.8855 19.2508 59.3706 31.822 8.92657 22.8955
internal_count=11036 7462 4891 3574 1737 1837 1790 4264 627 1666 2571 579 1992
is_linear=0
shrinkage=0.0477388


Tree=28
num_leaves=10
num_cat=0
split_feature=7 1 3 6 7 8 6 4 0
split_gain=8.36011 9.03824 5.75378 6.98056 5.93112 4.12981 7.02566 5.50023 3.09606
threshold=19.250000000000004 94.65000000000002 1.0000000180025095e-35 1.0000000180025095e-35 1.2500000000000002 1.0000000180025095e-35 1.5000000000000002 150.50000000000003 27.500000000000004
decision_type=10 2 10 2 10 2 2 10 2
left_child=1 2 3 -1 -4 6 7 -2 -7
right_child=5 -3 4 -5 -6 8 -8 -9 -10
leaf_value=-0.018060202559038653 0.046895293626663982 0.099129117035342704 0.016952198094525063 0.0046358965128710846 -0.0272271156981841 -0.037932041157844772 0.072457113934298559 -0.0048295587202710835 0.025458157539569988
leaf_weight=91.358508478850126 7.797273797914392 1.9015925861895073 38.372166244313121 46.655832698568702 8.4504752401262504 4.0752231236547223 6.7029589833691707 11.738543614745138 3.0853438545018435
leaf_count=6460 199 67 1171 2396 304 145 84 157 53
internal_value=0 -0.00441659 -0.00548186 -0.0103878 0.00897879 0.0215156 0.030285 0.0158152 -0.0106185
internal_weight=0 186.739 184.837 138.014 46.8226 33.3993 26.2388 19.5358 7.16057
internal_count=11036 10398 10331 8856 1475 638 440 356 198
is_linear=0
shrinkage=0.0477388


Tree=29
num_leaves=14
num_cat=0
split_feature=0 7 5 10 6 1 4 1 4 2 1 1 4
split_gain=7.77129 7.51085 8.20867 6.09133 7.87075 7.41254 5.20678 4.2852 3.75657 3.49745 3.24956 4.32912 1.26337
threshold=6.5000000000000009 3.2500000000000004 2.5000000000000004 1.0000000180025095e-35 3.5000000000000004 88.65000000000002 44.500000000000007 48.350000000000001 70.500000000000014 2014.5000000000002 79.050000000000011 83.250000000000014 21.500000000000004
decision_type=2 8 2 2 2 2 10 2 8 10 2 2 10
left_child=1 2 7 5 8 6 -2 -1 -5 -4 12 -12 -3
right_child=3 10 9 4 -6 -7 -8 -9 -10 -11 11 -13 -14
leaf_value=-0.048367020324557149 -0.043028303795844804 -0.043456603774380612 -0.0068519314200455837 -0.0071006633540516024 0.066655702365479574 0.072444314788423031 -0.0016065819760697566 -0.0063413701476481271 0.019447507304629411 0.037565949606459627 0.028987765347511917 -0.037936673811058703 -0.0053840697252604515
leaf_weight=6.2211306989192954 8.5893958574160916 19.584707336500294 5.6692846454679993 16.882889374159276 6.6701957471668711 2.6558815184980622 35.499507199041545 49.736106497235596 43.301107175648212 14.057314917445181 4.3062295662239176 4.5096319066360593 2.210526341572403
leaf_count=574 643 1835 322 745 71 47 1147 3690 921 305 275 304 157
internal_value=0 -0.0097493 -0.00167885 0.00820966 0.0174533 -0.00501054 -0.00967636 -0.0110136 0.0120002 0.0248006 -0.0297029 -0.00524651 -0.0395952
internal_weight=0 106.295 75.6838 113.599 66.8542 46.7448 44.0889 55.9572 60.184 19.7266 30.6111 8.81586 21.7952
internal_count=11036 7462 4891 3574 1737 1837 1790 4264 1666 627 2571 579 1992
is_linear=0
shrinkage=0.0477388


Tree=30
num_leaves=13
num_cat=0
split_feature=3 1 6 5 4 4 1 3 4 0 3 0
split_gain=7.27087 8.52484 10.9155 6.84726 2.43409 5.85807 4.26664 4.14394 2.34103 3.8329 2.25904 0.898733
threshold=1.0000000180025095e-35 61.45000000000001 6.5000000000000009 4.5000000000000009 267.50000000000006 127.50000000000001 63.250000000000007 15.500000000000002 1.0000000180025095e-35 14.500000000000002 19.500000000000004 38.500000000000007
decision_type=10 2 2 2 10 10 2 8 8 2 8 2
left_child=1 8 3 -3 5 7 -7 -2 9 -1 -6 -10
right_child=4 2 -4 -5 10 6 -8 -9 11 -11 -12 -13
leaf_value=-0.01771703265401631 0.012960746051846011 -0.0052144274820299609 0.099153981100134583 0.041663768429707621 -0.024167868966297645 0.071657546778011907 0.020173210982991838 -0.038905349603273284 -0.036707894097501088 0.076052484310774326 0.013951854905371821 -0.0040998548347308816
leaf_weight=7.7957299146801216 32.705894532613456 108.8099909722805 2.4752992633730164 7.5967465834692112 6.9322103913873407 6.5712025491520754 8.3044323958456499 3.9328139238059512 23.957942245528105 1.1385449748486278 7.2466582469642171 2.0947239156812421
leaf_count=770 1185 6270 29 158 141 119 108 96 1912 52 114 82
internal_value=0 -0.00614158 -4.57339e-05 -0.00215514 0.0128302 0.0176512 0.042916 0.00739342 -0.0268546 -0.00576745 -0.00468531 -0.0340861
internal_weight=0 153.869 118.882 116.407 65.6932 51.5143 14.8756 36.6387 34.9869 8.93427 14.1789 26.0527
internal_count=11036 9273 6457 6428 1763 1508 227 1281 2816 822 255 1994
is_linear=0
shrinkage=0.0477388


Tree=31
num_leaves=14
num_cat=0
split_feature=0 7 5 10 1 6 4 1 1 1 3 8 4
split_gain=6.76965 7.01491 7.09824 5.42606 6.16951 6.0823 4.91702 4.11436 3.5317 3.16355 4.16292 3.03438 1.2398
threshold=6.5000000000000009 3.2500000000000004 2.5000000000000004 1.0000000180025095e-35 88.65000000000002 3.5000000000000004 31.500000000000004 48.350000000000001 69.950000000000017 79.050000000000011 5.5000000000000009 1.0000000180025095e-35 21.500000000000004
decision_type=2 8 2 2 2 2 10 2 2 2 8 2 10
left_child=1 2 7 4 6 8 -2 -1 -5 12 -11 -4 -3
right_child=3 9 11 5 -6 -7 -8 -9 -10 10 -12 -13 -14
leaf_value=-0.04833540587473472 -0.048526748645913012 -0.043148485476546851 0.010437559808804089 -0.0011427599222055686 0.063028362351939413 0.057847447799674441 -0.0028645704847611391 -0.0059018905024950273 0.021940594217255492 -0.048666269523388574 0.019903164831838602 0.050579019001136392 -0.0052819004247266462
leaf_weight=5.823541152290999 6.2738328156992784 18.530548387672759 14.104586502537133 28.073877988383174 2.8542187120765439 7.1425869837403289 37.488985700532794 49.225611060857773 32.699340847320855 3.160025225952265 5.5824225787073383 6.1686263130977741 2.2050157552584997
leaf_count=574 507 1835 414 911 47 71 1283 3690 755 190 389 213 157
internal_value=0 -0.00922399 -0.00149739 0.00756639 -0.00497547 0.0161751 -0.0094107 -0.0103908 0.0112774 -0.028967 -0.00488179 0.0226516 -0.0391218
internal_weight=0 104.8 75.3224 114.533 46.617 67.9158 43.7628 55.0492 60.7732 29.478 8.74245 20.2732 20.7356
internal_count=11036 7462 4891 3574 1837 1737 1790 4264 1666 2571 579 627 1992
is_linear=0
shrinkage=0.0477388


Tree=32
num_leaves=13
num_cat=0
split_feature=3 1 6 0 4 10 4 4 0 5 3 0
split_gain=6.44004 7.60014 8.4887 5.96159 2.29795 3.73558 2.1425 4.89248 3.88799 3.7393 2.08959 0.870527
threshold=1.0000000180025095e-35 61.45000000000001 6.5000000000000009 16.500000000000004 1.0000000180025095e-35 1.0000000180025095e-35 267.50000000000006 127.50000000000001 17.500000000000004 2.5000000000000004 19.500000000000004 38.500000000000007
decision_type=10 2 2 2 8 2 10 10 2 2 10 2
left_child=1 4 3 -3 5 -1 7 8 -2 -9 -8 -6
right_child=6 2 -4 -5 11 -7 10 9 -10 -11 -12 -13
leaf_value=-0.037008394838918941 0.012250608794198701 -0.0077930203086708401 0.082777439997431645 0.018578364488316217 -0.036042872260605305 0.025432779429723201 -0.02360757082266594 0.057644528342752091 -0.038363259410771726 0.0094955574132732454 0.013134055111781657 -0.0037577832152973856
leaf_weight=4.2430155449546856 33.033341948408633 91.380786365829408 2.745200576260685 24.848505876027048 22.729073121212426 4.4985593371093273 6.8001881428062898 9.45902730245143 3.8633535243570796 6.012289233505725 7.330373041331768 2.0773180443793526
leaf_count=445 1181 5953 29 475 1912 377 141 142 100 85 114 82
internal_value=0 -0.00585416 -0.000195395 -0.00215512 -0.0259224 -0.00487513 0.0119485 0.0163997 0.00695097 0.0389334 -0.00454748 -0.0333393
internal_weight=0 152.522 118.974 116.229 33.548 8.74157 66.4986 52.368 36.8967 15.4713 14.1306 24.8064
internal_count=11036 9273 6457 6428 2816 822 1763 1508 1281 227 255 1994
is_linear=0
shrinkage=0.0477388


Tree=33
num_leaves=6
num_cat=0
split_feature=5 1 7 0 8
split_gain=6.2824 6.00596 5.27236 4.85955 4.15897
threshold=5.5000000000000009 94.65000000000002 19.250000000000004 61.500000000000007 1.0000000180025095e-35
decision_type=2 2 10 2 2
left_child=1 2 3 -1 -4
right_child=-2 -3 4 -5 -6
leaf_value=-0.0069056673166833981 0.04467174849767077 0.076038536356354672 0.02356027306497192 0.05842610450068355 -0.019765333909897435
leaf_weight=174.96948834788054 6.8164171129465094 2.2301623029634348 25.8195965802297 2.6337752407416692 6.2769497437402597
leaf_count=10176 118 69 415 72 186
internal_value=0 -0.00189011 -0.00271888 -0.00593683 0.0150873
internal_weight=0 211.93 209.7 177.603 32.0965
internal_count=11036 10918 10849 10248 601
is_linear=0
shrinkage=0.0477388


Tree=34
num_leaves=12
num_cat=0
split_feature=2 0 2 5 7 3 7 0 0 6 0
split_gain=5.76978 5.38554 6.83546 5.2233 6.83376 5.28811 3.5053 1.0585 0.00209339 3.97455e-05 2.27793e-05
threshold=2002.5000000000002 6.5000000000000009 2003.5000000000002 2.5000000000000004 2.7500000000000004 1.5000000000000002 100.00000000000001 16.500000000000004 14.500000000000002 1.5000000000000002 6.5000000000000009
decision_type=8 2 10 2 8 10 10 2 2 2 2
left_child=8 3 7 5 -5 -2 -4 -3 9 10 -1
right_child=1 2 6 4 -6 -7 -8 -9 -10 -11 -12
leaf_value=-0.04817848613402962 -0.018452044109439462 0.03760358378313982 0.0017638456103190605 0.023084426745131077 -0.04868419252936533 0.017754720924697549 0.026556886761898497 0.078897357964025305 -0.05047435526637619 -0.048598156808998497 -0.048486042298501293
leaf_weight=1.6371033452451227 65.416452178731561 2.7252200110815457 92.493747557513416 20.131479530595247 3.5580686833709469 10.696334374137221 15.120492925867437 2.9418538669124246 1.5459841592237351 1.4279595492407677 0.82560038426890958
leaf_count=189 5857 131 3053 608 241 473 180 73 55 107 69
internal_value=0 0.000814824 0.00793847 -0.00727092 0.0123051 -0.0133638 0.00524743 0.0590397 -0.0489883 -0.0483978 -0.0482816
internal_weight=0 213.084 113.281 99.8023 23.6895 76.1128 107.614 5.66707 5.43665 3.89066 2.4627
internal_count=11036 10616 3437 7179 849 6330 3233 204 420 365 258
is_linear=0
shrinkage=0.0477388


Tree=35
num_leaves=15
num_cat=0
split_feature=1 3 5 5 10 6 2 1 3 0 1 0 6 1
split_gain=5.51753 7.66177 8.21909 6.52843 10.2988 9.20503 8.46523 9.20399 4.80792 3.45924 3.05967 1.5794 1.70248 1.3405
threshold=59.45000000000001 3.5000000000000004 1.5000000000000002 1.5000000000000002 1.0000000180025095e-35 3.5000000000000004 2010.5000000000002 88.65000000000002 12.500000000000002 20.500000000000004 51.350000000000001 38.500000000000007 1.0000000180025095e-35 71.350000000000009
decision_type=2 10 2 2 2 2 8 2 10 2 2 2 2 2
left_child=1 11 9 4 13 -6 8 -8 -5 -3 -4 12 -1 -2
right_child=3 2 10 6 5 -7 7 -9 -10 -11 -12 -13 -14 -15
leaf_value=-0.038792110356486442 -0.043735717732080508 0.091374926429587611 0.0087227020230982583 -0.023199475453810157 0.00071525444150478826 0.075453261108465744 0.015993568302883562 0.079853956094662254 0.051025314702618528 0.02097226871428914 -0.041204672236120454 0.0097963157996745608 -0.015673766840105255 -0.021718866747708964
leaf_weight=19.823875447269533 9.7931681610643881 3.0533105069771436 6.4256102340295893 16.970351886935536 52.190043292939663 4.0468686036765567 58.275825648102909 5.6413775887340298 2.2528778640553346 3.3200327688828111 4.953939069993794 2.4080894272774449 11.454146553296594 17.680283079389483
leaf_count=1868 834 114 151 799 3129 58 1641 84 28 65 123 98 796 1248
internal_value=0 -0.0140827 0.0112966 0.00380068 -0.00561016 0.00609348 0.013276 0.0216299 -0.0145007 0.0547004 -0.0130125 -0.0274579 -0.0303261 -0.029567
internal_weight=0 51.439 17.7529 166.851 83.7104 56.2369 83.1404 63.9172 19.2232 6.37334 11.3795 33.6861 31.278 27.4735
internal_count=11036 3215 453 7821 5269 3187 2552 1725 827 179 274 2762 2664 2082
is_linear=0
shrinkage=0.0477388


Tree=36
num_leaves=8
num_cat=0
split_feature=2 5 6 1 0 6 0
split_gain=5.40835 4.92689 4.77853 4.80696 0.00176964 3.54469e-05 1.88039e-05
threshold=2002.5000000000002 5.5000000000000009 6.5000000000000009 94.65000000000002 14.500000000000002 1.5000000000000002 6.5000000000000009
decision_type=8 2 2 2 2 2 2
left_child=4 2 3 -2 5 6 -1
right_child=1 -3 -4 -5 -6 -7 -8
leaf_value=-0.048151793417713945 -0.0024325299406577502 0.039726371995362185 0.051237545385323192 0.065254369865282991 -0.050327154791042508 -0.04855676347480186 -0.048440943004360137
leaf_weight=1.5316701284609733 199.36748447269201 7.1444326108321539 3.9744961708784095 2.420163905248045 1.4636337636038659 1.34862963296473 0.77035401575267304
leaf_count=189 10382 117 48 69 55 107 69
internal_value=0 0.000753498 -0.00059971 -0.00162072 -0.0489247 -0.0483624 -0.0482486
internal_weight=0 212.907 205.762 201.788 5.11429 3.65065 2.30202
internal_count=11036 10616 10499 10451 420 365 258
is_linear=0
shrinkage=0.0477388


Tree=37
num_leaves=12
num_cat=0
split_feature=2 0 2 7 1 7 1 0 0 6 0
split_gain=5.14805 4.50664 5.95996 4.87465 5.70159 3.18728 2.93575 1.32025 0.00154342 3.07247e-05 1.62972e-05
threshold=2002.5000000000002 6.5000000000000009 2003.5000000000002 3.2500000000000004 56.550000000000004 19.250000000000004 79.050000000000011 19.500000000000004 14.500000000000002 1.5000000000000002 6.5000000000000009
decision_type=8 2 10 8 2 10 2 2 2 2 2
left_child=8 3 7 4 -2 -4 -5 -3 9 10 -1
right_child=1 2 5 6 -6 -7 -8 -9 -10 -11 -12
leaf_value=-0.048132398734340678 -0.031687590986656772 0.034134373868534323 -0.00097496135027208889 -0.03672545122994661 0.0050320081289578463 0.016598554086030119 -0.0017137958773111215 0.079571567697375556 -0.050210708784208032 -0.048518425792535957 -0.048408009622493656
leaf_weight=1.4608421567827461 11.395525566302238 3.3840825012885025 74.043707363307476 16.506102728657428 62.450154521502554 34.470187143422663 8.1544655058532935 2.5598090374842286 1.3985614543780682 1.2867517988197503 0.7349298927001654
leaf_count=189 1074 142 2663 1729 3817 570 559 62 55 107 69
internal_value=0 0.000714444 0.00715694 -0.00677131 -0.000634391 0.00460739 -0.0251482 0.0537025 -0.0488712 -0.0483332 -0.0482246
internal_weight=0 212.964 114.458 98.5062 73.8457 108.514 24.6606 5.94389 4.88109 3.48252 2.19577
internal_count=11036 10616 3437 7179 4891 3233 2288 204 420 365 258
is_linear=0
shrinkage=0.0477388


Tree=38
num_leaves=12
num_cat=0
split_feature=2 10 2 0 6 4 5 0 0 6 0
split_gain=4.89988 4.2684 11.8639 6.59868 6.66516 6.48619 6.23056 3.58053 0.00134582 2.66312e-05 1.41244e-05
threshold=2002.5000000000002 1.0000000180025095e-35 2013.5000000000002 5.5000000000000009 1.0000000180025095e-35 2.5000000000000004 1.5000000000000002 54.500000000000007 14.500000000000002 1.5000000000000002 6.5000000000000009
decision_type=8 2 10 2 2 10 2 2 2 2 2
left_child=8 2 7 4 -3 -5 -4 -2 9 10 -1
right_child=1 3 6 5 -6 -7 -8 -9 -10 -11 -12
leaf_value=-0.04811392083904615 -0.032669504747814881 -0.020825944676796715 -0.01777084708607414 0.04152346753507883 0.019215611233644393 0.007784711477967712 0.015167999135120364 0.04158767084921438 -0.050099386858697512 -0.048481893197652642 -0.048376629005291528
leaf_weight=1.3932637609541414 32.703054321929812 29.240898310206831 18.474309909623116 16.986424777191132 14.014664931222795 55.140083959791809 44.883082370273769 1.5499746818095435 1.3362558363005517 1.2276691664010284 0.70111306803300966
leaf_count=189 2640 2519 1320 575 926 1318 1280 38 55 107 69
internal_value=0 0.000673571 -0.00667398 0.00688942 -0.00785261 0.0157305 0.0055634 -0.0293093 -0.04882 -0.0483053 -0.0482019
internal_weight=0 212.992 97.6104 115.382 43.2556 72.1265 63.3574 34.253 4.6583 3.32205 2.09438
internal_count=11036 10616 5278 5338 3445 1893 2600 2678 420 365 258
is_linear=0
shrinkage=0.0477388


Tree=39
num_leaves=9
num_cat=0
split_feature=2 5 10 2 6 0 6 0
split_gain=4.66326 4.12235 4.03565 9.21478 6.52498 0.00117327 2.3083e-05 9.3288e-06
threshold=2002.5000000000002 5.5000000000000009 1.0000000180025095e-35 2013.5000000000002 1.0000000180025095e-35 14.500000000000002 1.5000000000000002 5.5000000000000009
decision_type=8 2 2 10 2 2 2 2
left_child=5 2 3 -2 -4 6 7 -1
right_child=1 -3 4 -5 -6 -7 -8 -9
leaf_value=-0.048098104962186257 -0.028380332426738826 0.035512012421884752 -0.0032832353512339215 0.0031654769464476403 0.020498386190519163 -0.049992967120029722 -0.048447082038664165 -0.048309864215317189
leaf_weight=1.2235754979774349 32.761619254946709 7.4513573292642823 72.082199107389897 59.301218472421169 41.390815991908312 1.2766098976135252 1.1712593995034692 0.77404522756114591
leaf_count=173 2657 117 3855 2538 1449 55 107 85
internal_value=0 0.000630675 -0.000633889 -0.00806046 0.00539143 -0.0487711 -0.0482788 -0.0481802
internal_weight=0 212.987 205.536 92.0628 113.473 4.44549 3.16888 1.99762
internal_count=11036 10616 10499 5195 5304 420 365 258
is_linear=0
shrinkage=0.0477388


Tree=40
num_leaves=13
num_cat=0
split_feature=3 1 1 7 6 0 0 4 4 3 1 3
split_gain=4.50138 5.925 7.37853 4.66624 4.41293 5.99106 4.94618 2.05574 3.62131 3.79024 3.39642 1.7978
threshold=1.0000000180025095e-35 73.15000000000002 73.550000000000011 77.750000000000014 1.0000000180025095e-35 11.500000000000002 12.500000000000002 267.50000000000006 127.50000000000001 15.500000000000002 63.250000000000007 19.500000000000004
decision_type=10 2 2 10 2 2 2 10 10 10 2 8
left_child=1 4 -3 -4 5 -1 -6 8 9 -2 -10 -9
right_child=7 2 3 -5 6 -7 -8 11 10 -11 -12 -13
leaf_value=-0.036884724104415553 0.011008191492816665 0.09462121402862024 -0.0014174127169893753 0.049017898202851677 0.016380108553582545 0.0020680875499653798 -0.026920460115158851 -0.023994878326263014 0.056662362196742845 -0.038914683034680965 0.013057908751557873 0.0096484211433737234
leaf_weight=29.263243986293674 33.638379371725023 1.9843991911038745 74.413374537136406 4.429471304640173 16.075260703451935 12.994208422955124 9.6039191540330631 6.8347340291365954 7.4191221231594708 3.8639694647863498 9.0210316479206067 7.695555668324233
leaf_count=3319 1185 111 3731 45 1210 582 275 141 119 96 108 114
internal_value=0 -0.00503016 0.00370438 0.00141609 -0.015422 -0.0249067 0.000185855 0.00976103 0.0140541 0.0058645 0.0327358 -0.00617666
internal_weight=0 148.764 80.8272 78.8428 67.9366 42.2575 25.6792 68.4728 53.9425 37.5023 16.4402 14.5303
internal_count=11036 9273 3887 3776 5386 3901 1485 1763 1508 1281 227 255
is_linear=0
shrinkage=0.0477388


Tree=41
num_leaves=14
num_cat=0
split_feature=1 3 5 2 10 7 1 7 8 7 0 0 6
split_gain=4.42878 6.35383 7.29584 5.43815 8.30132 10.5589 6.52348 4.33548 6.30087 2.95021 2.84751 1.4558 1.63286
threshold=59.45000000000001 3.5000000000000004 1.5000000000000002 2019.5000000000002 1.0000000180025095e-35 337.25000000000006 62.45000000000001 9.7500000000000018 1.0000000180025095e-35 1.7500000000000002 20.500000000000004 38.500000000000007 1.0000000180025095e-35
decision_type=2 10 2 8 2 10 2 10 2 10 2 2 2
left_child=1 11 10 4 5 -2 -6 8 -5 -4 -3 12 -1
right_child=3 2 9 7 6 -7 -8 -9 -10 -11 -12 -13 -14
leaf_value=-0.037753357430128545 -0.019755010047575666 0.080673116787011251 0.0071181480776809228 0.0025013334132125624 0.052953846105065774 0.11183171452145904 0.0045719340377560211 0.066717401090523237 0.068982067120171436 -0.041826650124306496 0.018541840029473712 0.0098248475824706197 -0.014427293725950016
leaf_weight=17.942942829336978 48.559723536949605 3.3000343628227737 6.6411059116944653 17.80018814327196 6.8678714619018129 1.4306931346654881 84.424552068114281 4.3743827687576404 3.9744638716801992 4.8608798077329993 3.4266630290076137 2.4002303816378108 11.051877811085431
leaf_count=1868 3085 114 176 443 287 18 3805 89 94 98 65 98 796
internal_value=0 -0.0128881 0.00952997 0.00335003 -0.000351333 -0.0159891 0.00821167 0.0233484 0.0146359 -0.0135665 0.0490227 -0.0259045 -0.0288622
internal_weight=0 49.6237 18.2287 167.432 141.283 49.9904 91.2924 26.149 21.7747 11.502 6.7267 31.3951 28.9948
internal_count=11036 3215 453 7821 7195 3103 4092 626 537 274 179 2762 2664
is_linear=0
shrinkage=0.0477388


Tree=42
num_leaves=9
num_cat=0
split_feature=2 6 3 1 4 0 6 0
split_gain=4.37358 3.498 3.65001 4.45971 2.14793 0.000963707 3.35405e-05 9.60145e-06
threshold=2002.5000000000002 6.5000000000000009 1.0000000180025095e-35 72.750000000000014 267.50000000000006 15.500000000000002 1.5000000000000002 6.5000000000000009
decision_type=8 2 10 2 10 2 2 2
left_child=5 2 3 -2 -4 6 7 -1
right_child=1 -3 4 -5 -6 -7 -8 -9
leaf_value=-0.048074443406980277 -0.014623635349123934 0.04082194653973386 0.013051820974351548 0.0026127125701642063 -0.0078732706100382004 -0.049919137677509919 -0.048475274679960045 -0.048303295687731604
leaf_weight=1.2321765725500875 59.765923086553812 4.8136648479849091 54.008503346703947 80.007398094516248 14.097885369323192 1.1122288387268779 1.2041546353138981 0.63214629236608733
leaf_count=189 4922 52 1497 3893 252 50 110 71
internal_value=0 0.00058985 -0.000341764 -0.00475741 0.00872037 -0.0487153 -0.0482789 -0.048152
internal_weight=0 212.693 207.88 139.773 68.1064 4.18071 3.06848 1.86432
internal_count=11036 10616 10564 8815 1749 420 370 260
is_linear=0
shrinkage=0.0477388


Tree=43
num_leaves=8
num_cat=0
split_feature=2 5 1 6 0 6 0
split_gain=4.1643 3.37204 3.90215 3.4602 0.000839435 2.90722e-05 8.32174e-06
threshold=2002.5000000000002 5.5000000000000009 94.65000000000002 6.5000000000000009 15.500000000000002 1.5000000000000002 6.5000000000000009
decision_type=8 2 2 2 2 2 2
left_child=4 2 3 -2 5 6 -1
right_child=1 -3 -4 -5 -6 -7 -8
leaf_value=-0.048058706691667952 -0.0022754526445687658 0.031455558943385004 0.057850017439530728 0.040884550646460252 -0.049820227699298482 -0.048440801564440118 -0.048276859144195473
leaf_weight=1.1751113468781111 198.05125265289098 7.7566410414874545 2.5694449404254547 4.3257879484444848 1.062434352468699 1.1488176276907323 0.60299947671592224
leaf_count=189 10382 117 69 48 50 110 71
internal_value=0 0.000558683 -0.000610676 -0.00135291 -0.0486708 -0.0482536 -0.0481327
internal_weight=0 212.703 204.946 202.377 3.98936 2.92693 1.77811
internal_count=11036 10616 10499 10430 420 370 260
is_linear=0
shrinkage=0.0477388


Tree=44
num_leaves=12
num_cat=0
split_feature=2 10 2 0 4 6 2 0 0 6 0
split_gain=3.96541 3.26088 9.80755 5.39048 5.89419 5.40441 5.2023 3.29968 0.000731052 2.51988e-05 7.21261e-06
threshold=2002.5000000000002 1.0000000180025095e-35 2013.5000000000002 5.5000000000000009 2.5000000000000004 1.0000000180025095e-35 2014.5000000000002 54.500000000000007 15.500000000000002 1.5000000000000002 6.5000000000000009
decision_type=8 2 10 2 10 2 10 2 2 2 2
left_child=8 2 7 5 -5 -3 -4 -2 9 10 -1
right_child=1 3 6 4 -6 -7 -8 -9 -10 -11 -12
leaf_value=-0.048043711383579386 -0.03125359929118679 -0.01981336044226599 0.038161773422609097 0.037769076437801974 0.0061493331563615703 0.015869379285043721 -0.00079388831703173992 0.039429839965002461 -0.04972572022951853 -0.048407947451633244 -0.048251666619899276
leaf_weight=1.1206721840426324 30.11513814190403 28.215500375255942 9.107821765355764 17.63664569798857 56.401238400489092 14.719806320965288 54.93852715799585 1.5843348633497942 1.0147853656671939 1.0959883821196852 0.5751822437159716
leaf_count=189 2640 2519 343 575 1318 926 2257 38 50 110 71
internal_value=0 0.000529898 -0.00600319 0.00587742 0.0136815 -0.00758 0.00474587 -0.0277209 -0.0486284 -0.0482295 -0.0481142
internal_weight=0 212.719 95.7458 116.973 74.0379 42.9353 64.0463 31.6995 3.80663 2.79184 1.69585
internal_count=11036 10616 5278 5338 1893 3445 2600 2678 420 370 260
is_linear=0
shrinkage=0.0477388


Tree=45
num_leaves=15
num_cat=0
split_feature=1 3 5 2 9 1 5 8 1 0 2 4 9 0
split_gain=3.79352 5.57682 6.35211 4.78188 8.06198 4.92697 3.81474 6.27171 2.81928 2.72236 1.43303 2.45145 1.45871 0.00584709
threshold=59.45000000000001 3.5000000000000004 1.5000000000000002 2019.5000000000002 1.0000000180025095e-35 62.45000000000001 4.5000000000000009 1.0000000180025095e-35 51.350000000000001 19.500000000000004 2008.5000000000002 29.500000000000004 1.0000000180025095e-35 18.500000000000004
decision_type=2 10 2 8 2 2 2 2 2 2 8 10 2 2
left_child=1 10 9 4 5 -2 7 -5 -4 -3 11 -1 -12 -6
right_child=3 2 8 6 13 -7 -8 -9 -10 -11 12 -13 -14 -15
leaf_value=-0.0184713079990616 0.033132542748456999 0.074297578755592675 0.0068483331080974996 -0.00054464050877262526 -0.048939784219230432 -0.00050084467817363332 0.056473572749804427 0.065216787373660989 -0.041061452534599953 0.015043440053422003 -0.039028627961536153 0.066161989107930474 0.0075984621144123436 -0.052313306795244249
leaf_weight=12.60139873996377 10.796641553752123 3.4652080936357406 6.6061597466468793 16.972550431732095 5.733417995274066 123.11680345283821 5.6370622869580975 4.1043678838759652 4.8573731994256377 3.6058339001610875 14.835377894807607 0.83144380850717503 1.7048144396394498 1.4713742313906548
leaf_count=1333 536 111 151 455 393 6230 74 97 123 68 1206 55 168 36
internal_value=0 -0.012087 0.00849715 0.00307014 -0.000435854 0.00221081 0.0215907 0.0122613 -0.0134522 0.0440813 -0.0248158 -0.0132328 -0.0342227 -0.0496287
internal_weight=0 48.5076 18.5346 167.832 141.118 133.913 26.714 21.0769 11.4635 7.07104 29.973 13.4328 16.5402 7.20479
internal_count=11036 3215 453 7821 7195 6766 626 552 274 179 2762 1388 1374 429
is_linear=0
shrinkage=0.0477388


Tree=46
num_leaves=9
num_cat=0
split_feature=2 7 1 0 3 0 6 0
split_gain=3.74177 2.98065 2.92538 2.70233 1.04723 0.000616285 2.10548e-05 6.10131e-06
threshold=2002.5000000000002 100.00000000000001 95.750000000000014 93.500000000000014 9.2500000000000018 15.500000000000002 1.5000000000000002 6.5000000000000009
decision_type=8 10 2 2 10 2 2 2
left_child=5 2 3 -2 -3 6 7 -1
right_child=1 4 -4 -5 -6 -7 -8 -9
leaf_value=-0.048028276165870444 -0.0021977703097404498 0.031653447094154678 0.06237623620067425 0.057193018210154621 0.0072647299669592394 -0.049614941124215481 -0.048371027639222623 -0.048224950063340072
leaf_weight=1.0616019256412981 193.10825607506558 8.5666526984423417 1.6394626237452019 1.7619272656738747 7.5474573485553256 0.96119434665888537 1.0348720210604367 0.54352662479504932
leaf_count=189 10358 101 43 35 79 50 110 71
internal_value=0 0.000492044 -0.00112653 -0.00166079 0.0202304 -0.04858 -0.0482031 -0.0480949
internal_weight=0 212.624 196.51 194.87 16.1141 3.60119 2.64 1.60513
internal_count=11036 10616 10436 10393 180 420 370 260
is_linear=0
shrinkage=0.0477388


Tree=47
num_leaves=12
num_cat=0
split_feature=2 10 2 5 0 4 6 4 0 6 0
split_gain=3.56354 2.91722 8.97242 4.94946 4.66148 5.26727 4.96546 3.0676 0.000536406 1.82498e-05 5.28823e-06
threshold=2002.5000000000002 1.0000000180025095e-35 2013.5000000000002 1.5000000000000002 5.5000000000000009 2.5000000000000004 1.0000000180025095e-35 180.50000000000003 15.500000000000002 1.5000000000000002 6.5000000000000009
decision_type=8 2 10 2 2 10 2 10 2 2 2
left_child=8 2 7 -4 6 -6 -3 -2 9 10 -1
right_child=1 4 3 -5 5 -7 -8 -9 -10 -11 -12
leaf_value=-0.048014713343859358 -0.033650093380527983 -0.019139137939607174 -0.016913178216485591 0.012598975057740065 0.035023784004395389 0.0055010741845802052 0.015063875136395706 0.0073021836518657578 -0.049529468812244654 -0.048341454393318987 -0.048202199892295065
leaf_weight=1.0123919947072861 25.690122449770573 27.58137141354382 17.959242607466877 46.439919721335173 18.168655378744006 56.921393268741667 14.898426488041876 4.9759727697819462 0.91792945051565755 0.98721822118386615 0.51842760993167747
leaf_count=189 2529 2519 1320 1280 575 1318 926 149 50 110 71
internal_value=0 0.000466603 -0.00575175 0.00436881 0.00549468 0.0126443 -0.00714353 -0.0270051 -0.0485416 -0.0481814 -0.0480782
internal_weight=0 212.635 95.0653 64.3992 117.57 75.09 42.4798 30.6661 3.43597 2.51804 1.53082
internal_count=11036 10616 5278 2600 5338 1893 3445 2678 420 370 260
is_linear=0
shrinkage=0.0477388


Tree=48
num_leaves=12
num_cat=0
split_feature=2 1 3 5 1 5 3 6 0 6 0
split_gain=3.39309 2.85136 5.81755 6.07687 3.94013 4.82125 4.36363 2.12243 0.000466802 1.58181e-05 4.58335e-06
threshold=2002.5000000000002 59.45000000000001 3.5000000000000004 1.5000000000000002 62.45000000000001 5.5000000000000009 13.500000000000002 1.5000000000000002 15.500000000000002 1.5000000000000002 6.5000000000000009
decision_type=8 2 8 2 2 2 10 2 2 2 2
left_child=8 2 7 -4 6 -6 -3 -2 9 10 -1
right_child=1 4 3 -5 5 -7 -8 -9 -10 -11 -12
leaf_value=-0.048001790656753023 -0.035058723447696935 0.015448815255729751 0.030197260087534927 -0.017167316572615901 -0.00064660197120127664 0.041866630703589522 0.086158640973139036 0.0058254518688798055 -0.049447825426663664 -0.048313268548667118 -0.048180517905570784
leaf_weight=0.96545070386491694 17.791058798320595 11.562932042870669 11.912988850846888 12.812878286931662 146.30352297564968 6.3428767975419751 2.4021937726065508 3.4558981237933031 0.8765482953749596 0.9417327195405959 0.49447702383622527
leaf_count=189 1744 592 634 408 6930 80 33 195 50 110 71
internal_value=0 0.000436228 -0.0100891 0.00565306 0.00334045 0.00111994 0.0276119 -0.0284088 -0.0485049 -0.0481607 -0.0480623
internal_weight=0 212.584 45.9728 24.7259 166.612 152.646 13.9651 21.247 3.27821 2.40166 1.45993
internal_count=11036 10616 2981 1042 7635 7010 625 1939 420 370 260
is_linear=0
shrinkage=0.0477388


Tree=49
num_leaves=11
num_cat=0
split_feature=2 2 2 9 3 7 4 0 6 0
split_gain=3.23118 2.64165 6.60746 5.56851 4.04628 7.95568 3.72381 0.000406164 1.37104e-05 3.97245e-06
threshold=2002.5000000000002 2019.5000000000002 2016.5000000000002 1.0000000180025095e-35 9.2500000000000018 12.250000000000002 120.50000000000001 15.500000000000002 1.5000000000000002 6.5000000000000009
decision_type=8 8 10 2 8 8 10 2 2 2
left_child=7 2 3 -2 5 -3 -4 8 9 -1
right_child=1 4 6 -5 -6 -7 -8 -9 -10 -11
leaf_value=-0.047989475759443435 0.0040053006457822522 0.0094736352307762707 -0.03748141104742702 -0.037244055325444135 -0.030036328366095339 0.083482181683102813 0.00033878715547314364 -0.049369842381785788 -0.048286406298048451 -0.048159854663021417
leaf_weight=0.92067458643577971 146.15192476892844 24.438666164875034 16.804435030557219 7.8595201033167532 4.3345334618352345 3.8288349173963061 9.1711621750146133 0.83697430323809374 0.89831921411678184 0.47162328008562326
leaf_count=189 7738 709 1243 582 79 74 191 50 110 71
internal_value=0 0.000408695 -0.00185616 0.00190026 0.0129124 0.0194981 -0.0241283 -0.0484699 -0.048141 -0.0480472
internal_weight=0 212.589 179.987 154.011 32.602 28.2675 25.9756 3.12759 2.29062 1.3923
internal_count=11036 10616 9754 8320 862 783 1434 420 370 260
is_linear=0
shrinkage=0.0477388


Tree=50
num_leaves=11
num_cat=0
split_feature=2 1 1 7 3 2 6 0 6 0
split_gain=3.07713 2.58442 7.91727 6.11365 5.4038 5.96154 2.04463 0.000353347 1.18835e-05 3.44295e-06
threshold=2002.5000000000002 73.15000000000002 73.450000000000017 185.75000000000003 1.5000000000000002 2020.5000000000002 3.5000000000000004 15.500000000000002 1.5000000000000002 6.5000000000000009
decision_type=8 2 2 10 8 10 2 2 2 2
left_child=7 4 -3 -4 5 -2 -6 8 9 -1
right_child=1 2 3 -5 6 -7 -8 -9 -10 -11
leaf_value=-0.047977738851500189 -0.021052536513373469 0.094118771660879286 0.0020353121348699876 0.079748941112698257 0.0020756100031642621 0.042673136605869535 0.032955513095566921 -0.049295360383226079 -0.048260803265505657 -0.048140160507579147
leaf_weight=0.87796484469436087 45.832570642232895 2.2682863948866716 95.845994133502245 2.3639065101742736 57.346655610017478 3.6090332493185988 5.3417642167769364 0.79913352150470007 0.85688548628240813 0.44981702719815075
leaf_count=189 3794 84 4070 19 2411 155 83 50 110 71
internal_value=0 0.000382256 0.00594242 0.00390587 -0.00460013 -0.0164008 0.00470693 -0.0484364 -0.0481222 -0.0480328
internal_weight=0 212.608 100.478 98.2099 112.13 49.4416 62.6884 2.9838 2.18467 1.32778
internal_count=11036 10616 4173 4089 6443 3949 2494 420 370 260
is_linear=0
shrinkage=0.0477388


Tree=51
num_leaves=11
num_cat=0
split_feature=2 10 2 2 6 5 4 0 6 0
split_gain=2.93066 2.56644 8.19326 4.67903 4.05044 3.13444 2.85356 0.000307351 1.02998e-05 2.98398e-06
threshold=2002.5000000000002 1.0000000180025095e-35 2013.5000000000002 2014.5000000000002 3.5000000000000004 5.5000000000000009 180.50000000000003 15.500000000000002 1.5000000000000002 6.5000000000000009
decision_type=8 2 10 10 2 2 10 2 2 2
left_child=7 2 6 -4 5 -3 -2 8 9 -1
right_child=1 4 3 -5 -6 -7 -8 -9 -10 -11
leaf_value=-0.047966555641014118 -0.032987468437562617 0.0009948353275299371 0.035183987572808946 -0.0012768260923669867 0.033224897734028994 0.0542043890513767 0.006435462861954966 -0.049224225073812959 -0.048236401154453358 -0.048121391471395623
leaf_weight=0.83722703135572352 24.622519873548303 105.07857457129285 9.3837350746616703 55.247651185374707 10.582105781883 2.5851098652929059 5.0410713441669932 0.76295464392751444 0.81734319846145798 0.42901105154305696
leaf_count=189 2529 5184 343 2257 122 32 149 50 110 71
internal_value=0 0.000357918 -0.00551649 0.00401687 0.00504246 0.00227245 -0.0262879 -0.0484045 -0.0481043 -0.048019
internal_weight=0 212.541 94.295 64.6314 118.246 107.664 29.6636 2.84654 2.08358 1.26624
internal_count=11036 10616 5278 2600 5338 5216 2678 420 370 260
is_linear=0
shrinkage=0.0477388


Tree=52
num_leaves=14
num_cat=0
split_feature=1 3 5 1 5 3 0 9 7 1 2 4 9
split_gain=2.798 4.60064 5.18683 3.56042 3.77825 3.72395 3.44157 3.35301 2.7722 2.49446 1.45698 2.73321 1.58236
threshold=59.45000000000001 3.5000000000000004 1.5000000000000002 62.45000000000001 5.5000000000000009 1.0000000180025095e-35 17.500000000000004 1.0000000180025095e-35 1.7500000000000002 61.95000000000001 2008.5000000000002 34.500000000000007 1.0000000180025095e-35
decision_type=2 10 2 2 2 10 2 2 10 2 8 10 2
left_child=1 10 6 5 7 9 -3 -5 -4 -2 11 -1 -12
right_child=3 2 8 4 -6 -7 -8 -9 -10 -11 12 -13 -14
leaf_value=-0.01659941071445812 -0.014383323683138487 0.072934970181338585 0.0068868620589974863 0.00054630666724805952 0.035484791962084823 0.048280078641928452 0.0081610181776078563 -0.032068074180153526 -0.041231458431756705 0.059836725355449191 -0.038140810658740879 0.07673032596520947 0.012493196197754901
leaf_weight=11.847836424829438 5.4916580792050791 3.5007892753928926 6.6503331642597896 139.93978320085444 6.7159031671471885 7.5894312812015414 4.011461054906249 7.5726357093080869 4.6271844366565347 1.2708044289611278 13.6312779225409 0.76105182152241546 1.5684199328534312
leaf_count=1340 407 106 176 6677 81 155 73 419 98 82 1206 48 168
internal_value=0 -0.0106335 0.00761489 0.00258271 0.000466339 0.0253256 0.0383464 -0.00112797 -0.0128562 -0.000435865 -0.0229636 -0.0109662 -0.032916
internal_weight=0 46.5984 18.7898 168.58 154.228 14.3519 7.51225 147.512 11.2775 6.76246 27.8086 12.6089 15.1997
internal_count=11036 3215 453 7821 7177 644 179 7096 274 489 2762 1388 1374
is_linear=0
shrinkage=0.0477388


Tree=53
num_leaves=9
num_cat=0
split_feature=2 1 7 0 2 0 6 0
split_gain=2.76687 2.39743 2.37959 3.46049 3.03772 0.000258638 8.51796e-06 2.53677e-06
threshold=2002.5000000000002 95.750000000000014 19.250000000000004 93.500000000000014 2014.5000000000002 15.500000000000002 1.5000000000000002 6.5000000000000009
decision_type=8 2 10 2 10 2 2 2
left_child=5 2 3 -2 -4 6 7 -1
right_child=1 -3 4 -5 -6 -7 -8 -9
leaf_value=-0.04795530722676624 -0.003150329488860406 0.056452884594459282 0.020795383438411183 0.06723417084769652 -0.007480404306184219 -0.049141139091882759 -0.048208292440537176 -0.04810202568359602
leaf_weight=0.79358791024424069 171.2583968420513 1.7208399064838875 24.32653483748436 1.6068775299936522 13.444303078576921 0.72116347448900331 0.77153049129992712 0.40595187922008336
leaf_count=189 9905 43 390 30 248 50 110 71
internal_value=0 0.00033422 -0.000124255 -0.00249607 0.0107308 -0.0483676 -0.0480845 -0.048005
internal_weight=0 212.357 210.636 172.865 37.7708 2.69223 1.97107 1.19954
internal_count=11036 10616 10573 9935 638 420 370 260
is_linear=0
shrinkage=0.0477388


Tree=54
num_leaves=11
num_cat=0
split_feature=2 2 2 9 0 2 4 0 6 0
split_gain=2.63584 2.33145 6.00037 4.96061 3.92156 5.53582 3.54945 0.000224877 7.3827e-06 2.19862e-06
threshold=2002.5000000000002 2019.5000000000002 2016.5000000000002 1.0000000180025095e-35 1.5000000000000002 2020.5000000000002 120.50000000000001 15.500000000000002 1.5000000000000002 6.5000000000000009
decision_type=8 8 10 2 2 10 10 2 2 2
left_child=7 2 3 -2 -3 -6 -4 8 9 -1
right_child=1 4 6 -5 5 -7 -8 -9 -10 -11
leaf_value=-0.047945177454710615 0.0036259601733085811 0.053140897114446424 -0.036931625275524099 -0.036472859486550817 0.026822840866807328 -0.015277278103512084 0.00029045741862955814 -0.049076900280809153 -0.04818635167103006 -0.048085046116468591
leaf_weight=0.75674905907362633 146.67561899311841 4.5470048086717716 16.068893848918382 7.3849738244898608 13.987496958579868 14.493533974513412 9.1705741770565492 0.68842313438653935 0.73589074425399292 0.38716090703383088
leaf_count=189 7738 118 1243 582 377 367 191 50 110 71
internal_value=0 0.000316005 -0.001831 0.0017038 0.0119715 0.00539877 -0.0234073 -0.0483387 -0.0480684 -0.0479925
internal_weight=0 212.328 179.3 154.061 33.028 28.481 25.2395 2.56822 1.8798 1.14391
internal_count=11036 10616 9754 8320 862 744 1434 420 370 260
is_linear=0
shrinkage=0.0477388


end of trees

feature_importances:
age=107
hospital_stay=95
year_adm_t0=85
admission_pre_t0_count=67
laboratorio=64
espironolactona=52
vasodilatador=52
comorbidities_count=50
education_level_X999=34
education_level_X4=6
education_level_X2=5

parameters:
[boosting: gbdt]
[objective: binary]
[metric: binary_logloss]
[tree_learner: serial]
[device_type: cpu]
[data: ]
[valid: ]
[num_iterations: 55]
[learning_rate: 0.0477388]
[num_leaves: 16]
[num_threads: 0]
[deterministic: 1]
[force_col_wise: 0]
[force_row_wise: 0]
[histogram_pool_size: -1]
[max_depth: 4]
[min_data_in_leaf: 87]
[min_sum_hessian_in_leaf: 0.001]
[bagging_fraction: 1]
[pos_bagging_fraction: 1]
[neg_bagging_fraction: 1]
[bagging_freq: 0]
[bagging_seed: 12636]
[feature_fraction: 1]
[feature_fraction_bynode: 1]
[feature_fraction_seed: 28868]
[extra_trees: 0]
[extra_seed: 22668]
[early_stopping_round: 0]
[first_metric_only: 0]
[max_delta_step: 0]
[lambda_l1: 0]
[lambda_l2: 0]
[linear_lambda: 0]
[min_gain_to_split: 0]
[drop_rate: 0.1]
[max_drop: 50]
[skip_drop: 0.5]
[xgboost_dart_mode: 0]
[uniform_drop: 0]
[drop_seed: 19161]
[top_rate: 0.2]
[other_rate: 0.1]
[min_data_per_group: 100]
[max_cat_threshold: 32]
[cat_l2: 10]
[cat_smooth: 10]
[max_cat_to_onehot: 4]
[top_k: 20]
[monotone_constraints: ]
[monotone_constraints_method: basic]
[monotone_penalty: 0]
[feature_contri: ]
[forcedsplits_filename: ]
[refit_decay_rate: 0.9]
[cegb_tradeoff: 1]
[cegb_penalty_split: 0]
[cegb_penalty_feature_lazy: ]
[cegb_penalty_feature_coupled: ]
[path_smooth: 0]
[interaction_constraints: ]
[verbosity: -1]
[saved_feature_importance_type: 0]
[linear_tree: 0]
[max_bin: 255]
[max_bin_by_feature: ]
[min_data_in_bin: 3]
[bin_construct_sample_cnt: 200000]
[data_random_seed: 18500]
[is_enable_sparse: 1]
[enable_bundle: 1]
[use_missing: 1]
[zero_as_missing: 0]
[feature_pre_filter: 0]
[pre_partition: 0]
[two_round: 0]
[header: 0]
[label_column: ]
[weight_column: ]
[group_column: ]
[ignore_column: ]
[categorical_feature: ]
[forcedbins_filename: ]
[precise_float_parser: 0]
[objective_seed: 5580]
[num_class: 1]
[is_unbalance: 0]
[scale_pos_weight: 1]
[sigmoid: 1]
[boost_from_average: 1]
[reg_sqrt: 0]
[alpha: 0.9]
[fair_c: 1]
[poisson_max_delta_step: 0.7]
[tweedie_variance_power: 1.5]
[lambdarank_truncation_level: 30]
[lambdarank_norm: 1]
[label_gain: ]
[eval_at: ]
[multi_error_top_k: 1]
[auc_mu_weights: ]
[num_machines: 1]
[local_listen_port: 12400]
[time_out: 120]
[machine_list_filename: ]
[machines: ]
[gpu_platform_id: -1]
[gpu_device_id: -1]
[gpu_use_dp: 0]
[num_gpu: 1]

end of parameters
