tree
version=v3
num_class=1
num_tree_per_iteration=1
label_index=0
max_feature_idx=5
objective=binary sigmoid:1
feature_names=hospital_stay admission_pre_t0_count classe_meds_qtde antiarritmico procedure_type_1_X2 procedure_type_1_.merged
feature_infos=[0:360] [0:38] [1:17] [0:844] [0:1] none
tree_sizes=852 974 868 977 980 976 877 974 980 971 972 873 989 979 980 877 867 984 980 883 773 984 769 985 774 988 984 990 879 881 982 776 991 881 673 678 883 893 677 883 993 884 676 894 774 679 895 672 893 879 676 677 992 674 989 676 992 675 885 889 572 887 983 679 779 999 984 1001 571 569 887 674 565 568 572 574 1000 986 572 572 572 572 778 567 573 571 1003 876 1001 885 571 880 570 879 880 567 571 572 1002 570 885 569 576 886 889 880 887 570

Tree=0
num_leaves=7
num_cat=0
split_feature=0 1 0 1 4 0
split_gain=400.716 99.5474 79.1744 43.2727 30.0614 7.86899
threshold=9.5000000000000018 3.5000000000000004 58.500000000000007 3.5000000000000004 1.0000000180025095e-35 2.5000000000000004
decision_type=2 2 2 2 2 2
left_child=3 2 -2 4 -1 -5
right_child=1 -3 -4 5 -6 -7
leaf_value=-2.2668893793189593 -2.1917359560652945 -1.9746736272107963 -2.0122669826881849 -2.2062889226474249 -2.2954379377846674 -2.1054908924926399
leaf_weight=458.738789498806 192.83572706580162 11.115196064114569 11.804510548710821 7.3239663988351804 262.37032569944859 6.7208162248134613
leaf_count=5324 2238 129 137 85 3045 78
internal_value=-2.25134 -2.17073 -2.18138 -2.275 -2.27728 -2.15805
internal_weight=0 215.755 204.64 735.154 721.109 14.0448
internal_count=11036 2504 2375 8532 8369 163
is_linear=0
shrinkage=1


Tree=1
num_leaves=8
num_cat=0
split_feature=0 1 3 1 3 4 2
split_gain=331.317 76.1894 39.9188 36.2134 35.5629 28.1212 6.82432
threshold=9.5000000000000018 1.5000000000000002 1.0000000180025095e-35 3.5000000000000004 20.500000000000004 1.0000000180025095e-35 10.500000000000002
decision_type=2 2 8 2 10 2 8
left_child=3 2 -2 5 -3 -1 -5
right_child=1 4 -4 6 -6 -7 -8
leaf_value=-0.014692247825942641 0.024171855568134712 0.12384754623631231 0.085946838057302397 0.12451380542411955 0.28535698933517001 -0.042685924695100949 0.034172045584687061
leaf_weight=452.99177098274231 103.25298512727022 32.063045345246792 87.407689310610294 7.7502782046794865 7.6392406448721877 253.12772534787655 7.3930828645825395
leaf_count=5324 1135 334 957 83 78 3045 80
internal_value=0 0.0701461 0.0524924 -0.02252 0.154924 -0.0247273 0.0804084
internal_weight=0 230.363 190.661 721.263 39.7023 706.119 15.1434
internal_count=11036 2504 2092 8532 412 8369 163
is_linear=0
shrinkage=0.0672697


Tree=2
num_leaves=7
num_cat=0
split_feature=0 1 2 1 4 3
split_gain=279.404 86.2239 39.669 21.2349 19.8898 18.4633
threshold=7.5000000000000009 1.5000000000000002 10.500000000000002 3.5000000000000004 1.0000000180025095e-35 20.500000000000004
decision_type=2 2 10 2 2 10
left_child=3 2 -2 4 -1 -3
right_child=1 5 -4 -5 -6 -7
leaf_value=-0.017432403424661329 0.030909105124906095 0.11349567772397065 0.15334428859163282 0.05853159457104877 -0.041961449066454014 0.21702174054915629
leaf_weight=399.77203778922558 234.97115340828896 42.184336848556995 12.618105277419088 13.536362580955027 239.0376915037632 9.5627350956201536
leaf_count=4755 2549 411 126 138 2978 79
internal_value=0 0.0536544 0.0371489 -0.0248443 -0.026611 0.132627
internal_weight=0 299.336 247.589 652.346 638.81 51.7471
internal_count=11036 3165 2675 7871 7733 490
is_linear=0
shrinkage=0.0672697


Tree=3
num_leaves=8
num_cat=0
split_feature=0 1 2 0 1 2 2
split_gain=237.279 62.9531 34.9164 20.2852 22.8256 14.5051 3.89526
threshold=7.5000000000000009 1.5000000000000002 6.5000000000000009 1.5000000000000002 2.5000000000000004 6.5000000000000009 4.5000000000000009
decision_type=2 2 8 2 2 8 10
left_child=3 2 -2 6 -5 -3 -1
right_child=1 5 -4 4 -6 -7 -8
leaf_value=-0.047555803662113372 0.0036690408535516202 0.058195715224922076 0.054303615892405371 -0.019431736367026241 0.054539105095679455 0.13324483074305468 -0.020669138150476836
leaf_weight=147.02945680916309 104.27625554054976 16.325999557971954 150.67886404693127 443.19107285141945 19.717130839824677 40.721554167568684 29.231632046401501
leaf_count=1866 1128 143 1547 5416 216 347 373
internal_value=0 0.0478875 0.0335942 -0.0236759 -0.016281 0.111767 -0.0430968
internal_weight=0 312.003 254.955 639.169 462.908 57.0476 176.261
internal_count=11036 3165 2675 7871 5632 490 2239
is_linear=0
shrinkage=0.0672697


Tree=4
num_leaves=8
num_cat=0
split_feature=0 3 1 0 1 4 2
split_gain=202.656 36.6279 28.1472 35.9915 22.0956 17.9793 16.2308
threshold=9.5000000000000018 1.0000000180025095e-35 1.5000000000000002 2.5000000000000004 3.5000000000000004 1.0000000180025095e-35 4.5000000000000009
decision_type=2 8 2 2 2 2 8
left_child=2 6 5 -4 -3 -1 -2
right_child=1 4 3 -5 -6 -7 -8
leaf_value=-0.016104408199820241 -0.015908979927308949 0.067363620012568459 -0.019971140533998472 0.07742378951570747 0.17107732675780224 -0.040602627700241367 0.038525196297621619
leaf_weight=413.98752054572105 32.694120280444622 118.89281263202429 41.093959651887417 29.492173679172993 10.083860233426092 201.5680438876152 102.49964775890112
leaf_count=5041 337 1101 506 317 68 2668 998
internal_value=0 0.0498271 -0.0195128 0.0207222 0.0754723 -0.0241265 0.0253613
internal_weight=0 264.17 686.142 70.5861 128.977 615.556 135.194
internal_count=11036 2504 8532 823 1169 7709 1335
is_linear=0
shrinkage=0.0672697


Tree=5
num_leaves=8
num_cat=0
split_feature=0 1 3 0 1 3 2
split_gain=175.464 40.5 24.9252 18.1276 17.9686 9.87658 3.87377
threshold=7.5000000000000009 1.5000000000000002 1.0000000180025095e-35 1.5000000000000002 3.5000000000000004 26.250000000000004 4.5000000000000009
decision_type=2 2 8 2 2 10 10
left_child=3 2 -2 6 -5 -3 -1
right_child=1 5 -4 4 -6 -7 -8
leaf_value=-0.045230935467330875 0.0087107157928015266 0.074387527174943471 0.049865579961315042 -0.016661551968705328 0.070727155445445916 0.14234785737364564 -0.017722703614994461
leaf_weight=137.37851956486702 145.51254852116108 52.929055511951447 122.78778567165136 439.90858186036348 10.911468617618082 11.841861382126806 27.864524714648724
leaf_count=1866 1521 417 1154 5534 98 73 373
internal_value=0 0.0390707 0.0275453 -0.0215326 -0.0145464 0.0868125 -0.0405923
internal_weight=0 333.071 268.3 616.063 450.82 64.7709 165.243
internal_count=11036 3165 2675 7871 5632 490 2239
is_linear=0
shrinkage=0.0672697


Tree=6
num_leaves=7
num_cat=0
split_feature=0 2 0 3 4 3
split_gain=150.761 35.1671 23.9228 17.4273 15.1902 8.20155
threshold=7.5000000000000009 6.5000000000000009 59.500000000000007 7.2500000000000009 1.0000000180025095e-35 0.75000000000000011
decision_type=2 8 2 10 2 10
left_child=3 5 -3 4 -1 -2
right_child=1 2 -4 -5 -6 -7
leaf_value=-0.013504622021848005 -0.0016362237025112137 0.045163339642295061 0.1272404596387266 0.087827320818683871 -0.035734948107641051 0.041135059656151995
leaf_weight=378.5260164141655 100.04980175942183 199.52635496109724 17.477280423045158 6.6502017676830283 219.90052085369825 25.447699673473835
leaf_count=4743 1042 1764 130 82 3046 229
internal_value=0 0.0353814 0.0517738 -0.02047 -0.0216735 0.0070367
internal_weight=0 342.501 217.004 605.077 598.427 125.498
internal_count=11036 3165 1894 7871 7789 1271
is_linear=0
shrinkage=0.0672697


Tree=7
num_leaves=8
num_cat=0
split_feature=0 1 2 0 1 3 2
split_gain=129.778 30.4289 20.2438 16.2312 16.3526 6.74634 3.81681
threshold=7.5000000000000009 1.5000000000000002 8.5000000000000018 1.5000000000000002 1.5000000000000002 26.250000000000004 4.5000000000000009
decision_type=2 2 10 2 2 10 10
left_child=3 2 -2 6 -5 -3 -1
right_child=1 5 -4 4 -6 -7 -8
leaf_value=-0.042925175685788165 0.013737049984227541 0.061684126841422278 0.060644893127845649 -0.01706632111301613 0.026939411710060424 0.11503652071731794 -0.01497132040496117
leaf_weight=128.72986572235823 230.16487927734852 57.099338367581367 50.827069006860256 397.13945385068655 42.280890181660652 13.205438688397406 26.685083150863647
leaf_count=1866 2248 417 427 5149 483 73 373
internal_value=0 0.032125 0.0222219 -0.0194406 -0.0128321 0.0717054 -0.0381254
internal_weight=0 351.297 280.992 594.835 439.42 70.3048 155.415
internal_count=11036 3165 2675 7871 5632 490 2239
is_linear=0
shrinkage=0.0672697


Tree=8
num_leaves=8
num_cat=0
split_feature=0 2 1 3 1 2 3
split_gain=112.014 26.0195 17.0917 15.3805 13.1506 7.42595 6.55384
threshold=7.5000000000000009 6.5000000000000009 1.0000000180025095e-35 2.7500000000000004 3.5000000000000004 7.5000000000000009 0.75000000000000011
decision_type=2 8 2 10 2 8 10
left_child=3 6 -3 4 -1 -5 -2
right_child=1 2 -4 5 -6 -7 -8
leaf_value=-0.022496148639479449 -0.002840477170520544 0.026971203646770737 0.063969337862936584 0.010488402568137909 0.043687126102994717 0.091454184727631588 0.034613688078168982
leaf_weight=544.35286168009043 101.43687908351421 132.3761172965169 98.578518308699131 20.004123434424404 13.933648750185965 6.8922605812549582 26.70783194899559
leaf_count=7400 1042 1158 736 258 130 83 229
internal_value=0 0.0292751 0.0427631 -0.0184506 -0.0208444 0.0312361 0.00496569
internal_weight=0 359.099 230.955 585.183 558.287 26.8964 128.145
internal_count=11036 3165 1894 7871 7530 341 1271
is_linear=0
shrinkage=0.0672697


Tree=9
num_leaves=8
num_cat=0
split_feature=0 0 1 0 1 4 3
split_gain=97.4717 20.6297 20.487 21.942 17.5561 14.2402 1.16585
threshold=9.5000000000000018 55.500000000000007 1.5000000000000002 2.5000000000000004 3.5000000000000004 1.0000000180025095e-35 11.250000000000002
decision_type=2 2 2 2 2 2 8
left_child=2 4 5 -4 -2 -1 -3
right_child=1 6 3 -5 -6 -7 -8
leaf_value=-0.012290385592044484 0.021135712522081598 0.075815910744907608 -0.015859714870494784 0.05885043368050899 0.08448828901448116 -0.035278932060301318 0.10558430824710278
leaf_weight=390.94542579352856 257.51386380195618 11.519703209400179 38.416530504822731 33.130507133901119 21.442461252212524 177.20684056729078 12.321028180420397
leaf_count=5041 2223 81 506 317 123 2668 77
internal_value=0 0.0311385 -0.0151885 0.0187355 0.0260054 -0.0194605 0.0912004
internal_weight=0 302.797 639.699 71.547 278.956 568.152 23.8407
internal_count=11036 2504 8532 823 2346 7709 158
is_linear=0
shrinkage=0.0672697


Tree=10
num_leaves=8
num_cat=0
split_feature=0 2 0 1 1 0 2
split_gain=84.496 20.0267 14.3736 12.616 11.8265 10.6306 3.76732
threshold=7.5000000000000009 7.5000000000000009 1.5000000000000002 3.5000000000000004 2.5000000000000004 62.500000000000007 4.5000000000000009
decision_type=2 10 2 2 2 2 10
left_child=2 3 6 -2 -4 -3 -1
right_child=1 5 4 -5 -6 -7 -8
leaf_value=-0.03999384617960991 0.010197507070320921 0.040499484032508824 -0.01304635264042887 0.068336845193846557 0.037179250742111855 0.10345781371414123 -0.011394516693915046
leaf_weight=118.90405103564262 240.84186492860317 99.568968579173088 401.47748529165983 18.163353711366653 22.398647993803024 13.821083858609198 25.273121677339077
leaf_count=1866 2225 751 5416 106 216 83 373
internal_value=0 0.0245965 -0.016633 0.0142747 -0.0103923 0.0481735 -0.0349806
internal_weight=0 372.395 568.053 259.005 423.876 113.39 144.177
internal_count=11036 3165 7871 2331 5632 834 2239
is_linear=0
shrinkage=0.0672697


Tree=11
num_leaves=7
num_cat=0
split_feature=0 1 1 0 0 4
split_gain=73.2368 17.0417 16.9471 16.8342 15.6308 12.5837
threshold=9.5000000000000018 5.5000000000000009 1.5000000000000002 2.5000000000000004 55.500000000000007 1.0000000180025095e-35
decision_type=2 2 2 2 2 2
left_child=2 4 5 -4 -2 -1
right_child=1 -3 3 -5 -6 -7
leaf_value=-0.010931030912544637 0.018735789629257017 0.11327307609008101 -0.014399495522822672 0.050421521971330062 0.073606274515551559 -0.033000268205673762
leaf_weight=383.28666567057371 278.79958841204643 9.847458675503729 37.534861866384745 35.069301798939705 25.654995881021023 168.23295346274972
leaf_count=5041 2296 52 506 317 156 2668
internal_value=0 0.0261766 -0.013641 0.0169104 0.0233595 -0.0176629
internal_weight=0 314.302 624.124 72.6042 304.455 551.52
internal_count=11036 2504 8532 823 2452 7709
is_linear=0
shrinkage=0.0672697


Tree=12
num_leaves=8
num_cat=0
split_feature=0 2 2 1 3 4 3
split_gain=64.0188 17.0492 14.1576 10.8027 10.5707 6.4084 4.98012
threshold=7.5000000000000009 6.5000000000000009 3.5000000000000004 1.0000000180025095e-35 7.2500000000000009 1.0000000180025095e-35 0.75000000000000011
decision_type=2 8 8 2 10 2 10
left_child=2 6 5 -3 -4 -1 -2
right_child=1 3 4 -5 -6 -7 -8
leaf_value=-0.02326010838635998 -0.0054558768470155238 0.018888500445490734 -0.0095513195914834134 0.047058924471342259 0.075795266561374447 -0.053010179976590181 0.026315132374914216
leaf_weight=113.20408151298761 104.45012275129557 141.59071169048548 386.84979010745883 109.03975114971399 6.6804203763604155 46.111305460333824 28.39594392478466
leaf_count=1538 1042 1158 5495 736 75 763 229
internal_value=0 0.0208177 -0.0149519 0.0311444 -0.00810251 -0.0318708 0.0013352
internal_weight=0 383.477 552.846 250.63 393.53 159.315 132.846
internal_count=11036 3165 7871 1894 5570 2301 1271
is_linear=0
shrinkage=0.0672697


Tree=13
num_leaves=8
num_cat=0
split_feature=0 3 2 0 1 2 3
split_gain=55.5696 14.9236 13.0691 8.9902 8.91216 7.36827 6.68324
threshold=7.5000000000000009 1.0000000180025095e-35 5.5000000000000009 29.500000000000004 4.5000000000000009 4.5000000000000009 2.7500000000000004
decision_type=2 8 10 2 2 8 10
left_child=2 5 4 -3 -1 -2 -4
right_child=1 3 6 -5 -6 -7 -8
leaf_value=-0.019653613334976824 -0.015464704626740921 0.023941425732323187 0.00049287207696763191 0.057284958246186825 0.060946338920310116 0.013978167430671325 0.047075066122339471
leaf_weight=456.21897351369262 52.393171258270741 142.23474475741386 65.667789213359356 49.266294784843922 6.293643705546855 144.66508591920137 17.692678816616535
leaf_count=6697 541 1084 904 314 56 1226 214
internal_value=0 0.0191462 -0.014138 0.0325195 -0.0185568 0.00615 0.0103796
internal_weight=0 388.559 545.873 191.501 462.513 197.058 83.3605
internal_count=11036 3165 7871 1398 6753 1767 1118
is_linear=0
shrinkage=0.0672697


Tree=14
num_leaves=8
num_cat=0
split_feature=0 1 2 2 0 4 3
split_gain=48.2641 13.1383 12.6787 10.236 9.0548 6.26632 3.80405
threshold=7.5000000000000009 1.5000000000000002 3.5000000000000004 10.500000000000002 1.5000000000000002 1.0000000180025095e-35 26.250000000000004
decision_type=2 2 8 10 2 2 10
left_child=2 3 5 -2 -4 -1 -3
right_child=1 6 4 -5 -6 -7 -8
leaf_value=-0.021202001360593355 0.0080121364228758207 0.034401487598245406 -0.025419468155468208 0.057458754049581375 -0.0011680762674167369 -0.051446133301010388 0.071137006244739648
leaf_weight=109.22675228863955 289.53626500070095 67.745021991431713 91.150817435234785 20.271443098783493 295.62967513501644 43.28577933833003 15.7149720788002
leaf_count=1538 2549 417 1524 126 4046 763 73
internal_value=0 0.0176293 -0.0133601 0.0112475 -0.00688329 -0.0297858 0.0413185
internal_weight=0 393.268 539.293 309.808 386.78 152.513 83.46
internal_count=11036 3165 7871 2675 5570 2301 490
is_linear=0
shrinkage=0.0672697


Tree=15
num_leaves=7
num_cat=0
split_feature=2 0 2 2 0 1
split_gain=42.6264 22.3553 19.2796 9.43757 7.53718 6.23011
threshold=6.5000000000000009 2.5000000000000004 5.5000000000000009 3.5000000000000004 62.500000000000007 3.5000000000000004
decision_type=10 2 8 10 2 2
left_child=1 3 -3 -1 5 -2
right_child=4 2 -4 -5 -6 -7
leaf_value=-0.030967332943008918 0.018740075144627305 -0.01306842744787696 0.015274494992695082 -0.0040842005861188597 0.068204960552313135 0.062905263251361573
leaf_weight=197.35509109869599 180.85142569243908 212.59576239436865 222.0260249376297 84.350088484585285 17.612620800733566 15.708974629640577
leaf_count=3172 1593 2584 2260 1252 93 82
internal_value=0 -0.00815692 0.00141052 -0.0229178 0.0260472 0.0222697
internal_weight=0 716.327 434.622 281.705 214.173 196.56
internal_count=11036 9268 4844 4424 1768 1675
is_linear=0
shrinkage=0.0672697


Tree=16
num_leaves=7
num_cat=0
split_feature=0 1 1 0 4 0
split_gain=37.7426 13.4136 11.5891 11.2434 9.9295 9.0764
threshold=9.5000000000000018 1.5000000000000002 5.5000000000000009 2.5000000000000004 1.0000000180025095e-35 55.500000000000007
decision_type=2 2 2 2 2 2
left_child=1 4 5 -3 -1 -2
right_child=2 3 -4 -5 -6 -7
leaf_value=-0.0082426434054344213 0.01198040025960825 -0.010423964081399572 0.086002035637626942 0.042642758313933542 -0.028628675251065196 0.051614480496109998
leaf_weight=368.72034101560712 295.05755496770144 35.352449003607035 10.903838425874708 36.952099606394768 152.97483659535646 28.688820652663708
leaf_count=5041 2296 506 52 317 2668 156
internal_value=0 -0.010457 0.01779 0.0166964 -0.0142204 0.0154926
internal_weight=0 594 334.65 72.3045 521.695 323.746
internal_count=11036 8532 2504 823 7709 2452
is_linear=0
shrinkage=0.0672697


Tree=17
num_leaves=8
num_cat=0
split_feature=2 0 2 2 1 0 3
split_gain=33.8264 18.0011 16.1698 8.72634 5.71228 5.54224 5.09212
threshold=6.5000000000000009 2.5000000000000004 5.5000000000000009 3.5000000000000004 1.0000000180025095e-35 13.500000000000002 24.500000000000004
decision_type=10 2 8 10 2 2 10
left_child=1 3 -3 -1 5 -2 -6
right_child=4 2 -4 -5 6 -7 -8
leaf_value=-0.028967100624990198 -0.0044876065093189081 -0.012356268196202218 0.013582123222482969 -0.0027942735149551162 0.025832795919441768 0.025223380656377862 0.060597507022604975
leaf_weight=189.1966363415122 49.286127515137196 210.23860555142164 225.31183802708983 82.906710587441921 77.2201297134161 67.079548239707947 25.316856563091278
leaf_count=3172 561 2584 2260 1252 594 477 136
internal_value=0 -0.00741845 0.00106176 -0.0209925 0.02284 0.0126394 0.0344164
internal_weight=0 707.654 435.55 272.103 218.903 116.366 102.537
internal_count=11036 9268 4844 4424 1768 1038 730
is_linear=0
shrinkage=0.0672697


Tree=18
num_leaves=8
num_cat=0
split_feature=3 0 2 2 2 3 0
split_gain=29.8401 18.3638 18.0227 7.32224 4.26004 4.05681 2.04437
threshold=0.75000000000000011 2.5000000000000004 5.5000000000000009 3.5000000000000004 7.5000000000000009 3.2500000000000004 29.500000000000004
decision_type=10 2 8 10 10 10 2
left_child=1 3 -3 -1 5 -2 -6
right_child=4 2 -4 -5 6 -7 -8
leaf_value=-0.02789676470403521 0.032581787290178882 -0.014757583906961027 0.011940031921135318 -0.0037955629362594 0.026800243111626942 0.0017084663161653535 0.04731280281953204
leaf_weight=182.09993305802345 31.058675028383732 185.83331340178847 297.76547243446112 83.063154883682728 59.138522110879421 50.699922822415829 34.998348757624626
leaf_count=3130 380 2375 2826 1244 437 451 193
internal_value=0 -0.00611996 0.00168089 -0.020347 0.0246701 0.0134367 0.0344264
internal_weight=0 748.762 483.599 265.163 175.895 81.7586 94.1369
internal_count=11036 9575 5201 4374 1461 831 630
is_linear=0
shrinkage=0.0672697


Tree=19
num_leaves=7
num_cat=0
split_feature=0 1 3 4 2 2
split_gain=25.9768 14.9751 10.0628 9.58601 6.56953 5.95573
threshold=6.5000000000000009 5.5000000000000009 1.0000000180025095e-35 1.0000000180025095e-35 3.5000000000000004 5.5000000000000009
decision_type=2 2 8 2 8 8
left_child=3 2 -2 5 -5 -1
right_child=1 -3 -4 4 -6 -7
leaf_value=-0.012689325100036704 -0.0006373867656320006 0.082049481934076227 0.019984666775065617 -0.04910723253082365 -0.016977200944658731 0.0059474731555637459
leaf_weight=168.20775591209531 221.2291124202311 13.214596614241598 207.51495688781142 36.839554730802774 131.91168670728803 144.0405503846705
leaf_count=2477 2066 63 1477 748 2262 1943
internal_value=0 0.0115177 0.00934382 -0.0110735 -0.0239914 -0.00409215
internal_weight=0 441.959 428.744 481 168.751 312.248
internal_count=11036 3606 3543 7430 3010 4420
is_linear=0
shrinkage=0.0672697


Tree=20
num_leaves=6
num_cat=0
split_feature=2 1 4 0 1
split_gain=23.3226 13.714 13.5167 4.83883 4.0128
threshold=6.5000000000000009 5.5000000000000009 1.0000000180025095e-35 71.500000000000014 3.5000000000000004
decision_type=10 2 2 2 2
left_child=1 2 -1 4 -2
right_child=3 -3 -4 -5 -6
leaf_value=-0.0018454360955685362 0.01316703520434449 0.070322490938602808 -0.023275484415618955 0.055510326556229679 0.047213696142156231
leaf_weight=504.18374427035451 193.58825855329633 10.400692015886305 181.00053103640676 14.964233219623564 17.044494837522507
leaf_count=6106 1612 63 3099 73 83
internal_value=0 -0.00634274 -0.00750647 0.0185481 0.0159221
internal_weight=0 695.585 685.184 225.597 210.633
internal_count=11036 9268 9205 1768 1695
is_linear=0
shrinkage=0.0672697


Tree=21
num_leaves=8
num_cat=0
split_feature=3 2 0 4 0 1 2
split_gain=21.4381 15.7075 11.7446 3.43539 2.84565 2.70204 2.2276
threshold=0.75000000000000011 2.5000000000000004 2.5000000000000004 1.0000000180025095e-35 29.500000000000004 3.5000000000000004 9.5000000000000018
decision_type=10 8 2 2 2 2 10
left_child=1 3 -3 -1 5 -2 -6
right_child=4 2 -4 -5 6 -7 -8
leaf_value=-0.023780489738105936 0.013015514190273752 -0.014882945186930478 0.0045724742790247278 -0.053707118260045254 0.016899664377681888 0.046894832492850258 0.048401600182313778
leaf_weight=68.562273636460304 126.84270092844963 206.01075688377023 440.93177047371864 23.242248050868511 16.936422854661942 11.6294027864933 25.379455745220184
leaf_count=1010 1175 3472 4600 493 100 56 130
internal_value=0 -0.00531795 -0.00162286 -0.031357 0.0205263 0.0158608 0.0357933
internal_weight=0 738.747 646.943 91.8045 180.788 138.472 42.3159
internal_count=11036 9575 8072 1503 1461 1231 230
is_linear=0
shrinkage=0.0672697


Tree=22
num_leaves=6
num_cat=0
split_feature=0 3 1 2 1
split_gain=18.7494 11.4709 10.8131 4.51231 4.16236
threshold=11.500000000000002 13.500000000000002 1.5000000000000002 11.500000000000002 3.5000000000000004
decision_type=2 10 2 10 2
left_child=1 2 -1 4 -2
right_child=3 -3 -4 -5 -6
leaf_value=-0.01148681304373734 0.009382019473565234 0.061557608719580367 0.015104956422250968 0.050636627690845523 0.038666007198207342
leaf_weight=533.77102188393474 255.38810800015926 10.907161153852938 79.504981398582458 14.305069595575331 24.031070828437805
leaf_count=8015 1878 90 871 71 111
internal_value=0 -0.0068233 -0.00803946 0.0137871 0.0119005
internal_weight=0 624.183 613.276 293.724 279.419
internal_count=11036 8976 8886 2060 1989
is_linear=0
shrinkage=0.0672697


Tree=23
num_leaves=8
num_cat=0
split_feature=3 2 0 4 2 3 3
split_gain=16.8881 13.8627 9.7915 3.34558 2.28087 4.00523 2.0417
threshold=0.75000000000000011 2.5000000000000004 2.5000000000000004 1.0000000180025095e-35 7.5000000000000009 3.2500000000000004 6.2500000000000009
decision_type=10 8 2 2 10 10 10
left_child=1 3 -3 -1 5 -2 -6
right_child=4 2 -4 -5 6 -7 -8
leaf_value=-0.022230212882267231 0.028582188634843141 -0.013629944634799052 0.0042496314047034568 -0.052497377371692855 0.041219097325861431 -0.0016454075524754402 0.019219965764994282
leaf_weight=66.67744367197156 32.03329124674201 201.94025391340256 441.91504261642694 21.971568666398525 25.749164264649153 52.095838457345963 73.825005635619164
leaf_count=1010 380 3472 4600 493 197 451 433
internal_value=0 -0.004792 -0.00135816 -0.0297319 0.0180189 0.00986415 0.0249088
internal_weight=0 732.504 643.855 88.649 183.703 84.1291 99.5742
internal_count=11036 9575 8072 1503 1461 831 630
is_linear=0
shrinkage=0.0672697


Tree=24
num_leaves=6
num_cat=0
split_feature=2 3 1 0 2
split_gain=14.7763 11.1603 11.1582 9.61852 3.34579
threshold=4.5000000000000009 6.2500000000000009 6.5000000000000009 2.5000000000000004 1.5000000000000002
decision_type=8 8 2 2 10
left_child=1 4 3 -2 -1
right_child=2 -3 -4 -5 -6
leaf_value=-0.03483079301076538 -0.0099200307491307278 0.071309049143263054 0.078896336852251545 0.0087399184882506909 -0.013164548289062597
leaf_weight=38.344501309096813 167.82492538914084 6.7158552370965472 9.1210943609476072 489.92764506489038 203.02345046401024
leaf_count=714 2836 60 46 4335 3045
internal_value=0 -0.0142266 0.00500353 0.00397885 -0.0166065
internal_weight=0 248.084 666.874 657.753 241.368
internal_count=11036 3819 7217 7171 3759
is_linear=0
shrinkage=0.0672697


Tree=25
num_leaves=8
num_cat=0
split_feature=2 0 1 1 0 3 2
split_gain=13.5334 10.1731 7.77761 3.78175 3.18242 2.86125 2.38204
threshold=6.5000000000000009 1.5000000000000002 5.5000000000000009 1.0000000180025095e-35 13.500000000000002 24.500000000000004 2.5000000000000004
decision_type=10 2 2 2 2 10 8
left_child=1 6 -3 4 -2 -5 -1
right_child=3 2 -4 5 -6 -7 -8
leaf_value=-0.043731182122596038 -0.0071896926792439668 -0.0025712193769768551 0.055495030893121793 0.016631367485382371 0.014763114785808775 0.041772324908291768 -0.019009439141998354
leaf_weight=22.515993680804968 50.824523944407701 566.16615571081638 10.634551048278807 82.254974044859409 72.521632522344589 27.278028964996338 81.395941469818354
leaf_count=515 561 7058 58 594 477 136 1637
internal_value=0 -0.00499111 -0.00150064 0.0137956 0.00571751 0.0228925 -0.0243662
internal_weight=0 680.713 576.801 232.879 123.346 109.533 103.912
internal_count=11036 9268 7116 1768 1038 730 2152
is_linear=0
shrinkage=0.0672697


Tree=26
num_leaves=8
num_cat=0
split_feature=3 2 1 4 0 3 0
split_gain=12.2212 10.8909 8.27565 3.15522 1.79546 2.82234 1.95973
threshold=0.75000000000000011 2.5000000000000004 2.5000000000000004 1.0000000180025095e-35 29.500000000000004 4.2500000000000009 43.500000000000007
decision_type=10 8 2 2 2 10 2
left_child=1 3 -3 -1 5 -2 -6
right_child=4 2 -4 -5 6 -7 -8
leaf_value=-0.019667794037654875 0.024099061192544888 -0.0035369515053372226 0.023533366231645529 -0.050323663600310896 0.043951354170703387 0.0044023007196168978 0.015148046756669455
leaf_weight=63.756327517330647 51.327953714877367 585.01279888302088 55.995368860661983 19.945953756570816 18.144342184066772 91.791515056043863 26.016213044524193
leaf_count=1010 556 7638 434 493 102 675 128
internal_value=0 -0.00415214 -0.00117222 -0.026973 0.015125 0.0114663 0.0269825
internal_weight=0 724.71 641.008 83.7023 187.28 143.119 44.1606
internal_count=11036 9575 8072 1503 1461 1231 230
is_linear=0
shrinkage=0.0672697


Tree=27
num_leaves=8
num_cat=0
split_feature=0 1 0 1 2 4 2
split_gain=11.0728 11.6416 6.44307 5.65634 2.51109 2.01339 1.7682
threshold=1.5000000000000002 1.0000000180025095e-35 11.500000000000002 6.5000000000000009 2.5000000000000004 1.0000000180025095e-35 6.5000000000000009
decision_type=2 2 2 2 8 2 10
left_child=4 2 -2 -3 5 -1 -6
right_child=1 3 -4 -5 6 -7 -8
leaf_value=-0.016521258591909747 -0.0083845807328397932 0.011871889549894165 0.0074487305767348853 0.061793060707089897 -0.018045066693748009 -0.058916712527016933 0.020486038849674162
leaf_weight=8.6236763894557953 360.23121408745646 261.44749153777957 171.75338108837605 10.690787948668001 80.015014618635178 12.297888305038214 5.7787264101207247
leaf_count=169 5080 2372 1293 52 1637 346 87
internal_value=0 0.00251634 -0.00327273 0.013833 -0.0205455 -0.0414417 -0.0154498
internal_weight=0 804.123 531.985 272.138 106.715 20.9216 85.7937
internal_count=11036 8797 6373 2424 2239 515 1724
is_linear=0
shrinkage=0.0672697


Tree=28
num_leaves=7
num_cat=0
split_feature=2 0 1 3 1 3
split_gain=10.3544 10.0141 8.06601 6.60543 6.30818 5.82792
threshold=5.5000000000000009 2.5000000000000004 4.5000000000000009 2.7500000000000004 1.0000000180025095e-35 13.500000000000002
decision_type=8 2 2 10 2 10
left_child=2 3 5 -2 -3 -1
right_child=1 4 -4 -5 -6 -7
leaf_value=-0.012731577653217791 -0.014269354714526039 0.0035118393555352311 0.068379071740040556 0.050343944660448781 0.019822386773846779 0.04314940543777538
leaf_weight=311.35201187804341 129.69645726308227 266.69953244924545 5.8670096844434729 7.5780487060546866 179.53304740041494 8.6809399798512441
leaf_count=4823 2304 2489 36 94 1223 67
internal_value=0 0.00518623 -0.00978289 -0.0107025 0.0100741 -0.0112158
internal_weight=0 583.507 325.9 137.275 446.233 320.033
internal_count=11036 6110 4926 2398 3712 4890
is_linear=0
shrinkage=0.0672697


Tree=29
num_leaves=7
num_cat=0
split_feature=2 3 1 0 0 2
split_gain=9.24383 8.72811 6.99817 5.75873 5.27 2.5863
threshold=4.5000000000000009 10.500000000000002 1.0000000180025095e-35 6.5000000000000009 18.500000000000004 1.5000000000000002
decision_type=8 8 2 2 2 10
left_child=1 5 4 -4 -2 -1
right_child=2 -3 3 -5 -6 -7
leaf_value=-0.030469888672331871 -0.0056559534403052515 0.074405974372837774 -0.00070459203311415105 0.020224280032711751 0.01249316519944743 -0.010535928569128796
leaf_weight=34.605228666216135 319.81944672763348 5.2256565764546385 93.642499309033155 163.14532947540283 93.585568256676197 197.82698559388518
leaf_count=714 4212 42 1366 1001 638 3063
internal_value=0 -0.0115708 0.00387025 0.0125922 -0.0015474 -0.0135038
internal_weight=0 237.658 670.193 256.788 413.405 232.432
internal_count=11036 3819 7217 2367 4850 3777
is_linear=0
shrinkage=0.0672697


Tree=30
num_leaves=8
num_cat=0
split_feature=0 1 3 2 1 4 2
split_gain=8.58655 8.1096 5.16385 2.25478 2.21811 2.03833 1.52102
threshold=1.5000000000000002 1.5000000000000002 0.75000000000000011 2.5000000000000004 5.5000000000000009 1.0000000180025095e-35 6.5000000000000009
decision_type=2 2 10 8 2 2 10
left_child=3 2 -2 5 -3 -1 -5
right_child=1 4 -4 6 -6 -7 -8
leaf_value=-0.013603580081485022 -0.0039748873600813058 0.013579422113770025 0.010629555724699789 -0.0161533841380825 0.038556733663005265 -0.057673634259751368 0.019452811896468747
leaf_weight=8.214339017868042 525.12157138437033 121.47342042997479 138.44082886725664 77.438906442373991 18.545394353568554 11.258623767644167 5.8383580818772307
leaf_count=169 6733 884 1091 1637 89 346 87
internal_value=0 0.00217633 -0.000927923 -0.0184759 0.0168876 -0.0390834 -0.0136571
internal_weight=0 803.581 663.562 102.75 140.019 19.473 83.2773
internal_count=11036 8797 7824 2239 973 515 1724
is_linear=0
shrinkage=0.0672697


Tree=31
num_leaves=6
num_cat=0
split_feature=2 3 1 4 2
split_gain=7.62071 7.43427 5.93643 5.98344 1.98854
threshold=4.5000000000000009 2.7500000000000004 6.5000000000000009 1.0000000180025095e-35 1.5000000000000002
decision_type=8 10 2 2 10
left_child=1 4 3 -2 -1
right_child=2 -3 -4 -5 -6
leaf_value=-0.028555647390383184 0.0061360263060182534 0.041606620823821175 0.05550504056977381 -0.0092642540218657709 -0.010698272640105155
leaf_weight=33.166636355221272 514.45715295150876 11.720741007477043 9.7835521101951581 146.72511025890708 189.15287851914763
leaf_count=714 4895 115 46 2276 2990
internal_value=0 -0.0106095 0.0034882 0.0027185 -0.0133623
internal_weight=0 234.04 670.966 661.182 222.32
internal_count=11036 3819 7217 7171 3704
is_linear=0
shrinkage=0.0672697


Tree=32
num_leaves=8
num_cat=0
split_feature=0 1 2 2 4 4 2
split_gain=7.04819 6.69598 4.41954 2.01334 2.02779 1.64441 1.34508
threshold=1.5000000000000002 1.5000000000000002 5.5000000000000009 2.5000000000000004 1.0000000180025095e-35 1.0000000180025095e-35 6.5000000000000009
decision_type=2 2 8 8 2 2 10
left_child=3 2 -2 4 -1 -3 -5
right_child=1 5 -4 6 -6 -7 -8
leaf_value=-0.011466004758688544 -0.0081083231356503822 0.018972218059179893 0.0032911028302395084 -0.014867807470749162 -0.056568864823864161 0.0011199930390084776 0.018489473954805116
leaf_weight=7.937138907611371 243.02678458765149 111.74658163636923 419.67585847526789 75.773911230266094 10.449229711666703 29.516028165817261 5.8958613052964202
leaf_count=169 3580 706 4244 1637 346 267 87
internal_value=0 0.0019451 -0.000889303 -0.0169874 -0.0370986 0.0152421 -0.0124597
internal_weight=0 803.965 662.703 100.056 18.3864 141.263 81.6698
internal_count=11036 8797 7824 2239 515 973 1724
is_linear=0
shrinkage=0.0672697


Tree=33
num_leaves=7
num_cat=0
split_feature=4 0 1 2 0 3
split_gain=6.2314 19.7624 6.76592 4.96318 4.62331 3.943
threshold=1.0000000180025095e-35 58.500000000000007 1.0000000180025095e-35 3.5000000000000004 11.500000000000002 24.500000000000004
decision_type=2 2 2 8 2 8
left_child=2 3 4 -2 -1 -4
right_child=1 -3 5 -5 -6 -7
leaf_value=-0.006363075843531206 -0.03947002167659145 0.11425663744859813 0.0072270723586111661 -0.0097236959722489646 0.00771034127627695 0.027664842369829822
leaf_weight=322.45950737595558 30.205554064363241 5.5550348162651053 171.74293979257345 158.95910634845495 157.09125626832247 56.858968157321215
leaf_count=4590 796 26 1519 2570 1168 367
internal_value=0 -0.0108011 0.00278695 -0.0144735 -0.00175291 0.0123105
internal_weight=0 194.72 708.153 189.165 479.551 228.602
internal_count=11036 3392 7644 3366 5758 1886
is_linear=0
shrinkage=0.0672697


Tree=34
num_leaves=5
num_cat=0
split_feature=1 4 0 2
split_gain=5.93224 5.6677 17.0145 5.23099
threshold=6.5000000000000009 1.0000000180025095e-35 58.500000000000007 5.5000000000000009
decision_type=2 2 2 8
left_child=1 3 -3 -1
right_child=-2 2 -4 -5
leaf_value=-0.0057956952142878791 0.047849812410010129 -0.014659007175088407 0.10289360227149821 0.0063478409606450084
leaf_weight=249.05861740931869 11.508112356066702 183.48513290472329 5.7462594807147971 451.55022070556879
leaf_count=3532 56 3347 26 4075
internal_value=0 -0.000759187 -0.0110894 0.00203095
internal_weight=0 889.84 189.231 700.609
internal_count=11036 10980 3373 7607
is_linear=0
shrinkage=0.0672697


Tree=35
num_leaves=5
num_cat=0
split_feature=1 2 0 4
split_gain=5.10563 5.18885 4.28091 1.70186
threshold=6.5000000000000009 1.5000000000000002 55.500000000000007 1.0000000180025095e-35
decision_type=2 8 2 2
left_child=1 3 -3 -1
right_child=-2 2 -4 -5
leaf_value=-0.018117630577431078 0.044153949465306985 -0.00067427476688931051 0.024262771008963815 -0.053535423592879064
leaf_weight=22.683378491550684 11.628020390868185 825.00166778638959 32.374328769743443 8.4175067860633153
leaf_count=425 56 10111 156 288
internal_value=0 -0.000711769 0.000267343 -0.0277035
internal_weight=0 888.477 857.376 31.1009
internal_count=11036 10980 10267 713
is_linear=0
shrinkage=0.0672697


Tree=36
num_leaves=7
num_cat=0
split_feature=3 0 4 3 0 0
split_gain=4.91032 6.00803 6.47336 2.15252 2.6723 1.95685
threshold=0.75000000000000011 75.500000000000014 1.0000000180025095e-35 4.2500000000000009 11.500000000000002 29.500000000000004
decision_type=10 2 2 10 2 2
left_child=1 2 -1 4 -2 -5
right_child=3 -3 -4 5 -6 -7
leaf_value=6.5276343528194352e-05 0.0091772540502548586 0.051144342643961657 -0.015430188675021555 -0.00056940423916448783 0.038710106357277327 0.017354747438121272
leaf_weight=538.61991472914815 37.913465816527605 9.244649834930895 157.72506389208138 95.112003035843372 21.858279064297676 38.809095695614815
leaf_count=6475 466 47 3053 675 127 193
internal_value=0 -0.00272929 -0.00344451 0.00936247 0.0199773 0.00462485
internal_weight=0 705.59 696.345 193.693 59.7717 133.921
internal_count=11036 9575 9528 1461 593 868
is_linear=0
shrinkage=0.0672697


Tree=37
num_leaves=7
num_cat=0
split_feature=1 2 0 4 0 4
split_gain=4.89688 5.02326 4.32348 4.5779 3.24219 0.769963
threshold=1.0000000180025095e-35 1.5000000000000002 71.500000000000014 1.0000000180025095e-35 11.500000000000002 1.0000000180025095e-35
decision_type=2 8 2 2 2 2
left_child=1 5 3 -2 -3 -1
right_child=2 4 -4 -5 -6 -7
leaf_value=-0.027559799065483313 0.010321204116982943 -0.0059242803923869004 0.056030901186076287 -0.008289505684874408 0.0051289395573720208 -0.056623574768510369
leaf_weight=18.456067085266117 225.51806695759296 385.42135572806001 7.8220214545726767 81.398948535323143 174.43889813870192 5.3120099101215592
leaf_count=356 1863 5992 34 1312 1282 197
internal_value=0 -0.00376625 0.00664403 0.00538537 -0.00248036 -0.0340554
internal_weight=0 583.628 314.739 306.917 559.86 23.7681
internal_count=11036 7827 3209 3175 7274 553
is_linear=0
shrinkage=0.0672697


Tree=38
num_leaves=5
num_cat=0
split_feature=1 2 4 2
split_gain=4.34778 4.13581 3.07221 2.92768
threshold=6.5000000000000009 2.5000000000000004 1.0000000180025095e-35 11.500000000000002
decision_type=2 8 2 10
left_child=1 2 -1 -3
right_child=-2 3 -4 -5
leaf_value=-0.0089458893766187764 0.040607804784729792 0.00018798462564194375 -0.042958514311693147 0.03017596846386774
leaf_weight=59.636835336685181 11.709919221699236 795.84070764482021 15.050112590193747 15.010047614574431
leaf_count=1029 56 9378 503 70
internal_value=0 -0.000652131 -0.0157997 0.000743107
internal_weight=0 885.538 74.6869 810.851
internal_count=11036 10980 1532 9448
is_linear=0
shrinkage=0.0672697


Tree=39
num_leaves=7
num_cat=0
split_feature=1 2 3 1 3 4
split_gain=4.13555 4.48748 2.7321 2.17023 2.22762 1.74929
threshold=1.5000000000000002 1.5000000000000002 0.75000000000000011 6.5000000000000009 46.500000000000007 1.0000000180025095e-35
decision_type=2 8 10 2 10 2
left_child=1 5 -3 4 -2 -1
right_child=3 2 -4 -5 -6 -7
leaf_value=-0.019307146941720237 0.0053760593029745099 -0.0033130566107820733 0.0069434602927260581 0.037586798655314946 0.039333383028971873 -0.058974509365574274
leaf_weight=20.741587728261951 134.87225000560284 564.70207796990871 148.41464029252529 11.796861641108988 9.3479371666908246 6.6416719891130915
leaf_count=410 1140 7912 1211 56 39 268
internal_value=0 -0.00220463 -0.00117846 0.00984619 0.00757708 -0.0289283
internal_weight=0 740.5 713.117 156.017 144.22 27.3833
internal_count=11036 9801 9123 1235 1179 678
is_linear=0
shrinkage=0.0672697


Tree=40
num_leaves=8
num_cat=0
split_feature=0 1 2 0 2 2 1
split_gain=3.76575 3.78982 2.96209 2.01955 1.63776 0.766302 0.632612
threshold=1.5000000000000002 1.0000000180025095e-35 7.5000000000000009 52.500000000000007 4.5000000000000009 2.5000000000000004 1.0000000180025095e-35
decision_type=2 2 8 2 10 8 2
left_child=4 2 -2 -3 5 -1 -6
right_child=1 3 -4 -5 6 -7 -8
leaf_value=-0.030854678054481919 -0.0066962832879750014 0.006296909065853013 0.0034867743754200598 0.03130164553937427 0.013134334578221269 -0.01402356661333787 -0.011244630212266838
leaf_weight=15.573029477149246 281.27999573759735 266.28890286386013 239.18377165868878 15.465593099594114 12.729406829923393 57.208744645118713 7.7486393563449374
leaf_count=515 3880 2354 2493 70 239 1351 134
internal_value=0 0.00138534 -0.00201657 0.00766943 -0.0128963 -0.0176249 0.00390964
internal_weight=0 802.218 520.464 281.754 93.2598 72.7818 20.478
internal_count=11036 8797 6373 2424 2239 1866 373
is_linear=0
shrinkage=0.0672697


Tree=41
num_leaves=7
num_cat=0
split_feature=4 0 1 2 3 2
split_gain=3.41112 11.6776 3.70424 3.67247 2.73687 2.33332
threshold=1.0000000180025095e-35 58.500000000000007 1.5000000000000002 3.5000000000000004 0.75000000000000011 1.5000000000000002
decision_type=2 2 2 8 8 10
left_child=2 3 4 -2 -1 -4
right_child=1 -3 5 -5 -6 -7
leaf_value=-0.003876446727808576 -0.03454039833857931 0.08403819512830063 0.032442547888650752 -0.0073196634812930173 0.0054403768418505192 0.0083352105068466974
leaf_weight=354.02312206849456 26.270683784037828 6.0081322044134131 22.556868243962526 153.34569834545255 238.99916709586978 93.383726246654987
leaf_count=4720 796 26 151 2570 2200 573
internal_value=0 -0.00821511 0.00202841 -0.011301 -0.000121591 0.0130254
internal_weight=0 185.625 708.963 179.616 593.022 115.941
internal_count=11036 3392 7644 3366 6920 724
is_linear=0
shrinkage=0.0672697


Tree=42
num_leaves=5
num_cat=0
split_feature=1 4 0 2
split_gain=3.08372 3.12643 10.2486 2.95639
threshold=6.5000000000000009 1.0000000180025095e-35 68.500000000000014 5.5000000000000009
decision_type=2 2 2 8
left_child=1 3 -3 -1
right_child=-2 2 -4 -5
leaf_value=-0.0044904291766573326 0.033962165273864579 -0.011208283143650398 0.084695315215101943 0.0046760140529995666
leaf_weight=244.43611946702003 11.872257106006144 175.24107209779322 5.1917637437582007 456.71195064485073
leaf_count=3532 56 3351 22 4075
internal_value=0 -0.00055181 -0.00844876 0.00148038
internal_weight=0 881.581 180.433 701.148
internal_count=11036 10980 3373 7607
is_linear=0
shrinkage=0.0672697


Tree=43
num_leaves=7
num_cat=0
split_feature=1 2 0 4 0 4
split_gain=2.98554 3.58675 2.69462 2.79521 2.22876 0.637063
threshold=1.0000000180025095e-35 1.5000000000000002 71.500000000000014 1.0000000180025095e-35 11.500000000000002 1.0000000180025095e-35
decision_type=2 8 2 2 2 2
left_child=1 5 3 -2 -3 -1
right_child=2 4 -4 -5 -6 -7
leaf_value=-0.02415553979321497 0.0079358509320156586 -0.0048231992893843856 0.043771841609847977 -0.0067177222461485154 0.0043492183752418213 -0.053159471121659703
leaf_weight=17.228923723101619 228.91966196894646 379.474903549999 7.9742798954248419 79.317002899944782 175.23232348263264 4.2778312452137461
leaf_count=356 1863 5992 34 1312 1282 197
internal_value=0 -0.00297067 0.00516393 0.00416512 -0.00192563 -0.0299246
internal_weight=0 576.214 316.211 308.237 554.707 21.5068
internal_count=11036 7827 3209 3175 7274 553
is_linear=0
shrinkage=0.0672697


Tree=44
num_leaves=6
num_cat=0
split_feature=1 2 0 0 0
split_gain=2.62903 2.575 3.49559 2.86717 1.45452
threshold=3.5000000000000004 5.5000000000000009 27.500000000000004 2.5000000000000004 8.5000000000000018
decision_type=2 8 2 2 2
left_child=1 2 -1 -3 -2
right_child=4 3 -4 -5 -6
leaf_value=-0.0051672094340654007 0.029151876614324699 -0.00726403693872973 -0.063827680500397152 0.0043523707462327808 0.0058962178753098511
leaf_weight=286.22994700074196 19.446867980062962 124.32378078252077 4.6719587445259085 424.28070955350995 32.525351226329803
leaf_count=4816 148 2337 43 3548 144
internal_value=0 -0.000993055 -0.00610931 0.00171988 0.014598
internal_weight=0 839.506 290.902 548.604 51.9722
internal_count=11036 10744 4859 5885 292
is_linear=0
shrinkage=0.0672697


Tree=45
num_leaves=5
num_cat=0
split_feature=1 2 4 1
split_gain=2.46447 2.44609 1.82685 1.3165
threshold=6.5000000000000009 1.5000000000000002 1.0000000180025095e-35 1.0000000180025095e-35
decision_type=2 8 2 2
left_child=1 3 -3 -1
right_child=-2 2 -4 -5
leaf_value=-0.028496287860394164 0.030220519782894299 0.0016992829608063764 -0.0060730691822580701 0.0072243951693066587
leaf_weight=20.8245361186564 11.983320213854311 680.68672580644488 171.28253432735801 6.0183117948472491
leaf_count=553 56 7182 3085 160
internal_value=0 -0.000493251 0.000136705 -0.0204875
internal_weight=0 878.812 851.969 26.8428
internal_count=11036 10980 10267 713
is_linear=0
shrinkage=0.0672697


Tree=46
num_leaves=7
num_cat=0
split_feature=1 2 0 4 0 4
split_gain=2.36139 2.8249 2.3259 2.22177 1.79684 0.640794
threshold=1.0000000180025095e-35 1.5000000000000002 71.500000000000014 1.0000000180025095e-35 11.500000000000002 1.0000000180025095e-35
decision_type=2 8 2 2 2 2
left_child=1 5 3 -2 -3 -1
right_child=2 4 -4 -5 -6 -7
leaf_value=-0.021437460634386778 0.0069861912328110362 -0.0043666174745950548 0.040354499848027851 -0.0061127527614692071 0.0038659719184431242 -0.051666085804594947
leaf_weight=16.353904098272327 230.41989647597075 377.06835590675473 8.0174626111984235 78.577699460089207 175.95361132919788 3.9373916015028945
leaf_count=356 1863 5992 34 1312 1282 197
internal_value=0 -0.00265177 0.00458329 0.00365515 -0.00174728 -0.0273031
internal_weight=0 573.313 317.015 308.998 553.022 20.2913
internal_count=11036 7827 3209 3175 7274 553
is_linear=0
shrinkage=0.0672697


Tree=47
num_leaves=5
num_cat=0
split_feature=1 0 2 2
split_gain=2.1047 2.00258 1.57433 1.5285
threshold=6.5000000000000009 1.5000000000000002 2.5000000000000004 5.5000000000000009
decision_type=2 2 8 8
left_child=1 2 -1 -3
right_child=-2 3 -4 -5
leaf_value=-0.030838986567832599 0.027878032946151279 -0.0036331997571297662 -0.006180411016300744 0.0026791732796840025
leaf_weight=13.916462210938333 12.026919580996035 257.73816417530179 74.117554105818272 531.66337759792805
leaf_count=514 56 3823 1721 4922
internal_value=0 -0.000455011 -0.0100785 0.000618195
internal_weight=0 877.436 88.034 789.402
internal_count=11036 10980 2235 8745
is_linear=0
shrinkage=0.0672697


Tree=48
num_leaves=7
num_cat=0
split_feature=1 2 0 4 0 4
split_gain=1.9809 2.39842 2.00301 1.8724 1.49275 0.608604
threshold=1.0000000180025095e-35 1.5000000000000002 71.500000000000014 1.0000000180025095e-35 11.500000000000002 1.0000000180025095e-35
decision_type=2 8 2 2 2 2
left_child=1 5 3 -2 -3 -1
right_child=2 4 -4 -5 -6 -7
leaf_value=-0.019888419141654172 0.0063695742434349972 -0.0040146483027697398 0.03732326612514443 -0.0056787059926531975 0.0034862975593804189 -0.050298496191681766
leaf_weight=15.887768011540176 231.39863628521562 375.25690651498735 8.0481711030006391 78.060126483440399 176.54015520960093 3.6651019100099793
leaf_count=356 1863 5992 34 1312 1282 197
internal_value=0 -0.00243526 0.00419208 0.00333043 -0.00161482 -0.0255887
internal_weight=0 571.35 317.507 309.459 551.797 19.5529
internal_count=11036 7827 3209 3175 7274 553
is_linear=0
shrinkage=0.0672697


Tree=49
num_leaves=7
num_cat=0
split_feature=3 0 4 3 0 0
split_gain=1.83081 3.12897 3.03413 2.40716 2.25436 1.4881
threshold=0.75000000000000011 75.500000000000014 1.0000000180025095e-35 4.2500000000000009 8.5000000000000018 11.500000000000002
decision_type=10 2 2 10 2 2
left_child=1 2 -1 5 -5 -2
right_child=3 -3 -4 4 -6 -7
leaf_value=0.00010805137242009163 0.0086418963040367468 0.036017308542892999 -0.010827784353105059 0.020923682852913364 -0.003013483803848607 0.030395825219543086
leaf_weight=535.2397034727037 37.95785797201097 9.8146529570221883 146.15722299367189 21.063311547040939 115.05537404119968 22.763185046613216
leaf_count=6475 466 47 3053 217 651 127
internal_value=0 -0.00169446 -0.00223765 0.00565911 0.000690607 0.016797
internal_weight=0 691.212 681.397 196.84 136.119 60.721
internal_count=11036 9575 9528 1461 868 593
is_linear=0
shrinkage=0.0672697


Tree=50
num_leaves=5
num_cat=0
split_feature=1 2 4 0
split_gain=1.81941 6.5418 2.21514 1.35354
threshold=3.5000000000000004 12.500000000000002 1.0000000180025095e-35 8.5000000000000018
decision_type=2 10 2 2
left_child=1 2 -1 -2
right_child=3 -3 -4 -5
leaf_value=0.00036753770387648892 0.025954879824405898 0.068700053643539122 -0.0084376867954317741 0.0036651159906892338
leaf_weight=668.86120134219527 19.825692031532526 6.0797307342290869 160.26758416369557 32.599259853363037
leaf_count=7444 148 26 3274 144
internal_value=0 -0.000824678 -0.00133448 0.0120945
internal_weight=0 835.209 829.129 52.425
internal_count=11036 10744 10718 292
is_linear=0
shrinkage=0.0672697


Tree=51
num_leaves=5
num_cat=0
split_feature=1 2 4 3
split_gain=1.70287 1.52941 2.0806 1.31286
threshold=6.5000000000000009 2.5000000000000004 1.0000000180025095e-35 98.500000000000014
decision_type=2 8 2 10
left_child=1 2 -1 -3
right_child=-2 3 -4 -5
leaf_value=-0.0046622070672213091 0.025005130264306629 8.9188283103169868e-05 -0.035590814637972118 0.023271010236706441
leaf_weight=56.010472342371941 12.099721848964689 795.76216334104538 11.940851565450428 11.210780829191206
leaf_count=1029 56 9393 503 55
internal_value=0 -0.000404902 -0.0100972 0.000411239
internal_weight=0 874.924 67.9513 806.973
internal_count=11036 10980 1532 9448
is_linear=0
shrinkage=0.0672697


Tree=52
num_leaves=8
num_cat=0
split_feature=1 2 3 3 3 4 3
split_gain=1.61449 2.02481 1.62258 2.14732 1.2384 0.525809 0.506137
threshold=1.0000000180025095e-35 1.5000000000000002 24.500000000000004 10.500000000000002 1.2500000000000002 1.0000000180025095e-35 48.500000000000007
decision_type=2 8 10 10 10 2 10
left_child=1 5 3 -2 -3 -1 -4
right_child=2 4 6 -5 -6 -7 -8
leaf_value=-0.018688890969827135 0.0036215436407132408 -0.0029243804026739917 0.026528415850009996 -0.021100468135517737 0.0054848051180399083 -0.048207612016403743 0.0098212297628007747
leaf_weight=15.545599032193424 267.85388767533004 454.1014913842082 15.96976402401924 16.902168408036232 96.00308053381741 3.3125530676916233 16.876878514885902
leaf_count=356 2952 6493 79 100 781 197 78
internal_value=0 -0.00219984 0.00378714 0.00215413 -0.00145683 -0.023874 0.0179441
internal_weight=0 568.963 317.603 284.756 550.105 18.8582 32.8466
internal_count=11036 7827 3209 3052 7274 553 157
is_linear=0
shrinkage=0.0672697


Tree=53
num_leaves=5
num_cat=0
split_feature=1 3 0 3
split_gain=1.44916 1.2504 2.66837 1.90299
threshold=6.5000000000000009 0.75000000000000011 75.500000000000014 4.2500000000000009
decision_type=2 10 2 10
left_child=1 2 -1 -3
right_child=-2 3 -4 -5
leaf_value=-0.0022453848527580053 0.023036878664304948 0.014294550993845192 0.032879209012190304 -9.1072554219868537e-05
leaf_weight=669.95176450815052 12.132377266883848 60.440546521916986 9.9323718249797803 133.57632188498974
leaf_count=9489 56 589 47 855
internal_value=0 -0.000372955 -0.00173225 0.00439037
internal_weight=0 873.901 679.884 194.017
internal_count=11036 10980 9536 1444
is_linear=0
shrinkage=0.0672697


Tree=54
num_leaves=8
num_cat=0
split_feature=1 2 4 3 4 0 2
split_gain=1.38319 1.78041 1.4972 1.23853 3.12693 2.47783 1.17538
threshold=1.5000000000000002 1.5000000000000002 1.0000000180025095e-35 112.50000000000001 1.0000000180025095e-35 14.500000000000002 7.5000000000000009
decision_type=2 8 2 8 2 2 8
left_child=1 2 -1 5 -5 -2 -3
right_child=3 6 -4 4 -6 -7 -8
leaf_value=-0.01109686969275746 0.016788330415501904 -0.003362904256810329 -0.054001669480655094 0.018685621737575417 -0.022215805241482086 -0.0025942701970322877 0.002134412129169109
leaf_weight=18.063801016658548 72.600141678005457 362.32550000585616 4.6222877064719787 14.294287610799072 20.716792654246092 50.680905871093273 342.24857641756535
leaf_count=410 646 5218 268 81 266 242 3905
internal_value=0 -0.00128981 -0.0198387 0.00564913 -0.00551661 0.00882013 -0.000692569
internal_weight=0 727.26 22.6861 158.292 35.0111 123.281 704.574
internal_count=11036 9801 678 1235 347 888 9123
is_linear=0
shrinkage=0.0672697


Tree=55
num_leaves=5
num_cat=0
split_feature=1 0 2 1
split_gain=1.24458 1.23409 1.36662 1.02814
threshold=7.5000000000000009 1.5000000000000002 4.5000000000000009 1.5000000000000002
decision_type=2 2 10 2
left_child=1 2 -1 -3
right_child=-2 3 -4 -5
leaf_value=-0.012647339346747629 0.025242521074944888 -0.0005855851390027633 0.0076110714827898468 0.0058051118033846331
leaf_weight=65.598176464438438 8.7187572345137578 653.29549103789032 19.562381714582443 137.97827873751521
leaf_count=1864 39 7824 373 936
internal_value=0 -0.000299318 -0.00799374 0.000528792
internal_weight=0 876.434 85.1606 791.274
internal_count=11036 10997 2237 8760
is_linear=0
shrinkage=0.0672697


Tree=56
num_leaves=8
num_cat=0
split_feature=1 2 3 2 3 4 3
split_gain=1.13254 1.60779 1.39494 1.92233 1.28832 0.45615 0.434391
threshold=1.0000000180025095e-35 1.5000000000000002 24.500000000000004 9.5000000000000018 25.500000000000004 1.0000000180025095e-35 48.500000000000007
decision_type=2 8 10 10 10 2 10
left_child=1 5 3 -2 -3 -1 -4
right_child=2 4 6 -5 -6 -7 -8
leaf_value=-0.016869071380751496 0.0030916953658248524 -0.00034199567078865281 0.024178105350735828 -0.019490269206461974 -0.013590044036061871 -0.045722757177454026 0.0087322345585801129
leaf_weight=15.050711147487165 267.35031596943736 512.55167488753796 16.078750550746918 18.221231736242771 35.518820628523827 2.9683786192908874 16.899159699678421
leaf_count=356 2955 7063 79 97 211 197 78
internal_value=0 -0.0018506 0.00316356 0.00165083 -0.00120056 -0.0216223 0.016263
internal_weight=0 566.09 318.549 285.572 548.07 18.0191 32.9779
internal_count=11036 7827 3209 3052 7274 553 157
is_linear=0
shrinkage=0.0672697


Tree=57
num_leaves=5
num_cat=0
split_feature=1 0 2 2
split_gain=1.07684 1.06601 1.18589 0.985107
threshold=7.5000000000000009 1.5000000000000002 4.5000000000000009 7.5000000000000009
decision_type=2 2 10 8
left_child=1 2 -1 -3
right_child=-2 3 -4 -5
leaf_value=-0.011859102690762144 0.023467530754396008 -0.001864041384631733 0.0069867532031208969 0.0028832879731481693
leaf_weight=64.74653139244765 8.7290247082710248 398.95700864307582 19.708998456597328 392.29362570866942
leaf_count=1864 39 5154 373 3606
internal_value=0 -0.00027716 -0.00746113 0.000489634
internal_weight=0 875.706 84.4555 791.251
internal_count=11036 10997 2237 8760
is_linear=0
shrinkage=0.0672697


Tree=58
num_leaves=7
num_cat=0
split_feature=3 0 4 3 0 0
split_gain=0.989972 2.22217 2.13325 1.94852 2.02748 1.31816
threshold=0.75000000000000011 75.500000000000014 1.0000000180025095e-35 4.2500000000000009 8.5000000000000018 24.500000000000004
decision_type=10 2 2 10 2 2
left_child=1 2 -1 5 -5 -2
right_child=3 -3 -4 4 -6 -7
leaf_value=0.00023154205074569321 0.018392865752205726 0.030149796248541128 -0.0090461839581103855 0.018637999297332005 -0.0038888997377398622 -0.0080375432037521274
leaf_weight=533.4695898219943 51.766178132966161 10.048498079180716 142.00186268426478 21.450974255800247 115.0421729311347 10.225524485111235
leaf_count=6475 542 47 3053 217 651 51
internal_value=0 -0.00125174 -0.00171888 0.00414317 -0.00034862 0.0140332
internal_weight=0 685.52 675.471 198.485 136.493 61.9917
internal_count=11036 9575 9528 1461 868 593
is_linear=0
shrinkage=0.0672697


Tree=59
num_leaves=7
num_cat=0
split_feature=1 2 0 0 3 4
split_gain=0.976704 1.38138 1.26207 1.90818 1.10541 0.419629
threshold=1.0000000180025095e-35 1.5000000000000002 71.500000000000014 42.500000000000007 25.500000000000004 1.0000000180025095e-35
decision_type=2 8 2 2 10 2
left_child=1 5 3 -2 -3 -1
right_child=2 4 -4 -5 -6 -7
leaf_value=-0.015771112774077705 0.0035702243991305592 -0.00033037204827724879 0.029142043773567466 -0.018869170495296961 -0.012650150860214147 -0.04421444220950578
leaf_weight=14.765865206718447 292.4781928230077 512.26448979414999 8.1059723943471891 18.216980442404747 35.22396070510149 2.7907820586115113
leaf_count=356 3083 7063 34 92 211 197
internal_value=0 -0.00171861 0.00293819 0.00225454 -0.00112299 -0.0202924
internal_weight=0 565.045 318.801 310.695 547.488 17.5566
internal_count=11036 7827 3209 3175 7274 553
is_linear=0
shrinkage=0.0672697


Tree=60
num_leaves=4
num_cat=0
split_feature=1 3 3
split_gain=0.946349 1.24092 1.68057
threshold=6.5000000000000009 98.500000000000014 67.500000000000014
decision_type=2 10 10
left_child=1 2 -1
right_child=-2 -3 -4
leaf_value=-0.00025627695238357559 0.018578764880961392 0.021920402042175297 -0.027296590621956635
leaf_weight=849.76269431039691 12.187106326222418 11.229323431849478 10.529784284532068
leaf_count=10869 56 55 56
internal_value=0 -0.000297239 -0.000587244
internal_weight=0 871.522 860.292
internal_count=11036 10980 10925
is_linear=0
shrinkage=0.0672697


Tree=61
num_leaves=7
num_cat=0
split_feature=3 0 4 3 0 0
split_gain=0.900364 1.82388 1.88592 1.60731 1.69659 1.40303
threshold=0.75000000000000011 75.500000000000014 1.0000000180025095e-35 4.2500000000000009 8.5000000000000018 11.500000000000002
decision_type=10 2 2 10 2 2
left_child=1 2 -1 5 -5 -2
right_child=3 -3 -4 4 -6 -7
leaf_value=0.00020994194760944008 0.0051133234798293294 0.027098401035710491 -0.0085393922028508679 0.017071902966852539 -0.0034210127445085461 0.025936897148420693
leaf_weight=533.46543116122484 39.322503698989749 10.159064784646032 140.93704073131084 21.752904079854488 114.55027923732996 23.328183904290199
leaf_count=6475 466 47 3053 217 651 127
internal_value=0 -0.00119233 -0.0016185 0.00394873 -0.000150506 0.012867
internal_weight=0 684.562 674.402 198.954 136.303 62.6507
internal_count=11036 9575 9528 1461 868 593
is_linear=0
shrinkage=0.0672697


Tree=62
num_leaves=8
num_cat=0
split_feature=2 0 2 0 0 3 2
split_gain=0.908981 2.56741 9.24544 2.52221 1.93 1.85743 1.69145
threshold=7.5000000000000009 2.5000000000000004 8.5000000000000018 21.500000000000004 18.500000000000004 0.75000000000000011 12.500000000000002
decision_type=8 2 8 2 2 10 8
left_child=3 2 -2 4 -1 -5 -3
right_child=1 6 -4 5 -6 -7 -8
leaf_value=-0.0015031551358228659 0.069204539244118651 -0.000245709783038812 -0.013502244844921496 -0.029225119577204486 0.02330882272907556 0.0018608776809235336 0.0092446369107819695
leaf_weight=394.11885341163725 6.5773593857884398 158.00159154459834 87.239819679409266 25.42297051846981 14.716099023818968 13.221555590629576 183.89099422097206
leaf_count=6033 85 967 1825 206 117 77 1726
internal_value=0 0.0021538 -0.00770382 -0.00216276 -0.000610043 -0.0185896 0.00485879
internal_weight=0 435.71 93.8172 447.479 408.835 38.6445 341.893
internal_count=11036 4603 1910 6433 6150 283 2693
is_linear=0
shrinkage=0.0672697


Tree=63
num_leaves=5
num_cat=0
split_feature=1 2 0 4
split_gain=0.864126 5.17429 1.21177 1.19214
threshold=3.5000000000000004 12.500000000000002 8.5000000000000018 1.0000000180025095e-35
decision_type=2 10 2 2
left_child=1 3 -2 -1
right_child=2 -3 -4 -5
leaf_value=0.00021079858440986089 0.021163161906035594 0.06125460174639704 0.00025579940374069856 -0.0063337292754591951
leaf_weight=668.65593092143536 20.378738313913345 6.0818250477313986 32.632366180419922 155.18452561553568
leaf_count=7444 148 26 144 3274
internal_value=0 -0.000565601 0.00829309 -0.00102198
internal_weight=0 829.922 53.0111 823.84
internal_count=11036 10744 292 10718
is_linear=0
shrinkage=0.0672697


Tree=64
num_leaves=6
num_cat=0
split_feature=2 3 0 1 3
split_gain=0.806491 8.19096 1.82275 1.15795 0.784128
threshold=3.5000000000000004 2.7500000000000004 5.5000000000000009 7.5000000000000009 4.2500000000000009
decision_type=8 10 2 2 8
left_child=1 2 -1 4 -2
right_child=3 -3 -4 -5 -6
leaf_value=-0.00222905831679308 0.0024261309789125104 0.083260976658247166 -0.019178235872592524 0.026648459487086631 -0.0019947828509413409
leaf_weight=83.083484632894397 427.61882642656565 4.603076107800006 43.874669132754207 7.7730411365628234 315.50456080958247
leaf_count=1981 5120 49 619 34 3233
internal_value=0 -0.00489035 -0.00808642 0.000819335 0.000549163
internal_weight=0 131.561 126.958 750.896 743.123
internal_count=11036 2649 2600 8387 8353
is_linear=0
shrinkage=0.0672697


Tree=65
num_leaves=8
num_cat=0
split_feature=1 3 3 2 0 4 3
split_gain=0.778049 1.25284 1.87601 1.16616 0.985239 0.386034 0.372954
threshold=1.0000000180025095e-35 24.500000000000004 10.500000000000002 1.5000000000000002 11.500000000000002 1.0000000180025095e-35 48.500000000000007
decision_type=2 10 10 8 2 2 10
left_child=3 2 -2 5 -5 -1 -3
right_child=1 6 -4 4 -6 -7 -8
leaf_value=-0.014536276701614635 0.0025521923962358397 0.022342482264300727 -0.020633596702844929 -0.0029676538433997071 0.0031402192272366809 -0.042591851459753388 0.0080329847341528635
leaf_weight=14.459956150501968 269.14300146140158 16.14627131819725 16.776089414954185 369.67260879650712 176.60100159421563 2.6217397432774296 16.837176576256752
leaf_count=356 2952 79 100 5992 1282 197 78
internal_value=0 0.00262386 0.00119178 -0.00153429 -0.000993082 -0.0188423 0.0150379
internal_weight=0 318.903 285.919 563.355 546.274 17.0817 32.9834
internal_count=11036 3209 3052 7827 7274 553 157
is_linear=0
shrinkage=0.0672697


Tree=66
num_leaves=8
num_cat=0
split_feature=2 0 0 2 3 0 2
split_gain=0.724371 2.31172 2.0976 7.66455 1.65276 1.6002 1.48741
threshold=7.5000000000000009 21.500000000000004 2.5000000000000004 8.5000000000000018 0.75000000000000011 18.500000000000004 12.500000000000002
decision_type=8 2 2 8 10 2 8
left_child=1 5 3 -2 -3 -1 -4
right_child=2 4 6 -5 -6 -7 -8
leaf_value=-0.0012759341133207747 0.060848133522329088 -0.027945007867049322 -0.00044220474130408189 -0.012550415317620332 0.0014503840775024527 0.02113276358199484 0.0084446443766109207
leaf_weight=392.73696917202324 6.9596309028565875 24.970388825982809 158.10004884749651 85.893620043992996 13.247368305921553 14.970109865069388 184.89958099275827
leaf_count=6033 85 206 967 1825 77 117 1726
internal_value=0 -0.00193605 0.00192032 -0.00704897 -0.0177557 -0.000453136 0.0043484
internal_weight=0 445.925 435.853 92.8533 38.2178 407.707 343
internal_count=11036 6433 4603 1910 283 6150 2693
is_linear=0
shrinkage=0.0672697


Tree=67
num_leaves=8
num_cat=0
split_feature=1 0 0 2 2 3 4
split_gain=0.679177 1.15958 3.59723 3.33501 1.02574 1.03466 0.363414
threshold=1.0000000180025095e-35 14.500000000000002 16.500000000000004 5.5000000000000009 1.5000000000000002 25.500000000000004 1.0000000180025095e-35
decision_type=2 2 2 10 8 10 2
left_child=4 3 -3 -2 6 -6 -1
right_child=1 2 -4 -5 5 -7 -8
leaf_value=-0.013669432463553038 -0.00057653879842918814 -0.033767406986463841 0.0016707567518511066 0.017547405991415129 -0.00016645369087031904 -0.012124371051896662 -0.041421935591432223
leaf_weight=14.251174189150335 138.77580608800054 14.967023111879824 96.745106510818005 68.682880908250809 510.61742091923952 34.987158663570881 2.5114698158577076
leaf_count=356 2023 87 523 576 7063 211 197
internal_value=0 0.00244833 -0.0030772 0.00542371 -0.00143683 -0.000933261 -0.0178275
internal_weight=0 319.171 111.712 207.459 562.367 545.605 16.7626
internal_count=11036 3209 610 2599 7827 7274 553
is_linear=0
shrinkage=0.0672697


Tree=68
num_leaves=4
num_cat=0
split_feature=1 3 3
split_gain=0.668385 1.02017 1.44083
threshold=6.5000000000000009 98.500000000000014 67.500000000000014
decision_type=2 10 10
left_child=1 2 -1
right_child=-2 -3 -4
leaf_value=-0.0002079621727898193 0.015603702807360391 0.019865321298963869 -0.025437955769478129
leaf_weight=847.62806735746562 12.204622030258177 11.262778371572493 10.368045799434183
leaf_count=10869 56 55 56
internal_value=0 -0.000248807 -0.000512842
internal_weight=0 869.259 857.996
internal_count=11036 10980 10925
is_linear=0
shrinkage=0.0672697


Tree=69
num_leaves=4
num_cat=0
split_feature=0 0 3
split_gain=0.658313 1.65384 1.35791
threshold=102.50000000000001 75.500000000000014 98.500000000000014
decision_type=2 2 10
left_child=1 2 -1
right_child=-2 -3 -4
leaf_value=-0.00049078126070812688 -0.020756161446693233 0.024820709427144368 0.02527385212921425
leaf_weight=852.94444082770497 6.8790068179368964 12.111642286181448 9.3583916872739774
leaf_count=10905 31 53 47
internal_value=0 0.000135557 -0.000211163
internal_weight=0 874.414 862.303
internal_count=11036 11005 10952
is_linear=0
shrinkage=0.0672697


Tree=70
num_leaves=7
num_cat=0
split_feature=2 3 3 0 2 2
split_gain=0.623507 2.08423 4.11288 1.82985 6.33173 1.32886
threshold=7.5000000000000009 19.500000000000004 11.250000000000002 2.5000000000000004 8.5000000000000018 12.500000000000002
decision_type=8 10 10 2 8 8
left_child=1 2 -1 4 -2 -5
right_child=3 -3 -4 5 -6 -7
leaf_value=-0.0017113754927961116 0.053301788816740067 -0.021633852480796398 0.044123916260558831 -0.00049517089911155308 -0.01181435963398085 0.0078965901798723169
leaf_weight=413.24515523109585 7.3418615385889998 22.743735380470753 9.0530652329325658 158.03156740218401 84.894784107804298 185.76941729336977
leaf_count=6219 85 146 68 967 1825 1726
internal_value=0 -0.00179712 -0.000728776 0.00178207 -0.00663124 0.00403923
internal_weight=0 445.042 422.298 436.038 92.2366 343.801
internal_count=11036 6433 6287 4603 1910 2693
is_linear=0
shrinkage=0.0672697


Tree=71
num_leaves=5
num_cat=0
split_feature=1 3 0 3
split_gain=0.593902 0.609388 1.48254 1.31058
threshold=7.5000000000000009 0.75000000000000011 75.500000000000014 4.2500000000000009
decision_type=2 10 2 10
left_child=1 2 -1 -3
right_child=-2 3 -4 -5
leaf_value=-0.0015512050051988062 0.017420831384806296 0.011122628037007126 0.024240665010424222 -0.0006626700476647134
leaf_weight=665.30792002473027 8.7414400652050954 62.687607407569885 10.240332469344137 133.91269286349416
leaf_count=9503 39 590 47 857
internal_value=0 -0.000200981 -0.00116024 0.00309517
internal_weight=0 872.149 675.548 196.6
internal_count=11036 10997 9550 1447
is_linear=0
shrinkage=0.0672697


Tree=72
num_leaves=4
num_cat=0
split_feature=0 0 3
split_gain=0.64391 1.30712 1.19821
threshold=102.50000000000001 75.500000000000014 98.500000000000014
decision_type=2 2 10
left_child=1 2 -1
right_child=-2 -3 -4
leaf_value=-0.00043649892136580739 -0.020517445782391917 0.022002313308881902 0.023697780041976795
leaf_weight=852.06850831583142 6.8842044621706 12.199105679988859 9.4117914885282499
leaf_count=10905 31 53 47
internal_value=0 0.000136801 -0.000172829
internal_weight=0 873.679 861.48
internal_count=11036 11005 10952
is_linear=0
shrinkage=0.0672697


Tree=73
num_leaves=4
num_cat=0
split_feature=0 0 3
split_gain=0.56272 1.13309 1.03486
threshold=102.50000000000001 75.500000000000014 98.500000000000014
decision_type=2 2 10
left_child=1 2 -1
right_child=-2 -3 -4
leaf_value=-0.00040727074996585254 -0.019221310383054552 0.020450640498064131 0.02194463765405584
leaf_weight=851.79588380921632 6.8551334440708152 12.240302190184591 9.4775874316692335
leaf_count=10905 31 53 47
internal_value=0 0.000127523 -0.000161307
internal_weight=0 873.514 861.273
internal_count=11036 11005 10952
is_linear=0
shrinkage=0.0672697


Tree=74
num_leaves=4
num_cat=0
split_feature=3 3 1
split_gain=0.602344 0.896952 1.72263
threshold=112.50000000000001 46.500000000000007 6.5000000000000009
decision_type=10 10 2
left_child=1 2 -1
right_child=-2 -3 -4
leaf_value=-0.00060677200586275461 -0.017894131695301126 0.011727857913929128 0.025730792363449172
leaf_weight=831.06838772073388 8.4513288885354978 29.270932018756866 11.391805402934549
leaf_count=10789 40 155 52
internal_value=0 0.000151579 -0.000250634
internal_weight=0 871.731 842.46
internal_count=11036 10996 10841
is_linear=0
shrinkage=0.0672697


Tree=75
num_leaves=4
num_cat=0
split_feature=3 0 4
split_gain=0.526667 0.830103 0.9622
threshold=112.50000000000001 75.500000000000014 1.0000000180025095e-35
decision_type=10 2 2
left_child=1 2 -1
right_child=-2 -3 -4
leaf_value=0.00095650133289673167 -0.016772277842976576 0.014894337978655954 -0.0047520837298076499
leaf_weight=688.80888263881207 8.4114964306354505 16.923600248992443 165.76738038659096
leaf_count=7547 40 75 3374
internal_value=0 0.000141333 -0.000150828
internal_weight=0 871.5 854.576
internal_count=11036 10996 10921
is_linear=0
shrinkage=0.0672697


Tree=76
num_leaves=8
num_cat=0
split_feature=1 0 0 4 0 4 2
split_gain=0.534093 1.16555 3.09318 2.78039 1.15208 2.74893 1.14863
threshold=1.0000000180025095e-35 14.500000000000002 16.500000000000004 1.0000000180025095e-35 1.0000000180025095e-35 1.0000000180025095e-35 1.5000000000000002
decision_type=2 2 2 2 2 2 8
left_child=4 3 -3 -2 5 -1 -6
right_child=1 2 -4 -5 6 -7 -8
leaf_value=-0.018616246236828147 0.010332341627662247 -0.032088491293784986 0.0010026515438864602 -0.0065549896425119037 -0.021805713301472088 0.057308101465564469 -0.0011852447236250572
leaf_weight=3.9367829374968988 143.97209096699953 14.729557760059832 96.706209436058998 63.61184355802834 12.507598105818031 4.7757863458245993 539.49924672394991
leaf_count=113 1355 87 523 1244 364 207 7143
internal_value=0 0.00217826 -0.00337133 0.0051574 -0.00126939 0.0230016 -0.00165247
internal_weight=0 319.02 111.436 207.584 560.719 8.71257 552.007
internal_count=11036 3209 610 2599 7827 320 7507
is_linear=0
shrinkage=0.0672697


Tree=77
num_leaves=8
num_cat=0
split_feature=2 0 3 0 3 0 2
split_gain=0.520543 2.09507 1.5021 1.47478 6.86834 1.39803 1.29044
threshold=7.5000000000000009 21.500000000000004 0.75000000000000011 2.5000000000000004 1.7500000000000002 18.500000000000004 12.500000000000002
decision_type=8 2 10 2 10 2 8
left_child=1 5 -3 4 -2 -1 -5
right_child=3 2 -4 6 -6 -7 -8
leaf_value=-0.00101008741680166 -0.0098234534676663755 -0.026688546812353667 0.0014735762901686583 -0.00082323814928401593 0.082367535927162797 0.01982945144703897 0.007439255702622616
leaf_weight=391.08919341769069 87.478609777987003 24.459846690297127 13.193336009979246 158.10873088240623 3.8164410591125479 15.130885772407053 186.35625462979078
leaf_count=6033 1872 206 77 967 38 117 1726
internal_value=0 -0.0016409 -0.0168208 0.00163209 -0.00596956 -0.000233856 0.00364679
internal_weight=0 443.873 37.6532 435.76 91.2951 406.22 344.465
internal_count=11036 6433 283 4603 1910 6150 2693
is_linear=0
shrinkage=0.0672697


Tree=78
num_leaves=4
num_cat=0
split_feature=0 0 3
split_gain=0.512937 0.910645 0.615702
threshold=102.50000000000001 85.500000000000014 98.500000000000014
decision_type=2 2 10
left_child=1 2 -1
right_child=-2 -3 -4
leaf_value=-0.00026981593361841317 -0.018377653149815286 0.023991038743570708 0.016384400613957305
leaf_weight=855.25989785790443 6.8341669887304297 7.1745165139436713 10.164638817310331
leaf_count=10924 31 31 50
internal_value=0 0.000123657 -7.42078e-05
internal_weight=0 872.599 865.425
internal_count=11036 11005 10974
is_linear=0
shrinkage=0.0672697


Tree=79
num_leaves=4
num_cat=0
split_feature=3 3 1
split_gain=0.521348 2.47014 1.49022
threshold=67.500000000000014 48.500000000000007 6.5000000000000009
decision_type=10 10 2
left_child=1 2 -1
right_child=-2 -3 -4
leaf_value=-0.00053923154855917209 -0.010157221018422308 0.028969287035955263 0.023948443627610855
leaf_weight=832.19528553262353 22.368546739220619 13.337443038821219 11.399919457733629
leaf_count=10800 114 70 52
internal_value=0 0.000245808 -0.000208317
internal_weight=0 856.933 843.595
internal_count=11036 10922 10852
is_linear=0
shrinkage=0.0672697


Tree=80
num_leaves=4
num_cat=0
split_feature=3 3 1
split_gain=0.468514 0.830059 0.967122
threshold=112.50000000000001 76.500000000000014 6.5000000000000009
decision_type=10 10 2
left_child=1 2 -1
right_child=-2 -3 -4
leaf_value=-0.00034689239867162871 -0.015845901375402153 0.020144476315009371 0.01902700886762641
leaf_weight=849.56330419052392 8.3818681538104993 9.2812075316905958 11.821903392672537
leaf_count=10893 40 49 54
internal_value=0 0.000134602 -8.09993e-05
internal_weight=0 870.666 861.385
internal_count=11036 10996 10947
is_linear=0
shrinkage=0.0672697


Tree=81
num_leaves=4
num_cat=0
split_feature=3 3 1
split_gain=0.471512 2.12646 1.14905
threshold=67.500000000000014 48.500000000000007 6.5000000000000009
decision_type=10 10 2
left_child=1 2 -1
right_child=-2 -3 -4
leaf_value=-0.00047995707735579732 -0.0096694407998554784 0.026754386950213389 0.020991991644278101
leaf_weight=831.64936095383018 22.318000249564648 13.467325672507284 11.433120630681513
leaf_count=10800 114 70 52
internal_value=0 0.000234847 -0.000188774
internal_weight=0 856.55 843.082
internal_count=11036 10922 10852
is_linear=0
shrinkage=0.0672697


Tree=82
num_leaves=6
num_cat=0
split_feature=2 3 3 1 1
split_gain=0.433286 2.05164 3.47423 1.50545 2.95144
threshold=7.5000000000000009 19.500000000000004 11.250000000000002 4.5000000000000009 3.5000000000000004
decision_type=8 10 10 2 2
left_child=1 2 -1 4 -2
right_child=3 -3 -4 -5 -6
leaf_value=-0.0013565881961959598 0.0013506676411507547 -0.021262932955735302 0.040236283654466611 -0.017372788635200743 0.035362066137479164
leaf_weight=411.00362167321146 405.56067098304629 22.554284997284412 9.2933035567402822 18.340484518557787 11.884109877049921
leaf_count=6219 4435 146 68 95 73
internal_value=0 -0.00149758 -0.000436917 0.00149018 0.00231893
internal_weight=0 442.851 420.297 435.785 417.445
internal_count=11036 6433 6287 4603 4508
is_linear=0
shrinkage=0.0672697


Tree=83
num_leaves=4
num_cat=0
split_feature=0 0 3
split_gain=0.43273 0.789986 1.07675
threshold=102.50000000000001 75.500000000000014 98.500000000000014
decision_type=2 2 10
left_child=1 2 -1
right_child=-2 -3 -4
leaf_value=-0.0003766747361787837 -0.016922980829691094 0.017049381017012626 0.022474811317136544
leaf_weight=850.13416908495128 6.797141805291175 12.291883543133734 9.4344387054443342
leaf_count=10905 31 53 47
internal_value=0 0.000116283 -0.000125862
internal_weight=0 871.86 859.569
internal_count=11036 11005 10952
is_linear=0
shrinkage=0.0672697


Tree=84
num_leaves=4
num_cat=0
split_feature=3 3 1
split_gain=0.461317 1.85667 1.07884
threshold=67.500000000000014 48.500000000000007 6.5000000000000009
decision_type=10 10 2
left_child=1 2 -1
right_child=-2 -3 -4
leaf_value=-0.00044594876634683565 -0.0095698576101378979 0.024915899157478934 0.020346433526012404
leaf_weight=831.17952269967645 22.283965639770031 13.573117613792418 11.447914771735666
leaf_count=10800 114 70 52
internal_value=0 0.000234112 -0.000163464
internal_weight=0 856.201 842.627
internal_count=11036 10922 10852
is_linear=0
shrinkage=0.0672697


Tree=85
num_leaves=4
num_cat=0
split_feature=3 3 3
split_gain=0.402644 1.6012 1.07491
threshold=67.500000000000014 48.500000000000007 30.500000000000004
decision_type=10 10 10
left_child=1 2 -1
right_child=-2 -3 -4
leaf_value=0.00026122705083986601 -0.0089549875787276433 0.02304460208677505 -0.014108600495616895
leaf_weight=818.11062093544751 22.214563593268394 13.68405172228813 24.25463955104351
leaf_count=10713 114 70 139
internal_value=0 0.000218278 -0.000152531
internal_weight=0 856.049 842.365
internal_count=11036 10922 10852
is_linear=0
shrinkage=0.0672697


Tree=86
num_leaves=8
num_cat=0
split_feature=2 4 0 3 0 0 0
split_gain=0.401595 1.82634 0.58427 0.519774 2.23087 1.52089 0.435049
threshold=2.5000000000000004 1.0000000180025095e-35 1.0000000180025095e-35 4.2500000000000009 3.5000000000000004 33.500000000000007 3.5000000000000004
decision_type=8 2 2 8 2 2 2
left_child=1 6 -3 5 -5 -2 -1
right_child=3 2 -4 4 -6 -7 -8
leaf_value=0.0056378036475053786 0.0028006655141236828 0.0028209936284845864 -0.038523558205876419 -0.011396515609539465 0.0015304654644650072 -0.011656167571097387 -0.0065160326494995233
leaf_weight=28.043437223881483 457.82518822699785 1.8917439216747869 8.4809397468343359 80.673892360180616 240.52249377220869 35.482085876166821 25.397716954350471
leaf_count=608 6015 139 365 1535 1739 212 423
internal_value=0 -0.00515199 -0.0309832 0.000389612 -0.00171636 0.00176083 -0.000138263
internal_weight=0 63.8138 10.3727 814.504 321.196 493.307 53.4412
internal_count=11036 1535 504 9501 3274 6227 1031
is_linear=0
shrinkage=0.0672697


Tree=87
num_leaves=7
num_cat=0
split_feature=2 0 0 3 1 1
split_gain=0.405111 1.88311 6.9305 2.06142 1.39855 2.52938
threshold=7.5000000000000009 12.500000000000002 11.500000000000002 17.500000000000004 4.5000000000000009 3.5000000000000004
decision_type=8 2 2 10 2 2
left_child=1 2 -1 -3 5 -2
right_child=4 3 -4 -5 -6 -7
leaf_value=-0.0008249524900249438 0.0013377504424412058 -0.004884289140147941 0.052773382169668218 -0.029437418064326638 -0.01677690770323224 0.032627094134044764
leaf_weight=329.50359074398875 405.39567120745778 82.70246734842658 11.29102250933647 19.035059928894043 18.265439003705978 12.038386851549147
leaf_count=5540 4435 682 92 119 95 73
internal_value=0 -0.00144678 0.000950838 -0.00947817 0.00144287 0.0022401
internal_weight=0 442.532 340.795 101.738 435.699 417.434
internal_count=11036 6433 5632 801 4603 4508
is_linear=0
shrinkage=0.0672697


Tree=88
num_leaves=8
num_cat=0
split_feature=1 0 0 2 0 4 2
split_gain=0.387288 0.999174 2.73899 2.56353 0.998938 2.294 0.977793
threshold=1.0000000180025095e-35 14.500000000000002 16.500000000000004 5.5000000000000009 1.0000000180025095e-35 1.0000000180025095e-35 1.5000000000000002
decision_type=2 2 2 10 2 2 8
left_child=4 3 -3 -2 5 -1 -6
right_child=1 2 -4 -5 6 -7 -8
leaf_value=-0.017615912495412295 -0.00070073363168589818 -0.030539641080711798 0.00080017226499149135 0.015109927595916121 -0.020311668840197212 0.051371958662035776 -0.0010158759899950799
leaf_weight=3.8653839565813524 138.28328287228942 14.517083346843718 96.532918304204941 69.845883086323738 12.152320914901791 5.0058726761490107 538.09957933984697
leaf_count=113 2023 87 523 576 364 207 7143
internal_value=0 0.00185589 -0.00329675 0.00460515 -0.00108099 0.0213126 -0.00144202
internal_weight=0 319.179 111.05 208.129 559.123 8.87126 550.252
internal_count=11036 3209 610 2599 7827 320 7507
is_linear=0
shrinkage=0.0672697


Tree=89
num_leaves=7
num_cat=0
split_feature=2 0 0 0 0 0
split_gain=0.360632 5.63099 2.71809 2.60506 1.63267 1.46415
threshold=12.500000000000002 26.500000000000004 35.500000000000007 29.500000000000004 2.5000000000000004 62.500000000000007
decision_type=8 2 2 2 2 2
left_child=2 4 3 -1 -2 -4
right_child=1 -3 5 -5 -6 -7
leaf_value=-0.00032744600444852782 -0.0091396737201458154 0.030999194695525974 -0.022726976512341165 0.025872517452528769 0.0026625256921081852 0.00036724217697045038
leaf_weight=537.90238707792014 79.355296861380339 27.29363726824522 37.346697822213173 17.739680953323841 159.95487692207098 18.614630453288555
leaf_count=7107 1783 154 227 109 1572 84
internal_value=0 0.00205055 -0.000914163 0.000509026 -0.00125109 -0.0150451
internal_weight=0 266.604 611.603 555.642 239.31 55.9613
internal_count=11036 3509 7527 7216 3355 311
is_linear=0
shrinkage=0.0672697


Tree=90
num_leaves=4
num_cat=0
split_feature=0 2 0
split_gain=0.392983 0.706401 1.25038
threshold=102.50000000000001 11.500000000000002 35.500000000000007
decision_type=2 10 2
left_child=1 2 -1
right_child=-2 -3 -4
leaf_value=0.00056784548182105764 -0.016166843060109772 0.015144527636135425 -0.00954982943141971
leaf_weight=797.80275314114988 6.7636191174387923 13.917821332812307 59.388224393129349
leaf_count=10596 31 65 344
internal_value=0 0.000110962 -0.000133131
internal_weight=0 871.109 857.191
internal_count=11036 11005 10940
is_linear=0
shrinkage=0.0672697


Tree=91
num_leaves=7
num_cat=0
split_feature=3 3 0 0 0 2
split_gain=0.355244 1.22501 1.36795 1.31603 1.12439 1.55447
threshold=0.75000000000000011 4.2500000000000009 11.500000000000002 8.5000000000000018 75.500000000000014 9.5000000000000018
decision_type=10 10 2 2 2 10
left_child=4 2 -2 -3 5 -1
right_child=1 3 -4 -5 -6 -7
leaf_value=-0.00061716416318849821 0.0026102209195030734 0.013800513556970883 0.02297893658379558 -0.0040572806063633804 0.021315168867979295 -0.023408059828466932
leaf_weight=653.60697458032519 40.286196276545525 22.336115244776011 23.696817748248577 113.91541530191898 10.292733915150164 13.828994687646626
leaf_count=9435 466 217 127 651 47 93
internal_value=0 0.00247583 0.010154 -0.0011298 -0.000749122 -0.00108938
internal_weight=0 200.235 63.983 136.252 677.729 667.436
internal_count=11036 1461 593 868 9575 9528
is_linear=0
shrinkage=0.0672697


Tree=92
num_leaves=4
num_cat=0
split_feature=0 2 0
split_gain=0.381991 0.620272 1.09456
threshold=102.50000000000001 11.500000000000002 35.500000000000007
decision_type=2 10 2
left_child=1 2 -1
right_child=-2 -3 -4
leaf_value=0.00053561149192204137 -0.015933195322619369 0.014187606428180255 -0.0089526921855579318
leaf_weight=798.06121066771448 6.7678229808807364 13.937431797385214 59.090937241911888
leaf_count=10596 31 65 344
internal_value=0 0.000110398 -0.0001185
internal_weight=0 871.09 857.152
internal_count=11036 11005 10940
is_linear=0
shrinkage=0.0672697


Tree=93
num_leaves=7
num_cat=0
split_feature=2 0 3 0 1 1
split_gain=0.370658 1.58042 1.49087 1.31588 1.25543 2.14725
threshold=7.5000000000000009 21.500000000000004 0.75000000000000011 18.500000000000004 4.5000000000000009 3.5000000000000004
decision_type=8 2 10 2 2 2
left_child=1 3 -3 -1 5 -2
right_child=4 2 -4 -5 -6 -7
leaf_value=-0.00093111562965080116 0.0012974509913639667 -0.02475553878519287 0.0036135411093983008 0.01923070694467386 -0.015914955942338681 0.029956603333445467
leaf_weight=390.3077090177685 405.31249726191163 23.765635646879673 12.950963549315928 15.219740666449068 18.199549045413733 12.185941703617571
leaf_count=6033 4435 206 77 117 95 73
internal_value=0 -0.00138446 -0.014749 -0.000174428 0.00138003 0.00213395
internal_weight=0 442.244 36.7166 405.527 435.698 417.498
internal_count=11036 6433 283 6150 4603 4508
is_linear=0
shrinkage=0.0672697


Tree=94
num_leaves=7
num_cat=0
split_feature=0 2 0 2 2 0
split_gain=0.346449 3.9062 4.16573 3.0633 1.75957 0.318835
threshold=29.500000000000004 12.500000000000002 35.500000000000007 9.5000000000000018 7.5000000000000009 17.500000000000004
decision_type=2 8 2 10 10 2
left_child=3 2 -2 4 -1 -5
right_child=1 -3 -4 5 -6 -7
leaf_value=-0.00082692928231096205 0.0241717525180556 0.027119304491272488 -0.013178798203147896 -0.014364956656583588 0.0094102152069122178 -0.028559116950422975
leaf_weight=666.04836098104715 17.908608868718147 24.322387620806694 55.046423889696598 13.298219978809358 85.761082410812378 15.517459124326704
leaf_count=9674 109 133 311 92 632 85
internal_value=0 0.00377316 -0.00401019 -0.000484148 0.000340851 -0.0220086
internal_weight=0 97.2774 72.955 780.625 751.809 28.8157
internal_count=11036 553 420 10483 10306 177
is_linear=0
shrinkage=0.0672697


Tree=95
num_leaves=4
num_cat=0
split_feature=0 0 3
split_gain=0.33783 0.63294 1.1999
threshold=102.50000000000001 75.500000000000014 98.500000000000014
decision_type=2 2 10
left_child=1 2 -1
right_child=-2 -3 -4
leaf_value=-0.00037696740016279149 -0.01502642220892756 0.015283261979373646 0.023860045283028531
leaf_weight=849.46895831823349 6.7299766764044753 12.254918321967123 9.3449845612049085
leaf_count=10905 31 53 47
internal_value=0 0.000103373 -0.000113238
internal_weight=0 871.069 858.814
internal_count=11036 11005 10952
is_linear=0
shrinkage=0.0672697


Tree=96
num_leaves=4
num_cat=0
split_feature=3 3 3
split_gain=0.374706 0.895636 1.02408
threshold=112.50000000000001 76.500000000000014 56.500000000000007
decision_type=10 10 10
left_child=1 2 -1
right_child=-2 -3 -4
leaf_value=0.00018173269194854335 -0.014239455517642396 0.021065100283717511 -0.019309617185803159
leaf_weight=847.80877015274018 8.2973760068416578 9.144819647073744 12.376048140227793
leaf_count=10882 40 49 65
internal_value=0 0.000123928 -9.87023e-05
internal_weight=0 869.33 860.185
internal_count=11036 10996 10947
is_linear=0
shrinkage=0.0672697


Tree=97
num_leaves=4
num_cat=0
split_feature=3 3 3
split_gain=0.327379 0.77344 0.897707
threshold=112.50000000000001 76.500000000000014 56.500000000000007
decision_type=10 10 10
left_child=1 2 -1
right_child=-2 -3 -4
leaf_value=0.00016948446752561549 -0.013337000055973615 0.019507933574053463 -0.01814359724347947
leaf_weight=847.92084595188498 8.2640860825777036 9.2082004249095899 12.288501448929308
leaf_count=10882 40 49 65
internal_value=0 0.000115462 -9.21267e-05
internal_weight=0 869.418 860.209
internal_count=11036 10996 10947
is_linear=0
shrinkage=0.0672697


Tree=98
num_leaves=8
num_cat=0
split_feature=1 3 3 0 4 3 3
split_gain=0.328052 1.02729 1.79825 0.873067 1.91188 0.96019 0.610809
threshold=1.0000000180025095e-35 24.500000000000004 10.500000000000002 1.0000000180025095e-35 1.0000000180025095e-35 1.2500000000000002 48.500000000000007
decision_type=2 10 10 2 2 10 10
left_child=3 2 -2 4 -1 -5 -3
right_child=1 6 -4 5 -6 -7 -8
leaf_value=-0.016584993979335615 0.0017463583110233906 0.022382815765143886 -0.020940932282161186 -0.0026336963447131751 0.046147651423850952 0.0047557255275510815 0.0040396023340134061
leaf_weight=3.7942110896110517 269.70693089440465 16.009200245141983 16.794138014316559 452.78449881076813 5.2270491952076554 96.541274260729551 16.872371584177017
leaf_count=113 2952 79 100 6731 207 776 78
internal_value=0 0.00170895 0.000416473 -0.000994156 0.0197632 -0.00133504 0.0129704
internal_weight=0 319.383 286.501 558.347 9.02126 549.326 32.8816
internal_count=11036 3209 3052 7827 320 7507 157
is_linear=0
shrinkage=0.0672697


Tree=99
num_leaves=4
num_cat=0
split_feature=3 3 1
split_gain=0.345518 1.58722 1.06333
threshold=67.500000000000014 48.500000000000007 6.5000000000000009
decision_type=10 10 2
left_child=1 2 -1
right_child=-2 -3 -4
leaf_value=-0.000446060450036686 -0.008331197521461841 0.022964901152913907 0.020202044494498052
leaf_weight=830.35985505394638 22.017755381762981 13.642553776502607 11.441716410219668
leaf_count=10800 114 70 52
internal_value=0 0.000203468 -0.000165413
internal_weight=0 855.444 841.802
internal_count=11036 10922 10852
is_linear=0
shrinkage=0.0672697


Tree=100
num_leaves=7
num_cat=0
split_feature=4 0 0 0 0 3
split_gain=0.336517 4.7713 3.18034 1.25082 1.03158 1.01381
threshold=1.0000000180025095e-35 58.500000000000007 35.500000000000007 47.500000000000007 39.500000000000007 0.75000000000000011
decision_type=2 2 2 2 2 10
left_child=3 2 -2 4 -1 -5
right_child=1 -3 -4 5 -6 -7
leaf_value=0.00087774244978511772 -0.0032558120152164135 0.0563339459760797 -0.059245918931518593 -0.0010548326164138769 0.017823213186170039 -0.023275835522781688
leaf_weight=654.89733979105949 157.60281908884645 5.9727041572332373 4.728549435734748 20.059849135577679 16.670621670782566 17.307387843728065
leaf_count=7351 3332 26 34 114 100 79
internal_value=0 -0.00271417 -0.00488675 0.000631865 0.00129839 -0.0113469
internal_weight=0 168.304 162.331 708.935 671.568 37.3672
internal_count=11036 3392 3366 7644 7451 193
is_linear=0
shrinkage=0.0672697


Tree=101
num_leaves=4
num_cat=0
split_feature=0 0 3
split_gain=0.317691 1.07044 1.10977
threshold=90.500000000000014 75.500000000000014 98.500000000000014
decision_type=2 2 10
left_child=1 2 -1
right_child=-2 -3 -4
leaf_value=-0.00035580890028187747 -0.011595597807967813 0.024116450040654984 0.02291897666496891
leaf_weight=848.82483099028468 10.581240765750406 8.3391440361738187 9.372840151190756
leaf_count=10905 48 36 47
internal_value=0 0.000131451 -0.000101612
internal_weight=0 866.537 858.198
internal_count=11036 10988 10952
is_linear=0
shrinkage=0.0672697


Tree=102
num_leaves=4
num_cat=0
split_feature=3 3 3
split_gain=0.333734 1.34966 0.984181
threshold=67.500000000000014 48.500000000000007 30.500000000000004
decision_type=10 10 10
left_child=1 2 -1
right_child=-2 -3 -4
leaf_value=0.00025413781634868422 -0.0081894012247821727 0.021133845910342765 -0.01356633126670222
leaf_weight=817.23685455415398 22.003925651311874 13.714764088392256 24.001526646316051
leaf_count=10713 114 70 139
internal_value=0 0.000201092 -0.000140177
internal_weight=0 854.953 841.238
internal_count=11036 10922 10852
is_linear=0
shrinkage=0.0672697


Tree=103
num_leaves=7
num_cat=0
split_feature=4 0 0 0 0 3
split_gain=0.297138 4.0841 2.87659 1.13083 1.04642 0.785503
threshold=1.0000000180025095e-35 58.500000000000007 35.500000000000007 46.500000000000007 39.500000000000007 1.7500000000000002
decision_type=2 2 2 2 2 10
left_child=3 2 -2 4 -1 -5
right_child=1 -3 -4 5 -6 -7
leaf_value=0.00083589543769195681 -0.003042766549760129 0.052129470201663107 -0.057236031687494963 -0.0016730304007720714 0.018701242955180226 -0.020832065129418504
leaf_weight=655.20155557617545 157.16100986488163 5.9604278057813636 4.5608982108533374 20.898097008466721 15.179934851825235 18.045478671789169
leaf_count=7351 3332 26 34 119 90 84
internal_value=0 -0.00255565 -0.00457113 0.000593065 0.00124043 -0.0105508
internal_weight=0 167.682 161.722 709.325 670.381 38.9436
internal_count=11036 3392 3366 7644 7441 203
is_linear=0
shrinkage=0.0672697


Tree=104
num_leaves=7
num_cat=0
split_feature=2 3 0 3 2 0
split_gain=0.297053 6.58541 1.73491 0.926693 1.8006 1.41447
threshold=3.5000000000000004 2.2500000000000004 5.5000000000000009 4.2500000000000009 7.5000000000000009 21.500000000000004
decision_type=8 8 2 8 8 2
left_child=1 2 -1 5 -5 -2
right_child=3 -3 -4 4 -6 -7
leaf_value=-0.00025912306976430863 0.0042048787757214372 0.073744658966447468 -0.017071568240457424 -0.014509041826816779 -0.00016097369627724497 -0.0063426356391902894
leaf_weight=80.819459569640458 363.00191282480955 4.8668656460940829 42.318523581139743 46.344003293663263 271.15219800546765 68.371745951473713
leaf_count=1981 4688 49 619 355 2895 449
internal_value=0 -0.00300364 -0.00603701 0.00050298 -0.00225532 0.00253312
internal_weight=0 128.005 123.138 748.87 317.496 431.374
internal_count=11036 2649 2600 8387 3250 5137
is_linear=0
shrinkage=0.0672697


Tree=105
num_leaves=7
num_cat=0
split_feature=0 2 0 2 1 0
split_gain=0.30275 3.24083 3.53519 2.76672 1.48069 0.285821
threshold=29.500000000000004 12.500000000000002 35.500000000000007 9.5000000000000018 6.5000000000000009 17.500000000000004
decision_type=2 8 2 10 2 2
left_child=3 2 -2 4 -1 -5
right_child=1 -3 -4 5 -6 -7
leaf_value=-8.574229367906766e-06 0.022192387423755188 0.024734325154680822 -0.012138194270277266 -0.013757856929760207 0.026661812442600085 -0.027258688673704842
leaf_weight=741.92846229206771 18.070029892027378 24.417731612920761 54.546013154089451 13.212872538715603 9.5409985855221731 15.327733144164084
leaf_count=10262 109 133 311 92 44 85
internal_value=0 0.00353365 -0.00359525 -0.000450732 0.000330045 -0.0210085
internal_weight=0 97.0338 72.616 780.01 751.469 28.5406
internal_count=11036 553 420 10483 10306 177
is_linear=0
shrinkage=0.0672697


Tree=106
num_leaves=7
num_cat=0
split_feature=3 3 3 0 0 2
split_gain=0.316639 0.949749 1.27733 1.21982 0.945214 1.11839
threshold=0.75000000000000011 4.2500000000000009 11.250000000000002 11.500000000000002 75.500000000000014 9.5000000000000018
decision_type=10 10 10 2 2 10
left_child=4 3 -3 -2 5 -1
right_child=1 2 -4 -5 -6 -7
leaf_value=-0.00062288669406075094 0.0019531801370447953 -0.011778818708002662 0.0030445428224493941 0.021101195629831954 0.019551278901216201 -0.020268816881039906
leaf_weight=653.03879920952022 40.561313442885876 35.69339133054018 100.01736952364445 23.941778883337975 10.265888825058935 13.381182156503199
leaf_count=9435 466 285 583 127 47 93
internal_value=0 0.00234002 -0.000854161 0.0090604 -0.000705318 -0.00101736
internal_weight=0 200.214 135.711 64.5031 676.686 666.42
internal_count=11036 1461 868 593 9575 9528
is_linear=0
shrinkage=0.0672697


Tree=107
num_leaves=4
num_cat=0
split_feature=0 0 3
split_gain=0.322977 0.858873 1.07094
threshold=90.500000000000014 75.500000000000014 98.500000000000014
decision_type=2 2 10
left_child=1 2 -1
right_child=-2 -3 -4
leaf_value=-0.00032598562048916346 -0.011706293184142192 0.02163517714973506 0.022523204642292047
leaf_weight=848.35999364964664 10.554532952606676 8.3252359926700574 9.3851046264171583
leaf_count=10905 48 36 47
internal_value=0 0.000132723 -7.59789e-05
internal_weight=0 866.07 857.745
internal_count=11036 10988 10952
is_linear=0
shrinkage=0.0672697


end of trees

feature_importances:
hospital_stay=174
antiarritmico=128
classe_meds_qtde=120
admission_pre_t0_count=99
procedure_type_1_X2=58

parameters:
[boosting: gbdt]
[objective: binary]
[metric: binary_logloss]
[tree_learner: serial]
[device_type: cpu]
[data: ]
[valid: ]
[num_iterations: 108]
[learning_rate: 0.0672697]
[num_leaves: 8]
[num_threads: 0]
[deterministic: 1]
[force_col_wise: 0]
[force_row_wise: 0]
[histogram_pool_size: -1]
[max_depth: 3]
[min_data_in_leaf: 78]
[min_sum_hessian_in_leaf: 0.001]
[bagging_fraction: 1]
[pos_bagging_fraction: 1]
[neg_bagging_fraction: 1]
[bagging_freq: 0]
[bagging_seed: 5998]
[feature_fraction: 1]
[feature_fraction_bynode: 1]
[feature_fraction_seed: 17835]
[extra_trees: 0]
[extra_seed: 27361]
[early_stopping_round: 0]
[first_metric_only: 0]
[max_delta_step: 0]
[lambda_l1: 0]
[lambda_l2: 0]
[linear_lambda: 0]
[min_gain_to_split: 0]
[drop_rate: 0.1]
[max_drop: 50]
[skip_drop: 0.5]
[xgboost_dart_mode: 0]
[uniform_drop: 0]
[drop_seed: 19093]
[top_rate: 0.2]
[other_rate: 0.1]
[min_data_per_group: 100]
[max_cat_threshold: 32]
[cat_l2: 10]
[cat_smooth: 10]
[max_cat_to_onehot: 4]
[top_k: 20]
[monotone_constraints: ]
[monotone_constraints_method: basic]
[monotone_penalty: 0]
[feature_contri: ]
[forcedsplits_filename: ]
[refit_decay_rate: 0.9]
[cegb_tradeoff: 1]
[cegb_penalty_split: 0]
[cegb_penalty_feature_lazy: ]
[cegb_penalty_feature_coupled: ]
[path_smooth: 0]
[interaction_constraints: ]
[verbosity: -1]
[saved_feature_importance_type: 0]
[linear_tree: 0]
[max_bin: 255]
[max_bin_by_feature: ]
[min_data_in_bin: 3]
[bin_construct_sample_cnt: 200000]
[data_random_seed: 27390]
[is_enable_sparse: 1]
[enable_bundle: 1]
[use_missing: 1]
[zero_as_missing: 0]
[feature_pre_filter: 0]
[pre_partition: 0]
[two_round: 0]
[header: 0]
[label_column: ]
[weight_column: ]
[group_column: ]
[ignore_column: ]
[categorical_feature: ]
[forcedbins_filename: ]
[precise_float_parser: 0]
[objective_seed: 7413]
[num_class: 1]
[is_unbalance: 0]
[scale_pos_weight: 1]
[sigmoid: 1]
[boost_from_average: 1]
[reg_sqrt: 0]
[alpha: 0.9]
[fair_c: 1]
[poisson_max_delta_step: 0.7]
[tweedie_variance_power: 1.5]
[lambdarank_truncation_level: 30]
[lambdarank_norm: 1]
[label_gain: ]
[eval_at: ]
[multi_error_top_k: 1]
[auc_mu_weights: ]
[num_machines: 1]
[local_listen_port: 12400]
[time_out: 120]
[machine_list_filename: ]
[machines: ]
[gpu_platform_id: -1]
[gpu_device_id: -1]
[gpu_use_dp: 0]
[num_gpu: 1]

end of parameters
